{
  "layers": [
    {
      "name": "0",
      "kind": "Linear",
      "inputSize": 15,
      "outputSize": 64,
      "hasBiases": true,
      "weights": [
        [
          0.11547371000051498,
          0.079658642411232,
          0.10114406049251556,
          -0.17506375908851624,
          0.01934175193309784,
          -0.14710885286331177,
          -0.2762332558631897,
          0.28395169973373413,
          -0.1488533467054367,
          0.05018112435936928,
          0.06928025186061859,
          0.09570589661598206,
          -0.0702701136469841,
          0.06797906756401062,
          0.022007757797837257
        ],
        [
          -0.17810645699501038,
          -0.03781735897064209,
          -0.03345842659473419,
          0.17285627126693726,
          -0.24571460485458374,
          0.08081045746803284,
          -0.25576454401016235,
          -0.13993415236473083,
          0.03586876392364502,
          -0.23571255803108215,
          -0.1108100563287735,
          -0.20221629738807678,
          0.09684687852859497,
          0.08789539337158203,
          0.21935495734214783
        ],
        [
          0.02931627631187439,
          -0.03007042594254017,
          0.023901240900158882,
          -0.05771036073565483,
          -0.05739198997616768,
          -0.0624476782977581,
          0.17215579748153687,
          -0.08263600617647171,
          -0.08714982867240906,
          -0.06606516987085342,
          -0.11313557624816895,
          -0.21581418812274933,
          -0.11381684243679047,
          0.16168351471424103,
          -0.18714362382888794
        ],
        [
          -0.05930420383810997,
          -0.06148151680827141,
          -0.1864500492811203,
          0.2262747883796692,
          -0.1510101854801178,
          -0.05041578784584999,
          -0.07916492223739624,
          0.10455915331840515,
          -0.0014080825494602323,
          -0.13237264752388,
          -0.01902313344180584,
          0.18942825496196747,
          -0.24365855753421783,
          -0.20607508718967438,
          0.048137564212083817
        ],
        [
          -0.4217512011528015,
          -0.1022779569029808,
          0.09040556102991104,
          -0.17869098484516144,
          0.030916588380932808,
          -0.21935701370239258,
          -0.20742011070251465,
          0.10684636235237122,
          0.14349240064620972,
          0.0026902733370661736,
          -0.28935298323631287,
          -0.05213341489434242,
          0.0433989055454731,
          -0.03299368917942047,
          -0.13399042189121246
        ],
        [
          -0.013194965198636055,
          0.4210897982120514,
          0.12360919266939163,
          0.10666986554861069,
          -0.005781044717878103,
          0.09000349044799805,
          0.0873350277543068,
          -0.048411376774311066,
          -0.30667123198509216,
          0.19539499282836914,
          -0.12703342735767365,
          -0.04715660214424133,
          0.12612642347812653,
          -0.17574305832386017,
          0.06409706920385361
        ],
        [
          -0.0309425238519907,
          -0.3996421992778778,
          -0.17310063540935516,
          0.2768052816390991,
          -0.020797157660126686,
          0.09028847515583038,
          0.2912309765815735,
          -0.14819346368312836,
          -0.051146529614925385,
          -0.3347194790840149,
          0.1783398538827896,
          -0.23848755657672882,
          -0.2273421734571457,
          0.14612673223018646,
          -0.19915516674518585
        ],
        [
          -0.055007025599479675,
          -0.2528417408466339,
          -0.16302315890789032,
          0.09026972204446793,
          0.1665739119052887,
          0.21910497546195984,
          -0.23211976885795593,
          -0.2750452756881714,
          0.24411949515342712,
          0.004924532491713762,
          0.20422518253326416,
          -0.041087765246629715,
          -0.19493965804576874,
          0.025440126657485962,
          -0.15033510327339172
        ],
        [
          0.621609628200531,
          0.11014430969953537,
          0.16977377235889435,
          -0.26653504371643066,
          0.04648516699671745,
          -0.07220080494880676,
          -0.3015053868293762,
          -0.12173215299844742,
          0.002907858695834875,
          0.040166519582271576,
          -0.289844810962677,
          0.07064185291528702,
          -0.20922891795635223,
          -0.1527424305677414,
          0.21841993927955627
        ],
        [
          -0.04866388067603111,
          0.007369147147983313,
          0.024316562339663506,
          -0.05168404430150986,
          0.10729062557220459,
          -0.026396241039037704,
          0.14632439613342285,
          0.17123165726661682,
          -0.10743104666471481,
          0.19993796944618225,
          0.06622818857431412,
          0.0999293401837349,
          -0.2701823115348816,
          0.13430042564868927,
          -0.20608370006084442
        ],
        [
          -0.0007212316850200295,
          -0.25110378861427307,
          0.10190289467573166,
          -0.15418270230293274,
          0.054941773414611816,
          -0.19029280543327332,
          0.10452072322368622,
          0.09227663278579712,
          -0.27576547861099243,
          0.0027949013747274876,
          0.15616865456104279,
          -0.16396693885326385,
          0.19532513618469238,
          -0.29635438323020935,
          -0.00808423850685358
        ],
        [
          0.15958601236343384,
          0.2855031192302704,
          0.09852199256420135,
          0.17435811460018158,
          -0.13828667998313904,
          -0.20217563211917877,
          -0.09935414046049118,
          0.20352819561958313,
          -0.3331497609615326,
          -0.3150474727153778,
          -0.1242038682103157,
          -0.17837323248386383,
          0.09837169945240021,
          0.12784428894519806,
          0.2746044397354126
        ],
        [
          -0.5380793809890747,
          0.6209479570388794,
          0.06302693486213684,
          0.11800127476453781,
          0.06377442926168442,
          -0.013226566836237907,
          0.22121131420135498,
          -0.19974273443222046,
          0.010914675891399384,
          0.10172560065984726,
          -0.005995201878249645,
          -0.14774073660373688,
          -0.14851903915405273,
          0.03943794220685959,
          -0.19940002262592316
        ],
        [
          0.09087499231100082,
          -1.0945219993591309,
          -0.1222982183098793,
          0.08054795116186142,
          -0.0451483316719532,
          -0.4241493046283722,
          -0.12936098873615265,
          0.0998677983880043,
          -0.07663409411907196,
          0.1975126564502716,
          0.20105654001235962,
          0.12118910253047943,
          -0.032289810478687286,
          0.07633611559867859,
          0.13341012597084045
        ],
        [
          0.18519577383995056,
          0.2363823652267456,
          -0.19292974472045898,
          0.23446142673492432,
          -0.1589912474155426,
          0.03932860493659973,
          -0.21740293502807617,
          -0.19634515047073364,
          0.14744451642036438,
          0.05822250247001648,
          -0.15310798585414886,
          0.01606765389442444,
          -0.16870169341564178,
          -0.06546787917613983,
          0.16277289390563965
        ],
        [
          0.15482097864151,
          0.034615036100149155,
          -0.17357902228832245,
          0.1280972808599472,
          -0.014996719546616077,
          -0.1825418472290039,
          0.01612042635679245,
          0.1130923181772232,
          0.2030356526374817,
          0.0804157704114914,
          0.2273648977279663,
          0.02126474864780903,
          -0.22357749938964844,
          -0.09246952831745148,
          -0.1400107592344284
        ],
        [
          1.196930170059204,
          0.17824725806713104,
          0.21636390686035156,
          -0.20913004875183105,
          -0.18784932792186737,
          -0.13567644357681274,
          -0.2452733963727951,
          0.174727663397789,
          -0.07997166365385056,
          -0.14194966852664948,
          -0.14493870735168457,
          -0.040477119386196136,
          0.07497487962245941,
          -0.05900052934885025,
          0.10913623869419098
        ],
        [
          0.11386945843696594,
          -0.158102884888649,
          -0.11606036126613617,
          -0.1711510419845581,
          -0.19496001303195953,
          0.06719955801963806,
          -0.24385930597782135,
          0.13185638189315796,
          -0.22276726365089417,
          0.1547655463218689,
          -0.08834770321846008,
          -0.18738064169883728,
          -0.24847373366355896,
          0.08845263719558716,
          -0.19229432940483093
        ],
        [
          0.04448389261960983,
          0.22108997404575348,
          -0.17227736115455627,
          -0.08623375743627548,
          -0.2381872981786728,
          0.07999429851770401,
          -0.1876990646123886,
          0.1066678836941719,
          0.09373026341199875,
          -0.003192137461155653,
          -0.07226202636957169,
          0.1251353621482849,
          0.16327589750289917,
          -0.025159388780593872,
          0.17434567213058472
        ],
        [
          0.014503472484648228,
          -0.4370691478252411,
          0.11146561801433563,
          -0.027648702263832092,
          0.020990174263715744,
          -0.08440447598695755,
          0.08151963353157043,
          0.11878784000873566,
          0.11970315873622894,
          -0.05558169633150101,
          0.17916226387023926,
          -0.1522025763988495,
          -0.02654440514743328,
          0.14545424282550812,
          0.04825516790151596
        ],
        [
          -0.15280447900295258,
          -0.4403746426105499,
          0.09034361690282822,
          -0.17218030989170074,
          0.15813268721103668,
          0.11566925793886185,
          0.13859686255455017,
          -0.08432833850383759,
          -0.1584727168083191,
          -0.1412663608789444,
          0.1387210637331009,
          0.15636415779590607,
          -0.16090154647827148,
          -0.029852574691176414,
          -0.1356198936700821
        ],
        [
          -0.1592562198638916,
          0.08215194940567017,
          -0.21578004956245422,
          0.017443329095840454,
          -0.16411231458187103,
          0.06254926323890686,
          0.15655091404914856,
          0.132920503616333,
          -0.09780295193195343,
          -0.18898099660873413,
          0.1787424385547638,
          0.0050293803215026855,
          0.021437883377075195,
          -0.011423274874687195,
          0.029065042734146118
        ],
        [
          0.06854059547185898,
          -0.1740548312664032,
          -0.009336721152067184,
          0.0670093446969986,
          -0.041621748358011246,
          0.018468128517270088,
          -0.15562643110752106,
          -0.21092133224010468,
          -0.15078112483024597,
          0.15157894790172577,
          0.1380196362733841,
          -0.06963812559843063,
          0.02113504707813263,
          0.01924949139356613,
          -0.07296919822692871
        ],
        [
          -0.13599324226379395,
          -0.12089815735816956,
          -0.1314961314201355,
          -0.17030109465122223,
          0.16394850611686707,
          0.017544597387313843,
          -0.17105719447135925,
          -0.08953234553337097,
          0.12435370683670044,
          0.1458781659603119,
          0.2193160057067871,
          -0.15341615676879883,
          -0.24069775640964508,
          -0.056020140647888184,
          0.25216588377952576
        ],
        [
          0.028434162959456444,
          0.9185342788696289,
          0.06264318525791168,
          -0.050346121191978455,
          0.0231841579079628,
          -0.12422455847263336,
          0.10043205320835114,
          -0.19928745925426483,
          0.04845299944281578,
          6.702005339320749e-05,
          0.11110472679138184,
          -0.21553157269954681,
          0.10036499053239822,
          -0.2259758859872818,
          -0.23625092208385468
        ],
        [
          0.06156899034976959,
          -0.09518804401159286,
          0.011447159573435783,
          -0.010912833735346794,
          0.09580950438976288,
          -0.13705632090568542,
          -0.07949947565793991,
          0.13659192621707916,
          -0.1870509535074234,
          0.18442977964878082,
          -0.08647461980581284,
          -0.14103378355503082,
          -0.1123451292514801,
          0.12189451605081558,
          0.09143760055303574
        ],
        [
          -0.06795841455459595,
          0.1333916187286377,
          -0.21212425827980042,
          -0.17350658774375916,
          0.14204517006874084,
          0.09304770827293396,
          0.1977851688861847,
          -0.1713641881942749,
          0.21619582176208496,
          -0.028035327792167664,
          -0.14263510704040527,
          -0.04277794063091278,
          -0.24278409779071808,
          0.03634640574455261,
          0.1250637173652649
        ],
        [
          -0.01984652318060398,
          0.04961884766817093,
          -0.23981580138206482,
          0.03302767127752304,
          0.10568045824766159,
          0.13489721715450287,
          0.2030286341905594,
          0.04395487159490585,
          -0.2883640229701996,
          -0.10328575223684311,
          -0.3345431983470917,
          -0.18768851459026337,
          0.06072249636054039,
          -0.21359418332576752,
          -0.17324848473072052
        ],
        [
          -0.8083545565605164,
          0.5746867060661316,
          -0.11409350484609604,
          -0.13458426296710968,
          0.017549067735671997,
          0.1556190401315689,
          -0.14078567922115326,
          -0.11380445212125778,
          0.21638649702072144,
          -0.16638019680976868,
          -0.17429065704345703,
          -0.1949596256017685,
          0.11827710270881653,
          -0.12952908873558044,
          -0.1515449434518814
        ],
        [
          0.06360253691673279,
          0.04167288541793823,
          -0.152992844581604,
          0.12891137599945068,
          -0.144542396068573,
          -0.09654873609542847,
          -0.0780608057975769,
          -0.17546525597572327,
          -0.0257299542427063,
          0.18506744503974915,
          -0.03793564438819885,
          -0.2337358593940735,
          -0.21408683061599731,
          0.2359614372253418,
          -0.25687992572784424
        ],
        [
          -0.49552345275878906,
          -0.5848654508590698,
          -0.046779729425907135,
          -0.06990806758403778,
          0.11215104162693024,
          -0.08314696699380875,
          -0.134592205286026,
          -0.030936215072870255,
          -0.18925336003303528,
          0.20886939764022827,
          -0.2136271595954895,
          0.22056113183498383,
          -0.014040959067642689,
          -0.17804373800754547,
          -0.1314525604248047
        ],
        [
          0.1963573843240738,
          -0.056815821677446365,
          0.12358365952968597,
          -0.18825852870941162,
          -0.04908828064799309,
          -0.2219906896352768,
          -0.14769510924816132,
          -0.27894559502601624,
          0.019371412694454193,
          -0.16054488718509674,
          -0.19907483458518982,
          0.04940103739500046,
          -0.3287658989429474,
          -0.12401647120714188,
          -0.00922622624784708
        ],
        [
          -0.32096636295318604,
          0.2385278195142746,
          -0.2786959409713745,
          0.028222884982824326,
          -0.17459076642990112,
          -0.1600756049156189,
          0.12520146369934082,
          -0.0982360690832138,
          -0.022270575165748596,
          -0.014687981456518173,
          -0.24755725264549255,
          -0.5134783983230591,
          0.1638769507408142,
          0.014001366682350636,
          -0.12543445825576782
        ],
        [
          0.5061187148094177,
          -0.31954142451286316,
          0.03278879448771477,
          0.04785139858722687,
          -0.20612947642803192,
          -0.2805282771587372,
          -0.030062835663557053,
          7.06549035385251e-05,
          0.1544049233198166,
          -0.17915458977222443,
          -0.15594007074832916,
          -0.18186229467391968,
          0.1873416304588318,
          0.047247447073459625,
          -0.12301095575094223
        ],
        [
          -0.23458626866340637,
          0.6371365785598755,
          0.09421134740114212,
          0.1520819365978241,
          -0.112443707883358,
          -0.12488367408514023,
          0.007214902434498072,
          0.15255746245384216,
          -0.1446322202682495,
          -0.2918553650379181,
          0.02684953808784485,
          -0.134373277425766,
          0.21257998049259186,
          -0.044044751673936844,
          0.18026384711265564
        ],
        [
          -0.05249388515949249,
          0.02594350278377533,
          0.1021040827035904,
          0.13494227826595306,
          0.06829823553562164,
          -0.17894329130649567,
          -0.05482645705342293,
          -0.2594805359840393,
          0.031111741438508034,
          -0.03586287423968315,
          0.02494112215936184,
          0.10832194238901138,
          -0.16151119768619537,
          0.06854695826768875,
          -0.0054405368864536285
        ],
        [
          0.21189801394939423,
          0.09549528360366821,
          0.026482287794351578,
          0.08313469588756561,
          0.02713187411427498,
          0.10466698557138443,
          -0.18530918657779694,
          -0.08128032833337784,
          -0.26878172159194946,
          -0.07465588301420212,
          0.1274915337562561,
          0.041167743504047394,
          -0.15864244103431702,
          -0.0012335185892879963,
          0.17513512074947357
        ],
        [
          -0.08067815005779266,
          0.568648636341095,
          0.023312648758292198,
          -0.00508598517626524,
          0.05039922893047333,
          -0.1541074961423874,
          -0.20644117891788483,
          -0.24723021686077118,
          -0.19463784992694855,
          -0.29812127351760864,
          -0.04328823834657669,
          -0.01861075684428215,
          0.11736582219600677,
          -0.017982028424739838,
          0.014653541147708893
        ],
        [
          0.46931222081184387,
          0.10636073350906372,
          -0.06930435448884964,
          0.0031725650187581778,
          -0.06799163669347763,
          0.09720823913812637,
          -0.057606808841228485,
          0.08693097531795502,
          -0.04296940565109253,
          -0.09774938225746155,
          0.15302270650863647,
          0.08335810154676437,
          0.14728610217571259,
          -0.08688099682331085,
          -0.14494366943836212
        ],
        [
          0.2608707845211029,
          0.0409957654774189,
          0.21013811230659485,
          -0.2647464871406555,
          -0.10604529082775116,
          0.23827864229679108,
          -0.1160503551363945,
          0.0056273071095347404,
          0.11630892008543015,
          -0.18834002315998077,
          -0.17237672209739685,
          -0.13310712575912476,
          0.03885975107550621,
          0.19648930430412292,
          0.12140955775976181
        ],
        [
          0.357774019241333,
          0.40480566024780273,
          -0.01206965371966362,
          0.15145167708396912,
          0.18605275452136993,
          -0.1321350634098053,
          0.05107031390070915,
          0.01083215232938528,
          -0.02061673067510128,
          -0.27571597695350647,
          -0.25368282198905945,
          0.11336589604616165,
          -0.03353245183825493,
          -0.13749176263809204,
          0.15318897366523743
        ],
        [
          0.15207111835479736,
          0.5432589054107666,
          0.09583594650030136,
          0.054080694913864136,
          -0.055044569075107574,
          -0.07026810199022293,
          -0.24244330823421478,
          -0.08932050317525864,
          -0.29628992080688477,
          -0.0478527657687664,
          -0.25324496626853943,
          -0.16227830946445465,
          0.23027077317237854,
          -0.1978330910205841,
          -0.019759677350521088
        ],
        [
          -0.4760594367980957,
          0.5904853343963623,
          0.029719531536102295,
          -0.023339465260505676,
          -0.22931496798992157,
          -0.1817309856414795,
          -0.05961225926876068,
          -0.031267933547496796,
          0.09337257593870163,
          -0.020208686590194702,
          0.05539846047759056,
          -0.10516947507858276,
          0.12498867511749268,
          -0.032388199120759964,
          -0.22267067432403564
        ],
        [
          0.14816617965698242,
          -0.8839787244796753,
          -0.06112216040492058,
          0.20520544052124023,
          0.05639436095952988,
          -0.014898448251187801,
          0.05426950380206108,
          -0.036089953035116196,
          -0.07684547454118729,
          0.28889480233192444,
          0.06766194850206375,
          0.10906659811735153,
          -0.021971257403492928,
          -0.00286003015935421,
          0.05408667027950287
        ],
        [
          -0.23161953687667847,
          0.0808073878288269,
          -0.10651351511478424,
          0.1402975618839264,
          0.10124513506889343,
          -0.1810530722141266,
          -0.1669292151927948,
          -0.21539004147052765,
          0.2388814091682434,
          -0.025608599185943604,
          -0.08347715437412262,
          -0.2562422752380371,
          -0.11210387945175171,
          -0.21378593146800995,
          -0.11757752299308777
        ],
        [
          -0.0015406608581542969,
          0.11966386437416077,
          -0.2451951652765274,
          0.22899749875068665,
          -0.23344150185585022,
          -0.2512422502040863,
          -0.1858115792274475,
          0.24285325407981873,
          -0.01655621826648712,
          0.11593440175056458,
          0.16161295771598816,
          0.20946767926216125,
          -0.1477859914302826,
          -0.24682563543319702,
          0.2245124876499176
        ],
        [
          -0.018725592643022537,
          -0.053358227014541626,
          -0.08436066657304764,
          0.03679509088397026,
          0.06246362254023552,
          -0.14993292093276978,
          -0.04301946237683296,
          -0.12905050814151764,
          -0.1446313112974167,
          0.17086243629455566,
          -0.25244140625,
          -0.09188323467969894,
          -0.056424375623464584,
          0.1207655817270279,
          -0.0430285669863224
        ],
        [
          0.17099493741989136,
          0.16407185792922974,
          -0.2550837993621826,
          0.23571279644966125,
          -0.19400648772716522,
          -0.06885208934545517,
          -0.19884872436523438,
          0.18919578194618225,
          -0.2503756284713745,
          -0.021457616239786148,
          0.20123527944087982,
          0.1530694216489792,
          0.07787106186151505,
          -0.2564709782600403,
          -0.038305968046188354
        ],
        [
          0.6450127363204956,
          0.09220656007528305,
          0.21751944720745087,
          0.05248933285474777,
          -0.003988501615822315,
          -0.1489924192428589,
          -0.21736940741539001,
          0.06399054825305939,
          -0.22746188938617706,
          -0.10365623980760574,
          -0.2063640058040619,
          0.06982986629009247,
          -0.0023228414356708527,
          -0.09719155728816986,
          -0.061633892357349396
        ],
        [
          -0.2374192327260971,
          -0.38616055250167847,
          0.1064542755484581,
          -0.3053402900695801,
          -0.1836857944726944,
          0.14945264160633087,
          0.1032668873667717,
          -0.20908202230930328,
          0.20510850846767426,
          -0.11889658123254776,
          0.2097376435995102,
          0.04819973558187485,
          0.10131729394197464,
          0.18300755321979523,
          -0.101962611079216
        ],
        [
          -0.9034192562103271,
          -0.16558025777339935,
          0.020649176090955734,
          -0.10294835269451141,
          -0.1139867976307869,
          0.2231217622756958,
          -0.1604715883731842,
          -0.2073681503534317,
          0.10804068297147751,
          -0.09723686426877975,
          -0.23807139694690704,
          -0.4401249289512634,
          0.13676905632019043,
          0.03670010343194008,
          0.21643377840518951
        ],
        [
          0.09577351808547974,
          0.2208535075187683,
          -0.16783373057842255,
          0.2092730700969696,
          -0.0014065206050872803,
          2.652406692504883e-06,
          0.009975701570510864,
          -0.06298291683197021,
          -0.22074925899505615,
          -0.13509130477905273,
          0.11387744545936584,
          0.01399242877960205,
          -0.15681415796279907,
          -0.15571510791778564,
          0.222273051738739
        ],
        [
          1.1526947021484375,
          -0.07199153304100037,
          -0.10350470244884491,
          0.006340260151773691,
          -0.25434410572052,
          -0.0464145727455616,
          -0.05081722140312195,
          0.1585288941860199,
          -0.20868614315986633,
          -0.22390323877334595,
          -0.07291091978549957,
          0.20820705592632294,
          -0.19912239909172058,
          0.15584337711334229,
          -0.06492887437343597
        ],
        [
          0.4760591685771942,
          0.3137942850589752,
          0.0764986202120781,
          0.19203515350818634,
          -0.1508665829896927,
          0.22780047357082367,
          -0.37381818890571594,
          -0.1427471935749054,
          -0.1394677609205246,
          -0.06954972445964813,
          0.25103169679641724,
          -0.09084586054086685,
          -0.035324450582265854,
          -0.16073960065841675,
          0.09958874434232712
        ],
        [
          -0.19383594393730164,
          -0.16434648633003235,
          -0.09655046463012695,
          -0.21557828783988953,
          -0.027761071920394897,
          0.14907658100128174,
          -0.23040986061096191,
          -0.10905064642429352,
          0.12661060690879822,
          0.18532779812812805,
          -0.24088986217975616,
          0.13477173447608948,
          -0.24249061942100525,
          0.07734018564224243,
          -0.026020050048828125
        ],
        [
          -0.7314596176147461,
          0.366260826587677,
          -0.2321849763393402,
          0.02036755159497261,
          -0.21163734793663025,
          0.18156245350837708,
          0.06762143224477768,
          -0.09040325880050659,
          -0.09623131901025772,
          0.09218936413526535,
          0.0593118779361248,
          -0.030599350109696388,
          0.10880225151777267,
          0.07848002761602402,
          0.010124010033905506
        ],
        [
          -0.5511280298233032,
          -0.693676233291626,
          -0.31890758872032166,
          0.20950466394424438,
          0.09113918244838715,
          -0.1657075583934784,
          -0.19815558195114136,
          -0.07415735721588135,
          0.04178594425320625,
          -0.05399546027183533,
          -0.06606509536504745,
          -0.01621398515999317,
          -0.1523740440607071,
          0.12177940458059311,
          0.09144669771194458
        ],
        [
          -0.6677115559577942,
          -0.1597038209438324,
          0.034079428762197495,
          0.19228988885879517,
          0.23031480610370636,
          0.21279263496398926,
          0.29062798619270325,
          -0.14513356983661652,
          0.19725093245506287,
          0.45036137104034424,
          -0.19752244651317596,
          -0.23239894211292267,
          -0.2797507047653198,
          -0.12076161056756973,
          0.09201057255268097
        ],
        [
          0.004828267730772495,
          0.1783202886581421,
          -0.12321572750806808,
          -0.061599522829055786,
          -0.17752522230148315,
          -0.019240252673625946,
          0.09550927579402924,
          -0.1099228486418724,
          -0.12793616950511932,
          -0.11159910261631012,
          -0.28454098105430603,
          -0.18652178347110748,
          0.1666640341281891,
          0.10887516289949417,
          -0.17535437643527985
        ],
        [
          -0.6819887161254883,
          0.018833620473742485,
          0.07559950649738312,
          0.050224218517541885,
          -0.011644904501736164,
          0.15237180888652802,
          0.12200042605400085,
          -0.06773854047060013,
          0.04714330658316612,
          0.10959659516811371,
          -0.006948536727577448,
          -0.29008257389068604,
          -0.19821064174175262,
          0.036810487508773804,
          0.27590426802635193
        ],
        [
          -0.32162660360336304,
          -0.1611264944076538,
          0.046409450471401215,
          0.09228599816560745,
          0.13874240219593048,
          -0.2626039981842041,
          -0.12011458724737167,
          -0.28065353631973267,
          0.11203859746456146,
          0.002947453875094652,
          0.16203276813030243,
          0.162801593542099,
          0.16974177956581116,
          -0.07027444988489151,
          -0.1315891295671463
        ],
        [
          0.39293166995048523,
          -0.519191324710846,
          -0.028668366372585297,
          -0.11846578121185303,
          -0.01598389446735382,
          0.1769905388355255,
          0.06333448737859726,
          -0.18779653310775757,
          -0.060828354209661484,
          -0.0884399339556694,
          -0.14786134660243988,
          0.08919979631900787,
          0.05989557132124901,
          0.03916286677122116,
          -0.030644025653600693
        ],
        [
          -0.6325024962425232,
          -0.7704571485519409,
          -0.11956648528575897,
          -0.1261177957057953,
          0.18149517476558685,
          -0.349800705909729,
          -0.07751427590847015,
          -0.26408687233924866,
          0.17581886053085327,
          0.08766211569309235,
          -0.02200125716626644,
          0.09419719874858856,
          -0.16832710802555084,
          0.0038881776854395866,
          -0.1486525535583496
        ],
        [
          -0.4137323498725891,
          0.995689868927002,
          -0.1358354687690735,
          0.04625675454735756,
          -0.15799929201602936,
          0.2586044669151306,
          0.20821498334407806,
          0.11397062242031097,
          -0.06102529540657997,
          0.08353150635957718,
          0.11583122611045837,
          0.17531009018421173,
          0.1221410483121872,
          0.08394265919923782,
          -0.0037162036169320345
        ]
      ],
      "biases": [
        0.2016177475452423,
        0.054770976305007935,
        0.17628587782382965,
        0.04206199571490288,
        -0.06827017664909363,
        0.20040522515773773,
        0.14931946992874146,
        0.030568663030862808,
        0.1458446979522705,
        0.13948582112789154,
        -0.12690548598766327,
        -0.18928563594818115,
        -0.22686685621738434,
        -0.25588682293891907,
        -0.11300128698348999,
        0.16082268953323364,
        -0.26093387603759766,
        -0.08163608610630035,
        0.21662937104701996,
        -0.13410580158233643,
        -0.26198098063468933,
        -0.11173316836357117,
        0.026840656995773315,
        -0.10096113383769989,
        -0.12020637840032578,
        -0.0225375983864069,
        -0.056350722908973694,
        -0.23759157955646515,
        -0.24550573527812958,
        0.14632540941238403,
        -0.05237146466970444,
        0.20358142256736755,
        0.012075045146048069,
        -0.04669161140918732,
        0.02644985169172287,
        -0.007578806485980749,
        -0.3045421242713928,
        -0.06984031945466995,
        0.07188406586647034,
        -0.1371653974056244,
        0.21428228914737701,
        0.09764149785041809,
        0.02301810309290886,
        -0.13124555349349976,
        0.028904587030410767,
        0.021987974643707275,
        0.01837186887860298,
        -0.11682331562042236,
        -0.09193959087133408,
        0.06683159619569778,
        -0.032566849142313004,
        0.10260295867919922,
        0.06357194483280182,
        0.2356358766555786,
        -0.0705745667219162,
        0.057126354426145554,
        0.21295201778411865,
        -0.08252732455730438,
        -0.07566065341234207,
        0.06559677422046661,
        -0.003211093135178089,
        0.16868814826011658,
        0.18811684846878052,
        0.26041632890701294
      ]
    },
    {
      "name": "1",
      "kind": "ReLU"
    },
    {
      "name": "2",
      "kind": "Linear",
      "inputSize": 64,
      "outputSize": 64,
      "hasBiases": true,
      "weights": [
        [
          0.03826490789651871,
          -0.04125605523586273,
          0.06470103561878204,
          0.09473288059234619,
          -0.13875749707221985,
          -0.030190538614988327,
          -0.06433553993701935,
          0.038583457469940186,
          -0.09253337979316711,
          -0.11759841442108154,
          -0.07322585582733154,
          -0.11971592903137207,
          -0.006087630987167358,
          0.07776536047458649,
          -0.0850333720445633,
          -0.03553524613380432,
          0.04799410328269005,
          -0.09145186841487885,
          -0.10013867914676666,
          -0.020080775022506714,
          0.03165186941623688,
          -0.05267144739627838,
          -0.010506431572139263,
          -0.009627208113670349,
          -0.12301439046859741,
          -0.0866418331861496,
          0.05403110384941101,
          -0.09243324398994446,
          -0.03229677677154541,
          -0.024001896381378174,
          0.03157995268702507,
          -0.02870379574596882,
          -0.04011768102645874,
          -0.050239384174346924,
          0.08023516088724136,
          0.041039250791072845,
          0.07927144318819046,
          -0.014068439602851868,
          -0.12772130966186523,
          -0.025937477126717567,
          0.06055077910423279,
          0.10911118239164352,
          -0.03778757154941559,
          -0.0823139175772667,
          0.07810729742050171,
          0.024996310472488403,
          -0.1150875985622406,
          -0.028209030628204346,
          -0.03362525627017021,
          -0.07921171933412552,
          -0.12334553897380829,
          -0.10590489208698273,
          0.05508674308657646,
          0.08527391403913498,
          -0.10057808458805084,
          -0.12002237141132355,
          0.11088888347148895,
          -0.052732571959495544,
          0.07659262418746948,
          0.038452088832855225,
          -3.2234347600024194e-05,
          -0.0743170976638794,
          -0.01807481050491333,
          0.052649181336164474
        ],
        [
          -0.033596061170101166,
          -0.11808738112449646,
          0.015551455318927765,
          -0.1158534362912178,
          -0.016294917091727257,
          0.10077895224094391,
          0.02353847585618496,
          0.02996741607785225,
          -0.004592567216604948,
          -0.06843958795070648,
          -0.022404910996556282,
          0.0009803733555600047,
          0.053398497402668,
          0.018447108566761017,
          0.051049456000328064,
          0.12144050747156143,
          -0.12344872951507568,
          0.05848868191242218,
          0.09649588167667389,
          0.018643155694007874,
          -0.07620445638895035,
          0.041617780923843384,
          -0.1210460513830185,
          -0.11118258535861969,
          -0.07198423147201538,
          0.07011278718709946,
          0.03758808970451355,
          0.015309056267142296,
          0.21402208507061005,
          -0.004335552453994751,
          0.16509994864463806,
          0.00390585046261549,
          0.0531550794839859,
          -0.17328637838363647,
          -0.08953797072172165,
          0.07544126361608505,
          -0.131022110581398,
          -0.015977155417203903,
          -0.18904374539852142,
          -0.023261073976755142,
          -0.05561988428235054,
          -0.04550011828541756,
          -0.008236578665673733,
          -0.10111299902200699,
          -0.1042974591255188,
          -0.04396042227745056,
          -0.029619960114359856,
          0.07565866410732269,
          0.04324284940958023,
          -0.0844670906662941,
          0.17371155321598053,
          -0.05699814856052399,
          0.066147580742836,
          -0.16882848739624023,
          0.11661408841609955,
          0.11064890772104263,
          0.10296586155891418,
          -0.03319716826081276,
          0.027216369286179543,
          0.13401161134243011,
          0.014383940026164055,
          -0.03494518622756004,
          0.11249470710754395,
          0.0592336468398571
        ],
        [
          -0.12474098801612854,
          -0.10394182801246643,
          0.0037436336278915405,
          -0.08715744316577911,
          -0.13104042410850525,
          0.013234780170023441,
          0.09865182638168335,
          -0.04981723427772522,
          0.0264294296503067,
          0.07686899602413177,
          -0.13154177367687225,
          -0.008506756275892258,
          0.09828077256679535,
          -0.06342844665050507,
          -0.014361515641212463,
          0.0668918788433075,
          0.10420487821102142,
          0.07781904935836792,
          0.011690318584442139,
          0.10173126310110092,
          -0.13251200318336487,
          -0.09728501737117767,
          0.05544542521238327,
          0.020978853106498718,
          0.12791858613491058,
          -0.08482428640127182,
          -0.1245652437210083,
          0.05382975935935974,
          0.08906430751085281,
          0.10899883508682251,
          0.048548564314842224,
          0.0939631313085556,
          0.06657268851995468,
          0.020327789708971977,
          0.08145271986722946,
          -0.12852764129638672,
          0.02771216630935669,
          -0.08300826698541641,
          -0.05215427652001381,
          -0.12986931204795837,
          -0.13953740894794464,
          -0.03350059315562248,
          0.05011513829231262,
          -0.1106475293636322,
          0.03620170056819916,
          0.07760095596313477,
          -0.033049944788217545,
          -0.10794568061828613,
          -0.06303809583187103,
          -0.09280206263065338,
          -0.07133442163467407,
          -0.05608145892620087,
          0.03613169491291046,
          -0.015832796692848206,
          0.018814951181411743,
          -0.03120042383670807,
          -0.024941936135292053,
          -0.021176524460315704,
          -0.0512450709939003,
          -0.014720514416694641,
          -0.11322886496782303,
          -0.002023515524342656,
          0.010344862937927246,
          0.08232174068689346
        ],
        [
          0.06194402277469635,
          0.11876212060451508,
          0.03006746992468834,
          -0.017376571893692017,
          -0.13147757947444916,
          0.006534482818096876,
          -0.00173648027703166,
          0.008263060823082924,
          -0.10430412739515305,
          -0.07935897260904312,
          0.0857277363538742,
          -0.13187651336193085,
          0.10175592452287674,
          0.06510274857282639,
          -0.04708588123321533,
          0.020382285118103027,
          -0.09061256051063538,
          -0.10131576657295227,
          -0.002519667148590088,
          -0.03613164275884628,
          0.039781611412763596,
          0.0708266943693161,
          0.07122890651226044,
          -0.05591081082820892,
          -0.11933441460132599,
          0.07880849391222,
          0.09924325346946716,
          -0.04914681985974312,
          -0.0665259063243866,
          0.03626437485218048,
          -0.12441052496433258,
          0.028372926637530327,
          -0.11700298637151718,
          -0.06152145192027092,
          -0.13684546947479248,
          -0.07637318223714828,
          0.09375874698162079,
          -0.04446665942668915,
          -0.03564281761646271,
          -0.13340352475643158,
          -0.10621992498636246,
          0.03048032708466053,
          0.03682427108287811,
          -0.010862503200769424,
          0.10661451518535614,
          -0.0820237398147583,
          -0.005286518484354019,
          0.014218240976333618,
          0.08334916830062866,
          -0.08944806456565857,
          -0.14436420798301697,
          0.07372993230819702,
          -0.04610548913478851,
          -0.08916352689266205,
          0.0866837203502655,
          0.09873785078525543,
          -0.043915051966905594,
          -0.044019296765327454,
          0.07297010719776154,
          -0.0754917711019516,
          0.03857807070016861,
          -0.11197532713413239,
          0.04649463668465614,
          0.008300414308905602
        ],
        [
          0.10452523082494736,
          0.04241032898426056,
          -0.08864482492208481,
          -0.04403942823410034,
          -0.09005890041589737,
          0.020452603697776794,
          -0.035351116210222244,
          0.0035181709099560976,
          -0.1295730024576187,
          0.042835310101509094,
          0.006526555400341749,
          -0.02628825604915619,
          0.02368401177227497,
          -0.18367689847946167,
          0.031638890504837036,
          0.021521585062146187,
          -0.09475845098495483,
          -0.03310178220272064,
          -0.05618841573596001,
          -0.019133921712636948,
          -0.04863518476486206,
          -0.10247264802455902,
          0.11858516931533813,
          0.05066068470478058,
          0.042712073773145676,
          -0.0006873577367514372,
          -0.0312516987323761,
          -0.1496170610189438,
          -0.10232152044773102,
          0.07300165295600891,
          0.01864524930715561,
          -0.013262142427265644,
          -0.18267673254013062,
          -0.02409852109849453,
          -0.026727180927991867,
          0.054149080067873,
          0.022785890847444534,
          0.038780830800533295,
          0.12523303925991058,
          -0.09235844016075134,
          0.09494245052337646,
          -0.05704822391271591,
          -0.013328121043741703,
          0.0347033366560936,
          -0.05054083466529846,
          0.10533037781715393,
          0.04706302657723427,
          0.0623868852853775,
          0.039782457053661346,
          0.05397367849946022,
          -0.0884176716208458,
          0.10018326342105865,
          -0.21119002997875214,
          0.06275826692581177,
          0.0212404727935791,
          -0.2045922875404358,
          -0.1358674317598343,
          0.08103133738040924,
          0.1073826253414154,
          -0.035740070044994354,
          -0.0414639376103878,
          -0.06772011518478394,
          -0.09076163172721863,
          0.040322963148355484
        ],
        [
          0.0883026123046875,
          0.037839338183403015,
          -0.04911540448665619,
          0.028309868648648262,
          0.027244145050644875,
          0.15128129720687866,
          0.03360478952527046,
          -0.05815201625227928,
          -0.004964470863342285,
          0.03179019317030907,
          0.08653290569782257,
          0.08367369323968887,
          -0.0364636667072773,
          0.2505025863647461,
          -0.08460187911987305,
          -0.08493350446224213,
          -0.0358145534992218,
          -0.07354749739170074,
          0.0654456615447998,
          0.06804393976926804,
          0.006950851995497942,
          0.12185084819793701,
          -0.06872465461492538,
          -0.0339587926864624,
          -0.056468065828084946,
          -0.009398283436894417,
          0.05987921357154846,
          -0.04401339963078499,
          -0.21370692551136017,
          -0.08994734287261963,
          -0.016374655067920685,
          0.027012400329113007,
          -0.11241006851196289,
          -0.015210152603685856,
          -0.0016067782416939735,
          -0.01149682980030775,
          -0.020256221294403076,
          0.10887102037668228,
          -0.09423023462295532,
          -0.056239958852529526,
          0.010702749714255333,
          0.010258631780743599,
          -0.11201150715351105,
          0.03566628694534302,
          0.06792625784873962,
          0.027301311492919922,
          0.006944387219846249,
          -0.08724074810743332,
          0.12745648622512817,
          -0.011936591938138008,
          -0.4669322371482849,
          -0.030589863657951355,
          -0.04047224298119545,
          -0.061261169612407684,
          -0.06068938970565796,
          -0.26701584458351135,
          -0.09922925382852554,
          -0.07444993406534195,
          -0.10024747997522354,
          0.059682052582502365,
          0.109931081533432,
          0.0015990808606147766,
          -0.08413055539131165,
          -0.027178790420293808
        ],
        [
          -0.10728275775909424,
          -0.07726870477199554,
          -0.1074429452419281,
          -0.1006661057472229,
          0.037492308765649796,
          0.046849001199007034,
          0.025032317265868187,
          0.01913677155971527,
          0.04264604672789574,
          -0.012289282865822315,
          0.09551969915628433,
          0.018641259521245956,
          -0.004947892390191555,
          -0.036597829312086105,
          0.03938497602939606,
          0.07832303643226624,
          -0.07953083515167236,
          0.027606457471847534,
          -0.05732040852308273,
          0.09260375052690506,
          -0.0004407406668178737,
          -0.060515910387039185,
          -0.056526072323322296,
          -0.04340456426143646,
          -0.10169701278209686,
          -0.028713025152683258,
          0.07691532373428345,
          -0.134628564119339,
          0.22491925954818726,
          -0.08647872507572174,
          -0.0007686411263421178,
          0.10752878338098526,
          0.03489656373858452,
          -0.0952703133225441,
          -0.07479042559862137,
          0.04738319292664528,
          -0.06473793834447861,
          0.036811552941799164,
          -0.022519400343298912,
          0.017941052094101906,
          0.06222204491496086,
          0.01975017413496971,
          0.061007238924503326,
          -0.10136517137289047,
          0.0030350983142852783,
          -0.00669512152671814,
          -0.013260914012789726,
          0.029966361820697784,
          0.030195005238056183,
          -0.116396963596344,
          -0.00697956932708621,
          0.06143133342266083,
          0.1766892969608307,
          -0.0929834395647049,
          -0.1201811283826828,
          0.01925058662891388,
          0.06944670528173447,
          0.22915147244930267,
          0.09138835221529007,
          0.17396898567676544,
          0.06188655272126198,
          0.07104714214801788,
          0.06185731291770935,
          -0.05486505478620529
        ],
        [
          0.05536385253071785,
          0.06162537634372711,
          -0.12497406452894211,
          0.01608128845691681,
          -0.029139943420886993,
          0.0706009641289711,
          -0.16730070114135742,
          -0.07111570239067078,
          -0.07929950207471848,
          -0.01604466326534748,
          0.012865916825830936,
          -0.10510431975126266,
          -0.05884296074509621,
          0.28533676266670227,
          0.0033109337091445923,
          0.06573453545570374,
          0.004282181151211262,
          0.010679572820663452,
          -0.00015313923358917236,
          0.08218839019536972,
          0.13541391491889954,
          0.1157456487417221,
          0.02279091067612171,
          -0.04261600971221924,
          0.14573152363300323,
          0.0634387731552124,
          -0.01879984140396118,
          -0.12488383054733276,
          -0.003262677462771535,
          -0.03242465853691101,
          0.09414412081241608,
          -0.07563897222280502,
          -0.03154141828417778,
          -0.061089616268873215,
          0.09252926707267761,
          -0.03567756712436676,
          -0.1134769394993782,
          -0.15592162311077118,
          0.020916277542710304,
          -0.10512594133615494,
          -0.038165133446455,
          -0.06980951875448227,
          0.0384565033018589,
          0.04294751212000847,
          0.11801272630691528,
          -0.07554198801517487,
          -0.0008975091041065753,
          0.0865781307220459,
          -0.31045809388160706,
          -0.09348037093877792,
          0.12447668612003326,
          0.11449159681797028,
          0.21299514174461365,
          -0.1179601401090622,
          0.09859012067317963,
          -0.22982534766197205,
          -0.1590518206357956,
          -0.005531652830541134,
          -0.02723226323723793,
          -0.11211944371461868,
          0.11191451549530029,
          0.03534269705414772,
          0.15907502174377441,
          -0.08710004389286041
        ],
        [
          -0.09257864952087402,
          0.10170698165893555,
          0.03498944640159607,
          0.015590876340866089,
          0.025175979360938072,
          -0.010970287024974823,
          -0.030980249866843224,
          -0.06772339344024658,
          -0.07264634966850281,
          0.06481745094060898,
          0.08799374848604202,
          -0.11115643382072449,
          0.0630655363202095,
          -0.09859315305948257,
          -0.05574162304401398,
          0.034053415060043335,
          -0.006214141845703125,
          0.11677153408527374,
          -0.10005569458007812,
          -0.0647718533873558,
          -0.1117078885436058,
          -0.05303911864757538,
          -0.03127719834446907,
          0.07527737319469452,
          0.12175256758928299,
          0.005890057422220707,
          -0.06009003520011902,
          0.05181059241294861,
          0.20151939988136292,
          -0.09976689517498016,
          0.14501823484897614,
          -0.021526232361793518,
          0.12357799708843231,
          -0.0850323960185051,
          -0.1320783793926239,
          0.033158838748931885,
          -0.04846251755952835,
          0.08480065315961838,
          -0.11221686750650406,
          -0.12298081815242767,
          -0.14478188753128052,
          -0.06785476207733154,
          0.028140509501099586,
          -0.15711553394794464,
          0.0466083288192749,
          -0.08955466747283936,
          -0.03614812344312668,
          -0.019237905740737915,
          0.02501663565635681,
          -0.10320836305618286,
          0.14553764462471008,
          -0.007329225540161133,
          -0.09678597748279572,
          0.07833662629127502,
          0.07787841558456421,
          0.10701295733451843,
          -0.046421606093645096,
          0.03449340909719467,
          0.03965665027499199,
          0.03932584822177887,
          -0.08789785206317902,
          -0.00870506837964058,
          0.09185642749071121,
          0.03133167326450348
        ],
        [
          0.09253141283988953,
          -0.08113035559654236,
          0.02494044043123722,
          -0.07718294858932495,
          -0.07322067022323608,
          0.0399804525077343,
          -0.021927468478679657,
          -0.13771894574165344,
          -0.035136546939611435,
          -0.10740768909454346,
          0.0276907030493021,
          0.06553874164819717,
          0.05414595454931259,
          -0.4052739441394806,
          0.07571998238563538,
          0.026506870985031128,
          -0.08718112856149673,
          -0.01832979917526245,
          -0.007031883113086224,
          -0.03847290575504303,
          -0.06416299939155579,
          0.06725123524665833,
          0.06477385014295578,
          -0.10785238444805145,
          -0.10778649896383286,
          -0.04996092617511749,
          0.04062169790267944,
          -0.06661572307348251,
          -0.04166116937994957,
          -0.11650778353214264,
          0.0005342968506738544,
          0.016215553507208824,
          0.00812336802482605,
          0.08887261897325516,
          -0.10144005715847015,
          0.03480326756834984,
          -0.11637237668037415,
          -0.058788955211639404,
          -0.008022095076739788,
          0.06793645024299622,
          0.0635506808757782,
          -0.17025631666183472,
          0.03041894920170307,
          -0.03414168581366539,
          -0.03842417895793915,
          0.002621963620185852,
          0.006425186526030302,
          -0.04459706321358681,
          0.09539921581745148,
          -0.008931707590818405,
          -0.38622015714645386,
          -0.1021936684846878,
          -0.2330288589000702,
          0.04355437308549881,
          0.003573372960090637,
          -0.011512828059494495,
          -0.15074355900287628,
          0.06100405380129814,
          0.09537161141633987,
          -0.052170366048812866,
          0.06714365631341934,
          0.0998280867934227,
          -0.45279979705810547,
          0.07130739092826843
        ],
        [
          0.037765517830848694,
          -0.003617018461227417,
          -0.046348121017217636,
          -0.07213212549686432,
          -0.023635514080524445,
          0.06302778422832489,
          0.11527834087610245,
          -0.07195459306240082,
          0.09938573837280273,
          -0.10132797062397003,
          -0.025422541424632072,
          0.01677343063056469,
          -0.11692816019058228,
          0.06886114925146103,
          0.031213194131851196,
          -0.06328548491001129,
          0.007407152093946934,
          0.07155090570449829,
          0.04413291811943054,
          0.09273315221071243,
          0.07884449511766434,
          0.04908357560634613,
          -0.06785973161458969,
          -0.1157522052526474,
          0.12938261032104492,
          -0.1338699460029602,
          0.008903220295906067,
          0.12844379246234894,
          0.13233935832977295,
          0.06725651025772095,
          -0.1223941296339035,
          -0.03479783609509468,
          0.15447531640529633,
          -0.03101586550474167,
          -0.0805312767624855,
          -0.12624678015708923,
          0.12159790098667145,
          -0.11894860863685608,
          -0.0959465354681015,
          0.1050761342048645,
          -0.008211631327867508,
          0.05721866711974144,
          -0.04067239910364151,
          -0.06409180164337158,
          0.0006490349769592285,
          0.08717238903045654,
          -0.07485823333263397,
          -0.045391395688056946,
          -0.05488964915275574,
          -0.03924929350614548,
          -0.03517884016036987,
          0.1165761649608612,
          0.12805809080600739,
          0.22068893909454346,
          -0.09343379735946655,
          0.11608444899320602,
          0.06661775708198547,
          -0.15794861316680908,
          -0.07603869587182999,
          -0.06815840303897858,
          0.05548453703522682,
          -0.09252466261386871,
          0.04873069003224373,
          0.001465529203414917
        ],
        [
          -0.033759914338588715,
          0.09098409116268158,
          -0.1090300977230072,
          0.059928253293037415,
          0.0999896228313446,
          -0.019531182944774628,
          -0.10092920064926147,
          -0.09830517321825027,
          -0.03454267606139183,
          0.1046205535531044,
          -0.01467992179095745,
          -0.12293517589569092,
          0.12638325989246368,
          0.43588393926620483,
          -0.03427216410636902,
          0.06748233735561371,
          -0.25018996000289917,
          -0.123562753200531,
          -0.027536943554878235,
          -0.08209961652755737,
          0.009910124354064465,
          -0.11603473126888275,
          0.019855910912156105,
          0.05230124294757843,
          0.3320923447608948,
          -0.07988722622394562,
          0.003808259963989258,
          0.12129204720258713,
          0.29589083790779114,
          -0.10488654673099518,
          0.26262637972831726,
          -0.1721341758966446,
          0.15907545387744904,
          0.013095471076667309,
          -0.0718655064702034,
          -0.046866171061992645,
          0.047130364924669266,
          -0.020890511572360992,
          -0.036921095103025436,
          -0.08502788841724396,
          0.033916931599378586,
          0.06905748695135117,
          0.17295873165130615,
          -0.006543308962136507,
          -0.11784818768501282,
          0.004465341567993164,
          -0.13690046966075897,
          -0.07116646319627762,
          -0.17733709514141083,
          0.12927035987377167,
          0.6130909323692322,
          0.06637462973594666,
          -0.4757174253463745,
          -0.26219838857650757,
          -0.043316200375556946,
          0.11333391815423965,
          0.03416676074266434,
          0.21766212582588196,
          0.05038933828473091,
          -0.041009098291397095,
          -0.04491342976689339,
          0.010941436514258385,
          0.12876181304454803,
          -0.010771236382424831
        ],
        [
          0.010906904935836792,
          -0.040662527084350586,
          0.00697283586487174,
          -0.04463745653629303,
          -0.08657770603895187,
          -0.08759672939777374,
          -0.09928165376186371,
          0.08096621930599213,
          -0.0989670604467392,
          -0.10618147253990173,
          -0.05348212644457817,
          0.08208970725536346,
          0.03720942512154579,
          -0.0823892205953598,
          -0.1220986545085907,
          -0.04453973472118378,
          -0.08052992820739746,
          0.10947899520397186,
          0.10386483371257782,
          -0.10868974775075912,
          0.09341493248939514,
          -0.08116714656352997,
          -0.03791375085711479,
          -0.0799526572227478,
          0.014921173453330994,
          -0.11309117823839188,
          0.038736000657081604,
          0.06726661324501038,
          0.0020366862881928682,
          0.10753045976161957,
          -0.10699194669723511,
          0.005688771605491638,
          -0.07873319834470749,
          -0.05760350450873375,
          0.04112229496240616,
          -0.08944624662399292,
          -0.08966818451881409,
          -0.013420862145721912,
          -0.12415453791618347,
          -0.04982784017920494,
          -0.08412583917379379,
          0.01935271918773651,
          -0.04013952612876892,
          0.05057589337229729,
          0.019557490944862366,
          0.12042106688022614,
          0.04139670357108116,
          -0.06344364583492279,
          0.03308102488517761,
          -0.07232335954904556,
          -0.002827536314725876,
          -0.08112362027168274,
          -0.06193690001964569,
          0.017374292016029358,
          -0.08719010651111603,
          -0.07779812812805176,
          -0.02956874668598175,
          -0.10682705044746399,
          0.009320402517914772,
          -0.03632335364818573,
          -0.035842400044202805,
          -0.03981257975101471,
          0.11588986217975616,
          0.05375325307250023
        ],
        [
          -0.10332263261079788,
          0.11706666648387909,
          0.0985950455069542,
          -0.11546673625707626,
          -0.05303202569484711,
          0.13997690379619598,
          -0.05375935882329941,
          -0.1963900327682495,
          0.026500660926103592,
          -0.027728017419576645,
          -0.14762352406978607,
          0.16922099888324738,
          0.16675738990306854,
          0.029686184599995613,
          -0.03300929069519043,
          0.08258096873760223,
          0.024976640939712524,
          0.07712553441524506,
          -0.10969429463148117,
          -0.08352328836917877,
          -0.11604996770620346,
          -0.11298598349094391,
          -0.10233531892299652,
          0.08773437142372131,
          -0.02461428754031658,
          -0.05704997107386589,
          0.04086203873157501,
          0.1979193240404129,
          -0.2398909628391266,
          -0.021128594875335693,
          0.04516605660319328,
          -0.025316519662737846,
          -0.1066405326128006,
          -0.06055057421326637,
          0.1293565034866333,
          0.02672700770199299,
          0.04445340484380722,
          0.08466096222400665,
          0.0894642025232315,
          -0.11520535498857498,
          0.15671294927597046,
          0.22098112106323242,
          0.5961162447929382,
          -0.22533833980560303,
          -0.08092531561851501,
          0.015874743461608887,
          0.049610238522291183,
          0.005267026834189892,
          0.04133349657058716,
          -0.06776078790426254,
          -0.0700785219669342,
          0.10740090906620026,
          0.23047317564487457,
          -0.09534140676259995,
          0.054130539298057556,
          -0.03011072240769863,
          -0.10387195646762848,
          -0.16406549513339996,
          0.11415580660104752,
          -0.10750800371170044,
          -0.06802704930305481,
          -0.04051421210169792,
          0.004877752624452114,
          0.21629008650779724
        ],
        [
          -0.09037211537361145,
          0.09371544420719147,
          -0.11400913447141647,
          0.0275541003793478,
          0.10088217258453369,
          -0.09216655790805817,
          -0.06604818254709244,
          0.0674993246793747,
          0.10402239114046097,
          -0.03212593123316765,
          -0.003994564060121775,
          -0.07006332278251648,
          0.12138018757104874,
          0.17968975007534027,
          0.12062495946884155,
          0.10553985834121704,
          0.16553407907485962,
          -0.03412926197052002,
          -0.0006922692991793156,
          -0.08658606559038162,
          -0.011633495800197124,
          -0.06640373170375824,
          -0.031064998358488083,
          -0.03293594717979431,
          0.02069452591240406,
          0.014098205603659153,
          0.025921866297721863,
          0.042227521538734436,
          0.3391360640525818,
          0.05178959667682648,
          0.0750211700797081,
          0.021145667880773544,
          0.1349685788154602,
          -0.03131026402115822,
          0.011197254061698914,
          0.06391587108373642,
          -0.002856313018128276,
          0.09137475490570068,
          -0.0122962212190032,
          -0.11676891893148422,
          0.04582767188549042,
          0.1246311217546463,
          0.04450364410877228,
          0.08636942505836487,
          -0.04759444296360016,
          0.06844939291477203,
          0.032117970287799835,
          -0.010723949410021305,
          0.08987779915332794,
          0.0717046707868576,
          0.371915727853775,
          -0.048888400197029114,
          0.21759195625782013,
          -0.18494652211666107,
          0.022821813821792603,
          0.10177744925022125,
          0.06547001004219055,
          -0.2470894604921341,
          -0.09598588198423386,
          -0.17178033292293549,
          -0.0985012948513031,
          0.11990959942340851,
          0.2783718407154083,
          -0.14459136128425598
        ],
        [
          0.10431666672229767,
          0.0757046490907669,
          -0.06673400104045868,
          -0.1219906359910965,
          0.07281916588544846,
          0.11389890313148499,
          0.07759767770767212,
          0.07469669729471207,
          0.07445918023586273,
          -0.11729948222637177,
          -0.08622917532920837,
          -0.07322487235069275,
          -0.012686341069638729,
          -0.077459916472435,
          -0.0549611896276474,
          0.1172942966222763,
          0.12176835536956787,
          0.0007453411817550659,
          0.01929609477519989,
          0.023487143218517303,
          0.0045049190521240234,
          0.11007024347782135,
          -0.06364920735359192,
          -0.07225936651229858,
          -0.014827847480773926,
          0.004823980387300253,
          0.04870884120464325,
          -0.09889984130859375,
          0.11113482713699341,
          0.09507793188095093,
          -0.046007588505744934,
          -0.10240960121154785,
          0.046871986240148544,
          -0.11971975862979889,
          -0.1106133684515953,
          -0.07385719567537308,
          -0.028756484389305115,
          -0.11584832519292831,
          -0.026699332520365715,
          -0.13478298485279083,
          -0.03279457241296768,
          -0.022610798478126526,
          0.04674643278121948,
          -0.11427996307611465,
          0.03363056480884552,
          0.06623281538486481,
          0.08843681961297989,
          0.10466970503330231,
          0.03802037239074707,
          -0.0734255462884903,
          0.10550868511199951,
          0.03297562897205353,
          -0.07993528246879578,
          0.04999867081642151,
          0.10565227270126343,
          -0.03186211362481117,
          -0.00736222043633461,
          0.02214471995830536,
          0.045144207775592804,
          -0.04141680896282196,
          -0.09104961901903152,
          -0.010475528426468372,
          0.014645972289144993,
          -0.038610585033893585
        ],
        [
          0.06215985491871834,
          0.016610145568847656,
          -0.039604902267456055,
          0.004004829563200474,
          0.008053630590438843,
          0.05755766108632088,
          -0.01303857285529375,
          0.0399237759411335,
          -0.01326168142259121,
          -0.10582990199327469,
          0.11727117002010345,
          -0.08759686350822449,
          -0.011193090118467808,
          0.13771076500415802,
          0.10617372393608093,
          0.051564935594797134,
          -0.12226204574108124,
          0.010307073593139648,
          -0.005286897532641888,
          -0.03189416229724884,
          0.09153281152248383,
          0.027007117867469788,
          0.0270598866045475,
          0.0611824095249176,
          0.006512921769171953,
          0.005452300887554884,
          -0.10944584012031555,
          0.02749590016901493,
          -0.3118578791618347,
          -0.09258216619491577,
          -0.03935908153653145,
          0.06664831191301346,
          0.05734776705503464,
          -0.024715233594179153,
          -0.015561787411570549,
          0.021468551829457283,
          -0.09919340163469315,
          -0.06499552726745605,
          0.04567430168390274,
          0.07669910043478012,
          -0.011071629822254181,
          0.13134212791919708,
          -0.06373251974582672,
          0.07598298788070679,
          -0.052890583872795105,
          0.005914732813835144,
          0.07365433871746063,
          -0.11386315524578094,
          0.053174037486314774,
          -0.06115014851093292,
          -0.13779325783252716,
          -0.04744192957878113,
          -0.2383844554424286,
          -0.0906757265329361,
          -0.06722235679626465,
          -3.2393036235589534e-05,
          0.2060873806476593,
          0.008945527486503124,
          -0.019967645406723022,
          0.08775968104600906,
          0.08648508787155151,
          0.10139095038175583,
          0.17321264743804932,
          0.04675230383872986
        ],
        [
          -0.08534340560436249,
          0.06981533765792847,
          -0.05980950593948364,
          -0.005883371457457542,
          -0.010099071078002453,
          0.0609172023832798,
          -0.09377910196781158,
          -0.16199404001235962,
          0.0003951175312977284,
          -0.09504956752061844,
          -0.08546993881464005,
          0.037820640951395035,
          0.05046208202838898,
          -0.19508539140224457,
          0.07075174152851105,
          -0.11393716931343079,
          0.03220808133482933,
          -0.07915273308753967,
          -0.0953683853149414,
          -0.11995378136634827,
          -0.011089486069977283,
          0.09662914276123047,
          -0.05971088260412216,
          0.066744863986969,
          -0.022537680342793465,
          -0.05496267229318619,
          -0.00881795585155487,
          0.06279376149177551,
          -0.16968348622322083,
          -0.09722141921520233,
          0.017820972949266434,
          0.06538300216197968,
          0.05637369677424431,
          0.06053503602743149,
          0.04552324488759041,
          0.04687882214784622,
          0.07577735185623169,
          0.06835626810789108,
          -0.11397244781255722,
          -0.15874606370925903,
          0.050053853541612625,
          -0.09919854998588562,
          0.1616845428943634,
          0.05734178051352501,
          -0.1014319658279419,
          0.052667707204818726,
          -0.0646057054400444,
          -0.03548823297023773,
          -0.14194151759147644,
          0.073824942111969,
          -0.021754899993538857,
          0.07577034831047058,
          -0.14235714077949524,
          -0.05610194802284241,
          0.09288719296455383,
          -0.12682659924030304,
          -0.07451461255550385,
          0.0906960666179657,
          -0.00978329498320818,
          -0.11680705845355988,
          -0.05162433907389641,
          -0.0656748041510582,
          0.09538675099611282,
          0.06913741677999496
        ],
        [
          -0.06363722681999207,
          -0.07266688346862793,
          -0.11581259220838547,
          0.009034594520926476,
          0.03689863532781601,
          -0.06580883264541626,
          0.036871179938316345,
          -0.1133580282330513,
          0.0489126592874527,
          0.07341476529836655,
          0.002765853889286518,
          0.026289138942956924,
          -0.13501963019371033,
          0.01856592670083046,
          0.07019780576229095,
          0.002291276352480054,
          -0.042110178619623184,
          -0.12034060060977936,
          -0.04043325036764145,
          0.030079349875450134,
          0.023529957979917526,
          -0.01243804395198822,
          -0.10671491175889969,
          0.11310942471027374,
          -0.16485595703125,
          -0.10647065937519073,
          0.04515498876571655,
          0.12582363188266754,
          0.01446923054754734,
          0.0020083189010620117,
          0.062311869114637375,
          -0.068782739341259,
          -0.09311021864414215,
          0.045587848871946335,
          -0.05341911315917969,
          0.09673217684030533,
          0.07301507145166397,
          -0.0937943384051323,
          -0.040267206728458405,
          0.02490275911986828,
          -0.11500861495733261,
          0.1137375459074974,
          -0.11624201387166977,
          -0.09340949356555939,
          -0.10344389081001282,
          -0.0035384446382522583,
          0.042802292853593826,
          0.06980226933956146,
          0.087299644947052,
          -0.12651954591274261,
          0.1343892365694046,
          -0.04536597430706024,
          -0.11115805059671402,
          -0.20135615766048431,
          0.04614119231700897,
          0.017639292404055595,
          0.030000528320670128,
          -0.03727838769555092,
          -0.08893023431301117,
          -0.05994892865419388,
          -0.03351310268044472,
          0.04528455436229706,
          -0.0940927267074585,
          -0.019534794613718987
        ],
        [
          0.01516745612025261,
          0.10706309974193573,
          0.002009098418056965,
          0.058935657143592834,
          0.055743247270584106,
          0.042125336825847626,
          -0.004230196122080088,
          -0.0022866909857839346,
          -0.019220203161239624,
          0.01929890550673008,
          -0.04154647886753082,
          0.02751910872757435,
          -0.009588832966983318,
          0.04351962357759476,
          0.06828290224075317,
          -0.0307758916169405,
          0.15616309642791748,
          -0.019639909267425537,
          -0.054761115461587906,
          -0.019715866073966026,
          0.05222084000706673,
          0.08011829853057861,
          -0.005893252324312925,
          -0.00938136875629425,
          0.1748075634241104,
          -0.08845952898263931,
          -0.060263291001319885,
          -0.05769180878996849,
          0.05354361981153488,
          0.0481342077255249,
          -0.083514004945755,
          -0.06688176095485687,
          0.05437401682138443,
          -0.05184995010495186,
          -0.069192074239254,
          -0.02829195372760296,
          0.06993558257818222,
          0.08405742049217224,
          -0.06663069874048233,
          0.08795088529586792,
          0.00563164334744215,
          0.01907583512365818,
          0.09942098706960678,
          -0.0348968431353569,
          0.025878161191940308,
          -0.04630632698535919,
          0.024593781679868698,
          -0.06364580988883972,
          -0.0796133279800415,
          0.046023670583963394,
          0.01485254056751728,
          -0.048288971185684204,
          0.0948907658457756,
          0.17125055193901062,
          0.06774237751960754,
          -0.04389497637748718,
          0.08153344690799713,
          -0.03291752189397812,
          0.012800315394997597,
          -0.16982774436473846,
          -0.06280699372291565,
          -0.11905737966299057,
          -0.08087024092674255,
          -0.017757490277290344
        ],
        [
          -0.1795842945575714,
          -0.005523547530174255,
          -0.019224096089601517,
          0.09578581154346466,
          -0.061338480561971664,
          0.06017773598432541,
          0.03789659962058067,
          -0.003388279117643833,
          0.024120310321450233,
          -0.014930958859622478,
          -0.02031911537051201,
          -0.151911199092865,
          -0.09365735203027725,
          -0.09263291209936142,
          -0.020127996802330017,
          0.0872102752327919,
          0.05318816378712654,
          -0.03499743342399597,
          -0.010639002546668053,
          -0.0749482810497284,
          0.008623453788459301,
          0.035126641392707825,
          -0.06730923801660538,
          -0.03920707106590271,
          0.08324871212244034,
          -0.11332682520151138,
          0.025439321994781494,
          0.0759296864271164,
          0.3323329985141754,
          0.09677281975746155,
          -0.17509855329990387,
          -0.06793682277202606,
          0.1369587481021881,
          -0.0027339502703398466,
          -0.02731071040034294,
          -0.12228123098611832,
          -0.1298660784959793,
          0.07143223285675049,
          -0.010851483792066574,
          0.04399193823337555,
          -0.005231515504419804,
          -0.009300232864916325,
          0.02561732940375805,
          0.08455440402030945,
          -0.022486776113510132,
          0.09863968193531036,
          0.06847034394741058,
          -0.005397418513894081,
          -0.002159790601581335,
          -0.022675778716802597,
          0.09736990183591843,
          0.05549292266368866,
          -0.05344527214765549,
          0.08558011800050735,
          0.012139841914176941,
          0.16054703295230865,
          0.10252388566732407,
          -0.07334601879119873,
          -0.07281040400266647,
          -0.026071006432175636,
          -0.06575679779052734,
          0.08094394207000732,
          0.13637931644916534,
          0.01930129900574684
        ],
        [
          -0.07950761169195175,
          -0.017108261585235596,
          0.10652321577072144,
          0.004814190790057182,
          -0.07281345129013062,
          -0.07561849802732468,
          0.06670767068862915,
          -0.003976022824645042,
          -0.08749078214168549,
          0.13683272898197174,
          -0.021459106355905533,
          0.06850369274616241,
          0.11155014485120773,
          -0.17967216670513153,
          -0.07366107404232025,
          -0.13611698150634766,
          0.02374928817152977,
          -0.02114279568195343,
          -0.04450828209519386,
          -0.09722176194190979,
          0.09508765488862991,
          0.11610777676105499,
          -0.09945795685052872,
          -0.03062310814857483,
          0.04698200151324272,
          -0.03897462412714958,
          0.09346741437911987,
          -0.09053421020507812,
          0.026301056146621704,
          0.05679503083229065,
          0.009481827728450298,
          0.0992993414402008,
          0.05785782262682915,
          0.10588544607162476,
          0.0435439758002758,
          0.10394949465990067,
          -0.06793466210365295,
          0.02813238836824894,
          -0.036277271807193756,
          -0.0490286760032177,
          0.07785589247941971,
          -0.02269948646426201,
          0.15699052810668945,
          0.024256518110632896,
          0.10585677623748779,
          0.03282324969768524,
          -0.04938967898488045,
          -0.036617886275053024,
          0.1443885713815689,
          0.13573940098285675,
          0.07776588946580887,
          0.05086332559585571,
          -0.4625004529953003,
          0.19102351367473602,
          0.10941416025161743,
          -0.13845615088939667,
          -0.0335463210940361,
          -0.05360211059451103,
          -0.12684889137744904,
          0.027311988174915314,
          -0.054293595254421234,
          0.1434536874294281,
          -0.39273205399513245,
          -0.1472427248954773
        ],
        [
          -0.0063035571947693825,
          0.0933970957994461,
          0.06928261369466782,
          0.11942318081855774,
          -0.11677969992160797,
          0.04988177493214607,
          0.004119068384170532,
          -0.08430629968643188,
          0.047656282782554626,
          0.01482949685305357,
          -0.05576247721910477,
          0.0676211416721344,
          0.00811400730162859,
          0.06751646101474762,
          0.03880681097507477,
          0.058388277888298035,
          -0.06801197677850723,
          0.054161861538887024,
          -0.05957719683647156,
          0.01519946102052927,
          -0.12252482771873474,
          0.05454900860786438,
          -0.1237645074725151,
          0.0589892715215683,
          -0.0024837125092744827,
          -0.01765584759414196,
          -0.10308295488357544,
          -0.08836433291435242,
          0.047588273882865906,
          0.10981130599975586,
          -0.06624859571456909,
          -0.0386858731508255,
          0.0982043445110321,
          -0.026909945532679558,
          -0.03435384854674339,
          -0.11069270968437195,
          0.022687165066599846,
          -0.06094514951109886,
          0.08566835522651672,
          -0.0734647735953331,
          0.011102457530796528,
          -0.09142809361219406,
          -0.07903698086738586,
          -0.05315080285072327,
          -0.08403754234313965,
          0.042427822947502136,
          -0.13555321097373962,
          -0.011118784546852112,
          -0.08465248346328735,
          -0.06419861316680908,
          -0.001916244626045227,
          0.017698675394058228,
          -0.07765354216098785,
          0.050347551703453064,
          0.07448291778564453,
          0.07677213102579117,
          -0.0774768590927124,
          0.047562360763549805,
          0.09140108525753021,
          -0.06602656841278076,
          -0.015348384156823158,
          -0.00044351525139063597,
          0.10539385676383972,
          -0.03658674657344818
        ],
        [
          0.06586876511573792,
          -0.08015866577625275,
          -0.04504935443401337,
          -0.029205352067947388,
          -0.040942344814538956,
          0.19497448205947876,
          -0.15488862991333008,
          -0.16199250519275665,
          -0.031121334061026573,
          -0.025307100266218185,
          -0.0017504820134490728,
          0.11097743362188339,
          0.05765779688954353,
          -0.048719730228185654,
          0.021645262837409973,
          0.12018200755119324,
          0.07942952960729599,
          0.11034056544303894,
          -0.08540153503417969,
          -0.12287674844264984,
          -0.0008284320938400924,
          0.04733531177043915,
          -0.18862909078598022,
          0.0611201673746109,
          0.18998512625694275,
          -0.05941692739725113,
          0.00815264880657196,
          0.062250636518001556,
          0.3888465166091919,
          0.07538534700870514,
          -0.2388300746679306,
          -0.05471256747841835,
          0.01869143173098564,
          -0.09272441267967224,
          0.10260157287120819,
          -0.08272276818752289,
          0.02693798765540123,
          0.03476601839065552,
          0.06887071579694748,
          0.053350821137428284,
          0.09203725308179855,
          0.19122014939785004,
          0.04877782240509987,
          -0.4139464795589447,
          0.00530456006526947,
          0.09871216118335724,
          0.028690040111541748,
          0.09364526718854904,
          -0.003954326268285513,
          -0.20221127569675446,
          0.28268563747406006,
          0.049962833523750305,
          0.2589464485645294,
          -0.02669457532465458,
          -0.08410008251667023,
          0.06462060660123825,
          0.02526085078716278,
          -0.15158648788928986,
          -0.04289577156305313,
          -0.25532767176628113,
          -0.10810662806034088,
          -0.29530730843544006,
          -0.03503771871328354,
          0.19161145389080048
        ],
        [
          -0.006094279699027538,
          -0.07679106295108795,
          0.06741391122341156,
          0.0150893060490489,
          -0.0547245591878891,
          0.08647020161151886,
          -0.12422133982181549,
          -0.05007240176200867,
          -0.13011129200458527,
          0.07466848194599152,
          -0.09945905953645706,
          0.020577484741806984,
          -0.09883260726928711,
          -0.1485467255115509,
          -0.05673284828662872,
          -0.07595273852348328,
          -0.04096158221364021,
          -0.03152880072593689,
          0.019318461418151855,
          -0.1123509481549263,
          -0.07713328301906586,
          0.06545740365982056,
          -0.11502186208963394,
          -0.06569299101829529,
          0.0874132588505745,
          -0.10478350520133972,
          0.017971917986869812,
          0.03974783420562744,
          0.05703847110271454,
          -0.10931433737277985,
          0.0002427258441457525,
          0.047846563160419464,
          -0.023433327674865723,
          -0.02417883090674877,
          0.08400192111730576,
          -0.021369891241192818,
          0.011366461403667927,
          -0.044516149908304214,
          -0.15418843924999237,
          -0.13901565968990326,
          -0.07465412467718124,
          -0.08795681595802307,
          0.11936713010072708,
          -0.05925040319561958,
          -0.10841366648674011,
          0.014107868075370789,
          -0.002952410839498043,
          -0.03191018104553223,
          -0.09639366716146469,
          0.026300400495529175,
          0.12112702429294586,
          -0.050009772181510925,
          -0.09024898707866669,
          0.04714073985815048,
          0.09239451587200165,
          -0.12323753535747528,
          0.10072678327560425,
          -0.10331942141056061,
          0.07015016674995422,
          -0.03517807275056839,
          -0.007632501423358917,
          -0.08120332658290863,
          0.06943978369235992,
          0.04066630080342293
        ],
        [
          0.027716567739844322,
          -0.025099873542785645,
          0.08257483690977097,
          0.09152620285749435,
          -0.1736977994441986,
          -0.06322018057107925,
          0.08604243397712708,
          -0.058749888092279434,
          0.05064866319298744,
          0.01306118443608284,
          -0.09818895906209946,
          -0.10636870563030243,
          -0.0003012165834661573,
          0.14616096019744873,
          0.016435891389846802,
          -0.02408711053431034,
          -0.11546126753091812,
          0.09193423390388489,
          0.09347381442785263,
          0.00710388133302331,
          0.14580006897449493,
          -0.061800867319107056,
          -0.06872358918190002,
          -0.11562876403331757,
          -0.03261595591902733,
          -0.1171332448720932,
          0.029391586780548096,
          0.0918111801147461,
          -0.012104330584406853,
          0.03211712837219238,
          -0.0497889518737793,
          0.05581741780042648,
          0.03905673325061798,
          0.007985400967299938,
          -0.09332336485385895,
          0.008008387871086597,
          -0.0872451663017273,
          0.051610808819532394,
          -0.09396890550851822,
          -0.024234440177679062,
          0.014679104089736938,
          -0.011699328199028969,
          -0.1704782098531723,
          0.13145864009857178,
          0.11917637288570404,
          -0.07548293471336365,
          -0.2047446072101593,
          0.12213404476642609,
          0.0057266587391495705,
          -0.023699825629591942,
          0.21171920001506805,
          -0.052573323249816895,
          -0.1260947734117508,
          -0.20873628556728363,
          0.0340593159198761,
          -0.0640188604593277,
          -0.1590299904346466,
          0.05305783450603485,
          -0.0020306669175624847,
          0.044295720756053925,
          0.0836869403719902,
          -0.01827610656619072,
          0.06020347774028778,
          -0.2916950583457947
        ],
        [
          -0.1036880761384964,
          -0.0007861554622650146,
          -0.05245690047740936,
          0.11543843895196915,
          -0.03680196404457092,
          0.012440203689038754,
          0.09590336680412292,
          -0.053371869027614594,
          -0.08504272252321243,
          0.04663638398051262,
          -0.1326143741607666,
          -0.10739345848560333,
          -0.12596359848976135,
          0.08416395634412766,
          0.07518459856510162,
          0.07470931857824326,
          -0.020948681980371475,
          0.06457921862602234,
          0.1158701479434967,
          -0.09038481116294861,
          0.06592743843793869,
          -0.0972367525100708,
          -0.058307576924562454,
          0.039635851979255676,
          -0.012171955779194832,
          -0.06949276477098465,
          0.07005590200424194,
          0.09826032817363739,
          -0.10501907765865326,
          0.045022398233413696,
          -0.04178856685757637,
          0.03493023291230202,
          0.025034263730049133,
          0.11382534354925156,
          -0.09449661523103714,
          0.014459057711064816,
          -0.04808814078569412,
          0.02878774330019951,
          -0.051016390323638916,
          -0.13574761152267456,
          -0.09267952293157578,
          -0.01993689313530922,
          0.052108488976955414,
          -0.034557610750198364,
          0.02588018774986267,
          -0.07804973423480988,
          -0.06258944422006607,
          0.010670389048755169,
          0.06260860711336136,
          -0.009730148129165173,
          0.012725397944450378,
          -0.08040252327919006,
          -0.13267195224761963,
          0.05063987895846367,
          -0.1050155758857727,
          0.06242579221725464,
          -0.03343207761645317,
          0.11228525638580322,
          0.04577505216002464,
          0.02205769717693329,
          -0.11560030281543732,
          -0.05640677362680435,
          0.05390743538737297,
          0.012512433342635632
        ],
        [
          0.08497186750173569,
          0.08337485790252686,
          -0.02716188132762909,
          0.05759008228778839,
          -0.011751686222851276,
          -0.09765443950891495,
          0.08163554966449738,
          -0.10203970968723297,
          -0.06819133460521698,
          0.06974154710769653,
          0.06361109018325806,
          -0.05452866852283478,
          -0.010698195546865463,
          -0.006272122263908386,
          0.062389716506004333,
          -0.05616237223148346,
          -0.10880129039287567,
          0.06987279653549194,
          -0.07937969267368317,
          -0.026457488536834717,
          -0.03605296090245247,
          0.05017121136188507,
          0.03974738344550133,
          0.06366944313049316,
          0.026325801387429237,
          -0.005829319357872009,
          -0.10550366342067719,
          -0.010398462414741516,
          0.11358384788036346,
          -0.05818438529968262,
          -0.07343487441539764,
          -0.07335430383682251,
          -0.11870810389518738,
          0.05310999974608421,
          0.017528600990772247,
          0.07088221609592438,
          -0.060969576239585876,
          -0.08956876397132874,
          -0.06746739894151688,
          -0.12339301407337189,
          0.038582876324653625,
          0.12626412510871887,
          0.0994463786482811,
          -0.12680472433567047,
          -0.032851606607437134,
          -0.06779246032238007,
          -0.04494936764240265,
          -0.07538042962551117,
          -0.05604849383234978,
          -0.06640999764204025,
          0.07348181307315826,
          -0.04730735719203949,
          0.07426491379737854,
          0.11545050144195557,
          0.08000664412975311,
          0.10325156152248383,
          -0.11907516419887543,
          0.037536051124334335,
          -0.015945225954055786,
          0.06524211913347244,
          -0.11697424948215485,
          -0.06583406031131744,
          0.0059486329555511475,
          0.019905701279640198
        ],
        [
          -0.001116427592933178,
          -0.025896146893501282,
          -0.11304445564746857,
          -0.12029173970222473,
          -0.11161952465772629,
          -0.10171213746070862,
          0.08200783282518387,
          0.1326170265674591,
          0.1487981081008911,
          -0.06497833877801895,
          0.0032149427570402622,
          0.0733901858329773,
          -0.38452404737472534,
          0.257219523191452,
          -0.11297130584716797,
          0.10602922737598419,
          0.3058806359767914,
          -0.039421647787094116,
          0.024071363732218742,
          0.04912048205733299,
          -0.061918023973703384,
          0.08072903752326965,
          0.04359373450279236,
          -0.03119666874408722,
          -0.06897252798080444,
          -0.0174127034842968,
          -0.06061428785324097,
          -0.12684780359268188,
          0.02762683853507042,
          0.029490813612937927,
          -0.029024772346019745,
          -0.02976897731423378,
          -0.015122947283089161,
          0.1441330760717392,
          -0.07598146051168442,
          -0.14112679660320282,
          0.08358900249004364,
          -0.15785284340381622,
          0.028088724240660667,
          0.05501040071249008,
          0.08129911869764328,
          0.09167809784412384,
          -0.37995702028274536,
          -0.043220967054367065,
          0.0022483915090560913,
          -0.027296945452690125,
          -0.058129407465457916,
          0.013583898544311523,
          0.11432962119579315,
          -0.026609089225530624,
          -0.09979759901762009,
          -0.05347071588039398,
          0.5559518337249756,
          0.11806459724903107,
          -0.022468790411949158,
          0.010553577914834023,
          0.09826896339654922,
          -0.4001069664955139,
          -0.09385955333709717,
          -0.2466965913772583,
          -0.10085982084274292,
          0.034901250153779984,
          0.48601987957954407,
          -0.27794149518013
        ],
        [
          -0.0026078654918819666,
          0.11341176927089691,
          0.022426320239901543,
          0.010874658823013306,
          0.018716193735599518,
          0.04376005008816719,
          0.0163863655179739,
          0.01252827513962984,
          0.05709592625498772,
          0.07251948118209839,
          -0.04305227845907211,
          0.02925422228872776,
          0.08976078033447266,
          -0.29842665791511536,
          0.05564764142036438,
          0.09905976057052612,
          -0.11300008744001389,
          -0.08269165456295013,
          0.03549610450863838,
          0.058559659868478775,
          0.03411699831485748,
          -0.10286076366901398,
          -0.09288540482521057,
          0.06296327710151672,
          -0.07268276810646057,
          -0.007624513935297728,
          0.019000142812728882,
          0.08638761192560196,
          -0.15503615140914917,
          -0.1084347814321518,
          -0.12615866959095,
          5.36446605110541e-05,
          -0.15301711857318878,
          -0.03258317708969116,
          0.040785592049360275,
          -0.010742397047579288,
          0.05929700657725334,
          0.11633559316396713,
          0.04251084476709366,
          0.0562082901597023,
          -0.11860431730747223,
          0.03838000074028969,
          -0.014133426360785961,
          -0.07168931514024734,
          -0.06414473056793213,
          0.1089860051870346,
          0.03314147889614105,
          0.09307355433702469,
          0.093841552734375,
          0.07505256682634354,
          -0.296783447265625,
          0.05089101195335388,
          -0.3640652000904083,
          -0.03229783475399017,
          -0.04735955595970154,
          -0.00606378773227334,
          -0.15711039304733276,
          0.18404141068458557,
          0.026348063722252846,
          -0.033494919538497925,
          0.007234102580696344,
          -0.027424035593867302,
          -0.10324257612228394,
          -0.060801245272159576
        ],
        [
          0.03039509616792202,
          0.028382495045661926,
          -0.07200147956609726,
          -0.051567643880844116,
          -0.13003714382648468,
          -0.05568811297416687,
          -0.09510545432567596,
          0.017978772521018982,
          0.08208990097045898,
          -0.007937542162835598,
          -0.05479497089982033,
          0.04852057993412018,
          0.10773301124572754,
          -0.09434174001216888,
          -0.0052536725997924805,
          -0.1100180447101593,
          0.08749803155660629,
          -0.10756638646125793,
          -0.06984266638755798,
          -0.016333766281604767,
          0.003558454802259803,
          -0.08621656894683838,
          -0.0617951825261116,
          -0.017437756061553955,
          0.08046211302280426,
          -0.02526165544986725,
          0.03152070939540863,
          -0.053203001618385315,
          -0.11773087084293365,
          -0.031502097845077515,
          0.041353821754455566,
          -0.08158314228057861,
          -0.10618455708026886,
          0.01420599315315485,
          -0.1262313425540924,
          0.05720853805541992,
          -0.11353849619626999,
          0.03863316774368286,
          -0.09774649143218994,
          0.005150442477315664,
          -0.09423710405826569,
          -0.09496656805276871,
          -0.11940935254096985,
          0.022233277559280396,
          0.06539741158485413,
          -0.12007541954517365,
          0.08922079205513,
          -0.058721840381622314,
          -0.1295441836118698,
          -0.1206759363412857,
          0.012439519166946411,
          0.013962432742118835,
          0.07527312636375427,
          0.06422457098960876,
          -0.05600249767303467,
          -0.09599870443344116,
          0.09271068871021271,
          0.09694378077983856,
          -0.10204347968101501,
          0.05805860087275505,
          -0.04957304149866104,
          0.016361232846975327,
          -0.09346960484981537,
          0.028757065534591675
        ],
        [
          0.139928936958313,
          -0.058260172605514526,
          -0.03996239975094795,
          0.002199113368988037,
          -0.10485569387674332,
          0.01030078437179327,
          0.14295761287212372,
          -0.02408629097044468,
          0.13547898828983307,
          -0.08190246671438217,
          -0.018160609528422356,
          0.06616310030221939,
          -0.13269729912281036,
          -0.03939933329820633,
          -0.10453774034976959,
          -0.05579093098640442,
          -0.05421920493245125,
          0.07055185735225677,
          -0.05049680173397064,
          -0.06068941950798035,
          -0.09415509551763535,
          -0.04713483154773712,
          -0.03171830624341965,
          -0.11687645316123962,
          0.055573493242263794,
          -0.050113409757614136,
          -0.10293503105640411,
          0.032348379492759705,
          -0.010206769220530987,
          0.06566016376018524,
          0.008681759238243103,
          -0.06623315811157227,
          -0.11326511204242706,
          -0.00740532111376524,
          0.09619259089231491,
          -0.03774643316864967,
          -0.11571305245161057,
          0.05036413297057152,
          -0.07583223283290863,
          0.025482747703790665,
          -0.06916193664073944,
          -0.07090914249420166,
          -0.0024254578165709972,
          0.07279688119888306,
          0.03485792875289917,
          0.0029278546571731567,
          0.06642258912324905,
          -0.05094084143638611,
          0.11488471180200577,
          -0.10647208243608475,
          -0.09504101425409317,
          0.05041375756263733,
          -0.004638180136680603,
          -0.13313157856464386,
          -0.10068535804748535,
          0.05167831480503082,
          0.041830554604530334,
          0.13930834829807281,
          0.03382359445095062,
          0.033705934882164,
          -0.008035723119974136,
          0.005470030475407839,
          0.03761855512857437,
          -0.10409465432167053
        ],
        [
          0.0360807329416275,
          -0.05177821218967438,
          0.04475865513086319,
          0.0792669951915741,
          -0.07150157541036606,
          0.07243750989437103,
          -0.07471359521150589,
          -0.01972433738410473,
          0.07213285565376282,
          -0.09165249764919281,
          -0.1676039695739746,
          -0.120625801384449,
          -0.1562242954969406,
          0.24899375438690186,
          -0.07891647517681122,
          -0.07257877290248871,
          0.01603430137038231,
          -0.03457362949848175,
          0.10593357682228088,
          -0.015828827396035194,
          0.07243230938911438,
          0.015142291784286499,
          0.02708270028233528,
          -0.061842694878578186,
