{
  "layers": [
    {
      "name": "0",
      "kind": "Linear",
      "inputSize": 15,
      "outputSize": 64,
      "hasBiases": true,
      "weights": [
        [
          0.0438995361328125,
          0.1309218406677246,
          -0.11124594509601593,
          0.19106483459472656,
          0.0924399197101593,
          -0.12111617624759674,
          -0.19906845688819885,
          -0.22790783643722534,
          -0.01871936023235321,
          0.03061056137084961,
          -0.1405927985906601,
          -0.16476595401763916,
          -0.16148966550827026,
          -0.22224591672420502,
          0.18860873579978943
        ],
        [
          -0.06580771505832672,
          -0.2571951746940613,
          -0.15110495686531067,
          -0.24139052629470825,
          -0.07062508165836334,
          0.021298617124557495,
          0.1261865794658661,
          -0.090569868683815,
          -0.012413948774337769,
          0.19898635149002075,
          0.22658246755599976,
          -0.225359246134758,
          -0.23753049969673157,
          0.08572837710380554,
          -0.10258811712265015
        ],
        [
          -0.36774227023124695,
          -0.278381884098053,
          0.19506584107875824,
          0.016292698681354523,
          0.25940850377082825,
          0.13786077499389648,
          0.030301271006464958,
          -0.132334902882576,
          0.06657321751117706,
          -0.027766967192292213,
          -0.1210932508111,
          -0.11496356874704361,
          -0.16599904000759125,
          -0.2999613583087921,
          0.010802775621414185
        ],
        [
          -0.09682196378707886,
          -0.057912230491638184,
          -0.13403481245040894,
          -0.16518230736255646,
          -0.21291597187519073,
          0.07118451595306396,
          -0.09302787482738495,
          0.03755545616149902,
          0.07982313632965088,
          0.2287750244140625,
          0.14606934785842896,
          -0.06311267614364624,
          0.12032365798950195,
          -0.12329491972923279,
          0.14682665467262268
        ],
        [
          -0.5645562410354614,
          -0.019866222515702248,
          0.07033661007881165,
          -0.22817647457122803,
          -0.06824319809675217,
          -0.0948382318019867,
          -0.23145326972007751,
          -0.10003522038459778,
          0.053170762956142426,
          0.09877312183380127,
          -0.014435792341828346,
          0.1504896730184555,
          0.18587790429592133,
          -0.01750093512237072,
          0.2486201971769333
        ],
        [
          -0.022255178540945053,
          0.16585944592952728,
          -0.07383526861667633,
          0.0552300401031971,
          0.03930727019906044,
          -0.18679015338420868,
          -0.12796232104301453,
          0.008237824775278568,
          -0.04155460372567177,
          -0.28845450282096863,
          0.020965036004781723,
          0.12321507185697556,
          -0.25217288732528687,
          0.006282835733145475,
          -0.08600910753011703
        ],
        [
          -0.13988468050956726,
          0.19566285610198975,
          -0.2503263056278229,
          -0.21183905005455017,
          -0.09250770509243011,
          -0.025108665227890015,
          -0.2564840614795685,
          0.21860632300376892,
          0.010192811489105225,
          -0.20980829000473022,
          -0.22729375958442688,
          -0.23031629621982574,
          -0.15393401682376862,
          -0.13864362239837646,
          -0.0962127149105072
        ],
        [
          0.7877662181854248,
          -0.5643621683120728,
          -0.12495981156826019,
          0.11381999403238297,
          -0.19629471004009247,
          -0.0306741613894701,
          0.14723986387252808,
          0.0552375353872776,
          -0.11551594734191895,
          0.059302203357219696,
          0.06626862287521362,
          0.1724967509508133,
          -0.12492202967405319,
          0.049974530935287476,
          0.19946222007274628
        ],
        [
          0.1336239129304886,
          0.8547446727752686,
          0.07456661015748978,
          -0.017853032797574997,
          -0.25499409437179565,
          0.013336479663848877,
          -0.05694521218538284,
          0.1614045798778534,
          -0.3613624572753906,
          -0.10384765267372131,
          -0.036197926849126816,
          -0.19379647076129913,
          0.045600634068250656,
          0.01911783404648304,
          -0.12308932840824127
        ],
        [
          -0.9135755300521851,
          -0.07568643242120743,
          0.13939978182315826,
          -0.2646329998970032,
          -0.1022576317191124,
          -0.11743544042110443,
          -0.0038778928574174643,
          -0.2705915868282318,
          -0.240410715341568,
          0.19625525176525116,
          -0.10892263054847717,
          -0.5698453783988953,
          0.13837073743343353,
          0.05854744464159012,
          -0.17245444655418396
        ],
        [
          0.030739275738596916,
          0.7940317988395691,
          0.14519983530044556,
          -0.2436768263578415,
          -0.05985543131828308,
          0.30338460206985474,
          0.14516422152519226,
          0.17861613631248474,
          -0.1923810839653015,
          0.07476947456598282,
          0.08179529756307602,
          -0.034316133707761765,
          0.015517734922468662,
          0.08280447870492935,
          -0.04089910909533501
        ],
        [
          -0.1938147395849228,
          -0.20195482671260834,
          0.10115142911672592,
          -0.23660023510456085,
          0.17889896035194397,
          -0.011697407811880112,
          0.3818472921848297,
          -0.027762997895479202,
          -0.15373560786247253,
          0.436138778924942,
          -0.017599156126379967,
          -0.30097606778144836,
          -0.18197768926620483,
          -0.014324009418487549,
          0.1943950057029724
        ],
        [
          -0.6259725093841553,
          0.3597680330276489,
          0.01229173131287098,
          0.20722787082195282,
          0.17591452598571777,
          -0.2523326575756073,
          0.05419840291142464,
          0.04596870020031929,
          0.06186026707291603,
          0.017220478504896164,
          0.05756814032793045,
          -0.058795537799596786,
          0.1632900983095169,
          0.10965599864721298,
          0.20227999985218048
        ],
        [
          -0.020756373181939125,
          -0.18979443609714508,
          -0.19022701680660248,
          -0.10361134260892868,
          0.17394477128982544,
          -0.19729240238666534,
          -0.23316040635108948,
          -0.03475320711731911,
          -0.05956251174211502,
          -0.02328493259847164,
          -0.10545818507671356,
          0.13477696478366852,
          0.013697443529963493,
          -0.12363741546869278,
          -0.21373550593852997
        ],
        [
          -0.25086337327957153,
          -0.08818419277667999,
          0.03470754623413086,
          0.007707089185714722,
          -0.08893990516662598,
          -0.07740384340286255,
          0.030251652002334595,
          -0.20118796825408936,
          -0.207302063703537,
          -0.15477830171585083,
          -0.023416027426719666,
          0.0823100209236145,
          -0.25344592332839966,
          0.23360663652420044,
          0.06336578726768494
        ],
        [
          -1.004831314086914,
          0.34065428376197815,
          0.1687823086977005,
          -0.22147926688194275,
          0.2580876350402832,
          -0.058420076966285706,
          -0.03966482728719711,
          0.08783436566591263,
          0.07014456391334534,
          -0.015536251477897167,
          -0.24806572496891022,
          -0.023662034422159195,
          -0.03401986509561539,
          -0.038604479283094406,
          0.20500144362449646
        ],
        [
          -0.44533485174179077,
          -0.3627319633960724,
          0.09020160883665085,
          -0.1620389074087143,
          -0.01348206214606762,
          -0.14157512784004211,
          0.11065401136875153,
          -0.17974849045276642,
          0.09639763832092285,
          -0.23080283403396606,
          0.10761497169733047,
          0.1352544128894806,
          0.012568308040499687,
          0.23136690258979797,
          0.12878380715847015
        ],
        [
          0.06830625236034393,
          0.0367281548678875,
          -0.28023210167884827,
          0.13767459988594055,
          -0.15286365151405334,
          0.14256109297275543,
          -0.23853035271167755,
          -0.019057318568229675,
          0.12308308482170105,
          -0.030536146834492683,
          -0.05941784009337425,
          -0.206076517701149,
          0.22302983701229095,
          -0.09043997526168823,
          0.1593073010444641
        ],
        [
          -0.20570747554302216,
          -0.035867840051651,
          -0.06750301271677017,
          -0.10333670675754547,
          -0.10150513052940369,
          -0.20469632744789124,
          0.0815793052315712,
          -0.25570622086524963,
          0.14524860680103302,
          0.06737149506807327,
          0.09118817001581192,
          -0.10087256133556366,
          -0.018286852166056633,
          0.11998563259840012,
          0.029163897037506104
        ],
        [
          0.1419752836227417,
          0.1465485394001007,
          -0.05189390480518341,
          -0.2553524971008301,
          -0.13806289434432983,
          0.23109811544418335,
          -0.21133333444595337,
          -0.20283634960651398,
          -0.003818333148956299,
          -0.10717342793941498,
          0.1064143180847168,
          -0.031624823808670044,
          -0.18901439011096954,
          -0.18340030312538147,
          -0.08545665442943573
        ],
        [
          0.6315320730209351,
          -0.22433175146579742,
          0.12018182128667831,
          -0.26637527346611023,
          -0.19537466764450073,
          -0.05885964632034302,
          -0.05128771811723709,
          0.1858987957239151,
          -0.1847933530807495,
          -0.07649786025285721,
          0.13866838812828064,
          -0.03258037939667702,
          0.077822245657444,
          0.20505857467651367,
          -0.06988918036222458
        ],
        [
          -0.3287357687950134,
          -1.0194463729858398,
          0.11707659065723419,
          -0.29737743735313416,
          -0.06166507303714752,
          -0.26845550537109375,
          -0.12223076075315475,
          -0.5516395568847656,
          -0.0561562217772007,
          0.23564636707305908,
          -0.024384664371609688,
          -0.10983141511678696,
          0.19643191993236542,
          -0.18534669280052185,
          0.14435109496116638
        ],
        [
          0.20662862062454224,
          0.4062923491001129,
          0.19618652760982513,
          0.195325568318367,
          -0.25378477573394775,
          -0.3029148280620575,
          -0.3023686408996582,
          -0.025961438193917274,
          -0.15506668388843536,
          -0.21359309554100037,
          -0.25139737129211426,
          -0.19352424144744873,
          0.01131368800997734,
          -0.122298464179039,
          0.2693125903606415
        ],
        [
          -0.3562980592250824,
          0.0016045143129304051,
          0.024040987715125084,
          0.10147921741008759,
          0.08568810671567917,
          -0.18627601861953735,
          0.1827385574579239,
          -0.2688063979148865,
          0.20451392233371735,
          -0.20556603372097015,
          -0.01819196715950966,
          -0.2536238133907318,
          0.11595284193754196,
          -0.21683326363563538,
          0.09661352634429932
        ],
        [
          0.17694371938705444,
          -0.04213954508304596,
          -0.17238417267799377,
          0.10763442516326904,
          0.19660896062850952,
          -0.06238760054111481,
          -0.03634175658226013,
          -0.25508370995521545,
          -0.24116788804531097,
          0.007558643817901611,
          0.17275282740592957,
          -0.1889510452747345,
          0.01571032404899597,
          -0.23804904520511627,
          0.19452029466629028
        ],
        [
          0.4929105043411255,
          -0.4887188971042633,
          0.12474701553583145,
          -0.2076534479856491,
          0.2578042149543762,
          0.11268691718578339,
          -0.07248389720916748,
          -0.23880895972251892,
          -0.14084823429584503,
          0.09554693847894669,
          -0.2470887452363968,
          0.0275406613945961,
          -0.06977905333042145,
          -0.0870865061879158,
          0.03248134255409241
        ],
        [
          0.041376128792762756,
          0.1965494304895401,
          -0.1792108565568924,
          -0.2250138521194458,
          -0.09510043263435364,
          0.03657718375325203,
          -0.12676049768924713,
          -0.10888172686100006,
          -0.10360375791788101,
          0.09792464226484299,
          0.020430492237210274,
          0.2114720195531845,
          0.14939850568771362,
          -0.22358569502830505,
          0.08184594660997391
        ],
        [
          -0.5796958804130554,
          -0.5659873485565186,
          -0.1023617759346962,
          0.28449028730392456,
          0.09509306401014328,
          -0.19957178831100464,
          -0.10085620731115341,
          0.20827510952949524,
          0.18283595144748688,
          -0.0713346004486084,
          0.08105351030826569,
          0.09326710551977158,
          -0.09167251735925674,
          0.13223302364349365,
          -0.017612991854548454
        ],
        [
          -0.5021451115608215,
          0.12355948239564896,
          0.10551335662603378,
          0.06569816917181015,
          0.1930544525384903,
          0.05642572417855263,
          0.19220900535583496,
          -0.1679142713546753,
          -0.050168123096227646,
          0.1775127649307251,
          0.029389960691332817,
          -0.008794223889708519,
          -0.11716467142105103,
          -0.014968305826187134,
          0.08644500374794006
        ],
        [
          -0.15956303477287292,
          0.1169566810131073,
          -0.16035395860671997,
          -0.18326234817504883,
          0.09276708960533142,
          -0.1276974231004715,
          -0.2580931484699249,
          0.16191181540489197,
          -0.10536505281925201,
          -0.09778669476509094,
          -0.12013792991638184,
          -0.1475965976715088,
          -0.17348746955394745,
          -0.11289536952972412,
          -0.18885821104049683
        ],
        [
          -0.30589136481285095,
          -0.334475040435791,
          -0.10687386989593506,
          -0.28229820728302,
          0.017475388944149017,
          -0.16272245347499847,
          0.050543271005153656,
          -0.07497598230838776,
          0.008560399524867535,
          -0.07400085031986237,
          -0.07827050983905792,
          -0.17014148831367493,
          0.1109568402171135,
          0.0468585304915905,
          0.06110519543290138
        ],
        [
          -0.16850142180919647,
          0.764421284198761,
          -0.13312788307666779,
          0.07638116925954819,
          0.2485339492559433,
          -0.09415002912282944,
          -0.47017231583595276,
          -0.3891077935695648,
          0.11714937537908554,
          0.015651460736989975,
          0.20877575874328613,
          0.17119786143302917,
          -0.2590022385120392,
          0.04402344673871994,
          0.09440632909536362
        ],
        [
          0.6969117522239685,
          0.15574197471141815,
          0.15103182196617126,
          -0.002723600482568145,
          -0.291517436504364,
          -0.2064102292060852,
          -0.13225902616977692,
          0.05045924708247185,
          -0.10968048125505447,
          -0.3334832489490509,
          0.2304985225200653,
          -0.025983160361647606,
          0.03892149031162262,
          -0.235636904835701,
          0.0983394980430603
        ],
        [
          -0.6368063688278198,
          0.15021389722824097,
          -0.030284252017736435,
          0.2579369843006134,
          0.01578603684902191,
          0.06873039901256561,
          0.41628262400627136,
          -0.17352360486984253,
          0.12119782716035843,
          0.1496841460466385,
          0.1869180053472519,
          -0.5088276267051697,
          0.21326054632663727,
          -0.25188180804252625,
          0.22431086003780365
        ],
        [
          0.05635058879852295,
          -0.140538290143013,
          -0.2512960135936737,
          0.025897206738591194,
          0.06374593824148178,
          -0.22162050008773804,
          0.11934836953878403,
          -0.1593073159456253,
          0.1793707311153412,
          0.017576299607753754,
          -0.2455272525548935,
          -0.009450525045394897,
          -0.11065337061882019,
          0.027294360101222992,
          -0.05205714330077171
        ],
        [
          0.5606814026832581,
          -0.3499763011932373,
          0.10659922659397125,
          -0.36533495783805847,
          0.1403752863407135,
          -0.3168279230594635,
          0.01480705663561821,
          -0.13283862173557281,
          -0.3191494047641754,
          0.14581337571144104,
          -0.029374804347753525,
          0.0043180882930755615,
          -0.18199633061885834,
          -0.0532938614487648,
          -0.009688238613307476
        ],
        [
          -0.8603475093841553,
          -0.24449092149734497,
          0.10415541380643845,
          -0.02971101552248001,
          -0.06399651616811752,
          0.07328850030899048,
          0.2764580547809601,
          -0.10123453289270401,
          -0.22159656882286072,
          0.2592419683933258,
          0.13866564631462097,
          -0.04564520716667175,
          -0.09008186310529709,
          -0.23471544682979584,
          0.05096029117703438
        ],
        [
          0.7316009402275085,
          0.3159576654434204,
          0.050385039299726486,
          -0.15457719564437866,
          0.08131149411201477,
          0.13465674221515656,
          0.2917235493659973,
          -0.03467120602726936,
          -0.05890626460313797,
          0.047186024487018585,
          0.025923190638422966,
          -0.033595044165849686,
          -0.07867318391799927,
          -0.10188830643892288,
          0.1282423734664917
        ],
        [
          0.7048876285552979,
          0.01802811585366726,
          -0.037017904222011566,
          -0.2434564232826233,
          -0.2911939024925232,
          0.16840282082557678,
          -0.08780866116285324,
          0.13767245411872864,
          -0.15797922015190125,
          -0.27655279636383057,
          0.0030899879056960344,
          0.1401546448469162,
          0.010167144238948822,
          0.1273198127746582,
          -0.004226397257298231
        ],
        [
          -0.1038556769490242,
          -0.019300444051623344,
          0.017002910375595093,
          -0.16887125372886658,
          -0.26354166865348816,
          0.0640963539481163,
          -0.24366942048072815,
          0.11295105516910553,
          0.025075899437069893,
          -0.11674228310585022,
          0.18988491594791412,
          -0.05282264202833176,
          0.012649930082261562,
          -0.00016215631330851465,
          -0.07306908816099167
        ],
        [
          0.03964531421661377,
          0.008871853351593018,
          -0.18995070457458496,
          -0.2320224940776825,
          0.225070059299469,
          -0.11802272498607635,
          0.18888568878173828,
          0.05189785361289978,
          0.14626869559288025,
          -0.03505735099315643,
          -0.05448122322559357,
          -0.09561139345169067,
          -0.24529258906841278,
          -0.0009102523326873779,
          0.21754664182662964
        ],
        [
          -0.3151806890964508,
          1.4845749139785767,
          -0.09200449287891388,
          -0.03238441422581673,
          -0.136788010597229,
          0.17302176356315613,
          0.13888143002986908,
          0.09379682689905167,
          -0.06355906277894974,
          -0.14968657493591309,
          -0.17797604203224182,
          -0.018930546939373016,
          0.14506034553050995,
          -0.06679420173168182,
          0.06064651533961296
        ],
        [
          -0.04133488982915878,
          0.7105328440666199,
          -0.23488277196884155,
          0.053723908960819244,
          -0.07990198582410812,
          0.07094353437423706,
          0.16165658831596375,
          -0.06555499136447906,
          0.006924461107701063,
          -0.064707450568676,
          -0.19463342428207397,
          -0.23700660467147827,
          0.0977090522646904,
          -0.01841915026307106,
          0.155887633562088
        ],
        [
          0.028729945421218872,
          -0.08899185061454773,
          0.08817872405052185,
          -0.137160062789917,
          -0.00959104299545288,
          0.04178977012634277,
          0.018046200275421143,
          0.15470734238624573,
          -0.19766604900360107,
          -0.22940456867218018,
          -0.19410929083824158,
          -0.230082705616951,
          -0.24901683628559113,
          -0.09426045417785645,
          -0.08825619518756866
        ],
        [
          -0.07772739976644516,
          -0.794475793838501,
          -0.06088711693882942,
          -0.1615375429391861,
          0.04258362203836441,
          -0.3673807382583618,
          -0.003754232544451952,
          -0.23026074469089508,
          -0.11852498352527618,
          -0.10976474732160568,
          0.24201354384422302,
          0.027134813368320465,
          -0.019050734117627144,
          0.054301667958498,
          0.04313987120985985
        ],
        [
          0.35807955265045166,
          0.13196727633476257,
          0.14739149808883667,
          -0.12662874162197113,
          -0.010200745426118374,
          0.014679532498121262,
          0.14468397200107574,
          0.21941561996936798,
          -0.06673254817724228,
          -0.290755957365036,
          -0.06753742694854736,
          -0.02311786264181137,
          -0.1799953728914261,
          -0.210173562169075,
          0.20409800112247467
        ],
        [
          0.16219663619995117,
          -0.0876709371805191,
          -0.22022777795791626,
          0.08906134963035583,
          -0.24100473523139954,
          -0.0725688487291336,
          -0.04815833270549774,
          -0.10728795826435089,
          -0.033472493290901184,
          0.04591333866119385,
          0.2132384181022644,
          0.07585987448692322,
          0.07501247525215149,
          -0.16555041074752808,
          -0.13038590550422668
        ],
        [
          0.7584211826324463,
          -0.37270888686180115,
          0.07224416732788086,
          -0.03751690313220024,
          -0.12335233390331268,
          -0.12083686143159866,
          -0.40978631377220154,
          0.1494208127260208,
          -0.03413175418972969,
          -0.3586260676383972,
          0.15819217264652252,
          0.07548189908266068,
          -0.17444080114364624,
          -0.048416584730148315,
          0.049301210790872574
        ],
        [
          0.668292760848999,
          0.11765103042125702,
          0.07913383096456528,
          0.09321177005767822,
          0.012782176025211811,
          -0.03909939154982567,
          -0.1836063414812088,
          0.20121069252490997,
          -0.11959505081176758,
          -0.003373644780367613,
          0.15961407124996185,
          -0.09223409742116928,
          -0.2669144570827484,
          0.2335817813873291,
          0.08808991312980652
        ],
        [
          -0.009301128797233105,
          -0.4707866609096527,
          -0.10674987733364105,
          -0.18426436185836792,
          0.19018372893333435,
          -0.2550349533557892,
          0.14617902040481567,
          0.10167068243026733,
          -0.10132404416799545,
          0.14397120475769043,
          -0.21345916390419006,
          0.14813728630542755,
          -0.03640909492969513,
          -0.03194313496351242,
          -0.009726650081574917
        ],
        [
          0.057775501161813736,
          -0.14569786190986633,
          0.1555434912443161,
          -0.20821642875671387,
          0.17842276394367218,
          -0.40831249952316284,
          -0.5577121376991272,
          -0.36119377613067627,
          -0.19390128552913666,
          0.22050409018993378,
          0.0008819889044389129,
          -0.03970032557845116,
          -0.024265442043542862,
          -0.051047153770923615,
          0.07736440002918243
        ],
        [
          -0.5010591149330139,
          -1.0786179304122925,
          -0.10655300319194794,
          0.05162084847688675,
          0.12401006370782852,
          -0.056913118809461594,
          -0.01986762322485447,
          -0.037849921733140945,
          0.07012179493904114,
          0.054537415504455566,
          0.1885741651058197,
          0.04107768088579178,
          0.06661238521337509,
          -0.18797247111797333,
          -0.056394584476947784
        ],
        [
          -0.16742560267448425,
          -0.8311940431594849,
          -0.1714469939470291,
          -0.06229577213525772,
          -0.08174991607666016,
          -0.35578930377960205,
          -0.4073725938796997,
          -0.20816217362880707,
          -0.005485639441758394,
          0.0693182721734047,
          0.1603587120771408,
          0.07797357439994812,
          0.08730384707450867,
          0.02655673399567604,
          -0.07102763652801514
        ],
        [
          -0.2786448895931244,
          -0.24838152527809143,
          -0.07438591122627258,
          0.2031576931476593,
          -0.21720829606056213,
          -0.19664211571216583,
          0.14562077820301056,
          0.07869227975606918,
          0.152751162648201,
          0.05726315826177597,
          -0.030553516000509262,
          0.10767011344432831,
          0.16389945149421692,
          0.13427411019802094,
          0.05692160874605179
        ],
        [
          1.0766702890396118,
          0.15852601826190948,
          0.14004743099212646,
          -0.26445943117141724,
          -0.03623450547456741,
          0.1142958402633667,
          -0.17777134478092194,
          -0.0021048958878964186,
          -0.15224911272525787,
          -0.21548257768154144,
          -0.17966274917125702,
          -0.017328675836324692,
          -0.015354271046817303,
          -0.12217403948307037,
          -0.039115939289331436
        ],
        [
          -0.8604136109352112,
          0.03481028228998184,
          -0.039190229028463364,
          0.005811417009681463,
          0.12024719268083572,
          -0.06812829524278641,
          0.1368803083896637,
          -0.23677897453308105,
          0.07373932003974915,
          0.09025189280509949,
          -0.057769015431404114,
          -0.0006403672741726041,
          0.11996310204267502,
          -0.1655394732952118,
          -0.21571189165115356
        ],
        [
          -0.40458667278289795,
          -0.12181700021028519,
          -0.4604242742061615,
          0.008327577263116837,
          0.04494614899158478,
          -0.17813095450401306,
          -0.27327728271484375,
          -0.2011755406856537,
          0.020678887143731117,
          -0.03914712741971016,
          -0.12760785222053528,
          -0.41823333501815796,
          0.14600229263305664,
          -0.19873477518558502,
          -0.014523593708872795
        ],
        [
          -0.44798603653907776,
          -0.21995127201080322,
          -0.02436034567654133,
          0.02030089497566223,
          0.11306172609329224,
          0.11529696732759476,
          0.05484875664114952,
          0.15017347037792206,
          0.12104696035385132,
          0.23658518493175507,
          -0.17743247747421265,
          0.10708235204219818,
          0.1515812873840332,
          -0.07287639379501343,
          -0.21176928281784058
        ],
        [
          -0.0994056984782219,
          -0.19680140912532806,
          -0.3902488648891449,
          -0.2693791091442108,
          0.23851729929447174,
          0.20067358016967773,
          -0.22221636772155762,
          -0.12355765700340271,
          -0.15450240671634674,
          -0.26244229078292847,
          -0.37673166394233704,
          -0.4060640335083008,
          0.05141129717230797,
          -0.05052781477570534,
          0.06966141611337662
        ],
        [
          -0.6429400444030762,
          0.30193451046943665,
          0.12896302342414856,
          -0.04104520380496979,
          -0.07507128268480301,
          -0.1925535500049591,
          0.1197613999247551,
          -0.22304658591747284,
          -0.28392621874809265,
          -0.2934872508049011,
          0.08133077621459961,
          -0.09786192327737808,
          0.21306124329566956,
          -0.2261253446340561,
          0.1679902821779251
        ],
        [
          -0.23912113904953003,
          -0.14112205803394318,
          -0.013329037465155125,
          -0.05133109167218208,
          -0.32614240050315857,
          0.1408051699399948,
          -0.038194525986909866,
          0.02895396575331688,
          -0.02817670628428459,
          0.03579026460647583,
          -0.03932711109519005,
          -0.0046204631216824055,
          -0.15238672494888306,
          0.025177644565701485,
          -0.07776234298944473
        ],
        [
          0.3615140914916992,
          0.11192271113395691,
          0.07873407006263733,
          -0.19985099136829376,
          0.1366778463125229,
          -0.03304905444383621,
          0.016921907663345337,
          -0.02831258997321129,
          0.15442338585853577,
          -0.3080378472805023,
          0.24126212298870087,
          -0.12784583866596222,
          -0.22402159869670868,
          -0.17240527272224426,
          -0.2299923151731491
        ],
        [
          -0.17090542614459991,
          -0.35799235105514526,
          0.11613178998231888,
          -0.1002316027879715,
          -0.14135995507240295,
          0.1472557634115219,
          -0.15691021084785461,
          -0.13480716943740845,
          -0.29585030674934387,
          0.13301129639148712,
          0.17196886241436005,
          -0.04268139228224754,
          0.0958533063530922,
          -0.023388586938381195,
          0.21685083210468292
        ],
        [
          -0.36353904008865356,
          -0.3035410940647125,
          0.13492371141910553,
          -0.27868199348449707,
          -0.04068424180150032,
          -0.21671220660209656,
          -0.08007308095693588,
          -0.062302399426698685,
          -0.005993862170726061,
          -0.2759195864200592,
          0.03098408319056034,
          -0.029000112786889076,
          0.1477460414171219,
          0.04686138033866882,
          0.22218859195709229
        ]
      ],
      "biases": [
        -0.2303158938884735,
        -0.018759682774543762,
        0.09763331711292267,
        0.06683984398841858,
        0.13478213548660278,
        -0.01846376806497574,
        -0.17498189210891724,
        -0.02229977957904339,
        0.18222792446613312,
        0.04846818000078201,
        -0.009016922675073147,
        -0.2006184607744217,
        -0.3051777780056,
        -0.1931869089603424,
        -0.04959586262702942,
        -0.05466872453689575,
        -0.17368413507938385,
        0.06067432835698128,
        -0.09614802151918411,
        -0.14459306001663208,
        -0.1852238029241562,
        0.08884286880493164,
        0.0681927278637886,
        -0.010289295576512814,
        0.0030174851417541504,
        -0.2888643741607666,
        -0.1450270414352417,
        -0.06918785721063614,
        0.07791712880134583,
        0.16300639510154724,
        0.18181659281253815,
        0.10844716429710388,
        -0.25367119908332825,
        -0.10953765362501144,
        -0.011137870140373707,
        0.13697490096092224,
        0.21234756708145142,
        -0.1539657711982727,
        0.15295222401618958,
        -0.1695050746202469,
        -0.18116556107997894,
        0.04190429300069809,
        -0.0961378738284111,
        -0.22560887038707733,
        -0.12017843872308731,
        -0.2834858000278473,
        0.10558521747589111,
        -0.18802723288536072,
        -0.06727337837219238,
        0.21349066495895386,
        -0.2758881747722626,
        0.1538623422384262,
        0.16841328144073486,
        0.20119789242744446,
        -0.13735045492649078,
        -0.23203624784946442,
        0.18213777244091034,
        -0.029659179970622063,
        -0.2503839433193207,
        -0.06170409172773361,
        -0.021706940606236458,
        -0.07636643946170807,
        -0.2604938745498657,
        0.08986058831214905
      ]
    },
    {
      "name": "1",
      "kind": "ReLU"
    },
    {
      "name": "2",
      "kind": "Linear",
      "inputSize": 64,
      "outputSize": 64,
      "hasBiases": true,
      "weights": [
        [
          -0.08792853355407715,
          0.07862839102745056,
          -0.042429786175489426,
          -0.07883363962173462,
          0.004465404432266951,
          -0.017130007967352867,
          -0.10287098586559296,
          0.06975141912698746,
          -0.09215230494737625,
          0.091728076338768,
          -0.021503562107682228,
          0.009782607667148113,
          -0.03895863890647888,
          0.06598880887031555,
          0.10637541115283966,
          -7.417608867399395e-05,
          0.04251427203416824,
          -0.08382224291563034,
          -0.09074203670024872,
          -0.11749327182769775,
          0.03591290861368179,
          -0.014368933625519276,
          0.09137523919343948,
          0.053170014172792435,
          -0.0486990362405777,
          -0.029110774397850037,
          0.03045109659433365,
          -0.023594707250595093,
          0.06873299181461334,
          0.03743016719818115,
          0.0035566322039812803,
          0.009412120096385479,
          0.01570061407983303,
          -0.21418140828609467,
          0.08970925211906433,
          0.10054487735033035,
          -0.03967824578285217,
          0.06820806115865707,
          -0.04281065985560417,
          -0.1522565335035324,
          -0.12390948832035065,
          0.0030213850550353527,
          -0.019665425643324852,
          -0.10704003274440765,
          -0.002855550730600953,
          -0.018816106021404266,
          -0.03295591473579407,
          0.14629283547401428,
          -0.011532705277204514,
          -0.027417117729783058,
          -0.161509171128273,
          -0.0853274017572403,
          -0.3951071798801422,
          0.010643882676959038,
          0.07872135192155838,
          -0.07517822831869125,
          0.03336530923843384,
          0.10577639937400818,
          0.009554579854011536,
          -0.08187510818243027,
          0.12509866058826447,
          -0.028048347681760788,
          -0.10770376771688461,
          -0.11833740025758743
        ],
        [
          0.08419328927993774,
          -0.09647153317928314,
          -0.018406959250569344,
          0.07929904758930206,
          0.021452924236655235,
          0.10966842621564865,
          -0.12302930653095245,
          0.015975981950759888,
          -0.11240757256746292,
          -0.014955630525946617,
          0.027651643380522728,
          -0.04688188433647156,
          0.05763958394527435,
          0.022940384224057198,
          0.049627214670181274,
          0.028702154755592346,
          0.028240907937288284,
          0.03214840963482857,
          -0.11156619340181351,
          0.10135908424854279,
          0.031234582886099815,
          -0.38818565011024475,
          -0.10499745607376099,
          -0.182582825422287,
          0.05885887145996094,
          0.06354059278964996,
          0.03101423755288124,
          0.05823017656803131,
          0.06352333724498749,
          -0.03771315515041351,
          0.0353286936879158,
          0.09364815056324005,
          0.04972284659743309,
          -0.14075905084609985,
          0.05576448515057564,
          -0.05526589974761009,
          -0.011773599311709404,
          -0.2747747004032135,
          -0.0264400914311409,
          0.08589700609445572,
          -0.012745365500450134,
          -0.5549784898757935,
          0.022531867027282715,
          0.08123517036437988,
          -0.033997759222984314,
          0.036012809723615646,
          -0.09824679791927338,
          0.05765844136476517,
          -0.01514461450278759,
          0.03435363993048668,
          0.10532522201538086,
          0.09257223457098007,
          0.09164156019687653,
          0.009971781633794308,
          -0.1676231473684311,
          -0.056054744869470596,
          -0.05575555935502052,
          -0.02376197651028633,
          -0.005922181531786919,
          -0.1140541061758995,
          0.06731926649808884,
          -0.20395392179489136,
          0.07817447185516357,
          0.10661879181861877
        ],
        [
          0.00032806396484375,
          0.10793735086917877,
          -0.12701795995235443,
          0.11270864307880402,
          -0.013000715523958206,
          -0.06449180841445923,
          -0.004332110285758972,
          -0.0556240938603878,
          0.16758087277412415,
          -0.12457520514726639,
          -0.10214395821094513,
          0.0186164528131485,
          -0.08520174026489258,
          -0.14990867674350739,
          -0.04307170212268829,
          -0.14727334678173065,
          -0.06662599742412567,
          -0.05586786940693855,
          0.021504521369934082,
          -0.05482952296733856,
          0.14326219260692596,
          0.05015306919813156,
          -0.07058968394994736,
          -0.11133912950754166,
          0.0284385085105896,
          -0.05438005551695824,
          0.08258570730686188,
          0.05115808546543121,
          -0.12093695253133774,
          0.12403519451618195,
          -0.052645135670900345,
          -0.19500267505645752,
          0.01820424571633339,
          -0.10875578224658966,
          0.046694621443748474,
          0.1115826889872551,
          -0.1425141543149948,
          0.1021350622177124,
          -0.2062603235244751,
          0.025141259655356407,
          -0.013615399599075317,
          0.017048412933945656,
          0.009378902614116669,
          -0.061057835817337036,
          0.10010593384504318,
          0.06702183932065964,
          -0.09137700498104095,
          0.1088830903172493,
          -0.0030746946576982737,
          0.054838668555021286,
          -0.0103486068546772,
          0.266222208738327,
          0.1447567641735077,
          -0.009343198500573635,
          0.09635831415653229,
          -0.0743221640586853,
          -0.13616053760051727,
          -0.09323795139789581,
          0.028223583474755287,
          0.0007971836603246629,
          -0.13188453018665314,
          -0.02424873411655426,
          -0.003469410352408886,
          -0.01988612301647663
        ],
        [
          -0.0017976164817810059,
          -0.10880890488624573,
          -0.003643923671916127,
          -0.062340304255485535,
          0.07065392285585403,
          -0.08573973178863525,
          0.08952915668487549,
          -0.044526223093271255,
          -0.4081777036190033,
          -0.029883859679102898,
          0.021558532491326332,
          -0.10023824125528336,
          0.00810747779905796,
          -0.09723949432373047,
          0.07382713258266449,
          0.031754642724990845,
          0.08039584755897522,
          -0.05479740351438522,
          -0.009970986284315586,
          -0.057500362396240234,
          0.025912007316946983,
          -0.11310673505067825,
          -0.12558460235595703,
          -0.06386537104845047,
          0.02264268696308136,
          0.016553137451410294,
          0.03057735599577427,
          0.014130511321127415,
          -0.0662878006696701,
          0.024758651852607727,
          0.05654916167259216,
          0.13234636187553406,
          -0.14249490201473236,
          -0.07924418151378632,
          0.026064367964863777,
          -0.05116710439324379,
          0.14214298129081726,
          0.0005265319487079978,
          -0.043322496116161346,
          -0.14850422739982605,
          -0.08841755986213684,
          -0.5213465094566345,
          0.10603266209363937,
          0.04899865388870239,
          0.05855424329638481,
          -0.054258860647678375,
          0.08541853725910187,
          -0.2760373651981354,
          0.008420654572546482,
          0.04273448511958122,
          0.13233216106891632,
          -0.0743279829621315,
          -0.09916028380393982,
          0.055605486035346985,
          -0.09104442596435547,
          0.06459831446409225,
          -0.19950072467327118,
          0.014223298989236355,
          0.05947956070303917,
          -0.24996115267276764,
          0.014384348876774311,
          0.055523332208395004,
          -0.0318082720041275,
          -0.12012143433094025
        ],
        [
          -0.04494272172451019,
          -0.062496036291122437,
          -0.09941915422677994,
          -0.12083813548088074,
          0.049319278448820114,
          0.09608204662799835,
          0.0010757893323898315,
          -0.06464428454637527,
          -0.013914230279624462,
          -0.09972425550222397,
          0.028425415977835655,
          0.05161576718091965,
          -0.03919953480362892,
          0.054176248610019684,
          0.061058953404426575,
          -0.11770915240049362,
          -0.009514196775853634,
          -0.07006725668907166,
          -0.15113435685634613,
          -0.02556559443473816,
          -0.05404401570558548,
          -0.0075487601570785046,
          0.0001398966705892235,
          0.09072206169366837,
          0.1044146716594696,
          0.028084510937333107,
          0.043134868144989014,
          0.0700608566403389,
          -0.003708525327965617,
          -0.0755363404750824,
          0.05111682415008545,
          0.1317935734987259,
          -0.1609843373298645,
          0.009905067272484303,
          0.06367579102516174,
          -0.07209869474172592,
          -0.013067592866718769,
          0.0036845922004431486,
          -0.05149778351187706,
          -0.10320223867893219,
          -0.06450916826725006,
          0.048480913043022156,
          -0.1286727637052536,
          0.039479076862335205,
          -0.11061600595712662,
          0.05800134688615799,
          0.06767408549785614,
          0.06536403298377991,
          -0.08713257312774658,
          0.0324520580470562,
          0.08407183736562729,
          -0.16388586163520813,
          0.055516619235277176,
          -0.05492516607046127,
          -0.001386767253279686,
          0.02384316921234131,
          0.0369209386408329,
          -0.08554402738809586,
          0.034144043922424316,
          -0.07077769935131073,
          0.11133123934268951,
          -0.014113085344433784,
          -0.06956389546394348,
          -0.11084823310375214
        ],
        [
          -0.01841716468334198,
          -0.05565549433231354,
          0.00012111646356061101,
          0.012504994869232178,
          -0.22564563155174255,
          -0.041800856590270996,
          -0.036992788314819336,
          -0.1997927725315094,
          -0.10457463562488556,
          -0.0671241506934166,
          0.10269099473953247,
          0.03234162554144859,
          -0.10448036342859268,
          0.05001009628176689,
          -0.036503732204437256,
          0.08198090642690659,
          -0.02613753452897072,
          0.11568339169025421,
          0.0399324931204319,
          -0.07693873345851898,
          0.0328647680580616,
          0.00640224851667881,
          0.030036894604563713,
          -0.012834702618420124,
          -0.04602290689945221,
          0.17447561025619507,
          0.11911613494157791,
          0.19481195509433746,
          -0.05534655600786209,
          -0.10900130867958069,
          0.010065555572509766,
          0.036142271012067795,
          -0.07768895477056503,
          -0.08006948977708817,
          -0.05969125032424927,
          -0.03568749874830246,
          -0.056069474667310715,
          -0.04952024668455124,
          0.005388776306062937,
          0.11138328909873962,
          -0.11674140393733978,
          -0.06368967145681381,
          -0.13763739168643951,
          -0.0897512286901474,
          -0.053953565657138824,
          -0.04471467062830925,
          -0.08289627730846405,
          -0.05106956139206886,
          0.05243561044335365,
          -0.1594187319278717,
          0.07971303164958954,
          0.17548051476478577,
          -0.21545223891735077,
          -0.037884753197431564,
          -0.04097655043005943,
          0.04298871010541916,
          0.082680344581604,
          -0.12735389173030853,
          0.03288912773132324,
          0.0051661389879882336,
          0.05872498080134392,
          0.05932212248444557,
          0.11108613759279251,
          0.10664987564086914
        ],
        [
          0.05603708326816559,
          -0.10391758382320404,
          0.15477615594863892,
          -0.04483148455619812,
          -0.10721991211175919,
          -0.11071410775184631,
          0.025179505348205566,
          0.060808055102825165,
          -0.001790887676179409,
          -0.28142791986465454,
          -0.062408771365880966,
          -0.04296715557575226,
          -0.039722543209791183,
          -0.1429494172334671,
          -0.004995077848434448,
          0.001555399619974196,
          0.06379537284374237,
          0.09605271369218826,
          -0.010318994522094727,
          0.038463786244392395,
          -0.0673447996377945,
          0.1108483225107193,
          -0.15421181917190552,
          0.05029410496354103,
          0.05754329264163971,
          0.09568308293819427,
          0.016226842999458313,
          -0.05867750942707062,
          -0.013345020823180676,
          -0.037967294454574585,
          -0.06768575310707092,
          0.08733495324850082,
          0.007868272252380848,
          0.07071724534034729,
          0.06058670952916145,
          -0.21513082087039948,
          0.013254247605800629,
          -0.048553600907325745,
          0.2017252892255783,
          0.08642405271530151,
          -0.04293578863143921,
          -0.23640792071819305,
          0.06652700155973434,
          0.08757303655147552,
          0.038729067891836166,
          0.11312749236822128,
          0.09748221933841705,
          -0.2082424759864807,
          -0.027472715824842453,
          -0.06861038506031036,
          0.008587654680013657,
          -0.10626756399869919,
          -0.008716821670532227,
          -0.12596173584461212,
          0.06562099605798721,
          -0.257882297039032,
          -0.04173382744193077,
          0.10091475397348404,
          -0.03397615626454353,
          -0.008140799589455128,
          0.07577496021986008,
          0.08288079500198364,
          0.0667494609951973,
          0.08259548246860504
        ],
        [
          0.038352787494659424,
          0.04763732850551605,
          -0.0877624899148941,
          0.07534344494342804,
          -0.049459099769592285,
          0.0622587651014328,
          -0.020606040954589844,
          0.001264023594558239,
          0.04622160270810127,
          0.02618435025215149,
          -0.006423691287636757,
          -0.007278695702552795,
          0.04977859929203987,
          -0.08256696164608002,
          0.03561876714229584,
          -0.08801774680614471,
          -0.06187418848276138,
          0.048214659094810486,
          0.02335265278816223,
          0.07966306805610657,
          0.020994633436203003,
          0.08149638772010803,
          0.02863718569278717,
          0.08963750302791595,
          0.095282644033432,
          -0.08756185322999954,
          0.09564237296581268,
          0.10939450562000275,
          -0.08881484717130661,
          0.11369384825229645,
          0.0037713348865509033,
          -0.021289244294166565,
          0.07664752006530762,
          -0.049084678292274475,
          -0.038930535316467285,
          0.09220327436923981,
          0.03060964308679104,
          -0.12955491244792938,
          0.0764276310801506,
          -0.08849732577800751,
          -0.003978371620178223,
          0.10841784626245499,
          -0.10914477705955505,
          -0.04605533182621002,
          0.06765419244766235,
          -0.09097718447446823,
          0.07133351266384125,
          -0.12658146023750305,
          -0.05557192489504814,
          -0.11325179040431976,
          0.04862596467137337,
          -0.013673901557922363,
          -0.11291086673736572,
          0.058323998004198074,
          0.010633171536028385,
          -0.09495299309492111,
          0.059887632727622986,
          -0.1463736593723297,
          -0.007951810956001282,
          0.09282045066356659,
          0.057428475469350815,
          -0.12306519597768784,
          0.009239701554179192,
          -0.10704293102025986
        ],
        [
          0.11284822225570679,
          0.0815843790769577,
          0.0799931064248085,
          -0.08675593137741089,
          -0.022371910512447357,
          0.005405108910053968,
          -0.1108115017414093,
          -0.08474645763635635,
          0.22350706160068512,
          0.26126721501350403,
          0.00406584981828928,
          0.009969047270715237,
          0.07988963276147842,
          -0.0906505212187767,
          -0.010988205671310425,
          0.08177751302719116,
          -0.11108488589525223,
          0.0424799919128418,
          0.004100849851965904,
          0.09414811432361603,
          -0.28337159752845764,
          0.2060152292251587,
          -0.16519993543624878,
          0.01798361912369728,
          0.12450778484344482,
          0.014935202896595001,
          0.08619865775108337,
          -0.2837561368942261,
          0.0695209950208664,
          -0.10998792946338654,
          0.03997093439102173,
          -0.2919943928718567,
          -0.5415117740631104,
          0.23075497150421143,
          -0.005594186019152403,
          -0.19997897744178772,
          0.16465938091278076,
          -0.13156671822071075,
          0.15217512845993042,
          -0.07417429238557816,
          0.06532944738864899,
          0.6256367564201355,
          0.08090229332447052,
          -0.052961841225624084,
          -0.05614140257239342,
          -0.08314025402069092,
          -0.0032024085521698,
          -0.3199973404407501,
          -0.39214131236076355,
          0.05305933207273483,
          -0.0507892444729805,
          0.08037561178207397,
          -0.08577865362167358,
          -0.008509666658937931,
          -0.25664350390434265,
          -0.09856130182743073,
          0.16742265224456787,
          -0.12166360020637512,
          0.07074540108442307,
          0.11742385476827621,
          -0.1998225450515747,
          -0.22185710072517395,
          -0.042749032378196716,
          -0.1577337235212326
        ],
        [
          -0.04892855882644653,
          -0.08419211208820343,
          0.01885039173066616,
          0.045079559087753296,
          -0.025057854130864143,
          -0.11232568323612213,
          -0.10982947051525116,
          -0.11828736960887909,
          0.004003269597887993,
          -0.011172370985150337,
          -0.12268462032079697,
          -0.07770819962024689,
          0.05822143331170082,
          0.030170219019055367,
          -0.06358470022678375,
          -0.06970527023077011,
          0.02960769273340702,
          -0.024958692491054535,
          -0.019936107099056244,
          0.02478538453578949,
          -0.1015743538737297,
          -0.12858806550502777,
          0.02846086025238037,
          -0.011298955418169498,
          0.017582640051841736,
          -0.03717397525906563,
          -0.03730587661266327,
          0.0052659837529063225,
          0.016161257401108742,
          0.09505258500576019,
          0.09901867806911469,
          0.04346003383398056,
          0.01323781069368124,
          -0.08120973408222198,
          -0.12373454123735428,
          -0.12188071757555008,
          0.014427751302719116,
          -0.01723603345453739,
          -0.0378204882144928,
          -0.016872435808181763,
          0.09301455318927765,
          -0.02981996163725853,
          -0.0863269567489624,
          0.03356984257698059,
          0.07591218501329422,
          -0.021108021959662437,
          -0.039390549063682556,
          -0.0597136914730072,
          0.057357508689165115,
          0.010378187522292137,
          0.05672498792409897,
          -0.05222146585583687,
          -0.08100555837154388,
          -0.0835944414138794,
          -0.02776269055902958,
          -0.14289522171020508,
          0.10498079657554626,
          -0.036230023950338364,
          0.03641780465841293,
          -0.08622125536203384,
          0.08425332605838776,
          -0.02135506458580494,
          -0.061376869678497314,
          -0.06596124172210693
        ],
        [
          0.02949225902557373,
          0.1144830584526062,
          0.02446412667632103,
          0.10743553936481476,
          -0.1325884610414505,
          -0.06812512874603271,
          -0.0042597949504852295,
          0.042026348412036896,
          -0.10514332354068756,
          0.03777711093425751,
          -0.07907525449991226,
          -0.05827425420284271,
          -0.06680268049240112,
          0.036925941705703735,
          -0.11939528584480286,
          -0.11585530638694763,
          0.10095181316137314,
          0.06118835508823395,
          -0.12473088502883911,
          -0.05326390266418457,
          -0.06698855012655258,
          0.007290482521057129,
          0.004443958401679993,
          -0.07325972616672516,
          -0.09098663926124573,
          0.04580893740057945,
          -0.1072523444890976,
          -0.11871309578418732,
          0.016756154596805573,
          0.024738535284996033,
          0.10685507953166962,
          0.05964943766593933,
          -0.0489073246717453,
          0.0038802623748779297,
          0.11219629645347595,
          0.031113889068365097,
          -0.040661368519067764,
          0.06052999570965767,
          -0.04724574834108353,
          -0.12033504992723465,
          0.05532783269882202,
          -0.01903894543647766,
          -0.03572720289230347,
          0.01855848729610443,
          0.020465582609176636,
          -0.05065459758043289,
          0.007778331637382507,
          -0.03616384416818619,
          -0.05711549147963524,
          0.040598269551992416,
          -0.06441806256771088,
          -0.1273941993713379,
          -0.04539831727743149,
          -0.06337376683950424,
          -0.020174285396933556,
          0.07424205541610718,
          0.09720836579799652,
          -0.06458373367786407,
          -0.07716789841651917,
          -0.11557286977767944,
          0.0187549889087677,
          0.08278355002403259,
          0.05092095956206322,
          -0.10116396099328995
        ],
        [
          -0.019583657383918762,
          0.07405588030815125,
          -0.1120600625872612,
          0.031437307596206665,
          -0.07319898903369904,
          -0.1076289713382721,
          -0.034708425402641296,
          -0.07085342705249786,
          -0.1019081100821495,
          -0.08142999559640884,
          0.0022953266743570566,
          0.08119501173496246,
          -0.016526393592357635,
          -0.00541869318112731,
          -0.07947620749473572,
          0.049990907311439514,
          -0.04331350326538086,
          0.03625083714723587,
          0.013762511312961578,
          -0.10401114821434021,
          -0.06673042476177216,
          0.05653805285692215,
          -0.11532865464687347,
          -0.01844325102865696,
          -0.04757983982563019,
          0.020512768998742104,
          -0.044165730476379395,
          -0.003061134135350585,
          -0.03930243104696274,
          -0.08535388112068176,
          -0.11118804663419724,
          -0.062224194407463074,
          0.015348992310464382,
          0.09201067686080933,
          0.05837254226207733,
          -0.08130978047847748,
          -0.021752459928393364,
          0.0796491727232933,
          0.06131696701049805,
          0.08104389905929565,
          0.12408953905105591,
          0.08454690128564835,
          0.03802398219704628,
          0.11109061539173126,
          0.0033548776991665363,
          -0.12830694019794464,
          0.0872243344783783,
          0.019743870943784714,
          0.07691869139671326,
          0.07613639533519745,
          -0.010125977918505669,
          0.059485405683517456,
          -0.12143917381763458,
          -0.05995367094874382,
          -0.04950789362192154,
          0.021858621388673782,
          0.07565804570913315,
          -0.08829869329929352,
          -0.09617474675178528,
          0.05183635279536247,
          0.09094536304473877,
          0.024952469393610954,
          0.02948552742600441,
          -0.033594775944948196
        ],
        [
          -0.04825969040393829,
          0.07809975743293762,
          -0.009138078428804874,
          0.10088971257209778,
          0.008305423893034458,
          0.10400061309337616,
          -0.10783332586288452,
          0.2430744618177414,
          0.2046893984079361,
          -0.25914156436920166,
          0.15349814295768738,
          -0.3065187633037567,
          -0.2845815420150757,
          0.13088443875312805,
          -0.10102562606334686,
          -0.18864913284778595,
          -0.07905705273151398,
          0.09199781715869904,
          0.09678813070058823,
          -0.05929343402385712,
          0.2492513358592987,
          0.11758524179458618,
          0.14090995490550995,
          -0.07741967588663101,
          0.07229126989841461,
          0.14389127492904663,
          0.12834838032722473,
          -0.11934219300746918,
          -0.030835391953587532,
          -0.04539558291435242,
          -0.022572116926312447,
          -0.18744951486587524,
          0.1255766749382019,
          -0.06583162397146225,
          -0.06904823333024979,
          -0.0153583949431777,
          -0.3004263639450073,
          0.23542150855064392,
          0.07392402738332748,
          0.1573353111743927,
          -0.09160596132278442,
          0.053342945873737335,
          -0.12041851133108139,
          0.05980674922466278,
          0.11671913415193558,
          0.05850888043642044,
          -0.10998742282390594,
          0.16588841378688812,
          0.1807554066181183,
          0.021676838397979736,
          0.11287641525268555,
          -0.1556914895772934,
          0.2217307835817337,
          0.08612927049398422,
          0.30254030227661133,
          -0.47997158765792847,
          0.08298011124134064,
          -0.048737164586782455,
          -0.006424648221582174,
          -0.05972105264663696,
          0.10625485330820084,
          0.02107391133904457,
          -0.06463101506233215,
          -0.08498485386371613
        ],
        [
          -0.009832367300987244,
          -0.09018170833587646,
          0.08008702099323273,
          0.012750998139381409,
          -0.09295149147510529,
          0.05665689706802368,
          0.04779230058193207,
          0.11654412746429443,
          -0.11042377352714539,
          -0.08298748731613159,
          -0.09656849503517151,
          -0.03313860297203064,
          0.058653563261032104,
          0.01159144937992096,
          0.10897493362426758,
          -0.04981021583080292,
          0.015574425458908081,
          -0.0027671605348587036,
          0.05759227275848389,
          0.10163523256778717,
          -0.1010456383228302,
          -0.06789149343967438,
          0.06962136924266815,
          -0.11640110611915588,
          -0.05971349775791168,
          -0.11639444530010223,
          -0.02431139349937439,
          -0.018623575568199158,
          -0.08188660442829132,
          -0.04988086223602295,
          0.10720779001712799,
          -0.013633444905281067,
          -0.01827371120452881,
          -0.08348545432090759,
          -0.07010436058044434,
          0.008299052715301514,
          0.08901648223400116,
          -0.03733299672603607,
          0.10934141278266907,
          0.10414671897888184,
          0.028311848640441895,
          0.03618273138999939,
          -0.1151779294013977,
          -0.006234154105186462,
          -0.10410133004188538,
          -0.0200260728597641,
          0.024319171905517578,
          -0.10751639306545258,
          0.11899828910827637,
          -0.11970628798007965,
          -0.004458799958229065,
          0.08851048350334167,
          0.0007871687412261963,
          0.014744624495506287,
          -0.01817159354686737,
          0.01959921419620514,
          -0.027606740593910217,
          -0.12100687623023987,
          0.03653174638748169,
          -0.044360190629959106,
          0.05889301002025604,
          -0.09236496686935425,
          -0.03140668570995331,
          -0.008651390671730042
        ],
        [
          0.009534835815429688,
          -0.08231745660305023,
          -0.057145170867443085,
          -0.10135778784751892,
          -0.0970272645354271,
          0.07207700610160828,
          -0.03140030801296234,
          -0.10617832839488983,
          0.05961792171001434,
          0.06878696382045746,
          0.020969530567526817,
          0.06560783088207245,
          0.004987035412341356,
          -0.03700980916619301,
          0.004789307713508606,
          -0.04241888225078583,
          -0.07236801087856293,
          -0.04039829969406128,
          -0.1108529269695282,
          0.011323675513267517,
          -0.09135015308856964,
          -0.0937495082616806,
          -0.09258808940649033,
          -0.05862896516919136,
          -0.016561120748519897,
          -0.10648474842309952,
          -0.008311793208122253,
          0.08575205504894257,
          0.029975563287734985,
          0.029068723320961,
          0.035981424152851105,
          -0.019721489399671555,
          0.017762111499905586,
          -0.057255711406469345,
          0.01700185239315033,
          0.05145673826336861,
          0.028126541525125504,
          0.020103327929973602,
          0.0054683685302734375,
          -0.022475507110357285,
          0.0802442729473114,
          -0.06610030680894852,
          -0.05118117853999138,
          -0.044617876410484314,
          -0.11419156938791275,
          -0.05612288787961006,
          -0.11740715801715851,
          -0.05372501537203789,
          -0.03713199868798256,
          0.03731078654527664,
          0.035118263214826584,
          -0.1364399641752243,
          -0.0027299963403493166,
          -0.08734144270420074,
          -0.0650898888707161,
          0.09873685240745544,
          -0.109836146235466,
          -0.08768308162689209,
          0.09449576586484909,
          -0.08322619646787643,
          -0.07306842505931854,
          0.009737776592373848,
          -0.15716318786144257,
          0.009562532417476177
        ],
        [
          -0.011853992938995361,
          0.02338261902332306,
          0.15283043682575226,
          0.11465661227703094,
          -0.03631248325109482,
          0.022364739328622818,
          0.10465575754642487,
          0.04124706611037254,
          -0.20987850427627563,
          -0.023314017802476883,
          0.06680240482091904,
          0.05338425934314728,
          -0.05412020534276962,
          -0.11010685563087463,
          -0.0474199503660202,
          0.07459933310747147,
          0.008961493149399757,
          -0.08297137171030045,
          -0.03731173276901245,
          0.11756832897663116,
          0.05701616778969765,
          0.05205719172954559,
          0.02723950892686844,
          0.10446594655513763,
          -0.03433789312839508,
          -0.014235378243029118,
          -0.09846416860818863,
          -0.0067069390788674355,
          0.04561440646648407,
          -0.046591565012931824,
          0.028201615437865257,
          0.1250237673521042,
          -0.14037199318408966,
          0.19073247909545898,
          0.028374716639518738,
          -0.0010443967767059803,
          -0.052832577377557755,
          -0.04752296209335327,
          -0.05563347414135933,
          0.03423932567238808,
          -0.1072719395160675,
          -0.2500995397567749,
          -0.0828772708773613,
          0.0366070419549942,
          -0.05478274077177048,
          0.013921994715929031,
          -0.05994662642478943,
          -0.026316119357943535,
          -0.10035359859466553,
          -0.07386451959609985,
          0.039937831461429596,
          0.07130681723356247,
          -0.01400041300803423,
          0.034468378871679306,
          -0.06418029218912125,
          -0.010116750374436378,
          0.03233056142926216,
          0.09749533981084824,
          -0.004358178004622459,
          -0.023345481604337692,
          0.1049182340502739,
          -0.028233898803591728,
          -0.044511593878269196,
          0.03983328863978386
        ],
        [
          0.01403188705444336,
          -0.10593576729297638,
          -0.05237063020467758,
          -0.10540761053562164,
          -0.12132050842046738,
          -0.09093081951141357,
          0.09600003063678741,
          -0.09203776717185974,
          -0.05470944568514824,
          -0.11618544161319733,
          0.02967987395823002,
          -0.12130218744277954,
          -0.061520881950855255,
          0.029027117416262627,
          0.09506914019584656,
          0.007548230700194836,
          0.018040364608168602,
          -0.03679025545716286,
          -0.09470732510089874,
          -0.0012287646532058716,
          -0.1320878118276596,
          -0.11181803792715073,
          -0.020979195833206177,
          0.06964189559221268,
          0.062200263142585754,
          -0.08448049426078796,
          -0.006445527076721191,
          0.0769963264465332,
          -0.09482993185520172,
          0.10025276243686676,
          -0.05747276917099953,
          -0.09650891274213791,
          0.010434389114379883,
          -0.06648258864879608,
          0.03401649743318558,
          -0.028679141774773598,
          -0.16609059274196625,
          -0.05142959952354431,
          -0.029799669981002808,
          -0.10854651778936386,
          -0.04252256453037262,
          0.035455815494060516,
          0.057590264827013016,
          0.019594699144363403,
          0.033452119678258896,
          -0.11262472718954086,
          -0.02334374189376831,
          -0.05550922453403473,
          -0.15869250893592834,
          -0.08669765293598175,
          -0.006582420319318771,
          0.09142064303159714,
          -0.008162765763700008,
          0.029797235503792763,
          -0.027739757671952248,
          -0.09303004294633865,
          0.1126713827252388,
          0.020561741665005684,
          0.036738958209753036,
          0.06437887251377106,
          -0.05609533190727234,
          0.07886011898517609,
          0.05905192345380783,
          -0.09922463446855545
        ],
        [
          -0.03275088965892792,
          -0.04633587598800659,
          0.1367514282464981,
          0.07955221831798553,
          -0.1815921813249588,
          -0.11287619173526764,
          -0.012166529893875122,
          0.12276755273342133,
          0.12521681189537048,
          0.09789039194583893,
          -0.07347197830677032,
          0.07262387126684189,
          -0.12313365936279297,
          0.017520152032375336,
          0.06679476797580719,
          -0.10889510810375214,
          -0.06393466889858246,
          -0.05020672082901001,
          -0.09322895109653473,
          0.03761152923107147,
          0.08493362367153168,
          -0.12300094217061996,
          0.04865924268960953,
          0.050994571298360825,
          -0.08260880410671234,
          -0.32140052318573,
          0.07212463021278381,
          -0.24795441329479218,
          -0.12389805167913437,
          0.10015985369682312,
          -0.1242680698633194,
          -0.14420504868030548,
          -0.03723533824086189,
          -0.014127844013273716,
          0.05858954042196274,
          -0.006136235781013966,
          0.10994158685207367,
          -0.02949475310742855,
          -0.0554259717464447,
          0.02277255430817604,
          -0.011252418160438538,
          -0.17575834691524506,
          0.0873219296336174,
          -0.10467170178890228,
          -0.006945360451936722,
          -0.0998258888721466,
          -0.027408435940742493,
          -0.08721265196800232,
          -0.05245419964194298,
          0.039851460605859756,
          -0.013697492890059948,
          -0.1255219727754593,
          0.08384355157613754,
          0.02587057277560234,
          -0.04605063423514366,
          -0.006803377065807581,
          -0.08715508133172989,
          0.09585931897163391,
          0.03906480595469475,
          0.0731511116027832,
          -0.0642496645450592,
          -0.062426257878541946,
          -0.07289975881576538,
          -0.14863233268260956
        ],
        [
          -0.05742022395133972,
          0.07939198613166809,
          -0.048664797097444534,
          0.0008742958307266235,
          -0.016878947615623474,
          -0.10304340720176697,
          0.0749320536851883,
          -0.08384133875370026,
          0.08193980902433395,
          -0.05139283835887909,
          -0.07893507182598114,
          -0.04411756992340088,
          -0.11587260663509369,
          -0.09488868713378906,
          0.07837380468845367,
          -0.05081680417060852,
          -0.01683257520198822,
          -0.024187937378883362,
          -0.06842927634716034,
          -0.03562949597835541,
          -0.09629456698894501,
          -0.10250157117843628,
          0.08121377229690552,
          0.07496803998947144,
          -0.0654502809047699,
          0.01409599743783474,
          -0.01590004563331604,
          -0.07234805822372437,
          -0.08568133413791656,
          -0.05554461479187012,
          -0.09588053822517395,
          -0.07643428444862366,
          -0.13971476256847382,
          0.09707896411418915,
          0.01991964876651764,
          -0.08445009589195251,
          0.003751501441001892,
          0.00599144771695137,
          0.02747792936861515,
          -0.012998983263969421,
          0.07797904312610626,
          -0.024758607149124146,
          -0.07255935668945312,
          -0.1166212409734726,
          -0.018588408827781677,
          0.0901017040014267,
          -0.05352339148521423,
          0.05658601596951485,
          0.044566791504621506,
          -0.028545036911964417,
          0.09323161840438843,
          -0.10856671631336212,
          0.0762200802564621,
          -0.053035978227853775,
          0.09356389939785004,
          0.11427587270736694,
          0.06435094773769379,
          -0.050820622593164444,
          0.06018546223640442,
          -0.04559698700904846,
          0.0840497761964798,
          -0.08878995478153229,
          -0.13833078742027283,
          0.086268350481987
        ],
        [
          -0.04455840587615967,
          -0.09503680467605591,
          -0.05075182393193245,
          0.11689981818199158,
          -0.001652171486057341,
          -0.03365768492221832,
          -0.04047559201717377,
          0.04567496106028557,
          -0.1134849488735199,
          0.07663939148187637,
          0.10889888554811478,
          0.16806289553642273,
          0.04684596136212349,
          -0.08603576570749283,
          0.10596482455730438,
          0.09309530258178711,
          -0.046520572155714035,
          -0.006161494646221399,
          0.06603733450174332,
          -0.11226435005664825,
          0.024816391989588737,
          -0.3859509229660034,
          -0.053748562932014465,
          -0.032992660999298096,
          0.04817785322666168,
          -0.047133669257164,
          -0.048654861748218536,
          -0.09726908057928085,
          -5.6141514505725354e-05,
          0.12085779011249542,
          0.11846181750297546,
          0.20793528854846954,
          0.06568215787410736,
          0.07393469661474228,
          -0.02052324265241623,
          0.035105835646390915,
          -0.061251357197761536,
          -0.13641996681690216,
          0.2299138903617859,
          0.09331253916025162,
          -0.10150492191314697,
          0.0018914977554231882,
          0.008490052074193954,
          -0.08642992377281189,
          -0.13335393369197845,
          -0.06201629713177681,
          0.0479477196931839,
          -0.15979257225990295,
          0.03470068797469139,
          -0.07946246862411499,
          0.046691540628671646,
          -0.26700693368911743,
          -0.21832717955112457,
          0.047113750129938126,
          -0.09409401565790176,
          0.006029580719769001,
          0.0088944211602211,
          0.10081999003887177,
          0.0637558102607727,
          0.0940650999546051,
          -0.026853304356336594,
          -0.24086979031562805,
          -0.12942281365394592,
          0.002334034303203225
        ],
        [
          -0.0009702891111373901,
          -0.05601830780506134,
          -0.16812200844287872,
          0.038432613015174866,
          -0.21977728605270386,
          -0.02348598837852478,
          0.03719189763069153,
          0.20305700600147247,
          -0.04290935397148132,
          -0.07743661105632782,
          -0.056486718356609344,
          -0.08887144178152084,
          -0.2781122028827667,
          0.03371086344122887,
          -0.05354088544845581,
          -0.2195238620042801,
          -0.019706150516867638,
          0.07315215468406677,
          0.022523242980241776,
          0.08333924412727356,
          0.16210772097110748,
          -0.14455701410770416,
          0.07225780934095383,
          -0.09304766356945038,
          0.08319874107837677,
          -0.07193034142255783,
          0.12146399915218353,
          -0.1549340784549713,
          -0.09859958291053772,
          0.009217903017997742,
          0.06384103000164032,
          0.03327929601073265,
          0.0922740176320076,
          -0.4317203760147095,
          0.06844896823167801,
          0.1288653165102005,
          -0.30971574783325195,
          0.08463621884584427,
          0.17508403956890106,
          0.0062654633074998856,
          -0.11895495653152466,
          -0.2903974652290344,
          0.028364717960357666,
          -0.005862325429916382,
          -0.0972529873251915,
          -0.042940281331539154,
          -0.10543589293956757,
          0.23592768609523773,
          0.2188449203968048,
          0.0784955695271492,
          0.01630580797791481,
          -0.10816170275211334,
          -0.15437349677085876,
          -0.06223038211464882,
          0.16314435005187988,
          -0.05714675411581993,
          0.019345365464687347,
          -0.0791245549917221,
          -0.07906005531549454,
          0.0546807199716568,
          -0.049735747277736664,
          0.03615282103419304,
          -0.07418648153543472,
          -0.07035475969314575
        ],
        [
          0.04343496263027191,
          0.015298530459403992,
          0.11124638468027115,
          0.10627417266368866,
          -0.03605753183364868,
          0.0033578104339540005,
          0.025920793414115906,
          -0.014238945208489895,
          -0.1313878446817398,
          -0.10063973069190979,
          0.030097726732492447,
          -0.036243077367544174,
          0.03662524372339249,
          0.03726504370570183,
          0.10504472255706787,
          0.07183249294757843,
          0.08452209085226059,
          -0.060995351523160934,
          -0.014936994761228561,
          0.0900266170501709,
          0.08161931484937668,
          -0.025944318622350693,
          0.06201698258519173,
          -0.06592912971973419,
          0.09050965309143066,
          -0.004203991498798132,
          0.00315130059607327,
          -0.09240444004535675,
          0.0902424082159996,
          0.09950454533100128,
          -0.014601461589336395,
          -0.1758996844291687,
          0.11209164559841156,
          -0.12153110653162003,
          -0.027420315891504288,
          -0.12379344552755356,
          -0.0677182525396347,
          0.11020313203334808,
          -0.11249047517776489,
          -0.1294836401939392,
          -0.09592384099960327,
          -0.16373328864574432,
          0.0176091268658638,
          0.10392257571220398,
          -0.009504287503659725,
          0.057009320706129074,
          -0.10422728955745697,
          0.03144565597176552,
          0.05137884244322777,
          -0.01685892790555954,
          0.008264684118330479,
          0.05770273134112358,
          -0.139831081032753,
          0.013956856913864613,
          0.15094126760959625,
          0.012965121306478977,
          -0.03615964949131012,
          0.020468367263674736,
          -0.17758409678936005,
          -0.13290254771709442,
          0.013176603242754936,
          0.04995408281683922,
          0.039587073028087616,
          -0.10949735343456268
        ],
        [
          0.08737358450889587,
          0.060800254344940186,
          -0.09292221069335938,
          -0.10875204205513,
          -0.0742477998137474,
          0.0630851536989212,
          0.00797995924949646,
          -0.10833968222141266,
          0.03764687106013298,
          0.1017109602689743,
          -0.15592558681964874,
          -0.09861961007118225,
          0.014304343611001968,
          -0.09521111845970154,
          -0.06948892772197723,
          0.011413472704589367,
          0.017992781475186348,
          -0.09211449325084686,
          0.030032506212592125,
          0.020421132445335388,
          0.07623900473117828,
          -0.12915128469467163,
          -0.013002663850784302,
          -0.05112968385219574,
          -0.037875935435295105,
          0.06855618953704834,
          0.008830547332763672,
          -0.0977448970079422,
          0.048531584441661835,
          0.12004901468753815,
          -0.024156538769602776,
          0.08706880360841751,
          -0.08040452003479004,
          0.08563292026519775,
          -0.0044480860233306885,
          -0.01650281809270382,
          -0.0928955078125,
          -0.1318437159061432,
          -0.028835266828536987,
          0.04099999740719795,
          0.0795401930809021,
          0.027783632278442383,
          -0.08071904629468918,
          0.04769335687160492,
          0.0022593713365495205,
          0.05784417688846588,
          -0.07203741371631622,
          -0.03803224861621857,
          0.011120370589196682,
          -0.11433027684688568,
          -0.019619716331362724,
          0.006754057481884956,
          -0.05009887367486954,
          0.062411118298769,
          -0.05597076192498207,
          0.07766276597976685,
          0.04106534272432327,
          -0.1418481022119522,
          -0.09230455756187439,
          0.09688082337379456,
          0.0725892186164856,
          0.060248758643865585,
          -0.05047651752829552,
          -0.15585540235042572
        ],
        [
          -0.03548517823219299,
          -0.008371427655220032,
          -0.16011761128902435,
          0.08338111639022827,
          -0.10748600214719772,
          -0.12428364157676697,
          -0.020841896533966064,
          0.15962636470794678,
          0.100665383040905,
          0.053846340626478195,
          -0.14293116331100464,
          -0.10054352879524231,
          0.00677380058914423,
          -0.07448122650384903,
          -0.010675057768821716,
          -0.1782003790140152,
          -0.07129234075546265,
          -0.009684829972684383,
          0.0013926734682172537,
          -0.11473867297172546,
          0.029654255136847496,
          0.0422813780605793,
          -0.019030194729566574,
          -0.03033222071826458,
          0.042603492736816406,
          -0.029095187783241272,
          0.04665346443653107,
          -0.0983089804649353,
          -0.07858284562826157,
          0.08612751960754395,
          0.05706140026450157,
          -0.0683031678199768,
          0.17280632257461548,
          0.03736758977174759,
          -0.024968424811959267,
          0.1436738222837448,
          -0.36491096019744873,
          0.005850526504218578,
          0.25975459814071655,
          0.08725829422473907,
          0.010288700461387634,
          -0.004392710514366627,
          0.024360014125704765,
          0.09674005210399628,
          0.013685100711882114,
          0.03726360574364662,
          -0.0924765020608902,
          0.1457722932100296,
          0.09894578158855438,
          -0.11844078451395035,
          -0.028953775763511658,
          -0.141580268740654,
          -0.1287791132926941,
          -0.17899268865585327,
          0.16682206094264984,
          0.11763302981853485,
          0.11792072653770447,
          -0.062186840921640396,
          -0.00927234161645174,
          -0.21423353254795074,
          0.028459815308451653,
          -0.02776738628745079,
          0.07218533754348755,
          -0.08048417419195175
        ],
        [
          -0.09328125417232513,
          -0.1004597395658493,
          -0.06713815033435822,
          0.005740270018577576,
          -0.12086538225412369,
          -0.07482163608074188,
          -0.009827643632888794,
          -0.06251123547554016,
          -0.08362503349781036,
          -0.05971822887659073,
          -0.1162145733833313,
          0.08308790624141693,
          0.03769606351852417,
          -0.06696256995201111,
          0.090873122215271,
          -0.09341555088758469,
          0.03089510090649128,
          0.04092533141374588,
          0.011064657010138035,
          0.07577033340930939,
          0.055995143949985504,
          -0.04006250202655792,
          0.09946198761463165,
          -0.08983880281448364,
          0.02528984844684601,
          0.011989682912826538,
          0.028791770339012146,
          0.019831731915473938,
          -0.04153905808925629,
          0.10454258322715759,
          0.03748324140906334,
          0.03251257538795471,
          -0.03120248019695282,
          0.050572093576192856,
          0.080635204911232,
          -0.08972269296646118,
          -0.07146590948104858,
          -0.08694310486316681,
          -0.0442388653755188,
          -0.038315724581480026,
          -0.08276714384555817,
          -0.00799427181482315,
          0.04536160081624985,
          0.10981318354606628,
          0.009362170472741127,
          -0.023869305849075317,
          0.09679481387138367,
          -0.11113302409648895,
          0.005885092541575432,
          0.006236183922737837,
          -0.046435724943876266,
          -0.0071427226066589355,
          -0.059735964983701706,
          -0.09737811237573624,
          -0.0765615850687027,
          -0.08317773044109344,
          0.00011343979713274166,
          -0.135337695479393,
          0.06517677754163742,
          0.09905284643173218,
          0.07395291328430176,
          -0.08173134922981262,
          0.06475555151700974,
          0.0062761930748820305
        ],
        [
          -0.06662851572036743,
          0.0718856155872345,
          0.05435812100768089,
          0.10704746842384338,
          0.05029850825667381,
          0.06213434785604477,
          -0.11305426061153412,
          -0.017517630010843277,
          -0.10245215147733688,
          0.32743287086486816,
          0.0566881038248539,
          0.18471810221672058,
          0.044078025966882706,
          0.14486008882522583,
          -0.048721373081207275,
          -0.0460825152695179,
          0.03983104228973389,
          0.0933360829949379,
          0.08160389959812164,
          0.08799441158771515,
          -0.022815588861703873,
          -0.004343670327216387,
          -0.15138188004493713,
          -0.02135469578206539,
          0.020202115178108215,
          -0.051346305757761,
          0.08162754029035568,
          -0.041233498603105545,
          -0.024108795449137688,
          0.09053093194961548,
          -0.07460802793502808,
          0.048348959535360336,
          -0.027707768604159355,
          0.2546045482158661,
          0.02005610801279545,
          -0.022806089371442795,
          0.09369155019521713,
          0.012803060933947563,
          -0.18573853373527527,
          -0.18054307997226715,
          -0.08281552791595459,
          0.23469945788383484,
          0.03442167490720749,
          -0.06908933818340302,
          -0.05310966446995735,
          0.019157424569129944,
          0.0351792573928833,
          -0.05447656661272049,
          -0.1720166653394699,
          0.025033175945281982,
          -0.15298286080360413,
          -0.09594132006168365,
          -0.059574175626039505,
          -0.07986646145582199,
          0.00916904304176569,
          -0.05070476606488228,
          0.018184775486588478,
          0.06391658633947372,
          0.03997521474957466,
          -0.018426690250635147,
          -0.024711692705750465,
          -0.12022723257541656,
          -0.03324976935982704,
          -0.003797558369114995
        ],
        [
          0.11026446521282196,
          -0.1077134758234024,
          0.15919017791748047,
          -0.05066509544849396,
          0.1174241304397583,
          0.1146027147769928,
          0.1173589676618576,
          -0.009198234416544437,
          -0.12106931209564209,
          -0.08685994148254395,
          -0.02736888825893402,
          0.04059158265590668,
          -0.02563585713505745,
          -0.041353680193424225,
          0.11284834146499634,
          -0.019498249515891075,
          0.049932051450014114,
          0.146736741065979,
          0.04807944968342781,
          0.02316446602344513,
          -0.09176347404718399,
          -0.012973562814295292,
          -0.0034263720735907555,
          0.08099143952131271,
          -0.08884863555431366,
          -0.030138690024614334,
          0.08884720504283905,
          -0.029541725292801857,
          -0.01518719270825386,
          0.11116909980773926,
          0.036535944789648056,
          -0.16635337471961975,
          0.017420900985598564,
          0.13768914341926575,
          0.10810019820928574,
          0.05978808552026749,
          0.05699176341295242,
          0.05567574501037598,
          -0.11544792354106903,
          0.013172276318073273,
          0.07989394664764404,
          -0.14109110832214355,
          -0.022558556869626045,
          -0.0389663428068161,
          -0.2741124629974365,
          0.006026103161275387,
          0.06661930680274963,
          -0.19238628447055817,
          -0.016883237287402153,
          -0.06816920638084412,
          0.001431580982170999,
          -0.035469505935907364,
          -0.126889169216156,
          0.04213632643222809,
          -0.09128247201442719,
          -0.06574665009975433,
          -0.0753980278968811,
          0.1383366733789444,
          -0.05301893129944801,
          0.052062708884477615,
          0.045919883996248245,
          0.0933069959282875,
          -0.0944853276014328,
          -0.1018417477607727
        ],
        [
          0.06356552243232727,
          0.05404415726661682,
          0.06421604007482529,
          -0.06425906717777252,
          0.0365317277610302,
          -0.09829989075660706,
          0.030817106366157532,
          0.1264527589082718,
          -0.037154413759708405,
          -0.012278255075216293,
          -0.09160374104976654,
          0.043737247586250305,
          0.008852902799844742,
          -0.15404580533504486,
          -0.05547989904880524,
          -0.08568377792835236,
          0.09557779133319855,
          -0.006477662827819586,
          0.033993594348430634,
          0.05572435259819031,
          0.025832002982497215,
          -0.1504848301410675,
          -0.026428591459989548,
          -0.06482120603322983,
          -0.1151122897863388,
          0.018011346459388733,
          0.056195218116045,
          0.04174681752920151,
          0.0557728074491024,
          0.033644139766693115,
          0.003016572678461671,
          0.08749207854270935,
          -0.11412403732538223,
          -0.20232562720775604,
          -0.02433825470507145,
          0.07309992611408234,
          0.00023370848794002086,
          0.04595367982983589,
          -0.22019892930984497,
          -0.1590777188539505,
          -0.10630272328853607,
          -0.055989015847444534,
          -0.014705278910696507,
          -0.0715634673833847,
          -0.06268493831157684,
          -0.022931024432182312,
          -0.017416298389434814,
          -0.012932431884109974,
          0.06170886754989624,
          0.05865243822336197,
          0.10183584690093994,
          0.2825795114040375,
          0.04679206386208534,
          -0.05095421522855759,
          -0.19296985864639282,
          -0.013601265847682953,
          -0.1446310579776764,
          -0.06522106379270554,
          -0.14129793643951416,
          0.02673289179801941,
          -0.10869594663381577,
          -0.07098404318094254,
          0.009971659630537033,
          -0.005206067115068436
        ],
        [
          -0.0780428946018219,
          -0.05150043964385986,
          0.014494959264993668,
          0.0031418949365615845,
          -0.08546829223632812,
          0.038293857127428055,
          0.0006263703107833862,
          -0.03882432356476784,
          -0.05213242769241333,
          -0.0037852248642593622,
          0.08569179475307465,
          0.06823930889368057,
          -0.09912136942148209,
          -0.06426935642957687,
          0.017071515321731567,
          0.04738946631550789,
          -0.09616933017969131,
          -0.03130586817860603,
          -0.053048670291900635,
          -0.0626719743013382,
          0.04317479208111763,
          -0.13174225389957428,
          -0.18848256766796112,
          0.0032439292408525944,
          -0.05237378180027008,
          0.05832474306225777,
          0.10922315716743469,
          0.036661382764577866,
          -0.052672211080789566,
          -0.06120818853378296,
          -0.06427635252475739,
          0.1026114895939827,
          -0.07132265716791153,
          0.21012592315673828,
          0.05955517292022705,
          -0.11999211460351944,
          0.11452050507068634,
          -0.005116790067404509,
          0.0380045510828495,
          -0.08884954452514648,
          -0.06819440424442291,
          -0.3289836645126343,
          -0.03031853958964348,
          -0.026922911405563354,
          0.01629645563662052,
          -0.03185524791479111,
          -0.1029520034790039,
          -0.025710828602313995,
          0.05907820537686348,
          0.07200340181589127,
          -0.16922391951084137,
          -0.3120436668395996,
          -0.038786906749010086,
          -0.0980050340294838,
          0.07919985055923462,
          -0.08305513858795166,
          -0.08966046571731567,
          -0.034858338534832,
          -0.12655799090862274,
          0.0647549107670784,
          0.08186358213424683,
          -0.13754333555698395,
          0.07002346962690353,
          0.07578061521053314
        ],
        [
          0.115640789270401,
          0.04542569816112518,
          0.07710149884223938,
          0.02197284996509552,
          -0.06147259846329689,
          -0.10950928926467896,
          -0.09910908341407776,
          0.08585833758115768,
          -0.08296418935060501,
          -0.004522106610238552,
          -0.06753644347190857,
          0.012676117941737175,
          0.021998519077897072,
          -0.0020266412757337093,
          0.01478433609008789,
          -0.027543285861611366,
          -0.09743227064609528,
          -0.10781888663768768,
          0.07636081427335739,
          0.02851542830467224,
          -0.09626193344593048,
          0.04990261048078537,
          -0.11729846149682999,
          0.08710066229104996,
          -0.10477720201015472,
          -0.013758727349340916,
          -0.10612009465694427,
          -0.08066955953836441,
          0.03319234773516655,
          0.05661474168300629,
          0.08084192126989365,
          -0.0023770956322550774,
          -0.05075725167989731,
          -0.17408059537410736,
          -0.02194518782198429,
          -0.0325201116502285,
          -0.03796318173408508,
          -0.19675233960151672,
          -0.023837516084313393,
          -0.19137375056743622,
          -0.08436435461044312,
          -0.059919144958257675,
          -0.07244455069303513,
          0.03203025460243225,
          -0.022047892212867737,
          -0.010145187377929688,
          0.07970646023750305,
          0.010012741200625896,
          -0.07002279907464981,
          0.056188177317380905,
          -0.05658439174294472,
          0.00952704343944788,
          0.022726384922862053,
          -0.1075497642159462,
          -0.18391408026218414,
          0.06457983702421188,
          0.05292115733027458,
          0.06935609877109528,
          -0.0682520717382431,
          -0.0751015841960907,
          -0.1225740984082222,
          -0.04308516904711723,
          -0.014536111615598202,
          0.10371219366788864
        ],
        [
          -0.04513269662857056,
          -0.10558828711509705,
          -0.007972096092998981,
          0.03303052484989166,
          -0.05726569518446922,
          -0.08207214623689651,
          -0.08785587549209595,
          -0.0016503874212503433,
          0.0643601194024086,
          0.04110708460211754,
          -0.11255621165037155,
          0.09344830363988876,
          0.08053552359342575,
          0.01830178126692772,
          0.106075718998909,
          -0.12695220112800598,
          0.022363737225532532,
          -0.09433046728372574,
          0.09888370335102081,
          0.08358953893184662,
          0.02306498773396015,
          0.084724560379982,
          -0.015076467767357826,
          -0.05324317514896393,
          -0.03176572918891907,
          -0.013180220499634743,
          -0.055837731808423996,
          -0.14135661721229553,
          -0.02084338292479515,
          -0.10085958242416382,
          -0.06750335544347763,
          0.014219393953680992,
          -0.08051740378141403,
          0.007713750470429659,
          -0.08975857496261597,
          0.07881162315607071,
          -0.09410494565963745,
          -0.08617479354143143,
          -0.08137711882591248,
          0.06367020308971405,
          0.11494743824005127,
          0.033298276364803314,
          -0.06657055020332336,
          0.08135895431041718,
          -0.09113537520170212,
          0.02426360733807087,
          0.06627403199672699,
          -0.10971129685640335,
          -0.05851307883858681,
          -0.08380692452192307,
          0.011176643893122673,
          0.05064185708761215,
          -0.06711486726999283,
          -0.0840950682759285,
          0.03092777729034424,
          0.017301103100180626,
          -0.06752458959817886,
          -0.06878923624753952,
          0.07594864070415497,
          -0.12012521177530289,
          -0.01546869333833456,
          -0.08142361789941788,
          0.06006660684943199,
          -0.0038123095873743296
        ],
        [
          -0.09323452413082123,
          0.05619935691356659,
          0.06572835147380829,
          0.06435640156269073,
          0.05620951950550079,
          -0.039078231900930405,
          0.0868116170167923,
          -0.08192630857229233,
          0.02905851975083351,
          0.10036323219537735,
          -0.12175915390253067,
          -0.0855536013841629,
          0.08675029128789902,
          -0.016872698441147804,
          0.12156026065349579,
          -0.047533802688121796,
          0.06818749010562897,
          -0.08865252137184143,
          0.004955232609063387,
          -0.087828129529953,
          0.0030253033619374037,
          -0.18652749061584473,
          -0.10605652630329132,
          -0.11766813695430756,
          0.11183616518974304,
          -0.07350733131170273,
          -0.12780044972896576,
          -0.016558390110731125,
          -0.13512326776981354,
          0.05863521993160248,
          0.03727446123957634,
          -0.01243324764072895,
          -0.06452085077762604,
          -0.025093451142311096,
          -0.0659106969833374,
          -0.07551392167806625,
          -0.11219167709350586,
          0.028438501060009003,
          -0.11008615791797638,
          -0.03801408410072327,
          -0.1033962219953537,
          -0.16347551345825195,
          -0.054697416722774506,
          -0.12201744318008423,
          0.023791886866092682,
          0.0818752646446228,
          0.035421788692474365,
          0.09519099444150925,
          -0.156447634100914,
          -0.006032581906765699,
          0.06520436704158783,
          -0.013015388511121273,
          0.04253488406538963,
          0.0641578808426857,
          0.06576228886842728,
          0.018612880259752274,
          -0.08545219898223877,
          -0.14785923063755035,
          0.05904078856110573,
          -0.08851541578769684,
          -0.005035034380853176,
          -0.13770706951618195,
          -0.1139519214630127,
          0.09587085247039795
        ],
        [
          0.08275501430034637,
          -0.008480042219161987,
          0.015467307530343533,
          -0.06797371804714203,
          -0.10900108516216278,
          0.014041915535926819,
          -0.08143512904644012,
          0.07938484847545624,
          0.09450861066579819,
          0.0036865361034870148,
          0.052824221551418304,
          0.04628213867545128,
          -0.06968571990728378,
          -0.08815241605043411,
          0.062323957681655884,
          0.010182674042880535,
          0.001685989205725491,
          -0.09257499128580093,
          -0.0054730866104364395,
          0.036104828119277954,
          -0.019866637885570526,
