{
  "layers": [
    {
      "name": "0",
      "kind": "Linear",
      "inputSize": 15,
      "outputSize": 64,
      "hasBiases": true,
      "weights": [
        [
          0.0009433726081624627,
          0.8857640027999878,
          -0.09686357527971268,
          0.12858344614505768,
          -0.1703321635723114,
          0.01912134326994419,
          0.29732850193977356,
          0.17052917182445526,
          -0.5219866037368774,
          -0.4652208685874939,
          -0.38340842723846436,
          -0.08070456236600876,
          0.06613526493310928,
          0.07132923603057861,
          -0.11277546733617783
        ],
        [
          0.6143090724945068,
          0.1654311716556549,
          -1.1254019737243652,
          0.2186342477798462,
          0.13961471617221832,
          0.03527933359146118,
          -0.08965965360403061,
          -0.4578678011894226,
          -0.2254677265882492,
          -0.09274644404649734,
          -0.1823735386133194,
          -0.4300183653831482,
          -0.1505374312400818,
          0.09211244434118271,
          -0.10973413288593292
        ],
        [
          -0.017352402210235596,
          -0.16419187188148499,
          -0.07154262065887451,
          -0.15817305445671082,
          -0.027840465307235718,
          -0.2389242947101593,
          0.1812153160572052,
          0.03195074200630188,
          -0.0003930032253265381,
          -0.013559997081756592,
          0.09908664226531982,
          0.019056618213653564,
          -0.20516200363636017,
          0.20142826437950134,
          0.12217280268669128
        ],
        [
          0.3820037841796875,
          0.6260277628898621,
          -0.06669478118419647,
          0.13554543256759644,
          0.13746701180934906,
          0.2725997567176819,
          -0.04607035219669342,
          -0.14135456085205078,
          -0.2360897809267044,
          -0.2271820306777954,
          0.03320719674229622,
          0.08875425904989243,
          0.11888062953948975,
          -0.2814558148384094,
          -0.061870500445365906
        ],
        [
          -0.4639826714992523,
          0.6200623512268066,
          0.013731254264712334,
          -0.11781339347362518,
          -0.23428687453269958,
          0.10957213491201401,
          0.10637243092060089,
          0.08247324824333191,
          0.09314178675413132,
          -0.1605638861656189,
          0.08079923689365387,
          -0.3805726170539856,
          0.15796969830989838,
          0.12281275540590286,
          -0.07257043570280075
        ],
        [
          -0.28165751695632935,
          -0.6121988892555237,
          -0.07686655223369598,
          -0.036114953458309174,
          0.08238815516233444,
          -0.21235543489456177,
          -0.07896242290735245,
          0.12561744451522827,
          0.13539624214172363,
          -0.05698852241039276,
          -0.17074927687644958,
          0.09253857284784317,
          -0.31207841634750366,
          -0.023927034810185432,
          0.2281571328639984
        ],
        [
          -0.12058122456073761,
          -0.002394169569015503,
          -0.24831968545913696,
          -0.10110755264759064,
          -0.04647618532180786,
          -0.14617815613746643,
          0.08869802951812744,
          0.2374335527420044,
          0.18026942014694214,
          -0.2577856481075287,
          0.0922238826751709,
          0.17139095067977905,
          -0.1063520759344101,
          -0.2305631786584854,
          0.06300190091133118
        ],
        [
          -0.1116163581609726,
          0.08452421426773071,
          -0.15229912102222443,
          -0.17154084146022797,
          -0.109357088804245,
          -0.0565890371799469,
          0.1316656470298767,
          0.15629154443740845,
          -0.09281265735626221,
          -0.12678681313991547,
          0.22091355919837952,
          0.11297160387039185,
          -0.1447676420211792,
          0.16794443130493164,
          0.21073466539382935
        ],
        [
          -0.5023291110992432,
          0.13412690162658691,
          0.17122995853424072,
          0.2606341540813446,
          -0.11767235398292542,
          0.01440607849508524,
          0.32040899991989136,
          -0.258341908454895,
          0.19672302901744843,
          0.12068372219800949,
          -0.2763616144657135,
          0.006112651899456978,
          -0.24474772810935974,
          -0.3562557101249695,
          0.037958141416311264
        ],
        [
          -0.45158851146698,
          0.03739577904343605,
          0.050765424966812134,
          0.09944932907819748,
          -0.008832123130559921,
          -0.004174710251390934,
          0.09293349087238312,
          -0.3640020489692688,
          -0.17115938663482666,
          0.27692607045173645,
          0.2456393986940384,
          -0.33026543259620667,
          -0.0722540020942688,
          -0.05452485382556915,
          -0.21507574617862701
        ],
        [
          -0.026166897267103195,
          -0.06598328799009323,
          -0.022842910140752792,
          0.1055564284324646,
          -0.33941763639450073,
          -0.015182907693088055,
          -0.3490716516971588,
          -0.12978777289390564,
          -0.28871506452560425,
          -0.3503834009170532,
          -0.2764911949634552,
          0.10133105516433716,
          -0.17305150628089905,
          -0.3418111801147461,
          -2.0252093236194924e-05
        ],
        [
          1.1434767246246338,
          0.09293122589588165,
          0.09091690927743912,
          0.1362663358449936,
          -0.2827405631542206,
          -0.20559076964855194,
          -0.18610115349292755,
          0.15136581659317017,
          -0.0030907313339412212,
          -0.2564522325992584,
          -0.17336399853229523,
          -0.03296782821416855,
          0.06993526965379715,
          -0.06632144749164581,
          0.24801889061927795
        ],
        [
          0.3436715006828308,
          -0.9932278394699097,
          -0.19757549464702606,
          -0.30319416522979736,
          0.07617653161287308,
          0.05929254740476608,
          -0.3176730275154114,
          0.04090992361307144,
          0.015584439039230347,
          0.15767763555049896,
          -0.1072423905134201,
          0.19048628211021423,
          0.11605021357536316,
          -0.12973736226558685,
          0.10873258113861084
        ],
        [
          -0.508098840713501,
          0.8683050274848938,
          -0.10976992547512054,
          -0.252162903547287,
          0.10243812948465347,
          0.14253470301628113,
          0.09472745656967163,
          0.14268222451210022,
          0.16798065602779388,
          -0.14300504326820374,
          -0.11736699938774109,
          0.12994730472564697,
          0.07575029879808426,
          -0.12617577612400055,
          -0.17551496624946594
        ],
        [
          -0.05926196649670601,
          -1.027881145477295,
          -0.11729224026203156,
          -0.1166253313422203,
          -0.07282203435897827,
          -0.29174596071243286,
          -0.2789287865161896,
          -0.42985692620277405,
          0.23035764694213867,
          -0.021174823865294456,
          0.010801364667713642,
          0.14401692152023315,
          -0.023787081241607666,
          0.16359056532382965,
          -0.08931853622198105
        ],
        [
          0.29681771993637085,
          -0.011709547601640224,
          -0.050131525844335556,
          -0.2722029387950897,
          -0.06090507656335831,
          0.15839694440364838,
          -0.0849180743098259,
          0.04906527325510979,
          0.15092721581459045,
          -0.15731675922870636,
          -0.1380336433649063,
          0.08079495280981064,
          -0.2121322900056839,
          -0.13880738615989685,
          0.12686088681221008
        ],
        [
          0.5627772212028503,
          0.5827741026878357,
          -0.0963636264204979,
          -0.2401326596736908,
          -0.001879076356999576,
          -0.20998907089233398,
          0.025674259290099144,
          -0.1802012324333191,
          -0.40373313426971436,
          0.07170206308364868,
          -0.37338173389434814,
          0.06305324286222458,
          0.12169337272644043,
          -0.06370320916175842,
          -0.21088793873786926
        ],
        [
          -1.0466811656951904,
          0.5524518489837646,
          -0.21980130672454834,
          0.21195410192012787,
          0.04160621762275696,
          -0.08989439159631729,
          -0.011441473849117756,
          -0.1145673394203186,
          0.009935297071933746,
          -0.25130149722099304,
          -0.41481414437294006,
          -0.10976594686508179,
          -0.009274023585021496,
          -0.05175219476222992,
          -0.211878702044487
        ],
        [
          0.07145784050226212,
          -1.1921489238739014,
          -0.17951858043670654,
          0.25035303831100464,
          -0.1595514863729477,
          -0.03378299996256828,
          0.17168937623500824,
          -0.1403062790632248,
          0.1429489701986313,
          0.17528776824474335,
          0.12979258596897125,
          0.19928856194019318,
          -0.06306597590446472,
          0.21681559085845947,
          0.12945756316184998
        ],
        [
          -0.13849718868732452,
          -0.5227677226066589,
          0.17279481887817383,
          -0.20670418441295624,
          0.12959451973438263,
          -0.41590186953544617,
          -0.018701951950788498,
          -0.4309227168560028,
          -0.13221104443073273,
          0.268756240606308,
          0.01901138387620449,
          0.020423566922545433,
          -0.11016920953989029,
          -0.15790551900863647,
          0.2542823851108551
        ],
        [
          -0.7395727634429932,
          -0.5968092083930969,
          0.11077545583248138,
          -0.22888684272766113,
          0.12633302807807922,
          -0.2596527934074402,
          -0.2376743108034134,
          -0.40057244896888733,
          0.02859882265329361,
          -0.04525608941912651,
          -0.11164647340774536,
          0.07497778534889221,
          0.03193129226565361,
          -0.014093427918851376,
          0.12560418248176575
        ],
        [
          0.25182172656059265,
          -0.21644741296768188,
          -0.04037937521934509,
          -0.1581304967403412,
          -0.14916254580020905,
          0.2342308759689331,
          0.17123135924339294,
          -0.25222212076187134,
          0.13184070587158203,
          -0.22824376821517944,
          -0.23809364438056946,
          -0.13095887005329132,
          0.07715609669685364,
          -0.0368177592754364,
          0.1632157862186432
        ],
        [
          -0.36669108271598816,
          -0.7438722252845764,
          0.042234912514686584,
          0.2076791375875473,
          0.09890172630548477,
          -0.2736525237560272,
          -0.1379801630973816,
          -0.160377636551857,
          -0.11907584220170975,
          0.1680171936750412,
          -0.19098322093486786,
          -0.005331389605998993,
          0.0886630117893219,
          -0.11098755896091461,
          -0.09967268258333206
        ],
        [
          -0.39335447549819946,
          -0.3623071610927582,
          0.014667933806777,
          -0.2002386748790741,
          -0.017725849524140358,
          -0.218336284160614,
          -0.23461368680000305,
          0.05427483841776848,
          0.14220355451107025,
          -0.03090553916990757,
          0.03984837606549263,
          0.015814542770385742,
          -0.024661872535943985,
          -0.09140151739120483,
          0.2516244053840637
        ],
        [
          -0.17397141456604004,
          -0.2539176344871521,
          0.0032345280051231384,
          -0.1569017469882965,
          -0.18384744226932526,
          0.098378486931324,
          0.20869110524654388,
          -0.26971402764320374,
          -0.09073513001203537,
          -0.009971621446311474,
          -0.2943570613861084,
          -0.26012879610061646,
          0.05915839225053787,
          -0.29091551899909973,
          -0.2420663982629776
        ],
        [
          0.12768779695034027,
          -0.49872156977653503,
          0.034137655049562454,
          0.026787061244249344,
          -0.24989134073257446,
          -0.0393294095993042,
          0.059468042105436325,
          0.0078255794942379,
          -0.20380628108978271,
          -0.3320254385471344,
          0.1040835976600647,
          -0.0024124877527356148,
          0.11835186183452606,
          0.05965590104460716,
          0.1748039275407791
        ],
        [
          0.1842678040266037,
          -0.2669750154018402,
          0.0050756484270095825,
          0.1626923829317093,
          0.05041962116956711,
          0.09614678472280502,
          -0.1865880936384201,
          -0.055894214659929276,
          0.08427620679140091,
          0.08648767322301865,
          -0.296178936958313,
          0.15509435534477234,
          -0.0268706064671278,
          -0.13125169277191162,
          0.11394927650690079
        ],
        [
          0.04489539936184883,
          0.8313243389129639,
          0.04824799299240112,
          0.08018174767494202,
          0.10698983818292618,
          -0.20010654628276825,
          -0.2708822786808014,
          -0.02420736663043499,
          -0.15350304543972015,
          0.008751253597438335,
          -0.20141534507274628,
          0.09580141305923462,
          -0.012875226326286793,
          -0.04812319576740265,
          -0.12456179410219193
        ],
        [
          1.0407136678695679,
          0.1601746380329132,
          -0.1591331660747528,
          0.12523548305034637,
          -0.39066067337989807,
          0.0507882758975029,
          -0.18461494147777557,
          0.05367402732372284,
          0.20791028439998627,
          -0.032035209238529205,
          -0.1140398159623146,
          0.12281635403633118,
          -0.07602504640817642,
          -0.11334626376628876,
          -0.04136916622519493
        ],
        [
          0.20316573977470398,
          -0.21144358813762665,
          -0.1505560725927353,
          0.11104908585548401,
          -0.1408938467502594,
          -0.01745988428592682,
          0.062020450830459595,
          0.036248624324798584,
          0.07381680607795715,
          -0.04480050504207611,
          0.18104678392410278,
          0.0039965808391571045,
          -0.12192291021347046,
          -0.14940756559371948,
          -0.11054426431655884
        ],
        [
          -0.5513092279434204,
          0.07578893005847931,
          -0.020989032462239265,
          0.10541824996471405,
          0.11407943069934845,
          0.06449170410633087,
          -0.018191076815128326,
          -0.004530658945441246,
          0.08428487181663513,
          0.09327242523431778,
          -0.11174797266721725,
          0.01210432406514883,
          -0.045661311596632004,
          0.06026143953204155,
          0.012713360600173473
        ],
        [
          0.6616495251655579,
          -0.2124408781528473,
          -0.15315471589565277,
          0.0952746719121933,
          0.1127648875117302,
          0.007391592022031546,
          -0.08459428697824478,
          -0.0848127231001854,
          -0.11003158986568451,
          0.1138322502374649,
          0.030423464253544807,
          0.11200391501188278,
          0.02884627878665924,
          -0.14236979186534882,
          0.17534726858139038
        ],
        [
          0.16736304759979248,
          0.19149360060691833,
          -0.14388982951641083,
          0.19566881656646729,
          0.2154638171195984,
          -0.013780102133750916,
          0.061579376459121704,
          0.08199679851531982,
          -0.2453635036945343,
          0.08119198679924011,
          0.179915189743042,
          -0.09046022593975067,
          -0.14045166969299316,
          -0.18825820088386536,
          -0.008040934801101685
        ],
        [
          -0.12841874361038208,
          0.9590665102005005,
          -0.032717909663915634,
          0.23791775107383728,
          0.18667751550674438,
          -0.04521869495511055,
          -0.1938437968492508,
          0.14349527657032013,
          -0.09627282619476318,
          -0.2504965662956238,
          0.062089093029499054,
          0.1417277455329895,
          -0.1018630787730217,
          0.036697350442409515,
          0.15225151181221008
        ],
        [
          0.20054230093955994,
          -0.49288466572761536,
          -0.15981550514698029,
          0.1560581773519516,
          0.051942579448223114,
          0.10068453103303909,
          -0.30633917450904846,
          -0.2858560085296631,
          -0.2835211455821991,
          -0.09105907380580902,
          0.011951319873332977,
          0.1060650423169136,
          -0.12745575606822968,
          0.06384381651878357,
          -0.09722727537155151
        ],
        [
          -0.15268510580062866,
          -0.23382055759429932,
          -0.1155395656824112,
          -0.15737062692642212,
          0.12966999411582947,
          0.19088372588157654,
          -0.07625235617160797,
          0.03574192523956299,
          0.020984143018722534,
          -0.051603659987449646,
          -0.21579575538635254,
          -0.23572905361652374,
          -0.06437104940414429,
          -0.11399316787719727,
          -0.016708150506019592
        ],
        [
          -0.01979699917137623,
          0.20461860299110413,
          -0.044884346425533295,
          -0.15074993669986725,
          -0.2992011308670044,
          0.07650304585695267,
          0.11776212602853775,
          0.014505358412861824,
          0.0747450515627861,
          -0.22497771680355072,
          0.21493375301361084,
          0.020506875589489937,
          -0.3215872347354889,
          -0.0576833076775074,
          0.29297447204589844
        ],
        [
          0.09170570224523544,
          -0.08327274024486542,
          -0.017024703323841095,
          -0.04425137862563133,
          -0.22431904077529907,
          -0.4094281792640686,
          -0.11645972728729248,
          -0.18789011240005493,
          0.18909627199172974,
          0.24035723507404327,
          0.09430394321680069,
          0.023606283590197563,
          -0.04377525672316551,
          -0.042687494307756424,
          -0.15162259340286255
        ],
        [
          -0.014136314392089844,
          0.17276975512504578,
          -0.21951910853385925,
          -0.06807424128055573,
          -0.1289142370223999,
          0.09543982148170471,
          0.07778018712997437,
          0.17443251609802246,
          -0.17465685307979584,
          0.08679458498954773,
          0.10310539603233337,
          -0.23151396214962006,
          -0.23395247757434845,
          0.11389905214309692,
          0.06520441174507141
        ],
        [
          -0.06134357303380966,
          0.9618507027626038,
          -0.2281707376241684,
          0.2080361396074295,
          0.17699933052062988,
          -0.13995228707790375,
          0.06170075014233589,
          0.11998863518238068,
          0.09409639239311218,
          -0.10289321839809418,
          0.032684266567230225,
          0.18665605783462524,
          -0.21934054791927338,
          -0.00417983578518033,
          -0.12009228020906448
        ],
        [
          0.10109326988458633,
          0.3381648361682892,
          -0.009328315034508705,
          -0.055919285863637924,
          0.005264118779450655,
          0.023892367258667946,
          0.04203924536705017,
          -0.014158717356622219,
          0.0969700813293457,
          -0.207787424325943,
          0.17384542524814606,
          0.12782180309295654,
          0.07795964926481247,
          -0.3721953332424164,
          -0.057445768266916275
        ],
        [
          0.21279197931289673,
          -0.11372248828411102,
          -0.19893315434455872,
          -0.17795151472091675,
          0.02772018313407898,
          0.15490508079528809,
          0.13127925992012024,
          -0.0034298300743103027,
          0.18607154488563538,
          0.22099226713180542,
          -0.09027419984340668,
          0.06599003076553345,
          -0.24437488615512848,
          -0.10219290852546692,
          0.10291832685470581
        ],
        [
          -1.16850745677948,
          -0.15634559094905853,
          -0.02502395771443844,
          -0.10454121232032776,
          0.15713153779506683,
          0.07536642998456955,
          -0.1903732270002365,
          -0.00936500821262598,
          -0.1999741494655609,
          0.0038904722314327955,
          -0.2404724806547165,
          -0.25302621722221375,
          -0.17693383991718292,
          0.11286929994821548,
          -0.055868953466415405
        ],
        [
          0.03573222458362579,
          0.07827698439359665,
          -0.14298319816589355,
          0.15214774012565613,
          -0.034562334418296814,
          0.07386850565671921,
          0.05243010073900223,
          -0.15129069983959198,
          0.031483881175518036,
          -0.2710550129413605,
          0.021544022485613823,
          0.09516362845897675,
          0.07134400308132172,
          -0.08033427596092224,
          0.05013247951865196
        ],
        [
          -0.28601953387260437,
          -0.1828390508890152,
          -0.21538637578487396,
          -0.15047742426395416,
          0.04725591465830803,
          -0.02744365856051445,
          -0.10061176866292953,
          -0.4609696567058563,
          0.21820399165153503,
          0.02328621782362461,
          0.16559869050979614,
          -0.3247964680194855,
          0.07003407180309296,
          -0.0594823881983757,
          -0.11112215369939804
        ],
        [
          -0.8657726049423218,
          0.10101401805877686,
          -0.002349806483834982,
          -0.1221526563167572,
          0.07196513563394547,
          -0.07257121801376343,
          0.17126037180423737,
          -0.3809930980205536,
          0.08914465457201004,
          -0.07634926587343216,
          0.09044910967350006,
          -0.19238992035388947,
          0.02929006889462471,
          -0.1273980587720871,
          -0.23685069382190704
        ],
        [
          0.25821489095687866,
          0.30247703194618225,
          0.10065989941358566,
          -0.016374068334698677,
          0.14565515518188477,
          -0.06954922527074814,
          -0.3605647087097168,
          -0.12868277728557587,
          -0.30228930711746216,
          -0.2060893326997757,
          -0.026168925687670708,
          0.05933745950460434,
          0.04432480037212372,
          -0.08114558458328247,
          -0.010393851436674595
        ],
        [
          -0.13027353584766388,
          0.04170939326286316,
          -0.020562633872032166,
          -0.15376368165016174,
          -0.14980658888816833,
          -0.21605107188224792,
          0.0328461229801178,
          -0.08940504491329193,
          -0.2021668255329132,
          0.22455069422721863,
          0.05368560552597046,
          -0.1519531011581421,
          -0.08440376818180084,
          -0.15254028141498566,
          0.1287914514541626
        ],
        [
          -0.0051886942237615585,
          -0.8301342129707336,
          -0.18341064453125,
          -0.12180324643850327,
          -0.22996915876865387,
          0.09738591313362122,
          0.031250737607479095,
          0.29123473167419434,
          -0.11202223598957062,
          0.1645192950963974,
          -0.09384246170520782,
          0.09348157048225403,
          0.1920609474182129,
          0.04293062910437584,
          -0.0996784046292305
        ],
        [
          -0.6057468056678772,
          0.24440449476242065,
          0.048561256378889084,
          0.08302664756774902,
          0.13683262467384338,
          -0.1696690320968628,
          -0.14318811893463135,
          -0.4872288405895233,
          -0.17588379979133606,
          0.137698695063591,
          -0.3668949007987976,
          -0.39106932282447815,
          -0.14292031526565552,
          0.14672726392745972,
          0.18909071385860443
        ],
        [
          -0.25097009539604187,
          -0.6659776568412781,
          0.15048524737358093,
          0.15892638266086578,
          -0.15534356236457825,
          -0.11408856511116028,
          -0.12497828155755997,
          -0.26754260063171387,
          -0.35654884576797485,
          -0.07814716547727585,
          -0.22622370719909668,
          -0.23876745998859406,
          0.14391878247261047,
          0.06327932327985764,
          0.3356577455997467
        ],
        [
          0.7472662925720215,
          0.32980024814605713,
          0.12187515944242477,
          -0.2494003027677536,
          -0.1445968896150589,
          -0.1194235309958458,
          -0.21883229911327362,
          -0.15229849517345428,
          -0.29647308588027954,
          0.03615522012114525,
          -0.003514312906190753,
          -0.03033105842769146,
          0.15626172721385956,
          0.025823719799518585,
          -0.20572593808174133
        ],
        [
          0.43621379137039185,
          -0.32336971163749695,
          0.015222182497382164,
          0.1308814436197281,
          -0.13056357204914093,
          -0.17750683426856995,
          -0.016998600214719772,
          -0.05767495185136795,
          0.055052757263183594,
          -0.12568125128746033,
          -0.04495254531502724,
          0.03999682515859604,
          0.11633520573377609,
          0.03747229278087616,
          -0.03393492475152016
        ],
        [
          -0.0743996649980545,
          -0.216410294175148,
          -0.07845395803451538,
          0.1347581446170807,
          -0.1555027961730957,
          -0.18558958172798157,
          0.07616183161735535,
          0.08137738704681396,
          0.043386876583099365,
          -0.17730815708637238,
          -0.2194075584411621,
          0.048474133014678955,
          -0.21421130001544952,
          -0.19367119669914246,
          -0.11541865766048431
        ],
        [
          -0.0024890063796192408,
          1.253687858581543,
          0.11885835975408554,
          -0.2389863133430481,
          -0.13818904757499695,
          0.14350061118602753,
          0.016009679064154625,
          -0.15855686366558075,
          -0.37367621064186096,
          0.025936277583241463,
          -0.3483653962612152,
          -0.11735377460718155,
          0.027787432074546814,
          0.10246694087982178,
          -0.17907723784446716
        ],
        [
          1.088658094406128,
          0.09585968405008316,
          0.19617107510566711,
          -0.0047591389156877995,
          -0.3940693140029907,
          -0.11121687293052673,
          -0.11220879852771759,
          0.021763896569609642,
          -0.1539650559425354,
          -0.2868509888648987,
          0.19636094570159912,
          0.015360014513134956,
          -0.12778130173683167,
          -0.25151610374450684,
          0.1380646973848343
        ],
        [
          0.07953968644142151,
          -0.13789017498493195,
          -0.07742533087730408,
          -0.22548037767410278,
          0.11166545748710632,
          -0.0985054150223732,
          0.0967705100774765,
          -0.18452347815036774,
          0.07899385690689087,
          0.042598623782396317,
          0.05490747466683388,
          -0.0006709566223435104,
          0.05536137521266937,
          -0.19638554751873016,
          -0.019481224939227104
        ],
        [
          0.030889160931110382,
          -0.5352741479873657,
          0.14768846333026886,
          -0.2259892374277115,
          0.11347764730453491,
          -0.20334038138389587,
          -0.2565726637840271,
          0.0871240496635437,
          0.0531618557870388,
          -0.2410580813884735,
          -0.21078826487064362,
          0.04181623458862305,
          0.09944327920675278,
          0.05438857153058052,
          0.08683237433433533
        ],
        [
          -0.025484371930360794,
          0.33252760767936707,
          -0.029435519129037857,
          0.18191120028495789,
          -0.1185997799038887,
          0.11036890000104904,
          0.08284403383731842,
          0.021167023107409477,
          0.0635547786951065,
          -0.2000708132982254,
          -0.1102941632270813,
          -0.05110396817326546,
          -0.12460297346115112,
          0.03610113635659218,
          -0.030674483627080917
        ],
        [
          -0.37760642170906067,
          -0.3721372187137604,
          -0.1774408519268036,
          -0.01847250387072563,
          -0.01559782586991787,
          0.07198316603899002,
          -0.08069834858179092,
          -0.3610341548919678,
          -0.010346082970499992,
          -0.3683081567287445,
          0.11128553748130798,
          0.026280531659722328,
          0.15448381006717682,
          -0.1856674998998642,
          0.002325675915926695
        ],
        [
          0.09762072563171387,
          0.9355154633522034,
          -0.08321443945169449,
          -0.11673307418823242,
          -0.023295694962143898,
          0.3246515393257141,
          -0.03891502693295479,
          0.1586829125881195,
          -0.0625004693865776,
          -0.05800258740782738,
          -0.015441352501511574,
          0.15473881363868713,
          0.20138683915138245,
          -0.1524513214826584,
          -0.23147577047348022
        ],
        [
          1.1383986473083496,
          -0.026860153302550316,
          -0.06935083866119385,
          0.20470355451107025,
          -0.3105694055557251,
          -0.09186573326587677,
          -0.08947241306304932,
          0.15319056808948517,
          0.21184644103050232,
          -0.011346258223056793,
          0.01196913793683052,
          0.028572168201208115,
          0.05099788308143616,
          -0.1809774786233902,
          -0.027062566950917244
        ],
        [
          0.1793345808982849,
          0.25732889771461487,
          -0.12509076297283173,
          -0.02397073805332184,
          -0.009432435035705566,
          0.20783263444900513,
          0.20817893743515015,
          -0.22965162992477417,
          -0.23798133432865143,
          0.174187570810318,
          0.14418119192123413,
          -0.053450196981430054,
          -0.0858323872089386,
          -0.1012866199016571,
          0.06763282418251038
        ],
        [
          0.0060132029466331005,
          0.08198574185371399,
          0.15199749171733856,
          0.04125802963972092,
          0.007576517295092344,
          0.13280923664569855,
          0.04653751850128174,
          0.04739028215408325,
          0.07986119389533997,
          0.11210674047470093,
          0.17367546260356903,
          0.042534239590168,
          0.18462195992469788,
          -0.026447243988513947,
          -0.010542590171098709
        ]
      ],
      "biases": [
        -0.0011058725649490952,
        -0.25731131434440613,
        -0.24934260547161102,
        -0.2571776211261749,
        0.17910310626029968,
        0.12258844822645187,
        -0.13958141207695007,
        0.18406516313552856,
        0.18448637425899506,
        -0.19219210743904114,
        -0.23658575117588043,
        0.1460644155740738,
        -0.026322191581130028,
        0.19820792973041534,
        -0.21119964122772217,
        0.08275294303894043,
        0.15287762880325317,
        -0.05209774151444435,
        -0.17434854805469513,
        0.06471610069274902,
        -0.1291755884885788,
        -0.02757282555103302,
        -0.18933148682117462,
        0.19454626739025116,
        -0.06772933900356293,
        0.14802369475364685,
        -0.08163809776306152,
        -0.020842377096414566,
        0.2537306845188141,
        0.11705172061920166,
        -0.02599691040813923,
        -0.24783900380134583,
        -0.20724055171012878,
        -0.20611268281936646,
        0.04590713605284691,
        0.12535521388053894,
        0.1012018546462059,
        0.2051864117383957,
        0.15672597289085388,
        0.18348468840122223,
        0.18241967260837555,
        0.09228068590164185,
        -0.2917040288448334,
        -0.2387668937444687,
        -0.30824750661849976,
        -0.2894148826599121,
        0.030913371592760086,
        0.05448922514915466,
        -0.2279704362154007,
        -0.033690646290779114,
        0.05432821810245514,
        -0.2673795223236084,
        -0.26173272728919983,
        -0.1801796555519104,
        0.19079814851284027,
        0.16064117848873138,
        0.0931231826543808,
        -0.07869405299425125,
        -0.11742662638425827,
        -0.05191267281770706,
        -0.1391625553369522,
        0.019711336120963097,
        -0.25540387630462646,
        -0.2287379503250122
      ]
    },
    {
      "name": "1",
      "kind": "ReLU"
    },
    {
      "name": "2",
      "kind": "Linear",
      "inputSize": 64,
      "outputSize": 64,
      "hasBiases": true,
      "weights": [
        [
          -0.0007261247374117374,
          -0.087336465716362,
          -0.03493727743625641,
          -0.11225353181362152,
          0.07554569840431213,
          0.007174441125243902,
          -0.08729888498783112,
          -0.008110970258712769,
          0.09152600169181824,
          -0.0403953455388546,
          0.07410228252410889,
          0.055294468998909,
          -0.09130895137786865,
          -0.06124669685959816,
          0.06526827812194824,
          0.04053565487265587,
          -0.03785213455557823,
          0.09174562990665436,
          0.05648228898644447,
          0.04144692420959473,
          -0.010410512797534466,
          -0.024165719747543335,
          -0.17983898520469666,
          0.0005555605748668313,
          0.018089164048433304,
          0.08330443501472473,
          -0.14975008368492126,
          -0.05125652626156807,
          -0.03976159915328026,
          0.06938008964061737,
          -0.21697665750980377,
          0.08359216898679733,
          0.03527157008647919,
          -0.02828914299607277,
          -0.034022293984889984,
          0.09513087570667267,
          0.14680776000022888,
          -0.05208180099725723,
          -0.08786490559577942,
          0.05823025107383728,
          -0.01267019473016262,
          0.05959424376487732,
          0.11685988306999207,
          0.03979886695742607,
          -0.11502578854560852,
          -0.14163120090961456,
          -0.07550039887428284,
          -0.0803893506526947,
          -0.04379887506365776,
          0.02397323027253151,
          0.055897489190101624,
          -0.0703958123922348,
          0.048830386251211166,
          -0.10361558198928833,
          -0.041609399020671844,
          -0.053722966462373734,
          0.011559334583580494,
          -0.08949659764766693,
          0.01074826531112194,
          -0.07328265905380249,
          -0.08935033529996872,
          0.016164446249604225,
          -0.04158003628253937,
          0.004847563337534666
        ],
        [
          0.08673243224620819,
          0.0626903623342514,
          0.09646347165107727,
          0.059367887675762177,
          -0.1273311972618103,
          0.04118795692920685,
          0.008335813879966736,
          0.03717459738254547,
          -0.0696939155459404,
          0.12174785137176514,
          0.06581421196460724,
          0.08375958353281021,
          0.06078776717185974,
          0.049962256103754044,
          -0.10560633987188339,
          -0.11559045314788818,
          0.07899334281682968,
          0.031861986964941025,
          0.013257190585136414,
          0.020663633942604065,
          0.0162318367511034,
          0.03260599076747894,
          -0.07501664757728577,
          -0.011619135737419128,
          -0.03239503502845764,
          -0.1270129680633545,
          -0.09692177921533585,
          -0.03952156379818916,
          -0.0772896260023117,
          0.10313603281974792,
          -0.13719192147254944,
          -0.0763089656829834,
          -0.038054123520851135,
          0.06676390022039413,
          0.056983090937137604,
          -0.11846019327640533,
          -0.06201615929603577,
          0.0832836776971817,
          0.006571069359779358,
          -0.11808178573846817,
          0.061700619757175446,
          -0.0436878502368927,
          0.09622001647949219,
          0.08275840431451797,
          -0.08809228986501694,
          0.024317581206560135,
          -0.09598226845264435,
          -0.04730340838432312,
          -0.01715332455933094,
          -0.018641460686922073,
          -0.015437150374054909,
          -0.07189701497554779,
          -0.033737555146217346,
          -0.05575448274612427,
          0.026092223823070526,
          -0.04739398509263992,
          0.022979453206062317,
          -0.11496464908123016,
          -0.1398913562297821,
          -0.10456311702728271,
          -0.011244245804846287,
          0.055210426449775696,
          -0.032574787735939026,
          -0.10681086778640747
        ],
        [
          0.06599345058202744,
          0.09112678468227386,
          0.00216124951839447,
          -0.059416551142930984,
          0.029666928574442863,
          -0.04513661563396454,
          -0.056258514523506165,
          0.002555668354034424,
          -0.06798482686281204,
          -0.16900798678398132,
          -0.12245400249958038,
          0.03772260248661041,
          -0.03576137125492096,
          -0.04641732946038246,
          -0.08224795013666153,
          0.007011282257735729,
          -0.11753643304109573,
          -0.09090983122587204,
          -0.021933987736701965,
          0.071907177567482,
          0.05234304443001747,
          0.12378974258899689,
          -0.06904902309179306,
          0.07736700028181076,
          0.05150977894663811,
          -0.01797235943377018,
          -0.12436172366142273,
          0.0044405655935406685,
          -0.0926743820309639,
          0.034229129552841187,
          0.06704821437597275,
          0.07160067558288574,
          0.05215282738208771,
          -0.027708349749445915,
          -0.023626314476132393,
          0.0027038753032684326,
          0.042237572371959686,
          -0.028402825817465782,
          0.06251968443393707,
          0.03307417035102844,
          0.029995372518897057,
          0.014329984784126282,
          0.0004006054950878024,
          0.10845118016004562,
          0.07081618905067444,
          -0.15687282383441925,
          -0.15786519646644592,
          -0.04881471395492554,
          0.044257357716560364,
          0.04663833975791931,
          0.017385495826601982,
          -0.018639618530869484,
          -0.1565266102552414,
          0.06416097283363342,
          -0.04490980505943298,
          0.0305092241615057,
          0.04744170233607292,
          -0.08637663722038269,
          0.04916581138968468,
          -0.004027090035378933,
          -0.036619726568460464,
          -0.1378849893808365,
          -0.09578071534633636,
          -0.019397631287574768
        ],
        [
          0.014506562612950802,
          0.0012270957231521606,
          -0.028262674808502197,
          -0.03895893320441246,
          -0.14223581552505493,
          0.11083588004112244,
          0.06586955487728119,
          -0.0559634268283844,
          -0.1071985512971878,
          0.10639844834804535,
          -0.01845008134841919,
          0.019340887665748596,
          -0.01427382417023182,
          -0.07553493231534958,
          -0.13057565689086914,
          -0.03212587535381317,
          -0.01582404412329197,
          -0.11565782129764557,
          -0.1457325667142868,
          -0.0499393492937088,
          -0.07675386965274811,
          0.08358225226402283,
          -0.04225539788603783,
          -0.09461620450019836,
          -0.018766790628433228,
          -0.04068276658654213,
          0.04733709990978241,
          -0.110686294734478,
          -0.12229402363300323,
          0.04563285410404205,
          0.10659243911504745,
          0.005852934438735247,
          0.03964419662952423,
          0.05707908421754837,
          -0.009916484355926514,
          -0.061696603894233704,
          0.039390042424201965,
          -0.048223599791526794,
          -0.019857078790664673,
          0.05936405435204506,
          -0.01227802038192749,
          0.011617615818977356,
          0.1018623635172844,
          -0.10303671658039093,
          -0.05025788024067879,
          -0.010266178287565708,
          -0.02317262999713421,
          -0.049635931849479675,
          -0.12252438813447952,
          -0.062233805656433105,
          0.07006129622459412,
          -0.05010419711470604,
          -0.11833754181861877,
          0.04467000067234039,
          0.08907053619623184,
          0.028195694088935852,
          0.04825286567211151,
          -0.0245211124420166,
          0.009339138865470886,
          -0.104021817445755,
          0.02697058580815792,
          -0.04348801076412201,
          -0.017682000994682312,
          -0.020616043359041214
        ],
        [
          -0.09691411256790161,
          0.009796962141990662,
          -0.05273367464542389,
          -0.06422746181488037,
          -0.04275393486022949,
          0.08597584813833237,
          -0.10669437050819397,
          0.00893796980381012,
          -0.026745468378067017,
          -0.0585116446018219,
          0.1054551750421524,
          0.058334678411483765,
          -0.025886625051498413,
          -0.0687200054526329,
          -0.05563550814986229,
          0.07888048142194748,
          0.005556851625442505,
          0.03894950449466705,
          0.030202612280845642,
          0.036611806601285934,
          0.035916879773139954,
          0.010834932327270508,
          -0.17086158692836761,
          0.04948851093649864,
          -0.05524682626128197,
          -0.09215447306632996,
          -0.0780106633901596,
          -0.011593216098845005,
          -0.11864139139652252,
          0.024636223912239075,
          -0.04850117489695549,
          0.027324529364705086,
          0.035933271050453186,
          0.06554906815290451,
          -0.03277327120304108,
          0.050186991691589355,
          -0.038483113050460815,
          -0.03161471709609032,
          -0.03157396614551544,
          -0.034489136189222336,
          -0.1331789493560791,
          0.08123697340488434,
          -0.017674624919891357,
          -0.004838511347770691,
          -0.019044624641537666,
          -0.08473560214042664,
          -0.10166379064321518,
          -0.10783445835113525,
          0.05306166782975197,
          0.018971148878335953,
          0.03443319723010063,
          0.034128960222005844,
          -0.10120291262865067,
          0.12253762781620026,
          -0.04825231432914734,
          -0.02216830477118492,
          -0.001027683261781931,
          -0.028137121349573135,
          -0.09459898620843887,
          -0.06308621913194656,
          0.08707202225923538,
          -0.10100050270557404,
          0.09150923788547516,
          -0.04129449650645256
        ],
        [
          0.02794138714671135,
          -0.23255151510238647,
          0.06913311779499054,
          -0.08787621557712555,
          0.02734615094959736,
          0.10346106439828873,
          0.10755902528762817,
          -0.03370167315006256,
          -0.06225563585758209,
          -0.05358310416340828,
          -0.05617803707718849,
          -0.08329042792320251,
          -0.019632885232567787,
          0.01696416735649109,
          0.029553871601819992,
          0.13932782411575317,
          0.0779721736907959,
          -0.43699222803115845,
          -0.08378197252750397,
          -0.14303003251552582,
          -0.018521254882216454,
          0.00793437659740448,
          0.00024122343165799975,
          -0.007689200341701508,
          0.0018588206730782986,
          0.12037952244281769,
          -0.04776294156908989,
          -0.11804977804422379,
          -0.22564609348773956,
          -0.03006500005722046,
          0.0388229563832283,
          -0.0493740439414978,
          0.038469091057777405,
          -0.016663845628499985,
          -0.07803576439619064,
          -0.0011107921600341797,
          -0.023944662883877754,
          -0.12060444056987762,
          -0.05317765474319458,
          -0.02131308615207672,
          -0.08537264913320541,
          -0.06799580156803131,
          -0.293295681476593,
          0.005747186951339245,
          0.04646586999297142,
          -0.466715544462204,
          0.010899482294917107,
          0.03181178867816925,
          0.002923901891335845,
          -0.008887783624231815,
          -0.06460616737604141,
          -0.08725510537624359,
          -0.12549728155136108,
          -0.07546663284301758,
          -0.05193071439862251,
          0.1596425175666809,
          0.11214372515678406,
          0.06187305599451065,
          0.022903209552168846,
          -0.11206361651420593,
          -0.020410146564245224,
          0.16437283158302307,
          0.015550956130027771,
          0.0770341232419014
        ],
        [
          0.08892874419689178,
          -0.09386426210403442,
          0.036394551396369934,
          0.08579869568347931,
          -0.09080800414085388,
          0.01703929901123047,
          -0.034643739461898804,
          -0.11149948835372925,
          -0.06899760663509369,
          -0.05497841536998749,
          0.05239742994308472,
          0.11163705587387085,
          0.03066633641719818,
          -0.11458698660135269,
          -0.12225976586341858,
          0.040596216917037964,
          -0.011347725987434387,
          -0.11788442730903625,
          0.09806116670370102,
          0.06262628734111786,
          -0.01893465220928192,
          -0.0892176628112793,
          0.10544127225875854,
          0.08437620103359222,
          -0.10251374542713165,
          0.08749198168516159,
          -0.11681042611598969,
          -0.10598877817392349,
          0.03716856241226196,
          -0.08544649183750153,
          -0.060994379222393036,
          -0.06438376754522324,
          -0.015653997659683228,
          -0.06179562583565712,
          -0.06227219104766846,
          0.09581293165683746,
          -0.0711875706911087,
          -0.12051810324192047,
          0.03193742036819458,
          -0.12197277694940567,
          -0.13641205430030823,
          0.062284812331199646,
          -0.10808555781841278,
          -0.11255259066820145,
          -0.12187160551548004,
          0.09225267171859741,
          -0.13144968450069427,
          -0.10772190988063812,
          -0.09690538048744202,
          0.09666185081005096,
          0.09085085988044739,
          -0.11456187069416046,
          -0.11282110214233398,
          0.022093653678894043,
          -0.12247613072395325,
          -0.07573911547660828,
          0.07313673198223114,
          -0.1028553694486618,
          -0.08073695749044418,
          0.10018524527549744,
          0.0305729191750288,
          0.08177658915519714,
          0.04177795350551605,
          0.0026997483801096678
        ],
        [
          0.16691555082798004,
          -0.15534016489982605,
          0.003590211272239685,
          0.018613964319229126,
          0.11613806337118149,
          -0.09904458373785019,
          0.01979522407054901,
          0.09144513309001923,
          -0.08743245154619217,
          -0.07340557128190994,
          -0.00561189278960228,
          0.0765332356095314,
          -0.17843209207057953,
          0.07476963847875595,
          -0.1000843197107315,
          -0.019933661445975304,
          0.04840627685189247,
          0.209266796708107,
          -0.14296339452266693,
          0.10326000303030014,
          -0.1628412902355194,
          -0.10222575068473816,
          -0.31865888833999634,
          0.08338415622711182,
          0.003382502356544137,
          -0.11659989506006241,
          -0.1762198805809021,
          0.03286431357264519,
          -0.07986415922641754,
          0.027711987495422363,
          -0.011959811672568321,
          -0.1304694265127182,
          0.07229636609554291,
          0.09432658553123474,
          -0.020250393077731133,
          0.008308112621307373,
          0.033926159143447876,
          0.0032161108683794737,
          0.11466342210769653,
          0.11981535702943802,
          -0.09986419230699539,
          -0.047935232520103455,
          0.12218175828456879,
          -0.06734158843755722,
          -0.2036924511194229,
          -0.06243232637643814,
          0.0021091592498123646,
          0.11963804066181183,
          -0.33484604954719543,
          -0.0997498407959938,
          -0.07182496786117554,
          0.19872182607650757,
          -0.1375952810049057,
          -0.11778983473777771,
          0.3806750178337097,
          -0.06899945437908173,
          0.019940443336963654,
          -0.245518758893013,
          0.1889495998620987,
          -0.1489173322916031,
          -0.052436523139476776,
          -0.1342584639787674,
          -0.09547983109951019,
          -0.056426919996738434
        ],
        [
          -0.26361069083213806,
          -0.13432981073856354,
          -0.013109013438224792,
          0.017733996734023094,
          -0.05676890164613724,
          0.03476417437195778,
          0.0011604130268096924,
          0.020043954253196716,
          -0.008541685529053211,
          0.19760844111442566,
          -0.096649669110775,
          -0.17666320502758026,
          -0.017595399171113968,
          0.09658296406269073,
          -0.06560477614402771,
          -0.0631987676024437,
          -0.024285852909088135,
          -0.3507496416568756,
          0.053675659000873566,
          -0.010584386065602303,
          -0.09549663960933685,
          0.06903502345085144,
          0.07588532567024231,
          -0.2338644564151764,
          -0.1263258010149002,
          0.06686105579137802,
          0.04857291281223297,
          0.029618151485919952,
          -0.23972533643245697,
          0.07635734975337982,
          -0.0763745903968811,
          -0.040894925594329834,
          -0.06415222585201263,
          -0.07213965803384781,
          -0.06985016912221909,
          -0.014603927731513977,
          -0.055186301469802856,
          -0.0063756913878023624,
          -0.038423120975494385,
          -0.023084966465830803,
          -0.06568089872598648,
          -0.10723240673542023,
          -0.25630509853363037,
          -0.0006096428260207176,
          -0.0076278275810182095,
          -0.16369329392910004,
          -0.03241374343633652,
          0.01064540445804596,
          0.07441329210996628,
          -0.15239396691322327,
          -0.008488361723721027,
          -0.04028603807091713,
          -0.04084886237978935,
          -0.0691664069890976,
          -0.051979679614305496,
          0.093512162566185,
          0.06585961580276489,
          0.06497260928153992,
          -0.17272473871707916,
          0.02350802533328533,
          -0.07529792189598083,
          0.06037071347236633,
          0.009139463305473328,
          0.05089811608195305
        ],
        [
          0.011250412091612816,
          -0.040102627128362656,
          -0.04354394972324371,
          -0.30466076731681824,
          -0.13897986710071564,
          0.09416085481643677,
          -0.04072496294975281,
          0.04921834170818329,
          -0.0972302183508873,
          0.07272449135780334,
          -0.10819689929485321,
          0.0506264753639698,
          0.1656787097454071,
          -0.3484896719455719,
          0.19307982921600342,
          0.11190717667341232,
          -0.08424068987369537,
          0.031542643904685974,
          0.1483108103275299,
          0.20460745692253113,
          0.026409249752759933,
          -0.022753804922103882,
          0.07452258467674255,
          0.023438196629285812,
          -0.057094380259513855,
          0.03580337390303612,
          0.03096720203757286,
          -0.21803328394889832,
          0.05390442907810211,
          0.029020726680755615,
          -0.02708238735795021,
          0.0501725859940052,
          0.0981779545545578,
          -0.2826337218284607,
          -0.005672364961355925,
          0.02294008433818817,
          0.09271284937858582,
          0.004090282134711742,
          0.046187207102775574,
          -0.2548726797103882,
          0.034433335065841675,
          0.06970983743667603,
          0.046693675220012665,
          -0.08322987705469131,
          -0.024320142343640327,
          -0.029602445662021637,
          -0.13581420481204987,
          0.0870627611875534,
          -0.029019607231020927,
          -0.041614990681409836,
          0.03724854066967964,
          -0.005025030579417944,
          0.059019267559051514,
          0.023890912532806396,
          -0.13229934871196747,
          -0.11303547769784927,
          0.04208119586110115,
          0.01577918604016304,
          0.03886617720127106,
          -0.05585049092769623,
          -0.34789273142814636,
          -0.02954676002264023,
          -0.08316868543624878,
          -0.09096639603376389
        ],
        [
          -0.01322459802031517,
          -0.007760733366012573,
          0.030702590942382812,
          -0.047577448189258575,
          -0.1767190545797348,
          0.03565024584531784,
          0.09145471453666687,
          0.013949811458587646,
          -0.05936000496149063,
          -0.020541008561849594,
          -0.07004167884588242,
          0.15960471332073212,
          -0.10893809050321579,
          -0.18862518668174744,
          -0.08792157471179962,
          -0.08437750488519669,
          -0.11426518857479095,
          0.06632792949676514,
          -0.046585001051425934,
          -0.15721599757671356,
          -0.18034352362155914,
          0.02489340305328369,
          -0.2571728527545929,
          -0.09868660569190979,
          0.1230316013097763,
          -0.09408571571111679,
          -0.05474730208516121,
          0.047651294618844986,
          0.18687358498573303,
          0.11849759519100189,
          -0.1879280060529709,
          -0.05696551501750946,
          -0.12105083465576172,
          -0.082940474152565,
          0.0402073860168457,
          0.010659068822860718,
          0.01710664853453636,
          0.015032012015581131,
          0.019359230995178223,
          -0.07589496672153473,
          0.01532003004103899,
          0.0718982070684433,
          0.05904504656791687,
          -0.041686344891786575,
          0.07996012270450592,
          -0.09778311848640442,
          0.09563824534416199,
          -0.04716067016124725,
          0.08407322317361832,
          0.050421059131622314,
          0.030364418402314186,
          -0.06042758747935295,
          0.08845117688179016,
          0.10909302532672882,
          0.10073171555995941,
          0.15937510132789612,
          0.014704427681863308,
          0.006807434372603893,
          -0.10838355123996735,
          -0.1325802356004715,
          0.08737284690141678,
          0.04071637615561485,
          -0.09071791172027588,
          -0.10749217867851257
        ],
        [
          -0.3290800452232361,
          -0.02522904798388481,
          -0.11943122744560242,
          -0.07587829232215881,
          -0.13738159835338593,
          0.02669987641274929,
          -0.08843305706977844,
          0.03826974332332611,
          -0.10264861583709717,
          0.037119075655937195,
          0.015020204707980156,
          -0.09021924436092377,
          0.05501418560743332,
          -0.04650969058275223,
          0.015412007458508015,
          -0.01589609868824482,
          -0.02208024077117443,
          -0.24742014706134796,
          -0.03995849937200546,
          0.06810226291418076,
          0.05514272674918175,
          -0.030391409993171692,
          0.03513557091355324,
          -0.1624377965927124,
          -0.06123759225010872,
          -0.13366667926311493,
          0.13769900798797607,
          0.08538426458835602,
          -0.10031183063983917,
          -0.0668584555387497,
          -0.04950433596968651,
          -0.043779585510492325,
          -0.021968141198158264,
          -0.1177854984998703,
          0.08710335195064545,
          0.1112280935049057,
          -0.1666407436132431,
          0.04919913783669472,
          -0.06987650692462921,
          -0.09752955287694931,
          0.052477240562438965,
          -0.10014098882675171,
          -0.2436090111732483,
          -0.07036259770393372,
          0.04375951364636421,
          -0.514899730682373,
          -0.020233944058418274,
          -0.10234875977039337,
          0.024633988738059998,
          -0.057030171155929565,
          -0.07121433317661285,
          -0.03527536243200302,
          0.0005378039204515517,
          -0.0948525220155716,
          0.23615716397762299,
          0.09084226936101913,
          0.0959961786866188,
          0.062341704964637756,
          0.0823395773768425,
          0.033019404858350754,
          0.005317922681570053,
          0.0853021889925003,
          -0.12027236819267273,
          0.058459579944610596
        ],
        [
          0.16779649257659912,
          0.1497141420841217,
          0.040748611092567444,
          -0.09484384208917618,
          -0.00961652584373951,
          -0.16243620216846466,
          0.052547648549079895,
          -0.07809264957904816,
          -0.08284556120634079,
          -0.036927685141563416,
          0.01673579402267933,
          0.4373748004436493,
          -0.07239406555891037,
          -0.07085684686899185,
          -0.0992598608136177,
          -0.034912969917058945,
          0.1034555435180664,
          0.25550782680511475,
          -0.03765709325671196,
          -0.08468508720397949,
          -0.1405293345451355,
          0.05475933849811554,
          -0.01602221466600895,
          -0.319389671087265,
          -0.03728805109858513,
          0.002151925815269351,
          0.027579685673117638,
          -0.12202680110931396,
          0.41115492582321167,
          0.07826724648475647,
          0.06443160772323608,
          0.11951041221618652,
          0.024191483855247498,
          -0.06958036124706268,
          -0.02817656472325325,
          0.03546036779880524,
          -0.10831035673618317,
          0.01619168184697628,
          -0.11310510337352753,
          0.0195529256016016,
          0.015809502452611923,
          0.11548763513565063,
          0.03501452878117561,
          0.07779739797115326,
          -0.12718723714351654,
          0.16199705004692078,
          -0.039605118334293365,
          0.012166991829872131,
          -0.08506463468074799,
          0.011441170237958431,
          -0.14364704489707947,
          0.011282013729214668,
          -0.06544511765241623,
          -0.019783034920692444,
          0.025213951244950294,
          0.22365280985832214,
          -0.02084169164299965,
          -0.12191953510046005,
          0.03177599236369133,
          0.11464637517929077,
          -0.04712042957544327,
          0.4233052730560303,
          0.10508620738983154,
          -0.11191564053297043
        ],
        [
          0.135269895195961,
          0.017786845564842224,
          0.014562740921974182,
          -0.07401426136493683,
          0.11508888006210327,
          0.03321769833564758,
          0.010598301887512207,
          -0.03924010694026947,
          -0.18547293543815613,
          0.022494621574878693,
          -0.1113111823797226,
          -0.03841923177242279,
          -0.07421162724494934,
          0.03611845523118973,
          -0.19281014800071716,
          -0.05891025438904762,
          -0.09185396879911423,
          0.06905034184455872,
          -0.15944282710552216,
          -0.09234987944364548,
          0.029195034876465797,
          -0.0058323293924331665,
          -0.13376131653785706,
          0.029834821820259094,
          -0.1934582144021988,
          0.006849644239991903,
          -0.07925906032323837,
          -0.0567130483686924,
          -0.16056250035762787,
          -0.07533255219459534,
          -0.10530385375022888,
          -0.035830769687891006,
          0.08007782697677612,
          -0.013106043450534344,
          -0.00571928545832634,
          0.04907037317752838,
          0.06468252837657928,
          -0.13127517700195312,
          0.11045520007610321,
          -0.018501050770282745,
          0.025490857660770416,
          -0.07596391439437866,
          -0.06227341666817665,
          0.11305022239685059,
          -0.026650406420230865,
          0.05503825098276138,
          -0.10779798030853271,
          0.11917570233345032,
          -0.007885558530688286,
          -0.02413841523230076,
          0.04942506551742554,
          -0.10605763643980026,
          -0.18070627748966217,
          0.04165799915790558,
          -0.12023704499006271,
          -0.050964124500751495,
          0.08174729347229004,
          -0.14970967173576355,
          -0.035466019064188004,
          -0.125905379652977,
          0.03601855784654617,
          -0.009033146314322948,
          -0.055635809898376465,
          0.024659469723701477
        ],
        [
          0.015056118369102478,
          -0.03987056016921997,
          -0.07276315987110138,
          -0.054276466369628906,
          0.033409543335437775,
          0.02082745172083378,
          -0.07194413244724274,
          -0.07856966555118561,
          0.13986340165138245,
          -0.14253726601600647,
          -0.12204459309577942,
          -0.009113135747611523,
          0.050178878009319305,
          -0.19803160429000854,
          -0.008742211386561394,
          0.05326199531555176,
          0.017364906147122383,
          -0.020358383655548096,
          -0.015175298787653446,
          0.07546239346265793,
          0.0438728854060173,
          -0.0924176424741745,
          -0.04284970462322235,
          0.02765417844057083,
          0.04332301393151283,
          -0.06421856582164764,
          -0.05368407070636749,
          -0.06756793707609177,
          0.20301739871501923,
          -0.08468429744243622,
          -0.16732758283615112,
          0.0554208979010582,
          -0.059050917625427246,
          -0.11197923123836517,
          -0.07994318008422852,
          0.06471040844917297,
          0.20107242465019226,
          0.10469146072864532,
          0.1129339188337326,
          0.028168870136141777,
          -0.050063520669937134,
          0.00149458646774292,
          0.033458128571510315,
          -0.010456354357302189,
          -0.24082116782665253,
          -0.3820672929286957,
          -0.10458365827798843,
          0.014480352401733398,
          0.1418398916721344,
          -0.15962551534175873,
          0.069739431142807,
          -0.01243513636291027,
          0.09256042540073395,
          -0.08690901100635529,
          0.13007940351963043,
          0.12748536467552185,
          -0.15460768342018127,
          0.04041803628206253,
          0.024078086018562317,
          -0.002567771589383483,
          -0.23843753337860107,
          -0.08214401453733444,
          0.010081857442855835,
          -0.0363156795501709
        ],
        [
          -0.20844486355781555,
          0.07980963587760925,
          -0.015549421310424805,
          -0.04049618914723396,
          -0.06855098158121109,
          0.2462948113679886,
          -0.07221932709217072,
          -0.007477939128875732,
          -0.0313657782971859,
          0.09321675449609756,
          0.0584251768887043,
          -0.4402604401111603,
          -0.1109514832496643,
          -0.16044694185256958,
          0.11245477944612503,
          0.033183544874191284,
          -0.1459244340658188,
          -0.045191287994384766,
          0.08029685914516449,
          -0.07315370440483093,
          -0.14079761505126953,
          0.1115986704826355,
          -0.25652095675468445,
          0.0880877897143364,
          -0.0011983811855316162,
          0.04075144976377487,
          0.016303177922964096,
          -0.042026929557323456,
          -0.5054582357406616,
          -0.07650929689407349,
          -0.3317904472351074,
          -0.048704490065574646,
          0.08523915708065033,
          -0.0036215356085449457,
          0.05797232687473297,
          0.0699511170387268,
          0.06974422186613083,
          -0.07345348596572876,
          0.048633873462677,
          -0.04698355123400688,
          0.00910601019859314,
          0.07298643887042999,
          0.06166854500770569,
          -0.015557851642370224,
          -0.05208507552742958,
          -0.29316800832748413,
          0.03714068979024887,
          -0.009550705552101135,
          -0.07626020163297653,
          -0.12442207336425781,
          0.05477140098810196,
          -0.0943959504365921,
          0.025957895442843437,
          -0.10170520842075348,
          0.005008192267268896,
          0.1268593668937683,
          -0.1617482751607895,
          -0.09235777705907822,
          0.05338720232248306,
          0.015664223581552505,
          0.09338905662298203,
          0.012880864553153515,
          0.041324079036712646,
          0.06272689253091812
        ],
        [
          -0.012213154695928097,
          -0.09912519156932831,
          -0.05704586207866669,
          0.07052073627710342,
          0.035085346549749374,
          -0.11673440039157867,
          -0.10413044691085815,
          -0.020510122179985046,
          0.10728077590465546,
          0.04217413812875748,
          0.06878538429737091,
          -0.08588109910488129,
          -0.05081319436430931,
          -0.02518581971526146,
          -0.11477944999933243,
          -0.07761073112487793,
          0.09982015937566757,
          -0.11082885414361954,
          0.10554268211126328,
          -0.13073304295539856,
          -0.00331339449621737,
          0.0755382776260376,
          -0.14564654231071472,
          -0.0008466763538308442,
          0.042504794895648956,
          -0.0988253578543663,
          -0.11169512569904327,
          -0.05849957466125488,
          -0.0015811463817954063,
          -0.10175751149654388,
          0.07726763188838959,
          -0.14570903778076172,
          0.07115085422992706,
          -0.016008250415325165,
          -0.14040319621562958,
          0.03567005693912506,
          -0.048410117626190186,
          0.12137319892644882,
          0.05694308876991272,
          0.02279047667980194,
          -0.0494876503944397,
          0.11057594418525696,
          0.06322256475687027,
          0.07831761986017227,
          -0.005936587229371071,
          0.07344937324523926,
          0.07933945953845978,
          0.12224607169628143,
          0.09321115911006927,
          -0.09581896662712097,
          0.034972600638866425,
          0.026667900383472443,
          -0.05043185129761696,
          0.05096694827079773,
          0.03760238364338875,
          0.06115555018186569,
          -0.13263870775699615,
          0.014651311561465263,
          -0.10985154658555984,
          -0.07645982503890991,
          -0.08687516301870346,
          -0.030098753049969673,
          -0.03583534061908722,
          -0.16160014271736145
        ],
        [
          -0.017098553478717804,
          -0.07755575329065323,
          -0.10387803614139557,
          -0.11446738243103027,
          0.09106975793838501,
          0.18079537153244019,
          -0.03907947242259979,
          -0.01135590672492981,
          -0.04656510800123215,
          -0.02486293576657772,
          0.07361424714326859,
          -0.014867261983454227,
          -0.14957872033119202,
          -0.026922225952148438,
          0.07176292687654495,
          0.07223974168300629,
          0.07193434983491898,
          -0.004703914746642113,
          -0.08950027823448181,
          0.028889978304505348,
          0.09409143775701523,
          0.0735291987657547,
          -0.10838751494884491,
          0.016520800068974495,
          -0.18141762912273407,
          -0.0884120911359787,
          -0.011789756827056408,
          0.0001668003824306652,
          -0.1399201899766922,
          0.11386814713478088,
          -0.12242043763399124,
          -0.0029923338443040848,
          -0.09342697262763977,
          -0.11163311451673508,
          -0.1201392188668251,
          0.038409069180488586,
          -0.20324084162712097,
          -0.10083761811256409,
          -0.04737086594104767,
          0.024290189146995544,
          0.04223990440368652,
          0.05048282444477081,
          -0.044265683740377426,
          -0.16914965212345123,
          -0.02675160951912403,
          -0.10064859688282013,
          -0.1005646288394928,
          -0.03490811586380005,
          -0.1893938034772873,
          0.06099647283554077,
          -0.022957880049943924,
          -0.13644474744796753,
          -0.16540683805942535,
          0.03151625394821167,
          0.017868174239993095,
          0.01511851605027914,
          -0.14397723972797394,
          -0.014368097297847271,
          0.03510120138525963,
          -0.16146044433116913,
          0.0141978170722723,
          0.02469014562666416,
          0.010895967483520508,
          -0.012308668345212936
        ],
        [
          -0.010175719857215881,
          0.10115967690944672,
          0.014466196298599243,
          -0.12014038860797882,
          -0.21505002677440643,
          0.06779127568006516,
          -0.11159509420394897,
          -0.023076102137565613,
          -0.08978579938411713,
          0.06744340062141418,
          -0.12314879894256592,
          0.16873648762702942,
          -0.09467269480228424,
          -0.12944458425045013,
          0.03783600404858589,
          -0.06147848069667816,
          -0.09384007006883621,
          0.039046987891197205,
          0.06946928054094315,
          -0.02873261459171772,
          -0.2287105768918991,
          -0.009324401617050171,
          -0.09189048409461975,
          -0.11686652153730392,
          -0.1767633855342865,
          0.13675610721111298,
          0.001196854398585856,
          0.03886203095316887,
          -0.1528804898262024,
          -0.061413586139678955,
          -0.10053537786006927,
          -0.08815250545740128,
          -0.09271848201751709,
          0.013787624426186085,
          -0.015138890594244003,
          -0.007693096995353699,
          -0.08564664423465729,
          0.04651786759495735,
          -0.05457282066345215,
          -0.07018361985683441,
          -0.0660022497177124,
          -0.08305686712265015,
          -0.006972968578338623,
          -0.08311733603477478,
          -0.030883323401212692,
          -0.13786353170871735,
          -0.12962360680103302,
          -0.08466154336929321,
          0.04105096310377121,
          -0.06183953583240509,
          0.016022464260458946,
          0.045154888182878494,
          -0.08632337301969528,
          0.016861289739608765,
          0.11149750649929047,
          0.18134114146232605,
          -0.06572634726762772,
          0.07064240425825119,
          -0.1226889118552208,
          0.10416030883789062,
          -0.12910480797290802,
          0.04551597684621811,
          -0.021041348576545715,
          -0.06869994848966599
        ],
        [
          -0.09966729581356049,
          -0.2423170506954193,
          -0.023972168564796448,
          -0.10402967035770416,
          -0.12137362360954285,
          0.09154343605041504,
          -0.0033659934997558594,
          0.04825614392757416,
          0.035299234092235565,
          0.006659354083240032,
          -0.05767839774489403,
          -0.006307804025709629,
          0.13143743574619293,
          -0.12176716327667236,
          0.31123650074005127,
          0.1376708596944809,
          -0.11336362361907959,
          0.08040523529052734,
          0.2247803658246994,
          0.24734535813331604,
          0.09878223389387131,
          0.06459753215312958,
          -0.015262708067893982,
          -0.00015677459305152297,
          0.14267227053642273,
          0.0017680011224001646,
          0.08596571534872055,
          0.0036048891488462687,
          -0.021297750994563103,
          -0.03317749500274658,
          -0.19247524440288544,
          0.04669135436415672,
          0.09152352809906006,
          -0.15947332978248596,
          -0.017139514908194542,
          -0.11241070926189423,
          -0.025829385966062546,
          0.16833949089050293,
          0.007661119103431702,
          -0.2310490608215332,
          -0.011380511336028576,
          -0.09897942841053009,
          0.08107056468725204,
          -0.12718351185321808,
          0.11387259513139725,
          -0.03659755736589432,
          -0.11630086600780487,
          -0.03083537518978119,
          0.02665700577199459,
          -0.01407846249639988,
          0.14292913675308228,
          0.12425943464040756,
          -0.03871050104498863,
          -0.08772554993629456,
          -0.09445996582508087,
          -0.23437052965164185,
          0.0038666685577481985,
          -0.01564277894794941,
          0.031452346593141556,
          -0.02007291465997696,
          -0.21481575071811676,
          -0.03329000249505043,
          -0.09637664258480072,
          -0.08540167659521103
        ],
        [
          0.3357263505458832,
          -0.0638500303030014,
          -0.11744122207164764,
          0.09322547167539597,
          0.0956277921795845,
          -0.04661376029253006,
          0.0206662118434906,
          -0.08866490423679352,
          -0.07782158255577087,
          -0.09510701149702072,
          -0.013243736699223518,
          -0.16039809584617615,
          -0.2295222282409668,
          0.10759973526000977,
          -0.13250285387039185,
          -0.06500303000211716,
          0.11625529825687408,
          0.26617294549942017,
          -0.5447996258735657,
          -0.059762731194496155,
          -0.15227214992046356,
          -0.053736284375190735,
          -0.10168984532356262,
          -0.1136239618062973,
          -0.06421823054552078,
          -0.10831507295370102,
          -0.15507566928863525,
          0.056541092693805695,
          -0.17162103950977325,
          -0.10499662160873413,
          -0.04548816755414009,
          -0.03916662931442261,
          0.007663637399673462,
          0.03891881927847862,
          -0.1481032520532608,
          0.11825920641422272,
          0.0774860605597496,
          0.020049527287483215,
          0.1169356107711792,
          0.11195676773786545,
          -0.019748102873563766,
          0.038023218512535095,
          -0.2139769345521927,
          0.057783521711826324,
          -0.11159122735261917,
          0.00635799765586853,
          0.022240467369556427,
          -0.00982058048248291,
          -0.04686376824975014,
          -0.1757427155971527,
          -0.06616369634866714,
          0.05202438682317734,
          -0.12155790627002716,
          -0.11059696972370148,
          0.22423766553401947,
          -0.09732232242822647,
          -0.06961295008659363,
          -0.08853255957365036,
          0.05490938946604729,
          -0.15585769712924957,
          0.13641387224197388,
          0.07336312532424927,
          -0.060411155223846436,
          -0.036772388964891434
        ],
        [
          0.027543671429157257,
          -0.30703940987586975,
          0.03175567090511322,
          -0.2759116590023041,
          -0.13290835916996002,
          -0.003821510588750243,
          -0.04657532274723053,
          -0.049208685755729675,
          -0.08963265269994736,
          0.018486855551600456,
          0.013420289382338524,
          0.026911668479442596,
          0.1278182417154312,
          -0.13735069334506989,
          0.4754566550254822,
          0.007766364607959986,
          0.07353845238685608,
          0.13281536102294922,
          0.28240546584129333,
          0.19895249605178833,
          0.1606518030166626,
          0.07556697726249695,
          0.05479573458433151,
          -0.09376756846904755,
          0.030362579971551895,
          -0.16080228984355927,
          0.03281668573617935,
          -0.015212340280413628,
          0.13342882692813873,
          0.05786077678203583,
          -0.02368439920246601,
          0.09791368991136551,
          0.05010820925235748,
          -0.17240314185619354,
          0.044067755341529846,
          -0.03783467411994934,
          -0.20341359078884125,
          0.21814976632595062,
          -0.06028163433074951,
          -0.15875549614429474,
          0.0028739944100379944,
          0.09782174229621887,
          0.02816343680024147,
          -0.05568636208772659,
          0.09903036803007126,
          0.20536096394062042,
          0.04138415679335594,
          0.055476412177085876,
          0.2711349427700043,
          0.139852374792099,
          -0.021979920566082,
          0.045741353183984756,
          -0.08289269357919693,
          0.019552528858184814,
          0.031265441328287125,
          -0.2967650294303894,
          0.1339438408613205,
          -0.023308025673031807,
          0.10426905006170273,
          -0.02711191028356552,
          -0.16489888727664948,
          -0.17529325187206268,
          0.022978633642196655,
          0.08112434297800064
        ],
        [
          0.028803035616874695,
          -0.07784383744001389,
          -0.018363311886787415,
          -0.03060215339064598,
          0.09749197214841843,
          0.015764489769935608,
          -0.10451778769493103,
          0.06379833817481995,
          -0.11685365438461304,
          -0.09460782259702682,
          -0.053724199533462524,
          0.006025077309459448,
          -0.0205080583691597,
          -0.006067650392651558,
          0.06718272715806961,
          0.023587649688124657,
          0.05416480451822281,
          0.007276118732988834,
          -0.03875456005334854,
          0.039761025458574295,
          -0.11050693690776825,
          -0.10806098580360413,
          0.015481943264603615,
          -0.13410265743732452,
          0.10338345915079117,
          0.040037792176008224,
          -0.06395125389099121,
          -0.13840357959270477,
          0.12252505123615265,
          0.08213666081428528,
          -0.056888043880462646,
          0.05249334126710892,
          -0.10934501886367798,
          0.06750171631574631,
          -0.1207110807299614,
          0.1089816689491272,
          -0.10822627693414688,
          0.07924506068229675,
          -0.06532008945941925,
          0.010496934875845909,
          -0.105136439204216,
          -0.05172012746334076,
          -0.13724516332149506,
          -0.04001908376812935,
          0.022065358236432076,
          -0.021970700472593307,
          0.016524730250239372,
          0.062344759702682495,
          -0.06423067301511765,
          -0.0872589498758316,
          -0.09306741505861282,
          -0.03286078944802284,
          -0.11675936728715897,
          -0.04120270907878876,
          0.08554910868406296,
          0.007572702597826719,
          -0.0862468034029007,
          0.06092105060815811,
          0.014072176069021225,
          -0.03675682470202446,
          -0.0872894898056984,
          -0.12095662951469421,
          -0.08768366277217865,
          -0.01349598541855812
        ],
        [
          -0.10314270853996277,
          -0.14555810391902924,
          -0.005969241261482239,
          0.04805443435907364,
          0.09867320209741592,
          0.0014246521750465035,
          0.07492776215076447,
          -0.10045956075191498,
          0.11449521780014038,
          -0.007011997979134321,
          0.06213885545730591,
          -0.04191213473677635,
          -0.18988607823848724,
          -0.0081062912940979,
          -0.24375414848327637,
          -0.05104595422744751,
          0.02321009896695614,
          0.0029649517964571714,
          -0.0741489976644516,
          0.08727406710386276,
          -0.13274846971035004,
          0.10356192290782928,
          0.024632513523101807,
          0.025705501437187195,
          -0.11781752109527588,
          0.0867491140961647,
          -0.025897478684782982,
          -0.05288785323500633,
          -0.2619517147541046,
          0.06674358248710632,
          0.03397805243730545,
          -0.0013635859359055758,
          0.11077442765235901,
          0.052308931946754456,
          -0.0632353127002716,
          0.004513069987297058,
          -0.14087828993797302,
          0.08576450496912003,
          -0.11850067973136902,
          -0.005358557216823101,
          0.10910288244485855,
          -0.012488126754760742,
          -0.17229463160037994,
          -0.0005664772470481694,
          -0.04226783663034439,
          -0.1379041224718094,
          -0.0205383338034153,
          0.08930179476737976,
          -0.11077331751585007,
          -0.10647433251142502,
          0.013882084749639034,
          0.11110988259315491,
          0.10327690094709396,
          0.08975070714950562,
          0.022158365696668625,
          0.1218825951218605,
          -0.05259156599640846,
          -0.0025421760510653257,
          -0.025245660915970802,
          -0.01899053156375885,
          -0.010242778807878494,
          0.05917354300618172,
          0.047193750739097595,
          0.08859080821275711
        ],
        [
          -0.1371297538280487,
          0.06401161104440689,
          -0.06335040926933289,
          -0.05632565915584564,
          -0.04342123866081238,
          -0.01684470660984516,
          0.012111693620681763,
          -0.040435031056404114,
          -0.08883004635572433,
          0.12409265339374542,
          0.06534840911626816,
          -0.0185245331376791,
          0.08724245429039001,
          -0.006801615469157696,
          -0.09525087475776672,
          0.089506134390831,
          0.0931515023112297,
          -0.08564513176679611,
          -0.09044835716485977,
          -0.05329015478491783,
          -0.07617814093828201,
          -0.08245439827442169,
          -0.029878806322813034,
          -0.12997892498970032,
          0.1364690661430359,
          0.06617318093776703,
          0.016868267208337784,
          -0.09039067476987839,
          -0.22956469655036926,
          0.032089173793792725,
          0.03714374825358391,
          -0.12860780954360962,
          -0.06541329622268677,
          -0.017724379897117615,
          -0.0629003643989563,
          -0.04800701141357422,
          0.008633804507553577,
          0.08485680818557739,
          0.05433642864227295,
          0.06680633872747421,
          -0.07751162350177765,
          -0.07934913039207458,
          -0.11120326071977615,
          0.07802275568246841,
          -0.05162250995635986,
          0.02760264463722706,
          -0.023750359192490578,
          0.058196887373924255,
          -0.005238773301243782,
          0.09810557216405869,
          0.04249833896756172,
          -0.07102800160646439,
          0.0769241601228714,
          0.039911672472953796,
          0.10399575531482697,
          -0.02120782993733883,
          0.07977510243654251,
          -0.046050988137722015,
          -0.09800577908754349,
          -0.027262981981039047,
          0.06245132163167,
          -0.006696661934256554,
          -0.07899512350559235,
          -0.0432489849627018
        ],
        [
          -0.06602448970079422,
          0.40964946150779724,
          0.0908670574426651,
          0.08721001446247101,
          0.058563221246004105,
          0.015962891280651093,
          0.06553801894187927,
          0.009842097759246826,
          0.016348320990800858,
          0.10143175721168518,
          -0.13071221113204956,
          0.05130801349878311,
          -0.03406384587287903,
          0.05423823744058609,
          -0.2366950511932373,
          0.032414231449365616,
          0.12228348851203918,
          -0.06760397553443909,
          -0.13047274947166443,
          -0.014526164159178734,
          -0.10833033174276352,
          -0.06384024024009705,
          -0.032354626804590225,
          0.007269177585840225,
          -0.12038536369800568,
          -0.04737265035510063,
          0.07993640005588531,
          -0.10277058929204941,
          0.013215108774602413,
          -0.019911885261535645,
          -0.09084779769182205,
          -0.05647670105099678,
          0.058395519852638245,
          -0.0664440244436264,
          0.0765220895409584,
          -0.09531386196613312,
          0.13459673523902893,
          -0.07381275296211243,
          0.10928691923618317,
          -0.02867664024233818,
          0.031456708908081055,
          0.06068599224090576,
          0.06581319868564606,
          0.03006461262702942,
          0.2070741206407547,
          -0.29612064361572266,
          -0.024889200925827026,
          -0.05517613887786865,
          -0.2506788372993469,
          0.16583676636219025,
          -0.035395070910453796,
          0.055751070380210876,
          0.05998151749372482,
          -0.05040484666824341,
          -0.06406890600919724,
          -0.073854461312294,
          -0.036018263548612595,
          0.10956449806690216,
          -0.11684678494930267,
          -0.008345424197614193,
          -0.0721924901008606,
          -0.015019633807241917,
          0.006061434745788574,
          -0.10779997706413269
        ],
        [
          0.1018463745713234,
          -0.0036874720826745033,
          -0.12269298732280731,
          0.0648050308227539,
          -0.06286479532718658,
          -0.09149076044559479,
          -0.03237007558345795,
          -0.011831536889076233,
          0.004607281181961298,
          -0.26887765526771545,
          0.0048958067782223225,
          0.2112162560224533,
          -0.06349579244852066,
          -0.1936049610376358,
          0.006871299352496862,
          -0.14444203674793243,
          -0.11082708835601807,
          -0.07191996276378632,
          0.14083266258239746,
          -0.11316527426242828,
          -0.13208773732185364,
          0.0928138941526413,
          -0.08471991121768951,
          -0.03942673280835152,
          0.0637270137667656,
          -0.006693591829389334,
          0.010058995336294174,
          0.1257443130016327,
          0.23006553947925568,
          -0.09266011416912079,
          -0.2258445918560028,
          -0.10216771066188812,
          0.03790247440338135,
          -0.04078633710741997,
          -0.031175604090094566,
          -0.12072595953941345,
          -0.12721434235572815,
          -0.06527919322252274,
          0.06808099150657654,
          -0.05338108539581299,
          0.1975356638431549,
          -0.035602062940597534,
          -0.10352902114391327,
          -0.0706782266497612,
          0.057939011603593826,
          0.015469519421458244,
          0.041820280253887177,
          0.10875250399112701,
          -0.030474873259663582,
          -0.10617684572935104,
          -0.11862202733755112,
          0.024844037368893623,
          0.12607869505882263,
          0.016040295362472534,
          0.21876463294029236,
          0.038780827075242996,
          -0.07755032926797867,
          -0.08079896867275238,
          -0.09276336431503296,
          0.06805167347192764,
          -0.08807231485843658,
          0.07559365779161453,
          -0.009673207998275757,
          0.03101399354636669
        ],
        [
          0.10576307773590088,
          0.01601339876651764,
          -0.08782973885536194,
          0.07182226330041885,
          0.05147399380803108,
          0.008123916573822498,
          -0.002106025815010071,
          -0.006793498992919922,
          0.09289579093456268,
          0.37304332852363586,
          0.08675260841846466,
          -0.18927724659442902,
          0.0275140218436718,
          -0.1688031405210495,
          0.048267025500535965,
          0.01684865541756153,
          -0.18045032024383545,
          -0.04890437051653862,
          -0.17886674404144287,
          0.05455242842435837,
          0.01697380281984806,
          0.02211916446685791,
          -0.037086647003889084,
          0.061331622302532196,
          -0.0140914311632514,
          -0.08011344075202942,
          -0.19872026145458221,
          -0.13541319966316223,
          -0.061871930956840515,
          -0.0371624231338501,
          -0.016011962667107582,
          -0.19481685757637024,
          -0.08990249037742615,
          -0.021830126643180847,
          0.04987942427396774,
          0.07943804562091827,
          -0.23408769071102142,
          -0.050291530787944794,
          -0.026716962456703186,
          -0.1518905609846115,
          -0.02496143989264965,
          -0.02155652642250061,
          -0.07733281701803207,
          0.06727688014507294,
          -0.028608905151486397,
          0.17690028250217438,
          -0.034541867673397064,
          0.006099104881286621,
          0.02295600064098835,
          -0.00018234031449537724,
          -0.018188120797276497,
          -0.37838447093963623,
          -0.23075032234191895,
          -0.10476525127887726,
          0.1011383980512619,
          -0.12006722390651703,
          0.04297638311982155,
          -0.054714884608983994,
          -0.099998340010643,
          -0.10052444040775299,
          -0.1709394007921219,
          -0.05530592426657677,
          0.05812516808509827,
          -0.03221581503748894
        ],
        [
          -0.13359427452087402,
          -0.0020691242534667253,
          -0.04273948073387146,
          -0.16863545775413513,
          0.006720482837408781,
          -0.22820591926574707,
          -0.008490219712257385,
          -0.10299926996231079,
          -0.09966439008712769,
          0.03396043926477432,
          0.01841239631175995,
          0.0037352396175265312,
          -0.014495501294732094,
          -0.16601648926734924,
          0.14758507907390594,
          -0.03562837466597557,
          -0.01791291870176792,
          -0.22601783275604248,
          0.04881993308663368,
          -0.15710090100765228,
          0.0653858333826065,
          -0.006977960467338562,
          -0.021992359310388565,
          0.09406030178070068,
          0.09692226350307465,
          -0.1382308304309845,
          -0.11526934802532196,
          -0.14696365594863892,
          0.09956826269626617,
          -0.09172825515270233,
          -0.16821196675300598,
          0.0172373428940773,
          0.1177012026309967,
          -0.048775315284729004,
          0.05138755962252617,
          0.07019180059432983,
          -0.07936519384384155,
          -0.10656336694955826,
          0.05304446816444397,
          -0.005969297606498003,
          -0.11119002103805542,
          0.1230221539735794,
          -0.06114361807703972,
          -0.0992971882224083,
          0.08988724648952484,
          -0.06959808617830276,
          -0.19748646020889282,
          -0.008910119533538818,
          -0.20937080681324005,
          -0.0005911676562391222,
          0.044848669320344925,
          0.01631850190460682,
          -0.03697020187973976,
          0.02267076075077057,
          0.03278492018580437,
          -0.06673941016197205,
          0.02433253452181816,
          0.001261147204786539,
          -0.0375155508518219,
          -0.004831503611057997,
          -0.16026225686073303,
          -0.16365176439285278,
          -0.12181219458580017,
          -0.009861385449767113
        ],
        [
          0.01215769350528717,
          -0.0028612613677978516,
          0.051954761147499084,
          0.08519113063812256,
          -0.1161121279001236,
          -0.07847773283720016,
          -0.030572399497032166,
          -0.03163480758666992,
          -0.02577643096446991,
          -0.11826953291893005,
          -0.06210649386048317,
          0.07512497901916504,
          -0.0036162438336759806,
          -0.08084891736507416,
          0.017103834077715874,
          0.0913001075387001,
          -0.03151656687259674,
          0.0924270749092102,
          -0.016872812062501907,
          -0.0198694858700037,
          0.05318344011902809,
          0.07343724370002747,
          -0.10459975153207779,
          0.02398625947535038,
          0.10151572525501251,
          0.04260757938027382,
          -0.04348951205611229,
          -0.07623754441738129,
          -0.002140492433682084,
          -0.04227156937122345,
          -0.05363796278834343,
          -0.06980676203966141,
          0.03261764347553253,
          0.004461765289306641,
          -0.05141318961977959,
          0.08944480121135712,
          0.023315366357564926,
          0.014465178363025188,
          -0.08722305297851562,
          -0.09319914877414703,
          -0.08606138825416565,
          0.05070154368877411,
          0.0529446005821228,
          -0.07152505218982697,
          -0.052594881504774094,
          0.06579530984163284,
          -0.0847398191690445,
          0.02832387387752533,
          0.0931047573685646,
          -0.14092639088630676,
          -0.13552017509937286,
          -0.1296023577451706,
          0.07466878741979599,
          0.07933437824249268,
          -0.04546734690666199,
          -0.021535245701670647,
          0.06765551120042801,
          -0.06331299990415573,
          -0.024001702666282654,
          -0.11625829339027405,
          -0.08611263334751129,
          -0.005431300960481167,
          0.03389394283294678,
          -0.0458647646009922
        ],
        [
          -0.01310665626078844,
          0.10761802643537521,
          -0.03980344533920288,
          0.09041105210781097,
          -0.03471824526786804,
          0.04105107858777046,
          0.014475122094154358,
          -0.05932152271270752,
          -0.009924778714776039,
          0.13220998644828796,
          -0.01803334802389145,
          -0.1429160088300705,
          -0.040963172912597656,
          -0.009844871237874031,
          -0.16624963283538818,
          -0.015733415260910988,
          0.01170747634023428,
          0.015580402687191963,
          0.07519468665122986,
          0.035868141800165176,
          -0.11815299093723297,
          -0.048618242144584656,
          -0.01966194249689579,
          0.1458594650030136,
          -0.14846065640449524,
          -0.005235548131167889,
          0.02953980304300785,
          0.042404904961586,
          -0.246763676404953,
          0.009135648608207703,
          0.019350148737430573,
          -0.04795534163713455,
          -0.09848149120807648,
          -0.049183160066604614,
          0.011207213625311852,
          -0.01899184286594391,
          -0.07262217253446579,
          -0.03996317833662033,
          0.05487380921840668,
          0.004006429109722376,
          0.07840631902217865,
          0.015518516302108765,
          0.01496331300586462,
          0.01916944608092308,
          -0.016222871840000153,
          0.05083189532160759,
          0.06250772625207901,
          -0.07088559865951538,
          0.0432906448841095,
          -0.054719068109989166,
          0.03427803888916969,
          -0.018432745710015297,
          -0.00683578522875905,
          -0.0060109347105026245,
          0.03255121782422066,
          -0.04786454886198044,
          0.10670428723096848,
          0.0746036246418953,
          -0.025773288682103157,
          -0.0007593240588903427,
          -0.012995786033570766,
          -0.677517294883728,
          -0.004673972725868225,
          0.03621131554245949
        ],
        [
          0.10420377552509308,
          0.048905957490205765,
          0.08766111731529236,
          0.08026508241891861,
          0.06959211081266403,
          -0.21476763486862183,
          0.04084064066410065,
          -0.09667502343654633,
          0.03819546476006508,
          0.07387016713619232,
          -0.16868701577186584,
          -0.029110606759786606,
          -0.05926802381873131,
          -0.0023599916603416204,
          -0.3775116503238678,
          0.050782423466444016,
          0.02525012008845806,
          0.1993042677640915,
          -0.054948754608631134,
          0.03368562087416649,
          -0.16313868761062622,
          -0.02157425880432129,
          -0.0852385014295578,
          -0.08632663637399673,
          0.030023347586393356,
          0.010478850454092026,
          0.020703623071312904,
          0.0713842511177063,
          -0.25025248527526855,
          0.02537541091442108,
          -0.0768158808350563,
          -0.04875180125236511,
          0.0903097540140152,
          0.0641784816980362,
          -0.06437961012125015,
          0.07768882811069489,
          -0.13037236034870148,
          0.04246420040726662,
          0.06044040620326996,
          -0.003419077256694436,
          0.028173688799142838,
          0.09814377129077911,
          -0.08516733348369598,
          0.02881050296127796,
          -0.02027716301381588,
          -0.1175374984741211,
          0.028365422040224075,
          -0.016232162714004517,
          0.029702432453632355,
          -0.05607566609978676,
          0.07545439153909683,
          -0.010744446888566017,
          0.022040389478206635,
          -0.11636559665203094,
          -0.016101231798529625,
          -0.10669109225273132,
          0.0236195158213377,
          -0.005004687700420618,
          -0.06770354509353638,
          0.03105521947145462,
          -0.11465320736169815,
          -0.06931225210428238,
          -0.07820945978164673,
          0.1328945904970169
        ],
        [
          -0.06048721447587013,
          -0.32285043597221375,
          0.0582648366689682,
          -0.11891680955886841,
          -0.2145334631204605,
          -0.12511605024337769,
          0.07313638925552368,
          0.03651261329650879,
          -0.18191570043563843,
          -0.14249570667743683,
          -0.003316683229058981,
          0.29907962679862976,
          0.10124795883893967,
          -0.13886144757270813,
          0.11300234496593475,
          0.050318796187639236,
          0.01582169719040394,
          0.13225919008255005,
          0.09082866460084915,
          0.02630647085607052,
          -0.004134051036089659,
