{
  "layers": [
    {
      "name": "0",
      "kind": "Linear",
      "inputSize": 7,
      "outputSize": 64,
      "hasBiases": true,
      "weights": [
        [
          -0.3458494246006012,
          -0.17357897758483887,
          -0.35614946484565735,
          0.3771362006664276,
          -0.08183613419532776,
          0.3913751542568207,
          0.032093897461891174
        ],
        [
          0.18089677393436432,
          -0.2893810272216797,
          0.39253565669059753,
          0.13220129907131195,
          0.04668475687503815,
          -0.08235951513051987,
          -0.06624993681907654
        ],
        [
          -0.30735743045806885,
          -0.22797530889511108,
          -0.2523597478866577,
          -0.059818267822265625,
          -0.21090087294578552,
          0.03832164406776428,
          -0.24218913912773132
        ],
        [
          -0.2951386868953705,
          0.20371617376804352,
          0.18013043701648712,
          0.034861259162425995,
          0.297292023897171,
          0.3299681842327118,
          -0.21695487201213837
        ],
        [
          0.20524534583091736,
          0.1155291497707367,
          -0.0009589546825736761,
          -0.16362546384334564,
          0.35683944821357727,
          0.29794275760650635,
          -0.023182988166809082
        ],
        [
          -0.12429492175579071,
          -0.1324445605278015,
          0.1869351714849472,
          -0.21329236030578613,
          0.27130475640296936,
          -0.06888344138860703,
          0.20931300520896912
        ],
        [
          -0.30410972237586975,
          0.20119306445121765,
          -0.13415855169296265,
          0.24345339834690094,
          0.20236650109291077,
          0.23310916125774384,
          0.41185617446899414
        ],
        [
          -0.04638000950217247,
          -0.09031940996646881,
          0.13911902904510498,
          -0.290948748588562,
          0.1558176726102829,
          -0.15320728719234467,
          -0.07598228752613068
        ],
        [
          0.0765896588563919,
          -0.19569717347621918,
          -0.25201109051704407,
          0.07012829184532166,
          0.2272437959909439,
          0.0638376772403717,
          0.05808272957801819
        ],
        [
          0.14690561592578888,
          0.2344471961259842,
          -0.16058523952960968,
          0.4066680371761322,
          0.19694961607456207,
          0.2077919989824295,
          -0.17909343540668488
        ],
        [
          -0.0652582123875618,
          0.3279207646846771,
          0.24930281937122345,
          0.22137093544006348,
          -0.21439410746097565,
          0.4183065593242645,
          0.2601774334907532
        ],
        [
          0.10321222245693207,
          -0.0036442354321479797,
          -0.11658059805631638,
          -0.2526232898235321,
          0.10555631667375565,
          -0.3791515529155731,
          0.16386787593364716
        ],
        [
          0.2982092499732971,
          -0.2659256160259247,
          0.22472786903381348,
          -0.335938036441803,
          0.2598588764667511,
          0.30121779441833496,
          -0.1786138117313385
        ],
        [
          0.24644044041633606,
          0.045525431632995605,
          -0.12055724859237671,
          -0.22001510858535767,
          -0.06864544749259949,
          -0.08537998795509338,
          -0.09059208631515503
        ],
        [
          -0.17773418128490448,
          -0.2207583338022232,
          0.20354995131492615,
          -0.14790314435958862,
          -0.3700235188007355,
          -0.1874874383211136,
          0.2659824788570404
        ],
        [
          -0.15997983515262604,
          -0.2620837092399597,
          0.025713706389069557,
          -0.0005931979394517839,
          -0.1203572154045105,
          0.07310310751199722,
          0.2532326281070709
        ],
        [
          0.23181727528572083,
          -0.19631552696228027,
          -0.0695074051618576,
          0.21888545155525208,
          0.15498656034469604,
          -0.19059498608112335,
          0.10809963941574097
        ],
        [
          -0.01123818103224039,
          0.40963277220726013,
          -0.21159479022026062,
          0.20293031632900238,
          0.15344637632369995,
          -0.14020811021327972,
          0.20001795887947083
        ],
        [
          -0.22470535337924957,
          0.24574632942676544,
          0.34711459279060364,
          0.3205403685569763,
          0.3533138930797577,
          0.23541642725467682,
          0.07421524077653885
        ],
        [
          0.0045191943645477295,
          0.10116785764694214,
          0.15364912152290344,
          -0.23600399494171143,
          -0.2929445803165436,
          -0.25986620783805847,
          0.04378446936607361
        ],
        [
          -0.014494925737380981,
          -0.16862386465072632,
          0.16983665525913239,
          -0.08632979542016983,
          0.33850881457328796,
          -0.2237836867570877,
          0.3899782598018646
        ],
        [
          0.24893711507320404,
          -0.32263365387916565,
          -0.03129774332046509,
          -0.17686428129673004,
          0.23744866251945496,
          -0.3211515247821808,
          -0.24635401368141174
        ],
        [
          0.039824869483709335,
          -0.1845119148492813,
          0.008408792316913605,
          0.2506459057331085,
          -0.10608167201280594,
          -0.1378331482410431,
          -0.25738435983657837
        ],
        [
          0.3503771126270294,
          -0.16081659495830536,
          -0.10312916338443756,
          -0.104575514793396,
          0.3378064036369324,
          0.05492175742983818,
          -0.4106946289539337
        ],
        [
          -0.3169383108615875,
          -0.20896580815315247,
          -0.19846490025520325,
          -0.3559766113758087,
          0.21293500065803528,
          -0.12621751427650452,
          0.19255152344703674
        ],
        [
          0.36342841386795044,
          0.0016162465326488018,
          0.3486461937427521,
          0.040315937250852585,
          -0.27933818101882935,
          0.06620875746011734,
          0.038676973432302475
        ],
        [
          -0.01510438323020935,
          -0.14505349099636078,
          -0.2757073938846588,
          -0.2313423603773117,
          -0.1369561403989792,
          -0.03547331690788269,
          0.25773897767066956
        ],
        [
          -0.07995470613241196,
          0.12239240854978561,
          0.1759529709815979,
          -0.11896967887878418,
          -0.09358800202608109,
          0.13913887739181519,
          -0.10018308460712433
        ],
        [
          -0.2033892273902893,
          0.2621867060661316,
          0.19348973035812378,
          -0.05787856504321098,
          -0.10684727132320404,
          -0.2901163101196289,
          0.1819407343864441
        ],
        [
          0.0027533643878996372,
          0.01859014481306076,
          -0.17280159890651703,
          0.161796435713768,
          -0.015974020585417747,
          0.09995777159929276,
          -0.4371657967567444
        ],
        [
          0.0562768280506134,
          -0.4010322391986847,
          -0.2296362817287445,
          -0.008103628642857075,
          0.3259746730327606,
          -0.019488101825118065,
          0.33771786093711853
        ],
        [
          0.04498853161931038,
          0.13954608142375946,
          0.26802435517311096,
          0.053301166743040085,
          -0.26971718668937683,
          -0.13091790676116943,
          0.294049471616745
        ],
        [
          0.20875751972198486,
          -0.3177639842033386,
          -0.30518823862075806,
          -0.07380229234695435,
          0.37123915553092957,
          0.1855209618806839,
          0.17541395127773285
        ],
        [
          -0.19991034269332886,
          -0.057199329137802124,
          0.015001783147454262,
          -0.22020426392555237,
          -0.157586470246315,
          0.4077911376953125,
          -0.23745575547218323
        ],
        [
          0.3690107464790344,
          -0.36778542399406433,
          0.06071266904473305,
          0.24061425030231476,
          -0.3060213625431061,
          -0.03900514915585518,
          0.16596649587154388
        ],
        [
          -0.259965181350708,
          -0.24731746315956116,
          -0.051135629415512085,
          0.04678434133529663,
          -0.3076857924461365,
          0.28426119685173035,
          -0.3767624497413635
        ],
        [
          0.25224602222442627,
          0.08688486367464066,
          -0.40237799286842346,
          0.11207057535648346,
          -0.09896989911794662,
          0.42786094546318054,
          0.17212814092636108
        ],
        [
          0.1976967751979828,
          -0.05282888934016228,
          0.34397637844085693,
          0.3048727512359619,
          0.2733568549156189,
          0.004228087142109871,
          0.36485886573791504
        ],
        [
          0.3778775930404663,
          0.41440677642822266,
          0.34354397654533386,
          -0.2216011881828308,
          0.16032473742961884,
          0.1793060600757599,
          -0.08319711685180664
        ],
        [
          0.12403111904859543,
          0.17146119475364685,
          0.20071400701999664,
          -0.37354859709739685,
          0.12540100514888763,
          -0.34643083810806274,
          -0.20579084753990173
        ],
        [
          -0.1537938117980957,
          -0.04004967212677002,
          -0.10835587978363037,
          -0.37739747762680054,
          -0.03723031282424927,
          -0.3324734568595886,
          -0.31409764289855957
        ],
        [
          -0.21041232347488403,
          0.2210170328617096,
          0.3166990280151367,
          -0.12025433033704758,
          -0.1253310889005661,
          -0.21184635162353516,
          -0.08797617256641388
        ],
        [
          0.3187086880207062,
          0.041677627712488174,
          -0.3671441376209259,
          0.11374878138303757,
          0.2456221729516983,
          0.16315780580043793,
          0.3234580457210541
        ],
        [
          0.020835714414715767,
          0.008882331661880016,
          -0.03644588217139244,
          0.08397213369607925,
          0.18468429148197174,
          -0.22177806496620178,
          -0.19068482518196106
        ],
        [
          -0.1864161640405655,
          -0.12271763384342194,
          0.11779966950416565,
          0.18692372739315033,
          -0.29691487550735474,
          0.34381502866744995,
          -0.2630501687526703
        ],
        [
          0.15362079441547394,
          -0.30691125988960266,
          -0.113303542137146,
          -0.21651813387870789,
          0.08793763816356659,
          -0.35397881269454956,
          -0.3620460629463196
        ],
        [
          -0.12658441066741943,
          0.3467181324958801,
          0.33373284339904785,
          0.12271163612604141,
          -0.019599853083491325,
          -0.2790418863296509,
          -0.13836297392845154
        ],
        [
          -0.11694033443927765,
          -0.07112496346235275,
          -0.1626872420310974,
          -0.3902321457862854,
          0.2242998480796814,
          -0.027426935732364655,
          -0.27432891726493835
        ],
        [
          -0.3260844647884369,
          0.05715353041887283,
          -0.021979836747050285,
          0.05900157615542412,
          -0.36612334847450256,
          0.03718167170882225,
          0.10079197585582733
        ],
        [
          -0.24732278287410736,
          0.2517545223236084,
          0.18780162930488586,
          0.04976998642086983,
          0.10457322746515274,
          -0.018046770244836807,
          0.356311559677124
        ],
        [
          0.04374167323112488,
          -0.05258357524871826,
          -0.3042265772819519,
          0.25518813729286194,
          -0.3374318480491638,
          -0.06977558135986328,
          -0.25524061918258667
        ],
        [
          0.3038080334663391,
          -0.3833841383457184,
          0.2663630247116089,
          -0.07844631373882294,
          -0.4034677743911743,
          0.2798212766647339,
          -0.26620352268218994
        ],
        [
          -0.2678258419036865,
          0.0970878005027771,
          0.18505634367465973,
          -0.06684963405132294,
          -0.2266760915517807,
          -0.04713711887598038,
          -0.03368305042386055
        ],
        [
          0.026166800409555435,
          -0.07889804244041443,
          0.18257489800453186,
          0.22495479881763458,
          0.32912153005599976,
          -0.367435097694397,
          -0.18039259314537048
        ],
        [
          -0.09408818930387497,
          0.0910455659031868,
          -0.3279271125793457,
          0.3053258955478668,
          0.03847641870379448,
          0.010711726732552052,
          -0.493341863155365
        ],
        [
          0.33057287335395813,
          -0.12119369953870773,
          0.013695978559553623,
          -0.13268199563026428,
          -0.2292044311761856,
          0.025797847658395767,
          -0.19393210113048553
        ],
        [
          -0.10213249176740646,
          -0.016216501593589783,
          -0.27989742159843445,
          -0.20162396132946014,
          0.1983262449502945,
          -0.20374029874801636,
          0.2642773687839508
        ],
        [
          0.06307382881641388,
          -0.32722219824790955,
          0.05772378668189049,
          0.3754114806652069,
          0.27402859926223755,
          -0.14594051241874695,
          0.21168754994869232
        ],
        [
          -0.36222735047340393,
          0.37531766295433044,
          -0.1416485458612442,
          -0.12001493573188782,
          -0.06362307071685791,
          -0.22102299332618713,
          -0.2648271918296814
        ],
        [
          -0.336934894323349,
          -0.09247344732284546,
          0.07994472980499268,
          -0.2033046931028366,
          0.19948485493659973,
          -0.030087409541010857,
          0.1260034292936325
        ],
        [
          -0.04730404540896416,
          0.09252385795116425,
          -0.0880148857831955,
          0.32175377011299133,
          0.23672181367874146,
          0.008720645681023598,
          0.25199657678604126
        ],
        [
          0.22843769192695618,
          -0.20823916792869568,
          -0.14705790579319,
          0.2183322161436081,
          0.2711436152458191,
          0.21450009942054749,
          0.15312384068965912
        ],
        [
          -0.024782555177807808,
          -0.1301860362291336,
          0.3566330075263977,
          0.09453704953193665,
          0.28265470266342163,
          0.1690460592508316,
          0.15506239235401154
        ],
        [
          -0.15781842172145844,
          -0.28359758853912354,
          0.12901170551776886,
          0.2171480804681778,
          -0.09352122992277145,
          -0.18057312071323395,
          -0.3915233314037323
        ]
      ],
      "biases": [
        -0.15418705344200134,
        0.2956133186817169,
        0.02316504716873169,
        -0.03753790631890297,
        -0.11179887503385544,
        -0.3123241364955902,
        -0.11555052548646927,
        -0.1867089867591858,
        0.11266224831342697,
        -0.21591223776340485,
        -0.2833276093006134,
        -0.10750603675842285,
        0.28723013401031494,
        -0.3463958203792572,
        0.254418283700943,
        0.2775244414806366,
        -0.26314306259155273,
        -0.2179141491651535,
        -0.2502254545688629,
        -0.33114713430404663,
        0.043232206255197525,
        0.0552157461643219,
        0.048121869564056396,
        0.1357811987400055,
        -0.17648151516914368,
        0.32761332392692566,
        -0.29141557216644287,
        -0.09187211841344833,
        0.3886532485485077,
        0.11357802897691727,
        -0.3629637360572815,
        0.2902766466140747,
        0.1200685203075409,
        0.3424561023712158,
        0.05429878085851669,
        -0.268097460269928,
        0.06410844624042511,
        0.023983212187886238,
        -0.23358410596847534,
        -0.3279416859149933,
        -0.2653493881225586,
        0.14552591741085052,
        -0.16794686019420624,
        -0.2561424970626831,
        0.18325859308242798,
        0.3266671895980835,
        -0.22124989330768585,
        0.1830563098192215,
        0.021940911188721657,
        -0.1407155692577362,
        -0.2748953402042389,
        -0.2608795762062073,
        -0.11405960470438004,
        -0.35195520520210266,
        0.008843769319355488,
        0.3388341963291168,
        -0.34387531876564026,
        -0.30478811264038086,
        -0.2440912127494812,
        -0.36769551038742065,
        -0.012737459503114223,
        -0.13679607212543488,
        -0.33686527609825134,
        0.29798880219459534
      ]
    },
    {
      "name": "1",
      "kind": "ReLU"
    },
    {
      "name": "2",
      "kind": "Linear",
      "inputSize": 64,
      "outputSize": 64,
      "hasBiases": true,
      "weights": [
        [
          0.1366768777370453,
          0.0011922188568860292,
          0.1169356107711792,
          0.0579194650053978,
          -0.06256202608346939,
          -0.012303180992603302,
          -0.036052506417036057,
          0.10445280373096466,
          0.11504461616277695,
          0.042001549154520035,
          0.07659401744604111,
          -0.013559644110500813,
          0.00977975595742464,
          -0.06323361396789551,
          0.06933777034282684,
          -0.026387803256511688,
          -0.05345640331506729,
          -0.08258235454559326,
          0.02132861316204071,
          -0.0863153487443924,
          -0.065198615193367,
          -0.07197941094636917,
          -0.046689487993717194,
          -0.10287259519100189,
          0.10514794290065765,
          0.07367782294750214,
          -0.060411155223846436,
          -0.006373679265379906,
          -0.04537847638130188,
          0.03247561678290367,
          0.04555987939238548,
          -0.09007920324802399,
          -0.12157778441905975,
          0.024465082213282585,
          -0.030137673020362854,
          -0.049208685755729675,
          -0.0016715561505407095,
          -0.017252739518880844,
          -0.08111322671175003,
          -0.034794293344020844,
          -0.05700618028640747,
          -0.0825936570763588,
          0.08608461171388626,
          0.07287534326314926,
          0.06831840425729752,
          0.04537701606750488,
          0.09694167971611023,
          0.05911640822887421,
          0.17361494898796082,
          0.05215907841920853,
          -0.10481436550617218,
          -0.04845471680164337,
          -0.027054384350776672,
          -0.09241408854722977,
          0.05109202489256859,
          0.010822689160704613,
          -0.03707389533519745,
          0.03365793451666832,
          -0.039800018072128296,
          -0.018523793667554855,
          0.04891430586576462,
          -0.11482930183410645,
          0.03969302028417587,
          -0.020309142768383026
        ],
        [
          0.028303390368819237,
          0.06092369928956032,
          -0.06028163433074951,
          -0.08247823268175125,
          0.08628128468990326,
          0.07147720456123352,
          0.15237803757190704,
          0.012207833118736744,
          0.1259871870279312,
          0.12531694769859314,
          0.1034323126077652,
          0.06289273500442505,
          -0.055277638137340546,
          -0.05667079985141754,
          0.0632706955075264,
          0.007138770539313555,
          -0.2204454094171524,
          0.08490675687789917,
          0.044881924986839294,
          -0.060875579714775085,
          0.10458432137966156,
          -0.12408031523227692,
          0.0552530474960804,
          -0.06214919686317444,
          -0.029801413416862488,
          0.08165501803159714,
          0.022978633642196655,
          0.08211959153413773,
          0.036754924803972244,
          -0.0820000022649765,
          0.010255242697894573,
          -0.022072331979870796,
          0.17073751986026764,
          0.03468068689107895,
          -0.20015549659729004,
          0.06379833817481995,
          -0.027564287185668945,
          -0.07845212519168854,
          -0.03864767774939537,
          0.01822616346180439,
          0.005438089370727539,
          -0.011381064541637897,
          0.15933378040790558,
          0.03066392056643963,
          0.09254827350378036,
          0.02693304605782032,
          -0.06399216502904892,
          0.13111644983291626,
          -0.010503684170544147,
          -0.10462655127048492,
          0.04325641691684723,
          -0.14860738813877106,
          0.09367667883634567,
          -0.032077107578516006,
          0.04923539608716965,
          -0.1309332549571991,
          0.10234647244215012,
          0.01941077969968319,
          -0.030101314187049866,
          0.04661954194307327,
          -0.0859667956829071,
          0.07742372155189514,
          -0.13553257286548615,
          0.089929960668087
        ],
        [
          -0.13695639371871948,
          0.08997388184070587,
          -0.06532008945941925,
          0.033260613679885864,
          -0.08862702548503876,
          -0.04744936153292656,
          -0.1013886108994484,
          -0.024881966412067413,
          0.012345519848167896,
          -0.04333723336458206,
          0.050867293030023575,
          0.03965684026479721,
          -0.07046771794557571,
          -0.05456610023975372,
          -0.11145331710577011,
          0.0005341703654266894,
          -0.20642592012882233,
          -0.0805855467915535,
          0.12095180153846741,
          0.012875497341156006,
          -0.059416528791189194,
          0.08003780990839005,
          0.005319241899996996,
          -0.03859812766313553,
          -0.07777853310108185,
          -0.13893525302410126,
          -0.08768366277217865,
          0.01639237254858017,
          -0.05724254250526428,
          0.05703456699848175,
          -0.1380467414855957,
          0.08065839856863022,
          0.0665135607123375,
          -0.09880813956260681,
          0.03016309067606926,
          -0.10045956075191498,
          0.029609933495521545,
          -0.10817807167768478,
          0.09851936995983124,
          0.024903809651732445,
          -0.06075644493103027,
          0.02384958043694496,
          -0.10339009016752243,
          -0.015199419111013412,
          0.07765229046344757,
          0.009166508913040161,
          -0.07671709358692169,
          0.045250482857227325,
          -0.07258176803588867,
          0.12005463242530823,
          0.06509643793106079,
          0.023390065878629684,
          -0.07118624448776245,
          0.07220112532377243,
          -0.08247005194425583,
          -0.10791759938001633,
          0.03682428225874901,
          0.05919251590967178,
          0.06654062867164612,
          0.0819225162267685,
          0.0975247249007225,
          0.018853358924388885,
          -0.0033574532717466354,
          0.016027355566620827
        ],
        [
          -0.051751065999269485,
          0.05739366635680199,
          -0.11850067973136902,
          -0.044338006526231766,
          0.007034903392195702,
          -0.06279042363166809,
          -0.0486864373087883,
          0.01810791902244091,
          0.0015013905940577388,
          0.04894421249628067,
          0.01059751957654953,
          0.1451067477464676,
          -0.13053672015666962,
          0.1145363450050354,
          -0.06825381517410278,
          0.12077999114990234,
          0.03373601660132408,
          0.17622897028923035,
          0.03594959154725075,
          0.1030973494052887,
          -0.07439788430929184,
          -0.012176014482975006,
          0.13943424820899963,
          -0.003926679491996765,
          -0.025314003229141235,
          0.08148744702339172,
          0.047193750739097595,
          0.04106522724032402,
          0.0008479893440380692,
          0.04496033862233162,
          -0.1095435693860054,
          -0.004506034776568413,
          -0.07406536489725113,
          -0.03300253674387932,
          0.048987116664648056,
          -0.040435031056404114,
          -0.0656207725405693,
          0.1350499987602234,
          0.03230221942067146,
          -0.021203862503170967,
          0.10643081367015839,
          -0.0031422837637364864,
          -0.009099770337343216,
          0.11926855891942978,
          0.1425100564956665,
          -0.09215456992387772,
          -0.02658054605126381,
          0.01527601107954979,
          -0.01651863381266594,
          -0.07968250662088394,
          -0.022071227431297302,
          -0.025516772642731667,
          0.08537901937961578,
          0.03025669977068901,
          0.13425467908382416,
          -0.08056759089231491,
          -0.07789978384971619,
          -0.006441283505409956,
          0.04001814126968384,
          -0.10974601656198502,
          -0.03825972601771355,
          -0.011903908103704453,
          -0.081986203789711,
          -0.013120557181537151
        ],
        [
          -0.033227819949388504,
          0.14605812728405,
          0.05433642864227295,
          0.1511809378862381,
          -0.007618762087076902,
          -0.04908128082752228,
          -0.036965835839509964,
          0.10513917356729507,
          0.010086007416248322,
          0.09659354388713837,
          0.025375252589583397,
          0.09030003845691681,
          0.07155691087245941,
          0.11219821870326996,
          -0.024018030613660812,
          0.017889471724629402,
          0.08209937810897827,
          0.11496881395578384,
          0.1693386733531952,
          -0.048033565282821655,
          0.1330026090145111,
          -0.016497792676091194,
          -0.13811810314655304,
          0.011541194282472134,
          0.0870964378118515,
          0.03776617348194122,
          -0.07899512350559235,
          -0.008258898742496967,
          0.02350737154483795,
          -0.052061788737773895,
          0.12439072877168655,
          0.07356158643960953,
          0.14223161339759827,
          0.060110919177532196,
          0.07517296075820923,
          0.009842097759246826,
          0.11163587868213654,
          0.17219823598861694,
          -0.06760004907846451,
          0.08312291651964188,
          -0.06118771433830261,
          0.08721783012151718,
          0.04268428310751915,
          0.0766853541135788,
          0.01039403397589922,
          0.019642118364572525,
          0.13645364344120026,
          0.11450021713972092,
          -0.04971412941813469,
          -0.01668592169880867,
          -0.008646979928016663,
          -0.011824741959571838,
          -0.10222674161195755,
          0.1299768090248108,
          0.15901333093643188,
          -0.14793555438518524,
          0.0047975690104067326,
          0.01968790404498577,
          -0.0726451724767685,
          -0.07759267091751099,
          0.12091941386461258,
          0.10161444544792175,
          0.1102420836687088,
          -0.056491490453481674
        ],
        [
          0.015101194381713867,
          -0.04039207845926285,
          0.10928691923618317,
          -0.014136413112282753,
          0.049762483686208725,
          0.06068599224090576,
          0.057593557983636856,
          0.06715342402458191,
          0.09932827949523926,
          0.06797948479652405,
          -0.016933264210820198,
          -0.05517613887786865,
          0.025721505284309387,
          -0.032013729214668274,
          -0.1223752573132515,
          0.0993889570236206,
          0.12400206923484802,
          -0.06617555022239685,
          -0.11242754012346268,
          -0.056478291749954224,
          -0.0899277776479721,
          0.12486353516578674,
          -0.02338103950023651,
          0.010261454619467258,
          -0.013410285115242004,
          0.05752108618617058,
          0.006061434745788574,
          -0.05428558215498924,
          0.09717113524675369,
          -0.04774295166134834,
          -0.12269298732280731,
          0.048458438366651535,
          -0.0399659238755703,
          -0.00832632277160883,
          -0.050221022218465805,
          -0.011831536889076233,
          -0.018102066591382027,
          -0.10262703895568848,
          -0.008737663738429546,
          0.03282627463340759,
          0.11868666112422943,
          0.07745444774627686,
          0.021201660856604576,
          -0.06628647446632385,
          0.015086572617292404,
          -0.11343236267566681,
          0.09662635624408722,
          0.04762974753975868,
          -0.11488063633441925,
          0.08220051974058151,
          0.02014225721359253,
          0.07072211802005768,
          0.10356036573648453,
          -0.017530709505081177,
          0.04427854344248772,
          0.07873976230621338,
          -0.01853106915950775,
          -0.08642096072435379,
          -0.06626252830028534,
          0.001866862177848816,
          0.02190154604613781,
          -0.08206195384263992,
          -0.062605120241642,
          -0.12441426515579224
        ],
        [
          -0.0811106339097023,
          -0.10862702131271362,
          0.06808099150657654,
          -0.008859053254127502,
          0.10145707428455353,
          -0.04444000869989395,
          0.036761701107025146,
          -0.12624424695968628,
          0.11932185292243958,
          -0.005673745647072792,
          -0.007525742053985596,
          0.1108093336224556,
          0.04066453129053116,
          -0.01976504921913147,
          -0.1572866439819336,
          -0.07772397249937057,
          0.05603477731347084,
          0.030673798173666,
          0.03999536111950874,
          0.0019173622131347656,
          -0.11085318773984909,
          -0.08792505413293839,
          -0.14086538553237915,
          0.08711205422878265,
          -0.08722245693206787,
          0.07210391014814377,
          -0.009673207998275757,
          0.000671158661134541,
          0.09231213480234146,
          0.08722259104251862,
          -0.03849309682846069,
          0.07564477622509003,
          -0.051884181797504425,
          -0.02195286750793457,
          -0.08020977675914764,
          -0.006793498992919922,
          0.07854218035936356,
          0.01683204248547554,
          0.10375640541315079,
          -0.0023760455660521984,
          0.10720081627368927,
          -0.14933086931705475,
          0.13254542648792267,
          -0.08433347195386887,
          -0.12339328229427338,
          -0.05743526294827461,
          -0.04430247098207474,
          0.09709013998508453,
          0.06142359599471092,
          0.025031374767422676,
          0.06929755210876465,
          0.021082906052470207,
          -0.12813016772270203,
          -0.10757987201213837,
          -0.1508171409368515,
          -0.05592752620577812,
          -0.08329524844884872,
          -0.0886601060628891,
          -0.004731014370918274,
          -0.10479100048542023,
          -0.07406995445489883,
          -0.014719841070473194,
          0.06131937354803085,
          0.01845592074096203
        ],
        [
          -0.10320251435041428,
          -0.03279922157526016,
          -0.026716962456703186,
          -0.1336539089679718,
          -0.11675319075584412,
          -0.04960988461971283,
          0.005377406254410744,
          0.07902395725250244,
          0.02852276712656021,
          -0.07778807729482651,
          0.061416029930114746,
          -0.004863974638283253,
          0.05446545034646988,
          0.015212088823318481,
          0.019868047907948494,
          0.010131903924047947,
          -0.0463363341987133,
          -0.11266082525253296,
          0.06578781455755234,
          -0.04169096052646637,
          0.06609106808900833,
          0.05393648520112038,
          -0.09348244965076447,
          -0.11049865931272507,
          -0.01915024220943451,
          0.04568910226225853,
          0.05812516808509827,
          -0.030269868671894073,
          0.026617959141731262,
          -0.05278405174612999,
          -0.02499183639883995,
          -0.09375934302806854,
          -0.004776008427143097,
          -0.07131826132535934,
          -0.03016253188252449,
          -0.10299926996231079,
          -0.08131720125675201,
          0.030564604327082634,
          -0.007265923079103231,
          -0.01064319722354412,
          0.037617191672325134,
          -0.11108939349651337,
          0.052629254758358,
          -0.054921429604291916,
          0.05924451723694801,
          -0.1292709857225418,
          0.1162441223859787,
          -0.03124140575528145,
          0.14178316295146942,
          -0.010930482298135757,
          0.03296014666557312,
          0.08372461795806885,
          0.13471536338329315,
          -0.020547684282064438,
          -0.06768371909856796,
          -0.09394185245037079,
          0.13897456228733063,
          -0.12849600613117218,
          -0.1069452166557312,
          0.06027095392346382,
          0.1015874594449997,
          -0.036583952605724335,
          0.08997008204460144,
          0.032661113888025284
        ],
        [
          -0.07936519384384155,
          -0.041814014315605164,
          0.05304446816444397,
          0.0061054527759552,
          -0.0754188746213913,
          0.1230221539735794,
          -0.1243087500333786,
          -0.019566506147384644,
          0.11775532364845276,
          -0.06275220215320587,
          -0.12468458712100983,
          -0.008910119533538818,
          -0.01688380539417267,
          -0.11339367926120758,
          0.07925797998905182,
          0.08891932666301727,
          0.10368722677230835,
          0.02267076075077057,
          0.047605857253074646,
          -0.06673941016197205,
          0.05786338448524475,
          0.05779999494552612,
          -0.0036897659301757812,
          0.03998614847660065,
          0.032535701990127563,
          -0.11658792197704315,
          -0.12181219458580017,
          0.06475003063678741,
          0.01215769350528717,
          -0.0028612613677978516,
          0.051954761147499084,
          0.09358751773834229,
          -0.07668560743331909,
          -0.050390660762786865,
          -0.030572399497032166,
          -0.03163480758666992,
          0.009943678975105286,
          -0.06410571932792664,
          -0.05608031153678894,
          0.10274778306484222,
          -0.023652315139770508,
          -0.06545622646808624,
          0.016969338059425354,
          0.11488910019397736,
          -0.03151656687259674,
          0.0924270749092102,
          0.006043955683708191,
          0.009782359004020691,
          0.06932714581489563,
          0.07343724370002747,
          -0.04508316516876221,
          0.047275856137275696,
          0.10151572525501251,
          0.0924203097820282,
          -0.019483834505081177,
          -0.04520583152770996,
          0.0011766701936721802,
          -0.04227156937122345,
          0.005894914269447327,
          -0.06631873548030853,
          0.03261764347553253,
          0.012207239866256714,
          -0.048282086849212646,
          0.08944480121135712
        ],
        [
          0.052021048963069916,
          0.10102315992116928,
          -0.08722305297851562,
          -0.06137654185295105,
          -0.062437549233436584,
          0.0656324103474617,
          0.052693452686071396,
          -0.061219293624162674,
          -0.037724848836660385,
          0.05786237493157387,
          0.004744104575365782,
          -0.01639113388955593,
          0.12802842259407043,
          -0.12088312208652496,
          -0.07229922711849213,
          -0.06674507260322571,
          0.11893489956855774,
          0.03269386664032936,
          -9.397718531545252e-05,
          0.019952476024627686,
          0.08923277258872986,
          -0.015455352142453194,
          0.07317214459180832,
          -0.07116175442934036,
          -0.08024832606315613,
          0.0267849862575531,
          0.03389394283294678,
          0.021590881049633026,
          0.10613344609737396,
          0.01700897142291069,
          -0.13495154678821564,
          0.13330672681331635,
          0.03754355013370514,
          0.03468508645892143,
          0.0712350383400917,
          -0.05932152271270752,
          -0.12879209220409393,
          0.04836896434426308,
          -0.004778589587658644,
          -0.047637756913900375,
          -0.029707729816436768,
          0.01898803375661373,
          -0.19216115772724152,
          -0.023189835250377655,
          -0.044280461966991425,
          0.029610643163323402,
          0.1236274242401123,
          -0.1227845773100853,
          -0.005273142363876104,
          -0.010375402867794037,
          0.06155078113079071,
          0.1588754653930664,
          -0.08832962065935135,
          0.07660023868083954,
          -0.011019948869943619,
          0.12801231443881989,
          0.0013595663476735353,
          0.026598550379276276,
          0.08987730741500854,
          -0.042684316635131836,
          -0.06764640659093857,
          0.0213998481631279,
          0.07501459866762161,
          0.044956889003515244
        ],
        [
          -0.0021824988070875406,
          -0.10213759541511536,
          0.05487380921840668,
          0.1500268280506134,
          0.05792951583862305,
          -0.004917792044579983,
          0.11943706125020981,
          0.05807585269212723,
          -0.05923711881041527,
          0.12266014516353607,
          0.09582202136516571,
          -0.11842601746320724,
          0.030120952054858208,
          -0.03603614866733551,
          -0.08781290799379349,
          -0.08945368230342865,
          0.005732062738388777,
          -0.007086149882525206,
          -0.011710457503795624,
          0.05897887051105499,
          0.08691917359828949,
          0.08134981989860535,
          0.09884286671876907,
          -0.0182636808604002,
          -0.0025663375854492188,
          -0.03484126180410385,
          -0.004673972725868225,
          0.04998345673084259,
          0.01883547566831112,
          0.10548428446054459,
          0.03865286707878113,
          0.09895262867212296,
          0.034867119044065475,
          -0.11765418201684952,
          -0.042909469455480576,
          -0.09667502343654633,
          0.005181165877729654,
          -0.05338915064930916,
          -0.1123737096786499,
          0.07464703917503357,
          0.012278497219085693,
          0.03967093303799629,
          -0.10629808902740479,
          0.08298655599355698,
          0.1367146372795105,
          0.06794973462820053,
          -0.055302493274211884,
          0.03335884213447571,
          -0.014325512573122978,
          -0.002865173388272524,
          -0.06148877739906311,
          0.022887663915753365,
          0.04107255861163139,
          -0.01283786166459322,
          0.16201703250408173,
          0.040852129459381104,
          -0.07602348178625107,
          -0.01586458832025528,
          -0.04209509491920471,
          0.03679409623146057,
          0.09013093262910843,
          0.07110150903463364,
          -0.06026756390929222,
          0.08306238800287247
        ],
        [
          -0.09668062627315521,
          -0.07487141340970993,
          0.06044040620326996,
          0.07829035073518753,
          -0.12858924269676208,
          0.09472803771495819,
          -0.11911237239837646,
          0.010662590153515339,
          -0.04775311425328255,
          -0.12419332563877106,
          0.0005020436947233975,
          -0.016232162714004517,
          0.10623013973236084,
          0.04663833975791931,
          0.06362789869308472,
          -0.09201372414827347,
          0.05024218559265137,
          -0.11636559665203094,
          0.014882094226777554,
          -0.02648472785949707,
          0.035864681005477905,
          0.00568977789953351,
          -0.024759650230407715,
          0.033702999353408813,
          -0.11814673244953156,
          0.056073449552059174,
          -0.07820945978164673,
          0.12055526673793793,
          0.08387090265750885,
          -0.041226476430892944,
          0.0582648366689682,
          -0.06789007782936096,
          -0.1133374497294426,
          -0.03605051338672638,
          0.06895916908979416,
          0.03651261329650879,
          0.004897788166999817,
          -0.10124324262142181,
          -0.010839255526661873,
          0.05365140736103058,
          0.07321076095104218,
          -0.026448026299476624,
          0.027063939720392227,
          0.07385914772748947,
          -0.08409631997346878,
          0.07203948497772217,
          0.06428557634353638,
          0.03269106149673462,
          0.03446659445762634,
          0.10620778053998947,
          0.058975398540496826,
          0.08243787288665771,
          -0.06534714996814728,
          0.11951085180044174,
          -0.05358430743217468,
          -0.11376119405031204,
          0.12410487234592438,
          -0.0007368035730905831,
          0.10846376419067383,
          -0.08524729311466217,
          -0.07747369259595871,
          -0.042940519750118256,
          -0.057214558124542236,
          0.08608310669660568
        ],
        [
          0.1173330545425415,
          -0.05356953665614128,
          -0.011687561869621277,
          -0.08327965438365936,
          -0.11179843544960022,
          -0.09466204047203064,
          -0.054212138056755066,
          0.06317223608493805,
          -0.06086795777082443,
          -0.020364895462989807,
          0.028932398185133934,
          0.12325499951839447,
          0.023606762290000916,
          0.06120949983596802,
          -0.002012118697166443,
          -0.07696642726659775,
          0.12085755169391632,
          -0.08522126823663712,
          -0.0663209930062294,
          0.09527112543582916,
          0.10366866737604141,
          -0.028734415769577026,
          0.0679955780506134,
          -0.04060002416372299,
          -0.1100592166185379,
          -0.007498973980545998,
          0.09825688600540161,
          -0.01139773614704609,
          -0.09231457859277725,
          -0.05438642203807831,
          -0.10421743988990784,
          -0.09024902433156967,
          0.09458920359611511,
          -0.09289543330669403,
          -0.10872402042150497,
          0.06302756071090698,
          0.08751305937767029,
          0.02174452878534794,
          -0.0617741122841835,
          0.0022981613874435425,
          -0.0969085842370987,
          0.05539616197347641,
          0.09029912203550339,
          0.07232633233070374,
          -0.06165744364261627,
          0.11519873142242432,
          0.028159603476524353,
          0.07468795776367188,
          0.07075800746679306,
          -0.023244624957442284,
          -0.1035814881324768,
          0.08355572819709778,
          -0.037236034870147705,
          0.03820623457431793,
          -0.09367634356021881,
          0.08778110146522522,
          -0.02120332419872284,
          0.07390868663787842,
          0.08380426466464996,
          -0.11936673521995544,
          -0.0035057347267866135,
          0.023474130779504776,
          -0.12696978449821472,
          -0.09023706614971161
        ],
        [
          0.06794364750385284,
          0.055673982948064804,
          -0.07768325507640839,
          -0.009698466397821903,
          0.021645305678248405,
          0.007562598679214716,
          -0.17552123963832855,
          -0.046085238456726074,
          0.011702070012688637,
          -0.035392675548791885,
          -0.14477623999118805,
          -0.11601345986127853,
          0.08004501461982727,
          0.019675850868225098,
          0.06456036865711212,
          0.022301502525806427,
          -0.037299782037734985,
          0.033644143491983414,
          0.055619604885578156,
          0.06140618026256561,
          0.07948826998472214,
          -0.0781058594584465,
          -0.05330868065357208,
          0.08987443149089813,
          -0.049061551690101624,
          -0.06002478301525116,
          0.050590187311172485,
          0.04468603804707527,
          -0.06121371313929558,
          0.07849272340536118,
          -0.09640739858150482,
          0.04620866850018501,
          0.0967065691947937,
          -0.058091066777706146,
          0.004884651862084866,
          -0.0745120495557785,
          -0.005239160265773535,
          -0.06446090340614319,
          -0.12452822178602219,
          -0.07263864576816559,
          0.09657059609889984,
          -0.07559255510568619,
          0.07828418165445328,
          0.038589537143707275,
          -0.0476362518966198,
          -0.03156933933496475,
          -0.06189205124974251,
          -0.021572230383753777,
          0.08300535380840302,
          -0.07103174924850464,
          0.07516130805015564,
          -0.017741411924362183,
          0.08711875975131989,
          -0.07267466187477112,
          0.05952465161681175,
          -0.1502719521522522,
          0.010638345964252949,
          0.005597337149083614,
          -0.019881263375282288,
          -0.11719132214784622,
          -0.031578633934259415,
          -0.07024027407169342,
          -0.03038923628628254,
          0.12338037043809891
        ],
        [
          0.022741004824638367,
          -0.11447370052337646,
          0.07083377242088318,
          -0.07027910649776459,
          -0.03393588960170746,
          0.10612964630126953,
          0.07218612730503082,
          -0.0476076602935791,
          0.04699839651584625,
          -0.12250037491321564,
          -0.05115227401256561,
          0.09384866058826447,
          0.05893471837043762,
          -0.07438395917415619,
          0.03233011066913605,
          0.037616342306137085,
          -0.03895358741283417,
          -0.12150813639163971,
          -0.01639600098133087,
          0.09753455221652985,
          -0.048933759331703186,
          0.09576544165611267,
          0.0038803666830062866,
          -0.009355202317237854,
          0.07536354660987854,
          0.12190210819244385,
          0.09141474962234497,
          0.04395574331283569,
          0.08346229791641235,
          0.10615122318267822,
          -0.07731893658638,
          -0.0751090943813324,
          -0.03512042760848999,
          -0.09859856963157654,
          -0.09931856393814087,
          0.06282028555870056,
          -0.08486460149288177,
          0.12151701748371124,
          -0.06012439727783203,
          0.030494317412376404,
          0.05843989551067352,
          -0.11753299832344055,
          0.11725902557373047,
          -0.026601925492286682,
          -0.0019343793392181396,
          -0.10818807780742645,
          -0.04009784758090973,
          -0.05915375053882599,
          0.04647397994995117,
          -0.037645354866981506,
          0.02313336730003357,
          -0.024289950728416443,
          0.008667916059494019,
          -0.08939465880393982,
          -0.03364263474941254,
          0.056475669145584106,
          0.01122160255908966,
          0.032019034028053284,
          -0.10184325277805328,
          -0.022033601999282837,
          -0.10400982201099396,
          -0.12373337149620056,
          -0.00040656328201293945,
          -0.12354318797588348
        ],
        [
          -0.06363202631473541,
          0.07250338047742844,
          0.10092118382453918,
          -0.029103485867381096,
          0.00648450618609786,
          0.007766504772007465,
          -0.024448636919260025,
          0.11900345981121063,
          -0.05806516483426094,
          -0.1265491098165512,
          0.05011982098221779,
          0.11605101823806763,
          0.0005554000963456929,
          -0.1046915054321289,
          -0.11949442327022552,
          -0.06662572920322418,
          -0.08319976180791855,
          -0.022251037880778313,
          -0.01680244691669941,
          0.11625723540782928,
          -0.05895649641752243,
          0.024501100182533264,
          -0.10137470066547394,
          0.0050170812755823135,
          0.05622643232345581,
          -0.1408047378063202,
          0.021720483899116516,
          0.08049631863832474,
          0.024819720536470413,
          -0.05558027699589729,
          -0.10323185473680496,
          0.06026722863316536,
          -0.06339654326438904,
          0.012700365856289864,
          0.09191238880157471,
          0.11737851798534393,
          -0.051694341003894806,
          -0.001655166270211339,
          -0.05060739442706108,
          0.10301407426595688,
          -0.09123142063617706,
          0.02435152791440487,
          -0.017058435827493668,
          -0.0735929012298584,
          -0.09406662732362747,
          -0.03245171904563904,
          0.002075687749311328,
          0.0660323053598404,
          -0.0243398267775774,
          0.08912604302167892,
          0.06733132898807526,
          0.037908099591732025,
          -0.012581449002027512,
          -0.11982445418834686,
          0.01679399609565735,
          0.05471528321504593,
          -0.05422717332839966,
          -0.1185339167714119,
          0.08655701577663422,
          -0.043830107897520065,
          0.10492424666881561,
          -0.036956366151571274,
          -0.08998116105794907,
          0.0768984779715538
        ],
        [
          -0.03150740638375282,
          -0.11188401281833649,
          -0.0018885135650634766,
          0.04662385210394859,
          0.014217914082109928,
          0.0647144466638565,
          -0.10890665650367737,
          0.08376825600862503,
          0.060255322605371475,
          -0.028985273092985153,
          -0.04114079847931862,
          -0.06679971516132355,
          0.09214568138122559,
          0.0020719915628433228,
          0.05293445661664009,
          -0.07542145997285843,
          -0.15640443563461304,
          -0.08472970873117447,
          0.04194705933332443,
          0.0381355881690979,
          -0.06406638026237488,
          -0.10404710471630096,
          -0.019504979252815247,
          0.08370757102966309,
          0.04620720446109772,
          0.07679136097431183,
          -0.025256440043449402,
          -0.0729556754231453,
          0.053238384425640106,
          0.17133229970932007,
          -0.15937837958335876,
          0.0867304727435112,
          0.11019334197044373,
          0.1336953043937683,
          0.01106296107172966,
          -0.1162600964307785,
          0.10126037895679474,
          -0.04311066493391991,
          -0.03096850775182247,
          -0.12222611904144287,
          0.06674951314926147,
          0.02485394850373268,
          0.11559469997882843,
          -0.0050088283605873585,
          0.021359695121645927,
          -0.12302075326442719,
          0.0377681590616703,
          0.14806419610977173,
          -0.12544851005077362,
          -0.0664365142583847,
          -0.05241928994655609,
          0.05326990783214569,
          -0.028770552948117256,
          0.014664601534605026,
          0.0007511609583161771,
          0.05131366476416588,
          0.017218299210071564,
          -0.05369088053703308,
          -0.0635000616312027,
          0.09076846390962601,
          -0.07471896708011627,
          0.12443160265684128,
          0.01999456062912941,
          0.026438310742378235
        ],
        [
          -0.11680461466312408,
          0.043972548097372055,
          0.04576435685157776,
          0.08749264478683472,
          0.10561618953943253,
          0.12339353561401367,
          -0.022928385064005852,
          0.09269437938928604,
          -0.013296945951879025,
          0.03773365542292595,
          0.07279085367918015,
          -0.07296936213970184,
          -0.03937621787190437,
          0.020303338766098022,
          -0.046191055327653885,
          0.01679157093167305,
          -0.09279785305261612,
          0.0026905694976449013,
          0.04073213413357735,
          -0.056147992610931396,
          0.06095767393708229,
          0.06243123114109039,
          0.034002505242824554,
          -0.04074732959270477,
          0.0833524763584137,
          -0.0815548449754715,
          -0.01364833116531372,
          -0.054545603692531586,
          -0.06016255542635918,
          -0.12403803318738937,
          0.15040655434131622,
          -0.028344793245196342,
          -0.08737032860517502,
          0.06770062446594238,
          0.0011735910084098577,
          0.03366363048553467,
          0.0703369528055191,
          0.04905707761645317,
          0.12430380284786224,
          -0.10424995422363281,
          0.08665977418422699,
          0.00317554222419858,
          -0.17901203036308289,
          -0.05939047038555145,
          0.03377871587872505,
          0.04651748389005661,
          0.024186626076698303,
          -0.041346222162246704,
          0.04383127763867378,
          -0.05827182158827782,
          -0.0863272100687027,
          -0.08143378794193268,
          -0.027768967673182487,
          -0.036027632653713226,
          -0.05664786323904991,
          -0.012339884415268898,
          -0.08013353496789932,
          0.11717279255390167,
          0.09504839777946472,
          0.0786038339138031,
          -0.03652067109942436,
          0.03556709736585617,
          0.0063491142354905605,
          0.027128156274557114
        ],
        [
          -0.027783920988440514,
          0.06987465918064117,
          0.007449701428413391,
          -0.10262702405452728,
          0.05931568518280983,
          -0.04125046357512474,
          0.01766587421298027,
          0.011031675152480602,
          -0.10476668924093246,
          -0.030280031263828278,
          0.1550082117319107,
          -0.07932494580745697,
          0.0937240794301033,
          -0.08220645785331726,
          0.09009161591529846,
          0.13313889503479004,
          -0.052322838455438614,
          0.07603702694177628,
          0.024812528863549232,
          -0.11329439282417297,
          0.10338371992111206,
          -0.02397938072681427,
          -0.03106261044740677,
          -0.102381631731987,
          -0.12201331555843353,
          0.08198770880699158,
          -0.02205100655555725,
          -0.14666876196861267,
          -0.008495352230966091,
          -0.12290414422750473,
          -0.016584530472755432,
          0.07089552283287048,
          0.015041488222777843,
          -0.14914041757583618,
          0.14138036966323853,
          0.12350387871265411,
          0.02384946309030056,
          0.1127089112997055,
          0.1310577243566513,
          0.10050006210803986,
          0.10018943250179291,
          -0.06814686208963394,
          0.13155144453048706,
          -0.07652260363101959,
          -0.15042707324028015,
          0.026781685650348663,
          -0.06671115756034851,
          -0.08025702834129333,
          -0.11778382956981659,
          -0.09996761381626129,
          0.042181238532066345,
          0.06960593909025192,
          -0.05146317183971405,
          0.0690741315484047,
          -0.1539207100868225,
          -0.1170068308711052,
          -0.03145506978034973,
          0.014144246466457844,
          -0.01897713541984558,
          -0.08336550742387772,
          0.012735430151224136,
          -0.024712733924388885,
          0.10269912332296371,
          0.04427630826830864
        ],
        [
          0.04925566166639328,
          0.10162779688835144,
          0.06122492253780365,
          -0.0065076109021902084,
          -0.03013562224805355,
          0.059932004660367966,
          0.06979537010192871,
          0.0964575931429863,
          0.13580161333084106,
          0.08783699572086334,
          0.006918673869222403,
          0.10308174043893814,
          0.07608173787593842,
          0.0629195123910904,
          -0.0008238917216658592,
          -0.06435207277536392,
          0.10898102819919586,
          -0.019281774759292603,
          0.16524800658226013,
          -0.03039461374282837,
          0.15817470848560333,
          -0.021386802196502686,
          0.09676726162433624,
          0.10730361938476562,
          0.029877454042434692,
          0.1333833783864975,
          -0.12307357788085938,
          0.055301371961832047,
          0.020958924666047096,
          -0.003985827323049307,
          -0.013372360728681087,
          -0.03880072385072708,
          0.08116680383682251,
          0.15282797813415527,
          -0.07760033756494522,
          0.07028934359550476,
          -0.05442162603139877,
          0.17890289425849915,
          0.17215336859226227,
          0.03547457233071327,
          0.050083041191101074,
          -0.04662450775504112,
          0.026619717478752136,
          -0.09114197641611099,
          0.04985571652650833,
          0.09261997789144516,
          0.14209148287773132,
          0.09545006603002548,
          -0.08585195243358612,
          0.17523589730262756,
          -0.020075425505638123,
          -0.023777112364768982,
          0.11075233668088913,
          0.08930506557226181,
          0.012442328967154026,
          0.05439933016896248,
          -0.05492594838142395,
          0.0713135302066803,
          0.0719665139913559,
          -0.06140340864658356,
          0.12531107664108276,
          0.07401324808597565,
          0.1384248435497284,
          0.009820288047194481
        ],
        [
          -0.11512285470962524,
          0.004030315205454826,
          -0.02388991415500641,
          0.02847137488424778,
          -0.0614655464887619,
          -0.052843231707811356,
          -0.059392742812633514,
          0.06760405004024506,
          0.09093531966209412,
          0.034420549869537354,
          -0.08656929433345795,
          0.00881919264793396,
          0.008012449368834496,
          -0.10362935066223145,
          -0.07462280243635178,
          0.0627760961651802,
          -0.10206173360347748,
          0.07717959582805634,
          0.0054639894515275955,
          0.05785737931728363,
          -0.020072873681783676,
          -0.056386709213256836,
          -0.11109963059425354,
          0.02321946620941162,
          -0.04505486786365509,
          0.060289692133665085,
          0.008079275488853455,
          0.016743095591664314,
          0.06370794773101807,
          -0.11308795213699341,
          0.08805419504642487,
          0.01673358492553234,
          0.023790523409843445,
          0.03277439996600151,
          0.10779435932636261,
          -0.11690573394298553,
          -0.10871174186468124,
          -0.08972621709108353,
          0.09077587723731995,
          0.008319318294525146,
          -0.10666100680828094,
          0.0005298341275192797,
          0.06365473568439484,
          0.02936883270740509,
          0.036855217069387436,
          -0.011848628520965576,
          -0.008535657078027725,
          0.05800145864486694,
          0.02797442115843296,
          -9.6955645858543e-06,
          -0.05523037910461426,
          -0.09363101422786713,
          0.10129614174365997,
          -0.11916592717170715,
          0.0711062103509903,
          0.04207586869597435,
          -0.06269225478172302,
          -0.08216390758752823,
          0.085959792137146,
          0.09293241798877716,
          -0.05934156849980354,
          -0.11714000254869461,
          -0.056554943323135376,
          0.1180800348520279
        ],
        [
          -0.051381807774305344,
          0.10424892604351044,
          -0.050801992416381836,
          -0.004752228502184153,
          -0.0023870542645454407,
          -0.05504605174064636,
          0.015211292542517185,
          -0.08673057705163956,
          0.07535333186388016,
          -0.013422831892967224,
          -0.047137849032878876,
          0.04096924141049385,
          0.031866416335105896,
          0.10288724303245544,
          -0.023498255759477615,
          -0.0781760960817337,
          -0.1352211833000183,
          -0.11355121433734894,
          -0.09247447550296783,
          0.06747131049633026,
          0.09702842682600021,
          -0.08550383150577545,
          -0.12398689985275269,
          -0.04088057205080986,
          0.00405670702457428,
          -0.035513486713171005,
          -0.060334399342536926,
          -0.08298951387405396,
          0.05191761627793312,
          -0.02862969972193241,
          0.04632435366511345,
          -0.0286540649831295,
          -0.021413639187812805,
          0.09464741498231888,
          0.03831857815384865,
          0.060800984501838684,
          -0.11822672933340073,
          -0.10135646909475327,
          0.0014516952214762568,
          0.05031142383813858,
          -0.006568744778633118,
          0.05982155725359917,
          0.06308172643184662,
          -0.030916908755898476,
          0.027830583974719048,
          -0.09256034344434738,
          0.052806977182626724,
          0.084723562002182,
          -0.020458728075027466,
          0.06789132952690125,
          0.010705232620239258,
          -0.054689954966306686,
          -0.03533494099974632,
          -0.0016848905943334103,
          0.13199745118618011,
          -0.054362546652555466,
          0.03266013786196709,
          -0.057960111647844315,
          0.09596216678619385,
          -0.05943363904953003,
          0.014192873612046242,
          0.0075088851153850555,
          0.003980593755841255,
          0.02092539146542549
        ],
        [
          0.12151101976633072,
          0.09576627612113953,
          -0.05536527931690216,
          0.02487320639193058,
          0.10273958742618561,
          -0.05869344249367714,
          0.15946316719055176,
          -0.09057513624429703,
          0.11209648102521896,
          0.06737872213125229,
          0.16085432469844818,
          -0.05087979510426521,
          0.13038739562034607,
          0.10827323794364929,
          0.08923429995775223,
          0.06727197766304016,
          -0.04999325051903725,
          0.05143800750374794,
          0.06736940145492554,
          -0.030536696314811707,
          0.08073998242616653,
          -0.08801102638244629,
          0.17410410940647125,
          0.08661715686321259,
          -0.03749941289424896,
          0.06776230782270432,
          0.08994728326797485,
          0.12766598165035248,
          0.029046092182397842,
          0.1173548623919487,
          -0.053702663630247116,
          0.024165190756320953,
          -0.06916606426239014,
          0.10583284497261047,
          -0.09659058600664139,
          -0.07850778102874756,
          0.14156422019004822,
          0.09939365833997726,
          0.1665840595960617,
          0.0798303484916687,
          -0.07953888177871704,
          -0.0780501738190651,
          0.08349904417991638,
          0.07683000713586807,
          0.06273341178894043,
          0.07602952420711517,
          0.10543424636125565,
          0.10692830383777618,
          0.0020949954632669687,
          0.15804456174373627,
          -0.03412024676799774,
          0.1313391476869583,
          -0.060604602098464966,
          0.1043391302227974,
          -0.05894912779331207,
          0.020648982375860214,
          -0.02982207201421261,
          -0.08697483688592911,
          0.062274277210235596,
          0.06008902192115784,
          0.07109839469194412,
          -0.07686201483011246,
          -0.05437953397631645,
          0.1265670359134674
        ],
        [
          -0.008788750506937504,
          0.1354905664920807,
          -0.0003317594528198242,
          -0.12076219916343689,
          -0.010756663978099823,
          -0.06558220833539963,
          -0.13015757501125336,
          0.014485483057796955,
          -0.05128951743245125,
          0.057769495993852615,
          0.10622882097959518,
          0.03568784147500992,
          -0.05555535480380058,
          -0.00477994978427887,
          0.08839499205350876,
          0.13650834560394287,
          0.10469187796115875,
          0.05886175483465195,
          -0.05377892777323723,
          0.0381539911031723,
          -0.10465411841869354,
          -0.0621417798101902,
          0.01778307929635048,
          0.07298466563224792,
          0.018028944730758667,
          0.12662820518016815,
          -0.05182954668998718,
          -0.03681410849094391,
          0.072030209004879,
          -0.06917273998260498,
          0.054182231426239014,
          0.035342734307050705,
          -0.10957612097263336,
          -0.14133882522583008,
          0.028191830962896347,
          0.026244521141052246,
          0.02034303918480873,
          0.11911144852638245,
          -0.012178291566669941,
          0.02144784852862358,
          -0.009558290243148804,
          0.07676180452108383,
          -0.06821112334728241,
          -0.07570721209049225,
          -0.12367487698793411,
          0.09774899482727051,
          0.1227525845170021,
          -0.01983005367219448,
          -0.11235594004392624,
          0.10059360414743423,
          0.055212363600730896,
          0.16433462500572205,
          -0.05548728629946709,
          -0.10973455756902695,
          -0.08417602628469467,
          0.010229348205029964,
          -0.11305097490549088,
          0.12244166433811188,
          -0.02808240056037903,
          -0.020509276539087296,
          -0.045574236661195755,
          -0.009316951967775822,
          0.05668937787413597,
          -0.03599978983402252
        ],
        [
          -0.005161315202713013,
          -0.05835886299610138,
          0.1226317435503006,
          -0.11555717885494232,
          -0.0751936286687851,
          -0.011735334992408752,
          0.12172430753707886,
          0.11002849042415619,
          0.008007019758224487,
          -0.011024385690689087,
          0.001103714108467102,
          0.10315623879432678,
          0.03952404856681824,
          0.04028913378715515,
          0.09303496778011322,
          0.1235971748828888,
          0.0635133683681488,
          -0.1017693281173706,
          -0.11697550117969513,
          -0.024129629135131836,
          0.014604076743125916,
          0.09916342794895172,
          0.06574133038520813,
          0.04098889231681824,
          0.07728807628154755,
          0.06428784132003784,
          -0.06167687475681305,
          -0.11691898107528687,
          -0.0980251282453537,
          0.0010039657354354858,
          0.012220501899719238,
          -0.03974433243274689,
          0.026993736624717712,
          0.0709369033575058,
          -0.06236347556114197,
          0.01776815950870514,
          0.02638407051563263,
          -0.09378810226917267,
          -0.04839484393596649,
          0.055858299136161804,
          0.011461600661277771,
          -0.03320102393627167,
          0.013427600264549255,
          0.0031403154134750366,
          -0.0317186564207077,
          -0.10745753347873688,
          0.05835700035095215,
          0.05082322657108307,
          -0.024512454867362976,
          0.12170104682445526,
          -0.04042808711528778,
          -0.08985786139965057,
          0.09455762803554535,
          -0.019001498818397522,
          -0.042664363980293274,
          -0.02033783495426178,
          0.0082617849111557,
          0.06599502265453339,
          -0.00785943865776062,
          0.11620387434959412,
          0.10251878201961517,
          0.08201785385608673,
          -0.037737101316452026,
          -0.12146645784378052
        ],
        [
          -0.03153281658887863,
          -0.13574446737766266,
          0.08593849837779999,
          0.11958055198192596,
          -0.06903193891048431,
          0.14276990294456482,
          0.0391976498067379,
          -0.12389623373746872,
          -0.000815593870356679,
          -0.004691211506724358,
          -0.006747266743332148,
          0.0013909356202930212,
          -0.0017397047486156225,
          -0.10371685028076172,
          -0.17061355710029602,
          -0.03100804053246975,
          -0.2510776221752167,
          0.004452287219464779,
          -0.08638230711221695,
          0.06405027210712433,
          -0.10902571678161621,
          0.05774735286831856,
          -0.031546931713819504,
          -0.06638605892658234,
          -0.05675242841243744,
          0.10309886932373047,
          -0.015975534915924072,
          0.02364910952746868,
          0.0769166573882103,
          0.12866970896720886,
          0.12337103486061096,
          0.07439213246107101,
          0.029935112223029137,
          -0.01092484500259161,
          0.005493314936757088,
          0.004337236285209656,
          -0.002352815819904208,
          0.10013829171657562,
          0.024518469348549843,
          -0.06513875722885132,
          0.013725727796554565,
          -0.09334229677915573,
          -0.11513014882802963,
          -0.046102866530418396,
          0.1539933830499649,
          0.02219882421195507,
          0.07323760539293289,
          -0.1032930240035057,
          -0.07297386974096298,
          -0.08672294020652771,
          0.06336554884910583,
          0.1077878326177597,
          0.0016910760896280408,
          -0.116599440574646,
          -0.03992030769586563,
          0.07098190486431122,
          0.2600467801094055,
          -0.12495968490839005,
          0.023142918944358826,
          0.07527285814285278,
          -0.01590079814195633,
          0.10477949678897858,
          -0.13499198853969574,
          0.04650042578577995
        ],
        [
          0.08218157291412354,
          -0.0735590010881424,
          -0.07437659800052643,
          0.015583808533847332,
          0.08808709681034088,
          0.06478437036275864,
          -0.04397210106253624,
          0.09673751890659332,
          0.1675058752298355,
          -0.060504667460918427,
          0.07193627953529358,
          -0.02553364634513855,
          0.015797749161720276,
          -0.02060830593109131,
          -0.011569904163479805,
          0.02646235190331936,
          -0.044392697513103485,
          0.08037158101797104,
          -0.06498687714338303,
          -0.11932854354381561,
          0.07075465470552444,
          0.08292096853256226,
          -0.013823647052049637,
          0.050635114312171936,
          0.12089250981807709,
          0.041913289576768875,
          -0.11778239905834198,
          -0.011335698887705803,
          -0.10551336407661438,
          -0.04872487112879753,
          0.0732523500919342,
          0.06350158154964447,
          0.06275417655706406,
          -0.1412273645401001,
          0.10721985250711441,
          0.06478632986545563,
          -0.060993440449237823,
          0.00160130113363266,
          -0.10608506947755814,
          0.10693692415952682,
          -0.11764667928218842,
          -0.12370157986879349,
          0.005912667606025934,
          -0.055151235312223434,
          -0.18877127766609192,
          0.0020323116332292557,
          -0.08773119747638702,
          -0.06369592249393463,
          -0.037899743765592575,
          -0.08966393768787384,
          0.09991687536239624,
          0.13495594263076782,
          -0.10613244026899338,
          0.0801423117518425,
          -0.06328977644443512,
          -0.09943708032369614,
          0.09353482723236084,
          -0.14092372357845306,
          -0.053944602608680725,
          -0.06790323555469513,
          0.04039927199482918,
          0.14279329776763916,
          -0.026661954820156097,
          0.087105892598629
        ],
        [
          -0.08490848541259766,
          -0.021423980593681335,
          -0.09737777709960938,
          -0.0794549435377121,
          -0.07259513437747955,
          -0.036750420928001404,
          -0.0806342363357544,
          -0.06344422698020935,
          0.07661280035972595,
          -0.07291914522647858,
          0.009549945592880249,
          -0.021060079336166382,
          -0.04005424678325653,
          0.08695080876350403,
          -0.05819989740848541,
          -0.12114067375659943,
          0.05180652439594269,
          -0.013918548822402954,
          -0.04356594383716583,
          0.0905466228723526,
          0.05637054145336151,
          -0.025729551911354065,
          -0.0828574001789093,
          0.017014279961586,
          -0.03526198863983154,
          0.07819296419620514,
          -0.03223748505115509,
          0.01716601848602295,
          -0.08755216002464294,
          0.07792556285858154,
          0.06825490295886993,
          -0.11813966929912567,
          -0.07982489466667175,
          0.10841988027095795,
          -0.037153780460357666,
          0.10358874499797821,
          0.04391735792160034,
          -0.055792927742004395,
          -0.08428123593330383,
          0.060404449701309204,
          0.009241774678230286,
          -0.01808173954486847,
          -0.11265446245670319,
          0.035226330161094666,
          0.0070584118366241455,
          0.019117310643196106,
          0.06118467450141907,
          0.05851861834526062,
          0.05162814259529114,
          -0.09960763156414032,
          0.0784611701965332,
          0.04156121611595154,
          0.061847805976867676,
          -0.00843338668346405,
          0.08605656027793884,
          -0.11548887193202972,
          0.033538684248924255,
          0.08712416887283325,
          -0.1150924414396286,
          0.0022953152656555176,
          0.09401047229766846,
          -0.1102442741394043,
          -0.0033786147832870483,
          0.11306487023830414
        ],
        [
          0.0801730826497078,
          0.037731483578681946,
          -0.05831706523895264,
          0.10633053630590439,
          0.11910328269004822,
          -0.03190856799483299,
          0.10509978234767914,
          0.06229078024625778,
          0.00813169777393341,
          0.20840348303318024,
          0.03733166679739952,
          0.03090890869498253,
          0.07389294356107712,
          -0.02212439477443695,
          0.048836689442396164,
          -0.03433481603860855,
          -0.08856434375047684,
          0.10532402247190475,
          -0.06352626532316208,
          0.039811134338378906,
          0.08656496554613113,
          0.009569106623530388,
          0.06512359529733658,
          0.1932430863380432,
          0.05591350793838501,
          0.09713499248027802,
          0.05813020467758179,
          0.004779043607413769,
          0.09490818530321121,
          0.19883258640766144,
          0.14200924336910248,
          -0.02555587701499462,
          0.10220203548669815,
          -0.03114851377904415,
          0.020051198080182076,
          -0.11770342290401459,
          0.01727275364100933,
          -0.07066728919744492,
          0.07947982102632523,
          -0.05006929486989975,
          0.023573502898216248,
          0.1597123146057129,
          -0.059432752430438995,
          0.055577974766492844,
          0.05983665958046913,
          0.09198993444442749,
          -0.04235170781612396,
          0.03634893521666527,
          0.06925824284553528,
          0.1887318193912506,
          0.10975691676139832,
          -0.003165734698995948,
          -0.08669082075357437,
          -0.11836735159158707,
          -0.09683341532945633,
          0.13887494802474976,
          -0.055376116186380386,
          -0.08899439871311188,
          0.00805722177028656,
          -0.17411932349205017,
          -0.08976177126169205,
          0.11185058951377869,
          0.056507427245378494,
          -0.006169239990413189
        ],
        [
          -0.04798031598329544,
          0.050106413662433624,
          0.004310339689254761,
          0.07810559123754501,
          0.0990263819694519,
          -0.09891041368246078,
          0.009107356891036034,
          -0.07936123758554459,
          0.15154892206192017,
          -0.0167849101126194,
          -0.04150175303220749,
          0.05319717153906822,
          0.1675550490617752,
          0.09155687689781189,
          -0.09655573964118958,
          -0.04763562232255936,
          0.14916019141674042,
          0.12422261387109756,
          0.05830327421426773,
          0.06117084622383118,
          -0.08908657729625702,
          -0.0450015589594841,
          -0.016159117221832275,
          0.1795012354850769,
          -0.06310686469078064,
          0.045419029891490936,
          0.11799585819244385,
          -0.045095957815647125,
          0.0247336495667696,
          0.012531744316220284,
          -0.14811499416828156,
          0.09125304967164993,
          -0.04000820219516754,
          0.20135599374771118,
          0.04704899340867996,
          -0.07658873498439789,
          0.10991640388965607,
          -0.030202576890587807,
          0.00797953736037016,
          -0.054678019136190414,
          -0.06866957247257233,
          0.08561501652002335,
          0.1394290179014206,
          -0.04810555279254913,
          0.008265486918389797,
          0.10224372148513794,
          0.052480198442935944,
          0.05852341651916504,
          -0.06494847685098648,
          0.06094888225197792,
          0.06966713070869446,
          0.14460469782352448,
          -0.14371617138385773,
          -0.10167506337165833,
          -0.037037208676338196,
          0.048470739275217056,
          0.06907925009727478,
          -0.012015626765787601,
          0.051001787185668945,
          -0.09692781418561935,
          -0.01238206122070551,
          0.12935368716716766,
          0.019596407189965248,
          -0.05178174003958702
        ],
        [
          -0.06918051838874817,
          -0.08108782768249512,
          -0.08524833619594574,
          0.047076672315597534,
          -0.029786676168441772,
          -0.024511083960533142,
          -0.087159663438797,
          -0.0505121648311615,
          -0.09469753503799438,
          0.09178723394870758,
          -0.12088571488857269,
          -0.03293365240097046,
          -0.05372171103954315,
          0.07877553999423981,
          -0.01415744423866272,
          -0.037770017981529236,
          0.02140846848487854,
          0.004984170198440552,
          -0.02056792378425598,
          -0.024586424231529236,
          -0.03578189015388489,
          -0.03401722013950348,
          0.06983722746372223,
          -0.08447639644145966,
          -0.1138925552368164,
          -0.049458712339401245,
          0.06768661737442017,
          0.0442717969417572,
          -0.08654418587684631,
          -0.04630373418331146,
          0.06154942512512207,
          0.0544317364692688,
          -0.08128106594085693,
          0.1218007504940033,
          0.04693141579627991,
          0.01638682186603546,
          0.03142930567264557,
          -0.11137586832046509,
          0.0666293203830719,
          -0.06340040266513824,
          -0.0690079927444458,
          -0.09379610419273376,
          -0.09494258463382721,
          -0.12155143916606903,
          0.02594473958015442,
          0.05751092731952667,
          -0.0008387714624404907,
          0.007080093026161194,
          -0.030877888202667236,
          0.019296810030937195,
          0.07811111211776733,
          0.0536276251077652,
          0.07522772252559662,
          -0.02230602502822876,
          -0.09959357976913452,
          -0.027172163128852844,
          -0.014677047729492188,
          -0.05445559322834015,
          0.07690006494522095,
          -0.08882856369018555,
          -0.12306125462055206,
          -0.039359018206596375,
          0.10013402998447418,
          0.06829546391963959
        ],
        [
          0.12221823632717133,
          -0.14265449345111847,
          -0.10388708114624023,
          0.09525420516729355,
          -0.03461962938308716,
          0.10972865670919418,
          0.03699352219700813,
          0.09667907655239105,
          -0.1387273669242859,
          0.04596444219350815,
          -0.1271132081747055,
          -0.04958045482635498,
          0.09531188011169434,
          -0.07288181781768799,
          0.11187469214200974,
          0.0002959534467663616,
          0.11392742395401001,
          -0.0788368433713913,
          -0.12405502796173096,
          0.06514872610569,
          -0.07948325574398041,
          -0.03929396718740463,
          -0.005919184535741806,
          -0.012265082448720932,
          -0.0034328103065490723,
          -0.01619992032647133,
          0.11578147113323212,
          0.03835757449269295,
          -0.13821297883987427,
          0.025534573942422867,
          -0.061158936470746994,
          0.05102149769663811,
          0.07282578945159912,
          0.052204400300979614,
          -0.029318343847990036,
          -0.04812236130237579,
          -0.058237917721271515,
          -0.1480933278799057,
          0.005958919879049063,
          -0.017790978774428368,
          0.024083629250526428,
          0.06347373872995377,
          0.03427444398403168,
          0.04050719738006592,
          0.07557504624128342,
          -0.033759113401174545,
          0.09260374307632446,
          0.03026426210999489,
          0.06418513506650925,
          -0.05188360437750816,
          -0.010943949222564697,
          0.11977319419384003,
          -0.04206518083810806,
          0.08557464927434921,
          0.002524125622585416,
          -0.022586919367313385,
          -0.0920276865363121,
          0.011424237862229347,
          -0.08940106630325317,
          -0.023299038410186768,
          0.0885031670331955,
          -0.03682243824005127,
          -0.03091413341462612,
          -0.04123717546463013
        ],
        [
          0.04218760132789612,
          -0.023129254579544067,
          -0.11436708271503448,
          0.010608583688735962,
          -0.1139758974313736,
          -0.06688615679740906,
          0.024830147624015808,
          0.018155336380004883,
          -0.01538802683353424,
          0.055310800671577454,
          -0.033371374011039734,
          0.06658929586410522,
          0.04716774821281433,
          0.039833247661590576,
          0.09499618411064148,
          -0.014873102307319641,
          -0.01764756441116333,
          0.10608254373073578,
          -0.06564117968082428,
          0.02585117518901825,
          -0.03796692192554474,
          -0.09214599430561066,
          0.020855262875556946,
          -0.051804766058921814,
          -0.05174785852432251,
          -0.006034776568412781,
          0.08216460049152374,
          0.06429868936538696,
          -0.027180269360542297,
          0.06571756303310394,
          -0.06508252024650574,
          0.037858203053474426,
          -0.08124087750911713,
          -0.008654400706291199,
          0.0034350156784057617,
          -0.11344167590141296,
          -0.05665533244609833,
          -0.06027984619140625,
          -0.01649269461631775,
          -0.06516911089420319,
          0.12494076788425446,
          0.12251763045787811,
          -0.01476164162158966,
          0.04778192937374115,
          -0.04439753293991089,
          0.09443263709545135,
          -0.027476191520690918,
          0.05462130904197693,
          0.024905085563659668,
          -0.07405596971511841,
          -0.07112058997154236,
          -0.0379149466753006,
          -0.007192179560661316,
          0.041833311319351196,
          -0.0967831015586853,
          -0.03356051445007324,
          0.02091972529888153,
          -0.0726880431175232,
          -0.1031772643327713,
          -0.003564178943634033,
          -0.11101147532463074,
          0.12066031992435455,
          0.026667699217796326,
          -0.08202330768108368
        ],
        [
          0.009256665594875813,
          0.11685542017221451,
          0.11692743003368378,
          0.0053481729701161385,
          -0.0855572521686554,
          -0.10656780004501343,
          0.14134365320205688,
          -0.09739958494901657,
          -0.039097994565963745,
          0.06340458989143372,
          0.14528261125087738,
          -0.16213221848011017,
          0.12692603468894958,
          0.057867005467414856,
          -0.033131688833236694,
          -0.15642192959785461,
          0.020165251567959785,
          -0.03819392994046211,
          -0.0063927932642400265,
          0.04171304404735565,
          -0.056087151169776917,
          0.049286406487226486,
          -0.006865240633487701,
          -0.005817190278321505,
          0.03213794529438019,
          0.1218293160200119,
          -0.0393843799829483,
          0.05274718254804611,
          -0.08975256979465485,
          0.1781219094991684,
          -0.029549898579716682,
          -0.0025150165893137455,
          -0.05291998013854027,
          0.02201538160443306,
          -0.18919378519058228,
          -0.09644792973995209,
          0.10198215395212173,
          -0.15071488916873932,
          0.07660391181707382,
          -0.04522217810153961,
          -0.03872890770435333,
          -0.04294988512992859,
          -0.15236493945121765,
          0.07624874264001846,
          0.16416074335575104,
          -0.09469931572675705,
          -0.04166357219219208,
          0.07664499431848526,
          -0.015487329103052616,
          0.09365721791982651,
          -0.07578535377979279,
          -0.02851143293082714,
          0.02105070650577545,
          0.04969680309295654,
          0.16759277880191803,
          -0.022717561572790146,
          -0.17521335184574127,
          -0.15043394267559052,
          0.09980784356594086,
          -0.12215142697095871,
          0.038366831839084625,
          0.019351672381162643,
          -0.042816001921892166,
          -0.044388048350811005
        ],
        [
          0.0922967717051506,
          -0.08080822229385376,
          0.025275975465774536,
          -0.04734187573194504,
          -0.1331912726163864,
          -0.08163444697856903,
          0.09114651381969452,
          -0.038934677839279175,
          0.10112575441598892,
          -0.08952244371175766,
          -0.04370271414518356,
          0.08142110705375671,
          0.017400845885276794,
          -0.11205710470676422,
          0.05503876507282257,
          -0.05840763822197914,
          -0.0015952140092849731,
          -0.10524386912584305,
          0.05253135785460472,
          -0.00010946393013000488,
          -0.12224763631820679,
          -0.07431173324584961,
          -0.006676316261291504,
          -0.11955131590366364,
          0.04915200173854828,
          -0.03385845199227333,
          -0.016134336590766907,
          0.036106184124946594,
          -0.1235794723033905,
          -0.0753481537103653,
          0.12324953079223633,
          -0.09477244317531586,
          0.010536491870880127,
          0.10126926749944687,
          0.053151678293943405,
          -0.011077284812927246,
          0.04173213243484497,
          0.10767063498497009,
          -0.062079980969429016,
          -0.09042945504188538,
          0.06818366050720215,
          -0.0352666936814785,
          0.07920549064874649,
          -0.0357532799243927,
          0.019754696637392044,
          0.011835530400276184,
          -0.04987137019634247,
          -0.07380865514278412,
          0.026359127834439278,
          0.041706059128046036,
          0.07702536880970001,
          0.011370837688446045,
          -0.05792638659477234,
          -0.07363098859786987,
          -0.12315227091312408,
          -0.08593332767486572,
          0.048264920711517334,
          0.051232725381851196,
          0.05496245622634888,
          -0.0930282324552536,
          -0.09849721938371658,
          -0.05130408704280853,
          -0.12207253277301788,
          -0.1002931296825409
        ],
        [
          -0.15460316836833954,
          -0.03872176632285118,
          0.01689024269580841,
          0.14562425017356873,
          0.1347523182630539,
          0.022628124803304672,
          -0.01512189768254757,
          0.06298209726810455,
          0.10493363440036774,
          0.04325615242123604,
          0.11424601078033447,
          -0.002126420149579644,
          -0.008837410248816013,
          0.1035020649433136,
          0.03892272710800171,
          -0.1333649754524231,
          -0.1312827467918396,
          0.07561900466680527,
          -0.10671167075634003,
          0.05324573814868927,
          -0.07968132197856903,
          0.01767408289015293,
          0.09245933592319489,
          -0.007049273233860731,
          0.10515406727790833,
          0.07022985070943832,
          0.10888975858688354,
          -0.13367833197116852,
          0.03667183592915535,
          -0.01028564665466547,
          0.03236513212323189,
          0.1372070461511612,
          0.060542941093444824,
          0.15324518084526062,
          0.11020708829164505,
          0.051226094365119934,
          0.10543882101774216,
          -0.025826577097177505,
          0.03679512441158295,
          -0.05962049961090088,
          0.04213939607143402,
          -0.18825304508209229,
          0.1416018307209015,
          -0.015422713942825794,
          -0.05463894084095955,
          -0.06024453043937683,
          -0.07711633294820786,
          -0.04924803227186203,
          0.0688638836145401,
          -0.09569470584392548,
          0.02770744264125824,
          0.05586834251880646,
          0.06893879175186157,
          0.04095453396439552,
          0.10787305980920792,
          0.11661134660243988,
          -0.034644097089767456,
          -0.13520056009292603,
          0.032281577587127686,
          -0.002087533473968506,
          0.10704369097948074,
          0.09484856575727463,
          -0.09461357444524765,
          0.07080142945051193
        ],
        [
          0.19638600945472717,
          -0.04677947983145714,
          -0.10823968052864075,
          0.11068978160619736,
          -0.15537838637828827,
          0.061387188732624054,
          0.12793518602848053,
          -0.09182893484830856,
          0.007345587946474552,
          0.15114326775074005,
          0.06967213749885559,
          -0.11982905864715576,
          -0.20529073476791382,
          -0.06944690644741058,
          0.10947135835886002,
          0.0026718894951045513,
          -0.043923527002334595,
          0.22553203999996185,
          0.012086857110261917,
          0.09541007876396179,
          0.11297501623630524,
          0.024508535861968994,
          -0.021098144352436066,
          -0.17064416408538818,
          -0.07469461858272552,
          0.021544909104704857,
          0.008757233619689941,
          -0.019486144185066223,
          0.14485393464565277,
          -0.03692484274506569,
          -0.03166273981332779,
          0.22540712356567383,
          -0.1227332130074501,
          -0.01859629526734352,
          0.050828903913497925,
          0.07825301587581635,
          0.1031758263707161,
          0.08365801721811295,
          -0.14919185638427734,
          -0.08391992747783661,
          0.04892243444919586,
          -0.00886863935738802,
          0.10710328817367554,
          0.026817845180630684,
          0.017105402424931526,
          -0.0635475367307663,
          0.01133812963962555,
          -0.14179641008377075,
          0.18026718497276306,
          -0.03382449597120285,
          -0.03189517557621002,
          -0.005640095565468073,
          -0.017347101122140884,
          0.032459672540426254,
          -0.022175785154104233,
          0.02332845702767372,
          0.06091824546456337,
          -0.005339698866009712,
          -0.05929115414619446,
          -0.00047927259583957493,
          -0.006698950659483671,
          0.06880994141101837,
          -0.05577312409877777,
          0.04655338451266289
        ],
        [
          -0.13004103302955627,
          0.06023296341300011,
          0.06363219022750854,
          0.09575240314006805,
          -0.01955857314169407,
          0.02562055177986622,
          -0.05885595083236694,
          0.039118386805057526,
          -0.025586631149053574,
          -0.10332381725311279,
          -0.008825251832604408,
          -0.12007574737071991,
          -0.06827833503484726,
          0.06989869475364685,
          -0.002951022470369935,
          -0.09909915924072266,
          0.08413056284189224,
          -0.12908773124217987,
          -0.006888929754495621,
          -0.0914945900440216,
          0.06133674085140228,
          0.01397622562944889,
          -0.07426925003528595,
          -0.08625257015228271,
          -0.044953107833862305,
          0.049163639545440674,
          0.005194604396820068,
          -0.08027736097574234,
          -0.08028435707092285,
          0.0032602488063275814,
          -0.10366825759410858,
          -0.14565417170524597,
          0.04083907604217529,
          0.024015244096517563,
          0.07273509353399277,
          -0.026607617735862732,
          -0.011724594980478287,
          -0.05041684955358505,
          0.013393482193350792,
          0.03401317447423935,
          -0.10251255333423615,
          -0.09855646640062332,
          0.04332023859024048,
          0.0026896686758846045,
          0.07273787260055542,
          -0.11189676821231842,
          -0.06769667565822601,
          0.08338882029056549,
          0.07216314971446991,
          -0.06224360316991806,
          0.07950891554355621,
          -0.09163261950016022,
          -0.0953967347741127,
          -0.098615862429142,
          0.09424521028995514,
          -0.015388802625238895,
          -0.05048450827598572,
          0.07184404879808426,
          0.1017126739025116,
          0.0804869756102562,
          -0.1278165876865387,
          -0.10586666315793991,
          0.012621999718248844,
          0.04058435559272766
        ],
        [
          -0.002400490455329418,
          0.10061853379011154,
          0.03669048845767975,
          -0.028225859627127647,
          -0.0935993418097496,
          -0.09319423884153366,
          -0.12483764439821243,
          -0.09421002864837646,
          -0.09282184392213821,
          -0.05919051170349121,
          -0.029847566038370132,
          0.03697142377495766,
          -0.02918531745672226,
          0.09317933022975922,
          0.04557656869292259,
          -0.009301634505391121,
          -0.07254660129547119,
          -0.13108180463314056,
          -0.0826382115483284,
          0.07433082163333893,
          0.022734040394425392,
          -0.030074233189225197,
          -0.016152705997228622,
          -0.021893179044127464,
          0.07595755159854889,
          0.03735699877142906,
          0.069798544049263,
          0.0808374285697937,
          0.03256874904036522,
          0.022287584841251373,
          0.050796717405319214,
          0.08807790279388428,
          -0.019386231899261475,
          -0.13220345973968506,
          -0.06863024085760117,
          0.05995182693004608,
          0.05189724266529083,
          0.08764588087797165,
          -0.1261080801486969,
          0.008038440719246864,
          -0.07321560382843018,
          0.022756844758987427,
          0.051376380026340485,
          -0.05479472875595093,
          0.030083265155553818,
          -0.00806594081223011,
          -0.05513675883412361,
          0.09338449686765671,
          0.03351696953177452,
          0.07099402695894241,
          0.05264945328235626,
          0.11011435091495514,
          0.10011158138513565,
          -0.10317050665616989,
          -0.044288888573646545,
          0.055109601467847824,
          -0.06723842769861221,
          -0.1393938660621643,
          -0.06356750428676605,
          0.012170215137302876,
          0.01735888421535492,
          0.026302607730031013,
          -0.0654982179403305,
          0.0985051691532135
        ],
        [
          -0.04634466767311096,
          -0.09262460470199585,
          -0.10454672574996948,
          -0.11877988278865814,
          0.11325550079345703,
          -0.11219651997089386,
          -0.027774274349212646,
          0.06234653294086456,
          -0.11833710968494415,
          -0.0003621727228164673,
          0.09052681922912598,
          0.12076815962791443,
          -0.10677272081375122,
          0.07293479144573212,
          -0.07017870247364044,
          -0.09603956341743469,
          0.026014044880867004,
          0.061423659324645996,
          -0.05990925431251526,
          -0.05304533243179321,
          0.04472590982913971,
          -0.12395262718200684,
          0.02477407455444336,
          -0.030754894018173218,
          -0.06852248311042786,
          -0.10257577896118164,
          -0.06505832076072693,
          -0.011369317770004272,
          0.037094905972480774,
          -0.10917437076568604,
          0.05184842646121979,
          -0.09328804910182953,
          0.10997834801673889,
          -0.03130480647087097,
          -0.05611148476600647,
          0.0775269865989685,
          0.07296007871627808,
          -0.013719096779823303,
          0.08151170611381531,
          -0.08806128799915314,
          0.10342644155025482,
          0.11618626117706299,
          -0.09893691539764404,
          0.11109329760074615,
          0.099686399102211,
          0.09987841546535492,
          0.0589689165353775,
          -0.08333134651184082,
          -0.012946754693984985,
          0.07408241927623749,
          -0.10893461108207703,
          0.08357229828834534,
          0.12002149224281311,
          -0.07895198464393616,
          -0.033065736293792725,
          -0.1076495349407196,
          -0.06446726620197296,
          0.0893540233373642,
          0.0021668970584869385,
          0.10090592503547668,
          -0.11666189134120941,
          -0.05473603308200836,
          -0.06049090623855591,
          -0.09580279886722565
        ],
        [
          0.08885018527507782,
          -0.0761399120092392,
          0.08637358248233795,
          -0.08476786315441132,
          -0.04889345169067383,
          -0.0163700133562088,
          -0.10975886881351471,
          0.06280392408370972,
          0.021975085139274597,
          -0.03278517723083496,
          0.11611644923686981,
          -0.01250697672367096,
          -0.06876532733440399,
          0.06535658240318298,
          -0.048272207379341125,
          0.018305733799934387,
          0.04952290654182434,
