{
  "layers": [
    {
      "name": "0",
      "kind": "Linear",
      "inputSize": 15,
      "outputSize": 64,
      "hasBiases": true,
      "weights": [
        [
          -0.4154750406742096,
          0.3466556668281555,
          -0.05965408682823181,
          -0.11252985894680023,
          0.12419191747903824,
          0.0812925323843956,
          -0.005501574371010065,
          -0.2065165936946869,
          -0.325479656457901,
          -0.338867723941803,
          -0.278856098651886,
          -0.4135815501213074,
          -0.03634817153215408,
          0.039751872420310974,
          0.06965146958827972
        ],
        [
          1.0750921964645386,
          0.2719614803791046,
          0.12996937334537506,
          0.10605619102716446,
          -0.21913796663284302,
          -0.026542944833636284,
          -0.1359397917985916,
          0.02830524928867817,
          -0.21828070282936096,
          -0.13092133402824402,
          -0.0799991637468338,
          -0.017842385917901993,
          -0.12463879585266113,
          0.09061959385871887,
          0.05716225877404213
        ],
        [
          -0.41796961426734924,
          -0.7328037619590759,
          -0.05979888513684273,
          -0.12850892543792725,
          0.18832004070281982,
          -0.16559986770153046,
          0.09155452251434326,
          -0.29262226819992065,
          0.21744143962860107,
          0.19165778160095215,
          0.017787333577871323,
          0.03850657865405083,
          0.1575043946504593,
          -0.24118679761886597,
          0.2051829695701599
        ],
        [
          0.2486686408519745,
          -0.19753055274486542,
          -0.2198973298072815,
          -0.2513890266418457,
          -0.16930356621742249,
          -0.004666447639465332,
          -0.09974320232868195,
          -0.030515924096107483,
          -0.19583424925804138,
          -0.09577865898609161,
          0.03167879581451416,
          -0.17090271413326263,
          0.11890175938606262,
          -0.02759966254234314,
          -0.07841469347476959
        ],
        [
          -0.7926863431930542,
          0.25981050729751587,
          -0.058053161948919296,
          0.21915896236896515,
          0.1503761112689972,
          0.0230287816375494,
          0.1508541703224182,
          -0.15166521072387695,
          -0.25477567315101624,
          -0.2611789107322693,
          -0.05086277425289154,
          0.028980571776628494,
          0.18776586651802063,
          -0.18113510310649872,
          0.01727687381207943
        ],
        [
          -0.23285770416259766,
          0.012648254632949829,
          -0.18627770245075226,
          -0.022432491183280945,
          -0.2443246841430664,
          -0.14422570168972015,
          -0.18254736065864563,
          0.024503737688064575,
          -0.05166810750961304,
          0.007108122110366821,
          0.038434624671936035,
          -0.2007036805152893,
          0.1731874942779541,
          -0.00640791654586792,
          -0.1372145414352417
        ],
        [
          0.04841047525405884,
          0.07224484533071518,
          0.12424368411302567,
          0.1274200975894928,
          -0.2334088385105133,
          0.000544272712431848,
          -0.001156009384430945,
          0.06953400373458862,
          -0.04614918678998947,
          -0.09933123737573624,
          -0.07562968879938126,
          0.15653575956821442,
          0.21503569185733795,
          -0.14922642707824707,
          0.09912420064210892
        ],
        [
          0.022865036502480507,
          -0.19319294393062592,
          -0.2870711088180542,
          -0.11273378878831863,
          -0.05069989711046219,
          -0.025566967204213142,
          0.12388963252305984,
          -0.10114986449480057,
          -0.16080693900585175,
          0.20959293842315674,
          -0.12283863127231598,
          0.09898024797439575,
          0.19168993830680847,
          -0.13137561082839966,
          0.22507792711257935
        ],
        [
          -0.09527424722909927,
          0.20385032892227173,
          0.06191251799464226,
          -0.034103766083717346,
          0.03874035179615021,
          -0.07303634285926819,
          -0.1134699285030365,
          -0.2525077164173126,
          0.061180077493190765,
          -0.2631680965423584,
          -0.11227969825267792,
          0.10536716133356094,
          0.03175267577171326,
          -0.01118555199354887,
          0.23402361571788788
        ],
        [
          -0.30023419857025146,
          -0.1848248541355133,
          0.13338620960712433,
          0.11877711862325668,
          0.19801737368106842,
          0.19286461174488068,
          0.1640191227197647,
          -0.31356140971183777,
          -0.24037863314151764,
          -0.23880600929260254,
          0.03707008436322212,
          0.029801789671182632,
          -0.2667965888977051,
          0.0547938272356987,
          0.29110273718833923
        ],
        [
          -0.10982698202133179,
          0.10225851833820343,
          0.007276634220033884,
          -0.22503532469272614,
          -0.14709949493408203,
          0.09222101420164108,
          -0.1566006988286972,
          0.009856298565864563,
          0.00950421579182148,
          0.015407899394631386,
          0.0549456849694252,
          0.11855904012918472,
          -0.1254824846982956,
          -0.24427615106105804,
          -0.09118134528398514
        ],
        [
          0.052129313349723816,
          -0.11740341037511826,
          -0.1329168975353241,
          0.08085842430591583,
          0.060407765209674835,
          -0.16776643693447113,
          -0.10051004588603973,
          -0.016936181113123894,
          -0.12464723736047745,
          -0.08364008367061615,
          0.16611318290233612,
          0.022530293092131615,
          0.028968309983611107,
          0.06780881434679031,
          0.023997345939278603
        ],
        [
          -0.1913514882326126,
          -0.33928054571151733,
          -0.013776188716292381,
          -0.236516535282135,
          0.07547050714492798,
          -0.36361372470855713,
          -0.26642346382141113,
          -0.06330398470163345,
          0.16139350831508636,
          -0.11241172254085541,
          -0.11643074452877045,
          0.04405096545815468,
          0.15144871175289154,
          -0.003110849065706134,
          0.2738906145095825
        ],
        [
          -0.18626587092876434,
          0.7697240710258484,
          -0.23372800648212433,
          -0.18646767735481262,
          -0.013737866654992104,
          -0.011266487650573254,
          0.14916522800922394,
          0.17487794160842896,
          -0.24929429590702057,
          -0.03699004277586937,
          -0.16725262999534607,
          -0.25553059577941895,
          0.06719718128442764,
          0.15370069444179535,
          0.22243764996528625
        ],
        [
          -0.20031695067882538,
          0.19645996391773224,
          -0.1373496800661087,
          -0.2479485422372818,
          -0.05894070863723755,
          -0.35918882489204407,
          -0.10619720071554184,
          -0.3158816695213318,
          0.18228882551193237,
          0.2688237428665161,
          0.2558153569698334,
          0.15712161362171173,
          -0.25121405720710754,
          0.019520791247487068,
          0.2981911301612854
        ],
        [
          0.0496949665248394,
          0.1215791404247284,
          0.16338036954402924,
          -0.35830599069595337,
          0.06485564261674881,
          0.07636396586894989,
          0.10634640604257584,
          -0.2919439673423767,
          0.13107897341251373,
          -0.18761016428470612,
          -0.06446509063243866,
          -0.04301876947283745,
          0.07695378363132477,
          0.015024119056761265,
          -0.11443957686424255
        ],
        [
          -0.01779765449464321,
          0.8429844379425049,
          -0.16069385409355164,
          0.11096058040857315,
          -0.18725664913654327,
          0.030074672773480415,
          -0.036646585911512375,
          0.27149060368537903,
          0.270575612783432,
          -0.14451545476913452,
          -0.016459764912724495,
          0.10567183792591095,
          0.20966748893260956,
          0.06974703073501587,
          0.10482292622327805
        ],
        [
          0.006980270147323608,
          -0.15109524130821228,
          -0.2510978877544403,
          -0.016757488250732422,
          0.09477701783180237,
          0.20382511615753174,
          0.13869896531105042,
          -0.15311765670776367,
          -0.02913394570350647,
          0.07615208625793457,
          -0.033345773816108704,
          0.07239195704460144,
          -0.24918967485427856,
          0.1241452693939209,
          0.23797228932380676
        ],
        [
          0.21135970950126648,
          0.04561054706573486,
          -0.1490105241537094,
          0.11244446039199829,
          -0.09548510611057281,
          -0.22168365120887756,
          -0.15820348262786865,
          0.06453210115432739,
          -0.047156572341918945,
          -0.23024949431419373,
          -0.18330320715904236,
          0.09075123071670532,
          -0.10018089413642883,
          0.10798618197441101,
          -0.13644151389598846
        ],
        [
          -0.13895046710968018,
          0.06807002425193787,
          -0.1875777244567871,
          0.05107617378234863,
          -0.23292681574821472,
          0.1707172691822052,
          -0.12922631204128265,
          -0.08302007615566254,
          -0.07512116432189941,
          -0.04144422709941864,
          0.03333726525306702,
          -0.18139533698558807,
          0.13946878910064697,
          0.00989454984664917,
          -0.08664031326770782
        ],
        [
          -0.10726317763328552,
          -0.3856036365032196,
          0.04210342466831207,
          -0.17775849997997284,
          -0.14488527178764343,
          -0.10440907627344131,
          -0.15444934368133545,
          -0.28134432435035706,
          0.0026641199365258217,
          0.05484047532081604,
          -0.2019694745540619,
          0.03675176203250885,
          0.0913633480668068,
          0.04983406513929367,
          0.027879413217306137
        ],
        [
          -0.3201809227466583,
          0.24226610362529755,
          0.1841914802789688,
          0.1714947521686554,
          0.21187706291675568,
          0.08442219346761703,
          0.10669775307178497,
          -0.12502677738666534,
          -0.002822096925228834,
          -0.009586622007191181,
          -0.1435105800628662,
          -0.12721511721611023,
          0.0963163748383522,
          -0.035544198006391525,
          0.2883059084415436
        ],
        [
          -0.5429028868675232,
          -1.0624197721481323,
          -0.02925683930516243,
          0.08893410116434097,
          0.0764501541852951,
          -0.12807747721672058,
          0.012301590293645859,
          0.06945715844631195,
          -0.06585915386676788,
          0.31732845306396484,
          0.2344614714384079,
          -0.03738578036427498,
          -0.0759558230638504,
          0.0021817530505359173,
          -0.01550725381821394
        ],
        [
          0.2247970700263977,
          0.1742742955684662,
          0.05736760422587395,
          0.06305702030658722,
          -0.1559091955423355,
          -0.2687320113182068,
          -0.16795335710048676,
          0.0901809111237526,
          0.06375019252300262,
          -0.26109182834625244,
          -0.1001722514629364,
          0.10602450370788574,
          0.15159809589385986,
          0.07304274290800095,
          0.06835043430328369
        ],
        [
          -0.2526020407676697,
          0.002979844808578491,
          -0.1155247688293457,
          -0.12649206817150116,
          -0.2411961853504181,
          -0.08863240480422974,
          0.14884281158447266,
          -0.2293398678302765,
          0.24122241139411926,
          0.08955761790275574,
          -0.11576767265796661,
          0.03295120596885681,
          -0.252413809299469,
          -0.06042240560054779,
          0.17963799834251404
        ],
        [
          -0.4942514896392822,
          -0.299603134393692,
          0.023450428619980812,
          -0.01303545106202364,
          0.21403367817401886,
          -0.016064045950770378,
          -0.08802381157875061,
          -0.0023628605995327234,
          -0.10575111210346222,
          0.28235530853271484,
          0.051995448768138885,
          0.05566984787583351,
          -0.07957033812999725,
          0.12270866334438324,
          0.015851076692342758
        ],
        [
          -0.2449740320444107,
          0.10725373029708862,
          -0.16544537246227264,
          0.03767594322562218,
          -0.07095400243997574,
          -0.06526203453540802,
          -0.1440197080373764,
          -0.08695068955421448,
          0.10293518006801605,
          0.04565606266260147,
          0.15999050438404083,
          0.24065902829170227,
          -0.16181552410125732,
          0.18561822175979614,
          0.2745433747768402
        ],
        [
          -0.05445055663585663,
          -0.02815982699394226,
          -0.13890323042869568,
          -0.030721992254257202,
          -0.18947282433509827,
          0.057664304971694946,
          0.22372016310691833,
          0.1944485306739807,
          -0.1646096408367157,
          0.20403167605400085,
          -0.12633748352527618,
          0.08342364430427551,
          -0.1944442093372345,
          0.20086222887039185,
          -0.0005181431770324707
        ],
        [
          -0.3573816418647766,
          0.0008068293682299554,
          0.11041256785392761,
          0.15115483105182648,
          0.11430023610591888,
          0.21589295566082,
          0.030129455029964447,
          -0.0707288309931755,
          -0.21435421705245972,
          0.1153431236743927,
          -0.2649681568145752,
          -0.13244912028312683,
          0.14872437715530396,
          0.11503677815198898,
          0.020253602415323257
        ],
        [
          -0.17027071118354797,
          -0.11424542963504791,
          -0.12839055061340332,
          0.1637083888053894,
          -0.25362083315849304,
          -0.18355289101600647,
          -0.010137423872947693,
          0.05311459302902222,
          -0.18303105235099792,
          0.04721313714981079,
          -0.19709162414073944,
          -0.24656419456005096,
          0.027481764554977417,
          -0.04238888621330261,
          0.048882752656936646
        ],
        [
          -0.3458694815635681,
          -0.131096750497818,
          -0.024074016138911247,
          0.08539874851703644,
          -0.20840266346931458,
          0.09979987144470215,
          -0.1275755912065506,
          -0.2582116723060608,
          -0.10216239094734192,
          -0.1318635642528534,
          0.0012722830288112164,
          0.12257321178913116,
          0.016884319484233856,
          -0.180373415350914,
          -0.12993544340133667
        ],
        [
          0.40319138765335083,
          0.14205801486968994,
          0.09755951166152954,
          0.01711225137114525,
          -0.016131814569234848,
          0.11418602615594864,
          0.23375384509563446,
          0.18332131206989288,
          -0.19327500462532043,
          0.02923114225268364,
          0.10321033000946045,
          -0.07728556543588638,
          -0.08995489031076431,
          -0.03568832203745842,
          -0.1772138625383377
        ],
        [
          -1.1849175691604614,
          0.19874750077724457,
          0.011670801788568497,
          -0.13969004154205322,
          0.040275171399116516,
          -0.12126434594392776,
          0.21874190866947174,
          -0.027058223262429237,
          0.27422913908958435,
          -0.19287218153476715,
          -0.03372605890035629,
          -0.224045529961586,
          -0.022582611069083214,
          -0.01832396909594536,
          -0.1339382380247116
        ],
        [
          -0.4910193383693695,
          0.07839876413345337,
          0.11207132041454315,
          0.0975932851433754,
          0.03806571289896965,
          -0.22674043476581573,
          0.06597531586885452,
          -0.18840794265270233,
          0.1383114755153656,
          0.14529931545257568,
          -0.038199521601200104,
          -0.030045539140701294,
          0.023708047345280647,
          0.1031125858426094,
          -0.20549772679805756
        ],
        [
          0.733051598072052,
          0.08298493176698685,
          0.011658270843327045,
          -0.09508337080478668,
          -0.27058035135269165,
          -0.24057181179523468,
          -0.046141255646944046,
          0.007292137481272221,
          0.0713411271572113,
          0.049960482865571976,
          0.06836804747581482,
          0.012470826506614685,
          0.1262817233800888,
          -0.18470436334609985,
          0.01648062653839588
        ],
        [
          -0.5862829089164734,
          0.27709531784057617,
          -0.11540479212999344,
          -0.004683800041675568,
          -0.057682380080223083,
          0.010357711464166641,
          0.06494612991809845,
          -0.07183117419481277,
          0.039824653416872025,
          -0.03547065332531929,
          -0.17632153630256653,
          0.16587430238723755,
          0.11904467642307281,
          0.1383432149887085,
          0.15409712493419647
        ],
        [
          0.08325284719467163,
          0.007628917694091797,
          -0.21420523524284363,
          -0.15026643872261047,
          -0.1508113145828247,
          -0.0036797523498535156,
          0.179600328207016,
          0.21490314602851868,
          -0.23730450868606567,
          0.25084373354911804,
          0.08756080269813538,
          -0.091637521982193,
          -0.08375604450702667,
          -0.06208060681819916,
          0.237399160861969
        ],
        [
          -0.6840441226959229,
          -0.1328289657831192,
          0.01488596573472023,
          0.1274344027042389,
          0.23798693716526031,
          -0.08473960310220718,
          0.06754742562770844,
          -0.1555713564157486,
          0.20403380692005157,
          0.3197713792324066,
          -0.10639993846416473,
          0.11600832641124725,
          -0.07650063186883926,
          -0.172419935464859,
          0.012952439486980438
        ],
        [
          0.2195853888988495,
          -0.5161532759666443,
          -0.1843462586402893,
          -0.12015940248966217,
          0.04686181992292404,
          0.07537373155355453,
          -0.27461475133895874,
          0.31635981798171997,
          0.07281249761581421,
          -0.3625517785549164,
          0.07026025652885437,
          0.10129320621490479,
          0.04612104594707489,
          0.08538241684436798,
          -0.10555236041545868
        ],
        [
          -0.247211292386055,
          0.280378133058548,
          -0.20349813997745514,
          -0.005830744281411171,
          0.13360892236232758,
          0.2079349160194397,
          -0.20919586718082428,
          -0.1986255943775177,
          -0.1000874787569046,
          0.1472528576850891,
          0.014711675234138966,
          0.17031338810920715,
          0.04396803304553032,
          0.12401443719863892,
          -0.20760421454906464
        ],
        [
          0.275433212518692,
          0.10876364260911942,
          0.09509062021970749,
          -0.10878702253103256,
          -0.03941532224416733,
          0.11713526397943497,
          -0.16087180376052856,
          -0.23488429188728333,
          0.11082467436790466,
          -0.1959415078163147,
          -0.2972826063632965,
          0.06203996390104294,
          0.003083508927375078,
          -0.21289190649986267,
          -0.11369510740041733
        ],
        [
          1.2676684856414795,
          0.023128721863031387,
          0.22004926204681396,
          -0.0701116994023323,
          -0.2468511313199997,
          0.10528891533613205,
          -0.29862815141677856,
          0.08259949833154678,
          -0.17161966860294342,
          -0.141363263130188,
          -0.11490501463413239,
          -0.03746679052710533,
          -0.2249002307653427,
          0.3052467405796051,
          0.18508492410182953
        ],
        [
          -0.11392892897129059,
          -0.11624392867088318,
          -0.0019240081310272217,
          -0.03337012231349945,
          -0.2507910132408142,
          -0.11961430311203003,
          -0.14575621485710144,
          -0.1734170764684677,
          0.05219331383705139,
          0.04921489953994751,
          -0.17648053169250488,
          -0.23145827651023865,
          -0.03888610005378723,
          -0.14948111772537231,
          0.23100438714027405
        ],
        [
          -0.259429931640625,
          0.317704439163208,
          -0.07491183280944824,
          0.10238461941480637,
          0.0790189579129219,
          -0.17954306304454803,
          -0.1989205926656723,
          0.2193201184272766,
          -0.16155514121055603,
          -0.05686887353658676,
          0.07286111265420914,
          -0.1487675905227661,
          -0.0935288816690445,
          0.1827317774295807,
          -0.1188570186495781
        ],
        [
          0.14900636672973633,
          0.12688592076301575,
          -0.19652922451496124,
          -0.25087326765060425,
          0.09242811799049377,
          0.09782251715660095,
          -0.020266681909561157,
          -0.09104686975479126,
          0.23950356245040894,
          -0.22984148561954498,
          -0.16767460107803345,
          0.051849156618118286,
          -0.1696191430091858,
          -0.1169770359992981,
          0.14668279886245728
        ],
        [
          0.237861767411232,
          -0.28494200110435486,
          0.11538039147853851,
          -0.09736475348472595,
          -0.09957724809646606,
          -0.10321896523237228,
          -0.16661585867404938,
          0.16120505332946777,
          0.11561252921819687,
          -0.2965770661830902,
          0.23751534521579742,
          -0.05240154638886452,
          -0.033342309296131134,
          -0.03136546537280083,
          0.3313984274864197
        ],
        [
          -0.11973125487565994,
          -0.06793437153100967,
          -0.0851743072271347,
          0.05141005665063858,
          -0.24371613562107086,
          -0.06699789315462112,
          0.09751573950052261,
          0.21462801098823547,
          -0.2537990212440491,
          -0.2533629238605499,
          0.23666565120220184,
          0.03931993618607521,
          -0.07509156316518784,
          0.10051633417606354,
          -0.17611347138881683
        ],
        [
          0.11521878838539124,
          -0.015711337327957153,
          0.10357319563627243,
          0.03974784165620804,
          -0.07142140716314316,
          -0.07659684121608734,
          -0.16753727197647095,
          -0.10941951721906662,
          -0.12718349695205688,
          0.1705784797668457,
          0.2530953586101532,
          -0.19560739398002625,
          0.11291375011205673,
          -0.19267764687538147,
          -0.07404450327157974
        ],
        [
          0.07307110726833344,
          0.28988686203956604,
          0.13837234675884247,
          -0.19048039615154266,
          0.14631249010562897,
          -0.04462680220603943,
          -0.20431585609912872,
          0.09428679943084717,
          -0.10638825595378876,
          -0.3854198157787323,
          -0.17828704416751862,
          0.09836184233427048,
          -0.12036436796188354,
          -0.056702788919210434,
          0.05957730486989021
        ],
        [
          0.2012680321931839,
          -0.3450244963169098,
          0.19729185104370117,
          -0.06238166242837906,
          0.20547668635845184,
          0.09989205747842789,
          -0.1499125063419342,
          -0.012366537936031818,
          0.17034383118152618,
          0.022556638345122337,
          0.007950366474688053,
          0.1125820204615593,
          -0.01656997762620449,
          0.07741799205541611,
          0.1651039719581604
        ],
        [
          -0.6519590020179749,
          0.38850274682044983,
          -0.048432234674692154,
          0.19543837010860443,
          -0.021712666377425194,
          -0.11174952238798141,
          0.04552249610424042,
          -0.06101830676198006,
          0.06858415901660919,
          0.09353174269199371,
          -0.0817870944738388,
          0.1478244513273239,
          -0.16806082427501678,
          -0.24924087524414062,
          -0.024056822061538696
        ],
        [
          0.16830456256866455,
          -0.03755323588848114,
          -0.06766970455646515,
          0.20744822919368744,
          0.057491764426231384,
          -0.19077260792255402,
          0.004417114425450563,
          -0.1568065732717514,
          0.09515248239040375,
          -0.10606566816568375,
          -0.02035924792289734,
          -0.19045329093933105,
          -0.14702266454696655,
          0.10450557619333267,
          0.09262732416391373
        ],
        [
          -0.4792141914367676,
          -0.021006545051932335,
          -0.2166493535041809,
          -0.08437060564756393,
          0.22194674611091614,
          -0.05938085913658142,
          -0.0562099888920784,
          0.0007017593597993255,
          -0.11003348976373672,
          0.11680908501148224,
          -0.24971309304237366,
          -0.32839277386665344,
          -0.21444196999073029,
          0.19231487810611725,
          0.12548252940177917
        ],
        [
          -0.09682285040616989,
          0.7141922116279602,
          0.16958560049533844,
          0.1518486887216568,
          -0.15948735177516937,
          0.16234566271305084,
          0.174651637673378,
          0.08023808896541595,
          0.11592086404561996,
          -0.17629797756671906,
          -0.06885071843862534,
          -0.15088507533073425,
          0.18827731907367706,
          0.06950588524341583,
          0.02305862493813038
        ],
        [
          0.287381649017334,
          -0.11896359920501709,
          0.24190889298915863,
          0.17337164282798767,
          -0.2693904638290405,
          -0.0601402185857296,
          -0.22322483360767365,
          -0.17112194001674652,
          0.24047982692718506,
          0.1412709802389145,
          -0.30404457449913025,
          -0.1398816853761673,
          -0.16310077905654907,
          -0.3357166647911072,
          0.08673630654811859
        ],
        [
          -0.28982114791870117,
          -0.6107490062713623,
          0.06703469157218933,
          0.015869049355387688,
          0.2062600553035736,
          -0.03728300705552101,
          0.18160726130008698,
          0.1644873172044754,
          0.03181641176342964,
          -0.03713945671916008,
          -0.03199480473995209,
          -0.10364779829978943,
          0.02964198961853981,
          -0.12812720239162445,
          0.18035374581813812
        ],
        [
          -0.48416104912757874,
          0.35416385531425476,
          -0.16309994459152222,
          0.12955337762832642,
          0.13970902562141418,
          0.1261092722415924,
          0.07770679146051407,
          -0.23101061582565308,
          0.022785235196352005,
          -0.10196664929389954,
          0.02614689990878105,
          -0.07606013119220734,
          -0.12582716345787048,
          0.03411611169576645,
          -0.1866346001625061
        ],
        [
          -0.10952741652727127,
          0.6535525321960449,
          -0.042890749871730804,
          0.1898135393857956,
          0.10579416900873184,
          -0.2910497486591339,
          0.009004876017570496,
          0.0039003591518849134,
          -0.029082270339131355,
          -0.14553096890449524,
          -0.17262594401836395,
          0.12697426974773407,
          -0.06649436801671982,
          0.07354161888360977,
          -0.2079935520887375
        ],
        [
          0.40431180596351624,
          0.20577946305274963,
          0.005307178013026714,
          -0.27408337593078613,
          0.08966035395860672,
          -0.1262449324131012,
          0.2336648404598236,
          -0.27000126242637634,
          -0.3469935953617096,
          -0.11459390819072723,
          -0.13299882411956787,
          0.17976054549217224,
          0.02198433130979538,
          -0.01100744865834713,
          0.042471081018447876
        ],
        [
          0.016382455825805664,
          -0.026070624589920044,
          -0.1540740430355072,
          0.03209233283996582,
          0.12726852297782898,
          0.06710657477378845,
          -0.18033799529075623,
          -0.2048431932926178,
          0.1351814568042755,
          -0.09293191134929657,
          0.12095880508422852,
          -0.06597429513931274,
          -0.05135110020637512,
          -0.19482950866222382,
          0.11735734343528748
        ],
        [
          0.5421957969665527,
          -1.1088340282440186,
          0.0494987778365612,
          -0.022229662165045738,
          -0.11327638477087021,
          -0.08817451447248459,
          -0.09706450998783112,
          0.09862522035837173,
          -0.07478614896535873,
          0.03214501589536667,
          -0.001063068863004446,
          0.09617968648672104,
          0.0048128231428563595,
          0.2731522023677826,
          0.051764968782663345
        ],
        [
          0.1589900553226471,
          -0.23802348971366882,
          -0.20633527636528015,
          -0.18744540214538574,
          -0.16165262460708618,
          0.20586705207824707,
          -0.18962354958057404,
          0.1670081615447998,
          0.25243934988975525,
          0.03425800800323486,
          0.02036762237548828,
          -0.13251519203186035,
          0.04720452427864075,
          -0.16010814905166626,
          -0.07716383039951324
        ],
        [
          0.036211222410202026,
          0.6394705772399902,
          0.061586588621139526,
          0.09675265103578568,
          0.08045434951782227,
          0.1381714940071106,
          -0.12445074319839478,
          0.23535986244678497,
          -0.02269306592643261,
          -0.05062418431043625,
          0.21787577867507935,
          -0.1254698783159256,
          -0.04063201695680618,
          -0.00021912256488576531,
          -0.09383092075586319
        ],
        [
          0.5996794700622559,
          -0.6650397777557373,
          0.08442305773496628,
          -0.13350147008895874,
          0.04542739316821098,
          -0.09240374714136124,
          -0.1756078600883484,
          -0.07443428039550781,
          -0.11097843199968338,
          -0.18222996592521667,
          -0.03412175923585892,
          -0.008090120740234852,
          0.09788000583648682,
          -0.03614233434200287,
          0.13254082202911377
        ]
      ],
      "biases": [
        0.00025712777278386056,
        -0.06711212545633316,
        -0.1375787854194641,
        0.019016742706298828,
        -0.11365590244531631,
        0.2261713743209839,
        -0.03256702423095703,
        -0.14111948013305664,
        -0.07978316396474838,
        0.009672358632087708,
        -0.22988690435886383,
        -0.15483160316944122,
        -0.15848694741725922,
        0.1443217396736145,
        0.11576928198337555,
        0.08953763544559479,
        0.18825878202915192,
        0.16153258085250854,
        -0.06442882120609283,
        -0.11689230799674988,
        -0.010006185621023178,
        -0.14205706119537354,
        0.05346401035785675,
        0.10373270511627197,
        0.22627824544906616,
        0.14538954198360443,
        -0.22533755004405975,
        0.25597378611564636,
        0.07090889662504196,
        0.2307545244693756,
        -0.2001045048236847,
        -0.15572689473628998,
        0.20219264924526215,
        0.08000583201646805,
        0.14508415758609772,
        0.11862502992153168,
        0.0627545714378357,
        -0.1649710088968277,
        -0.16953976452350616,
        -0.2788339853286743,
        -0.03529520332813263,
        -0.19968655705451965,
        -0.03407193720340729,
        -0.24071304500102997,
        0.20242592692375183,
        -0.13196733593940735,
        -0.19142909348011017,
        -0.06147577613592148,
        0.014076224528253078,
        0.031833913177251816,
        -0.00010745879262685776,
        0.15916667878627777,
        0.10337141901254654,
        0.041329532861709595,
        -0.11103267967700958,
        0.27466124296188354,
        -0.1121898964047432,
        -0.08996402472257614,
        -0.16442975401878357,
        -0.10214944183826447,
        0.045549362897872925,
        0.14135968685150146,
        0.10734483599662781,
        -0.08390919864177704
      ]
    },
    {
      "name": "1",
      "kind": "ReLU"
    },
    {
      "name": "2",
      "kind": "Linear",
      "inputSize": 64,
      "outputSize": 64,
      "hasBiases": true,
      "weights": [
        [
          -0.1467020958662033,
          -0.06690823286771774,
          0.046373967081308365,
          -0.11265353858470917,
          0.005144048947840929,
          0.028872504830360413,
          0.1080336794257164,
          0.09744888544082642,
          -0.0406276136636734,
          0.006897499319165945,
          -0.05283266305923462,
          0.05571421608328819,
          0.06424243748188019,
          -0.1440456062555313,
          -0.009937777183949947,
          0.0030960070434957743,
          -0.003189120441675186,
          -0.0010129809379577637,
          0.06766203045845032,
          -0.11412417888641357,
          0.06540823727846146,
          -0.0385725200176239,
          -0.06503444910049438,
          0.05024506524205208,
          0.11229661107063293,
          -0.0050804950296878815,
          0.1485159993171692,
          -0.11124351620674133,
          -0.06192639842629433,
          -0.0806368738412857,
          -0.07048489153385162,
          -0.06600116938352585,
          -0.08311472833156586,
          0.1332821249961853,
          -0.03301618993282318,
          -0.09431822597980499,
          0.09321863949298859,
          -0.0407097153365612,
          0.058960579335689545,
          0.03969968855381012,
          0.022304216399788857,
          0.11798559129238129,
          0.05350470542907715,
          0.03558550775051117,
          0.08727298676967621,
          0.029931766912341118,
          -0.03304123505949974,
          0.10323251783847809,
          0.030034784227609634,
          0.09303304553031921,
          -0.029403910040855408,
          0.03486325591802597,
          -0.06609498709440231,
          0.029248038306832314,
          0.08858980238437653,
          -0.022788286209106445,
          -0.16033224761486053,
          0.06682049483060837,
          0.060826368629932404,
          0.021208539605140686,
          -0.02747577428817749,
          0.03166542947292328,
          0.10271815210580826,
          0.010911103338003159
        ],
        [
          0.09712483733892441,
          -0.11179963499307632,
          -0.014730378985404968,
          -0.08260387182235718,
          -0.14248821139335632,
          0.057984188199043274,
          0.033950887620449066,
          -0.07655394822359085,
          -0.013281372375786304,
          0.009159930050373077,
          -0.06277541071176529,
          0.11629318445920944,
          -0.004526278004050255,
          0.004141753539443016,
          -0.09510030597448349,
          0.016156870871782303,
          0.01559461746364832,
          0.02341495454311371,
          0.07438835501670837,
          -0.08363774418830872,
          -0.11686543375253677,
          -0.041607845574617386,
          -0.03498552739620209,
          0.08126476407051086,
          -0.016416355967521667,
          0.010444012470543385,
          -0.050455041229724884,
          0.005905464291572571,
          -0.003868922358378768,
          0.0655362457036972,
          0.029969315975904465,
          -0.16519902646541595,
          0.006177258677780628,
          -0.03602023050189018,
          -0.14994168281555176,
          0.008213698863983154,
          0.06693568825721741,
          -0.12503764033317566,
          0.006374054122716188,
          -0.05240100249648094,
          -0.07737083733081818,
          -0.03423100337386131,
          -0.03052428364753723,
          0.02464551292359829,
          -0.09705567359924316,
          0.0861910730600357,
          0.07119017839431763,
          -0.16247735917568207,
          0.04088744893670082,
          0.036648206412792206,
          -0.030641725286841393,
          0.04516290873289108,
          -0.1211085096001625,
          -0.04090966284275055,
          0.08255326002836227,
          -0.01565331593155861,
          -0.10771030187606812,
          0.0633452758193016,
          0.0821092426776886,
          -0.04614412784576416,
          -0.06923560798168182,
          0.02969193458557129,
          0.06173434108495712,
          0.06932961195707321
        ],
        [
          -0.31385111808776855,
          -0.14082475006580353,
          -0.15557853877544403,
          0.05463890731334686,
          -0.008394562639296055,
          0.08538660407066345,
          0.07892513275146484,
          -0.04472700506448746,
          0.02553236484527588,
          -0.013231146149337292,
          0.003233392722904682,
          0.06322499364614487,
          0.08324994891881943,
          -0.12845441699028015,
          -0.18486735224723816,
          0.04479777440428734,
          -0.10642778128385544,
          0.11637639999389648,
          -0.037748783826828,
          -0.0324215292930603,
          0.07581409066915512,
          -0.03913678228855133,
          -0.005551788955926895,
          -0.03752369061112404,
          0.1133929044008255,
          0.1073610931634903,
          -0.027679141610860825,
          0.03751659393310547,
          0.08368801325559616,
          -0.10755138099193573,
          0.06487254053354263,
          -0.07537643611431122,
          -0.2621522843837738,
          0.00607936130836606,
          0.0673987865447998,
          -0.10774470120668411,
          -0.006038561463356018,
          -0.03688633441925049,
          -0.07188872247934341,
          0.0008849817095324397,
          -0.10064676403999329,
          0.13579010963439941,
          0.057221025228500366,
          -0.09180008620023727,
          0.0427323579788208,
          0.06942296028137207,
          0.11441421508789062,
          -0.08773569017648697,
          -0.09530777484178543,
          0.09121187031269073,
          0.10905063152313232,
          0.0934595912694931,
          -0.02228379435837269,
          0.10123055428266525,
          0.022827191278338432,
          -0.0849873423576355,
          0.09251798689365387,
          0.05134124681353569,
          0.00358879123814404,
          0.04496881365776062,
          0.052961383014917374,
          0.08165916800498962,
          -0.042556677013635635,
          -0.012185902334749699
        ],
        [
          0.04912033677101135,
          -0.1181289404630661,
          -0.12393715977668762,
          0.02701544761657715,
          0.04681986942887306,
          0.06554184854030609,
          -0.026541246101260185,
          0.07096375524997711,
          -0.1286628395318985,
          0.006058017257601023,
          -0.021966099739074707,
          0.04594183713197708,
          -0.09312139451503754,
          -0.09127303212881088,
          -0.1210266500711441,
          -0.047941192984580994,
          0.07950945198535919,
          0.0058465152978897095,
          -0.11407896876335144,
          0.003826647996902466,
          -0.06166287884116173,
          -0.03693731129169464,
          0.014603113755583763,
          -0.13977447152137756,
          0.09913040697574615,
          -0.013745713047683239,
          0.08856821805238724,
          -0.06692159175872803,
          0.024348830804228783,
          -0.0796152651309967,
          0.09782195091247559,
          -0.07178571820259094,
          -0.016002928838133812,
          -0.11722128093242645,
          -0.0396130234003067,
          0.018114445731043816,
          0.10703453421592712,
          -0.0584113746881485,
          -0.06298680603504181,
          0.006757319439202547,
          0.06101638451218605,
          -0.08785462379455566,
          0.03842988610267639,
          -0.026432540267705917,
          0.07489439845085144,
          0.048268143087625504,
          0.09656284749507904,
          -0.060944393277168274,
          -0.11811404675245285,
          -0.004979189019650221,
          0.04621560871601105,
          0.035720109939575195,
          0.04067124053835869,
          0.0035922357346862555,
          -0.06972439587116241,
          -0.05189746245741844,
          0.02834283374249935,
          -0.010072392411530018,
          -0.034100353717803955,
          -0.08971397578716278,
          -0.1428883820772171,
          0.04167221486568451,
          -0.11172818392515182,
          0.08851485699415207
        ],
        [
          0.007944626733660698,
          0.09973307698965073,
          -0.14248229563236237,
          -0.02713768184185028,
          -0.06038051098585129,
          -0.05262939631938934,
          -0.06680747121572495,
          -0.010006945580244064,
          -0.12234088033437729,
          -0.03145802393555641,
          0.033643122762441635,
          -0.0230745580047369,
          -0.04324113577604294,
          0.01616532728075981,
          -0.04373861476778984,
          0.08639082312583923,
          0.0553537979722023,
          -0.017002999782562256,
          -0.03776927292346954,
          -0.07108955085277557,
          -0.03134031966328621,
          -0.05645045265555382,
          -0.1404232680797577,
          0.0063492790795862675,
          0.0063141584396362305,
          -0.061795782297849655,
          0.04904946684837341,
          0.12213809788227081,
          0.08075282722711563,
          -0.11130356788635254,
          -0.11719004809856415,
          0.026958530768752098,
          -0.05404652655124664,
          -0.05289711430668831,
          -0.020625898614525795,
          0.10204720497131348,
          -0.08399906754493713,
          0.037504617124795914,
          -0.042490556836128235,
          -0.0710878074169159,
          -0.06906938552856445,
          0.09986533969640732,
          0.08112159371376038,
          0.06594192981719971,
          -0.06349311769008636,
          -0.04005284979939461,
          0.10529884696006775,
          0.0011772372527047992,
          -0.14141204953193665,
          -0.09562532603740692,
          -0.047572553157806396,
          0.1060018539428711,
          0.029461054131388664,
          0.07500013709068298,
          0.024225641041994095,
          0.03408500552177429,
          -0.131633922457695,
          -0.09659013152122498,
          0.07450880855321884,
          0.07794001698493958,
          -0.1241312325000763,
          0.11769022047519684,
          -0.1522417515516281,
          0.014274829998612404
        ],
        [
          -0.03773573040962219,
          0.036947015672922134,
          -0.03038633055984974,
          0.05407355725765228,
          -0.04143887758255005,
          0.11462710797786713,
          0.03763639181852341,
          -0.09626977890729904,
          0.013413609005510807,
          -0.0539681538939476,
          -0.03431767225265503,
          0.02024415135383606,
          0.050368815660476685,
          0.03481696918606758,
          0.04159025102853775,
          0.01903507485985756,
          0.11755742132663727,
          0.021312877535820007,
          0.08541209995746613,
          0.08095833659172058,
          0.0030856248922646046,
          -0.0757504552602768,
          -0.02982465550303459,
          0.05303506180644035,
          0.039629027247428894,
          0.0011538584949448705,
          0.06813865154981613,
          -0.06645646691322327,
          -0.05402325093746185,
          -0.05756919085979462,
          0.05621663108468056,
          -0.007383272517472506,
          0.039608996361494064,
          0.04190418869256973,
          0.03219110146164894,
          -0.041191570460796356,
          -0.1038021445274353,
          -0.0013278723927214742,
          0.09714093059301376,
          -0.01720387674868107,
          -0.12410017102956772,
          -0.08551379293203354,
          -0.005056202411651611,
          -0.10780851542949677,
          -0.04486413300037384,
          0.0007887543179094791,
          0.028920002281665802,
          -0.03610756993293762,
          0.07402004301548004,
          -0.06934009492397308,
          -0.1276552975177765,
          0.08290108293294907,
          0.06146657466888428,
          0.012978298589587212,
          -0.045100294053554535,
          -0.10255244374275208,
          0.10006116330623627,
          -0.11814510077238083,
          0.0014043530682101846,
          0.015086248517036438,
          -0.011152399703860283,
          0.12003979086875916,
          0.0042643677443265915,
          -0.015136007219552994
        ],
        [
          0.017507314682006836,
          0.10094715654850006,
          -0.22355474531650543,
          0.03819732367992401,
          0.21476741135120392,
          -0.09707912802696228,
          -0.04565980285406113,
          0.0944671481847763,
          -0.18936215341091156,
          -0.07672743499279022,
          0.06483282148838043,
          0.04584835097193718,
          -0.01113518513739109,
          0.022006798535585403,
          -0.012301596812903881,
          -0.11796542257070541,
          -0.004180149640887976,
          0.10103540122509003,
          0.10551387071609497,
          0.02554728090763092,
          -0.16777312755584717,
          0.06820178031921387,
          -0.5058736801147461,
          0.06799723207950592,
          -0.06310713291168213,
          -0.0346667617559433,
          -0.1487760990858078,
          -0.06113937497138977,
          0.05332986265420914,
          -0.020869970321655273,
          0.06538998335599899,
          0.08443503826856613,
          -0.10379718989133835,
          -0.050439320504665375,
          -0.0850706622004509,
          -0.04125424474477768,
          -0.08266764879226685,
          -0.22513951361179352,
          0.11954903602600098,
          0.02551509253680706,
          0.11482807248830795,
          0.16519922018051147,
          -0.08575697243213654,
          0.14453090727329254,
          -0.04987625777721405,
          -0.0782347321510315,
          0.05716836825013161,
          -0.19680197536945343,
          0.029633039608597755,
          -0.03986387327313423,
          -0.01325744017958641,
          0.07570817321538925,
          0.08605822175741196,
          0.11742784082889557,
          0.03319365903735161,
          0.0765974298119545,
          0.07303771376609802,
          0.006811949424445629,
          -0.04738597199320793,
          0.03222459554672241,
          -0.3242369592189789,
          0.039650291204452515,
          -0.015436595305800438,
          -0.2365063577890396
        ],
        [
          0.09548725187778473,
          0.12843827903270721,
          0.016407907009124756,
          -0.04177479445934296,
          0.027012066915631294,
          -0.08201609551906586,
          0.05255071073770523,
          0.03856445848941803,
          -0.1325782835483551,
          -0.08104047179222107,
          -0.006983126047998667,
          -0.016286469995975494,
          -0.091930091381073,
          -0.022733107209205627,
          0.0840659886598587,
          0.02442954294383526,
          0.08845642954111099,
          0.02074505388736725,
          0.09508638083934784,
          0.025419875979423523,
          0.04345010966062546,
          0.031741198152303696,
          0.12196050584316254,
          -0.10287933051586151,
          0.11535003781318665,
          -0.09268704056739807,
          0.09441249072551727,
          -0.08942927420139313,
          0.02373533323407173,
          0.08967714011669159,
          -0.07868266850709915,
          -0.02056155540049076,
          0.11490140855312347,
          -0.045255232602357864,
          -0.0050648716278374195,
          0.07349975407123566,
          -0.04817777872085571,
          -0.11102763563394547,
          -0.12509006261825562,
          -0.14651408791542053,
          0.0416119322180748,
          -0.07938852906227112,
          -0.1098499447107315,
          -0.11821606010198593,
          -0.00476779043674469,
          0.018762679770588875,
          -0.09117648005485535,
          -0.11902941763401031,
          -0.08493068069219589,
          -0.10101258754730225,
          -0.03363986685872078,
          0.05770781636238098,
          -0.033525094389915466,
          -0.017338020727038383,
          0.03523538261651993,
          -0.1518659144639969,
          -0.059577565640211105,
          -0.003988735377788544,
          0.09809249639511108,
          0.10745537281036377,
          0.05547107756137848,
          0.06347380578517914,
          -0.006386656314134598,
          -0.06497110426425934
        ],
        [
          -0.021808795630931854,
          -0.019093221053481102,
          -0.09627290070056915,
          -0.11203549802303314,
          0.12260594218969345,
          0.03166712820529938,
          -0.005089947022497654,
          -0.07239486277103424,
          -0.1206103265285492,
          0.07885682582855225,
          -0.07860387861728668,
          -0.01021889504045248,
          0.03311214968562126,
          -0.05053422600030899,
          -0.027381466701626778,
          -0.028571123257279396,
          -0.14375151693820953,
          -0.124982550740242,
          0.015132635831832886,
          0.0507492870092392,
          -0.13224926590919495,
          -0.0725254938006401,
          -0.10169939696788788,
          -0.040316447615623474,
          -0.0689694732427597,
          -0.02732810191810131,
          -0.0019116891780868173,
          -0.03620040416717529,
          -0.06057862192392349,
          0.021329283714294434,
          -0.04371044412255287,
          0.041032131761312485,
          -0.11127056181430817,
          0.025612851604819298,
          -0.12858237326145172,
          -0.06831295788288116,
          0.09960049390792847,
          -0.15469616651535034,
          -0.04798278212547302,
          -0.14350326359272003,
          -0.15411287546157837,
          0.07935626059770584,
          -0.019679799675941467,
          0.09001956135034561,
          -0.03969737887382507,
          -0.12580126523971558,
          0.11597940325737,
          -0.048072051256895065,
          0.09107855707406998,
          0.007390167098492384,
          -0.053734466433525085,
          0.09564116597175598,
          -0.04506305232644081,
          0.08210848271846771,
          -0.07232945412397385,
          -0.0031046168878674507,
          0.024179426953196526,
          0.04694749042391777,
          -0.07148192822933197,
          0.06888161599636078,
          0.1233876496553421,
          0.10966132581233978,
          0.0333770327270031,
          0.08070842176675797
        ],
        [
          -0.06001001596450806,
          -0.06350318342447281,
          0.007037102710455656,
          0.05125075578689575,
          -0.04587849974632263,
          -0.07382401823997498,
          -0.0027433421928435564,
          0.10247527807950974,
          -0.12571991980075836,
          0.04660492390394211,
          -0.1056116595864296,
          0.002230672864243388,
          -0.13033685088157654,
          0.03684394061565399,
          0.025685667991638184,
          -0.05182261765003204,
          0.042810142040252686,
          0.04497884213924408,
          -0.09911097586154938,
          0.07372245192527771,
          -0.0951278880238533,
          -0.1125108078122139,
          0.08446870744228363,
          -0.12251846492290497,
          0.030584782361984253,
          -0.023533616214990616,
          0.06464287638664246,
          0.02703949809074402,
          0.06894303858280182,
          -0.042120128870010376,
          0.09109299629926682,
          -0.17428040504455566,
          0.05851550027728081,
          -0.0610932819545269,
          -0.07293065637350082,
          -0.06602410227060318,
          0.06445139646530151,
          -0.1369595229625702,
          0.07213050127029419,
          -0.06861720234155655,
          -0.036815542727708817,
          0.005878325551748276,
          -0.0780632495880127,
          -0.07513720542192459,
          0.09669235348701477,
          -0.08677598088979721,
          0.014495889656245708,
          0.1261340081691742,
          0.034127216786146164,
          0.06274732947349548,
          0.069206602871418,
          0.03976847231388092,
          0.042702049016952515,
          -0.015252606011927128,
          0.039528049528598785,
          -0.13117052614688873,
          0.060130342841148376,
          0.05461815372109413,
          0.07771138101816177,
          -0.0679163783788681,
          -0.039473652839660645,
          -0.0009309351444244385,
          -0.06141645461320877,
          0.07663343846797943
        ],
        [
          0.06246023252606392,
          -0.0036937783006578684,
          0.0721273347735405,
          0.07015165686607361,
          0.058733075857162476,
          -0.10419322550296783,
          -0.035629935562610626,
          -0.10684862732887268,
          -0.13726143538951874,
          -0.09344501793384552,
          -0.04109019413590431,
          -0.02776271663606167,
          0.03735104203224182,
          0.05756756663322449,
          -0.07011472433805466,
          -0.15622249245643616,
          -0.06304499506950378,
          0.1043618768453598,
          -0.12128473818302155,
          -0.0454699844121933,
          -0.02514616772532463,
          -0.06147157400846481,
          -0.017154255881905556,
          -0.11521945893764496,
          -0.02147689461708069,
          -0.01801564171910286,
          -0.03082168474793434,
          0.046720802783966064,
          -0.059465017169713974,
          -0.06894177198410034,
          -0.1385408341884613,
          -0.12478618323802948,
          0.05160069465637207,
          -0.06563854217529297,
          0.05856017395853996,
          -0.008227227255702019,
          -0.03864012658596039,
          0.007258692756295204,
          0.08037569373846054,
          -0.012552041560411453,
          -0.009728620760142803,
          0.061569321900606155,
          -0.01612091064453125,
          -0.10589421540498734,
          0.04496951401233673,
          0.010825229808688164,
          0.09472823143005371,
          -0.05407264828681946,
          0.05286111682653427,
          0.0594426766037941,
          -0.13155364990234375,
          -0.0024389871396124363,
          0.019560223445296288,
          -0.028979165479540825,
          -0.010855454951524734,
          -0.08896533399820328,
          0.07717330753803253,
          -0.15498682856559753,
          0.12350715696811676,
          -0.10476191341876984,
          0.10495086759328842,
          -0.05206954479217529,
          -0.1276761293411255,
          0.06472839415073395
        ],
        [
          0.02761860378086567,
          -0.42340973019599915,
          0.03380386158823967,
          -0.04317757487297058,
          -0.057552892714738846,
          -0.1203235536813736,
          0.06786944717168808,
          0.04746798798441887,
          0.043396614491939545,
          -0.03094514273107052,
          0.08701549470424652,
          -0.03697248920798302,
          0.029941482469439507,
          -0.09048916399478912,
          -0.10484829545021057,
          0.062416061758995056,
          0.03823849558830261,
          0.10980299115180969,
          0.07923845946788788,
          -0.08653458952903748,
          -0.07259216904640198,
          0.007072225213050842,
          -0.2943617105484009,
          -0.04736802726984024,
          0.01664532721042633,
          0.06768489629030228,
          -0.03732965141534805,
          0.062451958656311035,
          0.04644900932908058,
          -0.08699692785739899,
          0.017402859404683113,
          -0.1210968866944313,
          -0.13976748287677765,
          -0.01295758131891489,
          -0.06230682134628296,
          -0.0014246556675061584,
          -0.06596148014068604,
          0.03062470629811287,
          0.1038130596280098,
          0.004639394115656614,
          -0.14523567259311676,
          -0.4857737123966217,
          0.001647457480430603,
          -0.08928591012954712,
          0.11077027022838593,
          0.01146801095455885,
          -0.04658761993050575,
          0.05906468629837036,
          0.006335623096674681,
          0.05422746390104294,
          -0.06800664961338043,
          0.04801240190863609,
          -0.03940114378929138,
          0.007955439388751984,
          -0.14909924566745758,
          -0.03991337865591049,
          0.05238281190395355,
          0.013362215831875801,
          -0.07627701759338379,
          -0.11997927725315094,
          -0.011803548783063889,
          0.12197960913181305,
          -0.054275184869766235,
          0.027575809508562088
        ],
        [
          0.2107764482498169,
          0.1425197869539261,
          -0.07799901813268661,
          -0.05938193202018738,
          -0.020506590604782104,
          0.06420262157917023,
          -0.02627144195139408,
          -0.060746632516384125,
          -0.008865860290825367,
          -0.04956812411546707,
          0.09523425996303558,
          -0.17560461163520813,
          -0.11863363534212112,
          0.09560616314411163,
          -0.02239254117012024,
          0.05545792356133461,
          0.2173878252506256,
          -0.0533422976732254,
          0.012038439512252808,
          -0.0283985435962677,
          -0.15542283654212952,
          0.04609442874789238,
          -0.029050834476947784,
          -0.031062766909599304,
          0.06037530303001404,
          -0.07858604192733765,
          0.2571445405483246,
          -0.018174022436141968,
          -0.007572632748633623,
          -0.08748576045036316,
          0.028246870264410973,
          0.09356976300477982,
          0.2884749472141266,
          0.04317686706781387,
          0.05453568696975708,
          -0.14981281757354736,
          -0.11222174763679504,
          -0.17683818936347961,
          -0.2642923593521118,
          -0.037812139838933945,
          0.01626265048980713,
          -0.17668473720550537,
          0.05277232825756073,
          0.03819872811436653,
          0.10301154851913452,
          -0.04528730362653732,
          -0.046042487025260925,
          -0.1205592229962349,
          0.02450019121170044,
          -0.18645940721035004,
          0.12476775795221329,
          0.08912131190299988,
          -0.02551538683474064,
          0.140843465924263,
          -0.14006809890270233,
          -0.2599833011627197,
          -0.18403266370296478,
          0.13252757489681244,
          -0.039038803428411484,
          0.031388238072395325,
          -0.5551294088363647,
          0.07913973927497864,
          0.127634197473526,
          -0.20475676655769348
        ],
        [
          -0.11626850068569183,
          -0.3337535560131073,
          0.08976933360099792,
          -0.10917343199253082,
          0.05383668467402458,
          0.08413784205913544,
          -0.09368343651294708,
          0.07129738479852676,
          0.065358467400074,
          -0.07150867581367493,
          -0.11770337074995041,
          0.03280595317482948,
          0.03209597244858742,
          0.0648922249674797,
          0.07349551469087601,
          0.032514333724975586,
          -0.05675292760133743,
          -0.07956092059612274,
          0.12214905023574829,
          0.12213040888309479,
          -0.09257741272449493,
          0.12866222858428955,
          0.05847064405679703,
          -0.014083229005336761,
          0.02078375220298767,
          -0.10270674526691437,
          -0.043011363595724106,
          -0.09236037731170654,
          -0.004777368623763323,
          -0.029225915670394897,
          0.07679305225610733,
          0.02207740768790245,
          -0.24855400621891022,
          0.12775713205337524,
          -0.06022141873836517,
          0.03308677673339844,
          0.06859001517295837,
          0.08348299562931061,
          0.06226169317960739,
          -0.057040806859731674,
          0.042979203164577484,
          -0.1110004112124443,
          -0.11326533555984497,
          -0.05827724188566208,
          -0.0990772396326065,
          0.07569808512926102,
          0.12302795052528381,
          0.1397216022014618,
          0.07038534432649612,
          0.06504674255847931,
          0.05802410468459129,
          -0.09933003783226013,
          -0.07936836034059525,
          0.08648652583360672,
          0.13858933746814728,
          -0.030079102143645287,
          -0.033296629786491394,
          -0.09865351021289825,
          0.10887569934129715,
          -0.0965036004781723,
          0.058216411620378494,
          -0.06530094146728516,
          0.020182883366942406,
          -0.044744305312633514
        ],
        [
          0.09916549921035767,
          0.016289122402668,
          0.11436911672353745,
          -0.00829988718032837,
          -0.015566126443445683,
          0.10569119453430176,
          -0.11327753216028214,
          -0.08963894098997116,
          -0.015605609863996506,
          0.06890418380498886,
          -0.023666638880968094,
          0.08035894483327866,
          0.09328517317771912,
          -0.0723632350564003,
          0.018764667212963104,
          -0.1110500916838646,
          -0.044277966022491455,
          -0.007857725024223328,
          -0.06704255938529968,
          0.11895374953746796,
          0.13048744201660156,
          -0.03841600567102432,
          0.2502859830856323,
          0.03276287391781807,
          0.08841316401958466,
          0.12017667293548584,
          0.10236881673336029,
          -0.10122618079185486,
          -0.07207514345645905,
          0.027120307087898254,
          0.020605552941560745,
          -0.17648249864578247,
          -0.12200630456209183,
          0.04942402243614197,
          -0.024979641661047935,
          0.02535458467900753,
          0.060479626059532166,
          0.03463286533951759,
          -0.08713528513908386,
          -0.0921916663646698,
          0.052657902240753174,
          0.1484394073486328,
          0.08049775660037994,
          -0.09912395477294922,
          0.08063948154449463,
          -0.061502374708652496,
          0.07087720930576324,
          -0.01416079793125391,
          -0.08586020022630692,
          -0.12156162410974503,
          0.023772500455379486,
          -0.06362885236740112,
          0.0403611920773983,
          -0.2223154753446579,
          -0.1394730508327484,
          -0.05017681047320366,
          -0.03981243446469307,
          -0.043695639818906784,
          -0.17340467870235443,
          0.059865355491638184,
          0.09399152547121048,
          0.03291434049606323,
          -0.22527949512004852,
          0.1626155823469162
        ],
        [
          -0.1181858479976654,
          -0.4313405752182007,
          -0.0843421071767807,
          0.0851978212594986,
          0.008440815843641758,
          0.08602425456047058,
          0.11565470695495605,
          -0.04665844887495041,
          0.014479693956673145,
          -0.004787545185536146,
          0.03973095118999481,
          -0.030334437265992165,
          -0.06957949697971344,
          -0.03025137260556221,
          0.08893148601055145,
          0.013965304009616375,
          -0.08353040367364883,
          0.03623996675014496,
          -0.02359279990196228,
          -0.10229924321174622,
          0.033640410751104355,
          -0.06567469984292984,
          -0.13124069571495056,
          -0.0708589106798172,
          -0.0779244601726532,
          0.0946490615606308,
          0.003301131771877408,
          -0.11539039015769958,
          0.0738498717546463,
          0.0756874531507492,
          0.04760812968015671,
          0.007750875316560268,
          -0.33290228247642517,
          0.003711106488481164,
          0.02711700089275837,
          0.0402163565158844,
          0.0840282291173935,
          -0.05630761384963989,
          -0.08314511924982071,
          0.07756106555461884,
          0.008108103647828102,
          -0.32888147234916687,
          0.03974045813083649,
          -0.0697050467133522,
          0.1107167899608612,
          0.0217340849339962,
          0.020677633583545685,
          -0.1289995163679123,
          -0.04694106802344322,
          0.1221388727426529,
          0.14489991962909698,
          -0.0276639424264431,
          0.06125177815556526,
          -0.09879352897405624,
          -0.07487867027521133,
          -0.009591318666934967,
          -0.10351347923278809,
          0.10724454373121262,
          -0.1173127293586731,
          -0.12118460237979889,
          0.08664112538099289,
          -0.06275548040866852,
          -0.0883365347981453,
          -0.11675769090652466
        ],
        [
          -0.15368014574050903,
          -0.721885085105896,
          -0.06527799367904663,
          -0.05588585138320923,
          0.06082364544272423,
          0.07322531938552856,
          0.06279587745666504,
          0.06302056461572647,
          -0.07524324953556061,
          -0.053012944757938385,
          0.01041967049241066,
          -0.09574254602193832,
          0.07931536436080933,
          -0.10158959031105042,
          -0.005563045851886272,
          0.045865532010793686,
          0.013983209617435932,
          -0.11419779062271118,
          0.07577799260616302,
          -0.01207222044467926,
          0.07103460282087326,
          0.06693752110004425,
          0.09199654310941696,
          0.014629109762609005,
          -0.05157338082790375,
          -0.026974719017744064,
          0.027066651731729507,
          -0.05759704113006592,
          0.015341509133577347,
          0.10805468261241913,
          0.029209177941083908,
          -0.09524042904376984,
          0.21106740832328796,
          0.09467969834804535,
          -0.07526540011167526,
          -0.0874083936214447,
          -0.04380530118942261,
          -0.01973765157163143,
          0.029212800785899162,
          -0.06525321304798126,
          -0.029914522543549538,
          -0.32020828127861023,
          -0.05632968246936798,
          0.027493970468640327,
          -0.004184111952781677,
          0.014568251557648182,
          -0.03390391170978546,
          0.09155620634555817,
          0.1031741127371788,
          0.09351011365652084,
          0.03825702145695686,
          0.00983467698097229,
          0.08695961534976959,
          0.01590185984969139,
          -0.025109710171818733,
          0.021271968260407448,
          0.060692980885505676,
          0.050689637660980225,
          -0.008072322234511375,
          0.03628440201282501,
          -0.07970940321683884,
          0.07751739025115967,
          0.07472497224807739,
          0.06606727838516235
        ],
        [
          0.023405268788337708,
          0.0474565327167511,
          -0.005668989848345518,
          -0.05247277021408081,
          0.06259994208812714,
          -0.041640788316726685,
          -0.039673566818237305,
          -0.04368126764893532,
          -0.07962092012166977,
          -0.09853470325469971,
          -0.1068425327539444,
          0.007745495997369289,
          -0.11204830557107925,
          -0.11948002129793167,
          0.13737691938877106,
          8.913191413739696e-05,
          -0.10049550980329514,
          0.11193689703941345,
          0.041658297181129456,
          -0.10899023711681366,
          0.07624927908182144,
          -0.09652092307806015,
          0.11104605346918106,
          0.03198758885264397,
          -0.03720438480377197,
          -0.054248109459877014,
          -0.02618039958178997,
          0.10839881002902985,
          -0.03473523631691933,
          -0.10657693445682526,
          -0.03642066940665245,
          0.04346037656068802,
          0.10787263512611389,
          -0.12105809152126312,
          0.027559053152799606,
          -0.11905751377344131,
          0.10925808548927307,
          0.0002749806735664606,
          -0.007151505909860134,
          -0.11436281353235245,
          -0.06311224400997162,
          -0.1101926788687706,
          0.003988668322563171,
          -0.004281291272491217,
          -0.02645137906074524,
          -0.13169920444488525,
          -0.03162427619099617,
          -0.1657172292470932,
          0.0931733101606369,
          0.04133465513586998,
          -0.022082660347223282,
          -0.08250433206558228,
          -0.10046073794364929,
          -0.02900347113609314,
          -0.05093541368842125,
          -0.04811234027147293,
          -0.011836444959044456,
          -0.08326077461242676,
          -0.002760592382401228,
          0.08198896050453186,
          -0.04637876898050308,
          -0.05663628876209259,
          0.0783376470208168,
          -0.13957171142101288
        ],
        [
          0.09882128983736038,
          -0.2624766230583191,
          -0.08610548079013824,
          -0.10981559753417969,
          -0.16223713755607605,
          0.07477527856826782,
          0.0905781164765358,
          -0.01575421914458275,
          -0.056576333940029144,
          -0.07113108038902283,
          -0.05734966695308685,
          0.03756944462656975,
          0.0316358357667923,
          -0.047337308526039124,
          -0.13617101311683655,
          0.07313361763954163,
          -0.05209833011031151,
          0.10127869248390198,
          -0.017214983701705933,
          -0.10507115721702576,
          -0.040165141224861145,
          0.1259036660194397,
          -0.049508895725011826,
          -0.1256146878004074,
          -0.10564965009689331,
          -0.12291471660137177,
          0.10213207453489304,
          -0.08371010422706604,
          -0.05533981695771217,
          -0.09186191856861115,
          -0.08829227089881897,
          0.10755383968353271,
          -0.20111876726150513,
          -6.317849329207093e-05,
          -0.10379450023174286,
          0.004214946646243334,
          -0.07870641350746155,
          0.0951608195900917,
          -0.06008143350481987,
          -0.05050510913133621,
          0.06686153262853622,
          -0.14238496124744415,
          0.11110778152942657,
          -0.11915277689695358,
          0.06463631987571716,
          0.05815403163433075,
          -0.08154158294200897,
          0.06347381323575974,
          -0.04682302474975586,
          0.09248557686805725,
          -0.09664801508188248,
          -0.11087636649608612,
          0.12003064900636673,
          0.07071355730295181,
          0.11791200190782547,
          0.16200771927833557,
          0.08882428705692291,
          0.07846984267234802,
          -0.05164676904678345,
          -0.04856598377227783,
          -0.05820193141698837,
          0.007093176245689392,
          -0.07722628861665726,
          -0.10114572942256927
        ],
        [
          0.019403785467147827,
          0.07357820868492126,
          -0.08360397070646286,
          0.029159575700759888,
          -0.08188122510910034,
          0.025969117879867554,
          -0.036316078156232834,
          0.049063440412282944,
          -0.07441502809524536,
          -0.15780894458293915,
          -0.14056746661663055,
          -0.10546951740980148,
          -0.08254710584878922,
          -0.02462089993059635,
          -0.1424088478088379,
          0.013952905312180519,
          0.10317206382751465,
          0.09899154305458069,
          0.017489805817604065,
          -0.05009374022483826,
          -0.11532214283943176,
          -0.12138918042182922,
          -0.009831477887928486,
          -0.05926056206226349,
          0.026566550135612488,
          -0.13982455432415009,
          0.12244968116283417,
          0.10648064315319061,
          0.021504778414964676,
          -0.026162266731262207,
          -0.15995797514915466,
          -0.007357999682426453,
          0.19063475728034973,
          0.06702633202075958,
          0.05837012827396393,
          0.09478731453418732,
          -0.08509723842144012,
          -0.0385710783302784,
          0.04801604151725769,
          0.06668487936258316,
          0.022473491728305817,
          -0.07098662853240967,
          -0.0684831291437149,
          -0.019640687853097916,
          -0.10111656785011292,
          0.09348858147859573,
          0.04329986125230789,
          -0.1645016223192215,
          -0.09775801002979279,
          -0.07293321937322617,
          -0.10596433281898499,
          -0.11630214750766754,
          -0.02649027854204178,
          0.03498239070177078,
          0.1079934611916542,
          -0.03710503876209259,
          -0.10257280617952347,
          -0.10023698955774307,
          -0.06710051000118256,
          -0.1160799115896225,
          -0.09797700494527817,
          0.09030401706695557,
          0.061358124017715454,
          0.03590326011180878
        ],
        [
          -0.09093423932790756,
          -0.11626413464546204,
          -0.11466233432292938,
          -0.014049246907234192,
          -0.12016111612319946,
          -0.04825600981712341,
          0.023896057158708572,
          -0.05989052355289459,
          -0.08695556968450546,
          -0.08309631794691086,
          0.04210514947772026,
          -0.10608990490436554,
          0.05016026273369789,
          0.10015008598566055,
          0.10012852400541306,
          -0.10269395262002945,
          -0.08066526800394058,
          0.04222741723060608,
          -0.09804600477218628,
          0.0566168874502182,
          -0.0051593538373708725,
          0.11261851340532303,
          0.03160732612013817,
          0.011847863905131817,
          0.1160132884979248,
          0.06673961132764816,
          0.11392040550708771,
          0.10630887746810913,
          0.11247114092111588,
          0.07910026609897614,
          0.012963375076651573,
          -0.06432241201400757,
          0.05923008918762207,
          -0.12540745735168457,
          0.0963117703795433,
          -0.08179053664207458,
          0.009915024042129517,
          -0.049325257539749146,
          0.03435054048895836,
          -0.03297756612300873,
          0.1101800873875618,
          -0.05203694850206375,
          0.05193844437599182,
          0.1062149703502655,
          -0.07568374276161194,
          -0.06898339092731476,
          0.10025069117546082,
          0.07902546226978302,
          0.00196063332259655,
          -0.03823095187544823,
          0.14061103761196136,
          0.01999090611934662,
          0.05521468445658684,
          0.028830865398049355,
          -0.04461077228188515,
          -0.0782298743724823,
          -0.12109973281621933,
          -0.09221985191106796,
          -0.0331086590886116,
          0.1054379791021347,
          -0.1117856502532959,
          -0.03780803084373474,
          -0.005324203986674547,
          0.024364911019802094
        ],
        [
          -0.10347723960876465,
          -0.008696526288986206,
          -0.09940604865550995,
          0.11288975179195404,
          0.0316925048828125,
          0.002061113715171814,
          -0.09544841200113297,
          -0.12298990786075592,
          -0.07523401826620102,
          -0.09397716075181961,
          0.020642980933189392,
          -0.11091174185276031,
          0.11688445508480072,
          0.05308149755001068,
          -0.060310039669275284,
          -0.049680959433317184,
          0.0791117325425148,
          -0.0074908435344696045,
          -0.002497538924217224,
          0.0006580203771591187,
          0.07809019088745117,
          0.054178692400455475,
          -0.07137642055749893,
          -0.12364165484905243,
          0.05083492398262024,
          0.09091816842556,
          0.10206536948680878,
          0.05507992208003998,
          0.040802035480737686,
          -0.016960620880126953,
          0.054182134568691254,
          0.09175717830657959,
          -0.03721711412072182,
          -0.15195173025131226,
          -0.0710427314043045,
          -0.020222479477524757,
          -0.10770560801029205,
          0.05157424882054329,
          -0.12170000374317169,
          -0.10015848278999329,
          -0.023940598592162132,
          0.08143957704305649,
          -0.0805138498544693,
          0.007003024220466614,
          0.03296738862991333,
          0.03905264660716057,
          -0.019223183393478394,
          0.03526674956083298,
          -0.12702591717243195,
          -0.09322041273117065,
          -0.08789601922035217,
          0.0772794783115387,
          0.02515074610710144,
          -0.11584382504224777,
          0.0032701955642551184,
          0.07442272454500198,
          0.07352244853973389,
          0.09828309714794159,
          -0.1167660653591156,
          0.037736594676971436,
          0.07005757093429565,
          0.09697771072387695,
          0.009150461293756962,
          0.10519958287477493
        ],
        [
          -0.03372536227107048,
          -0.2779310345649719,
          0.02665141224861145,
          0.054234132170677185,
          -0.006198521703481674,
          0.07602813839912415,
          0.06039322540163994,
          -0.004462954588234425,
          0.06631665676832199,
          0.0829949602484703,
          -0.06569824367761612,
          0.09178102761507034,
          -0.08845914900302887,
          0.006911782547831535,
          0.20446902513504028,
          -0.039096053689718246,
          -0.12234863638877869,
          -0.083615243434906,
          -0.0014037638902664185,
          0.12075123190879822,
          0.08659480512142181,
          -0.02327573485672474,
          0.0629236251115799,
          -0.12029667943716049,
          0.06042471528053284,
          -0.05282279849052429,
          -0.013996032066643238,
          0.11786782741546631,
          0.04232485964894295,
          -0.019357532262802124,
          -0.05758330971002579,
          0.028609314933419228,
          0.03475143387913704,
          0.09342389553785324,
          0.007427772507071495,
          -0.029705030843615532,
          -0.12316273152828217,
          0.024396337568759918,
          0.06145826727151871,
          0.06770917773246765,
          -0.06545472890138626,
          -0.08197671920061111,
          0.09629160165786743,
          -0.07908636331558228,
          0.012609988451004028,
          -0.14538267254829407,
          0.09249180555343628,
          -0.10251323133707047,
          -0.0836675837635994,
          0.03328767418861389,
          0.04676990956068039,
          0.04846607893705368,
          -0.025617804378271103,
          0.020716320723295212,
          -0.04998784884810448,
          -0.16987843811511993,
          0.061087291687726974,
          0.018489893525838852,
          -0.0242159403860569,
          0.09479328989982605,
          -0.07103252410888672,
          0.1121179461479187,
          -0.06861944496631622,
          -0.005642541218549013
        ],
        [
          0.022900745272636414,
          -0.15011854469776154,
          -0.1761849820613861,
          0.10444130003452301,
          -0.0966046079993248,
          0.0008382201194763184,
          0.07880609482526779,
          0.021661564707756042,
          0.04743796959519386,
          -0.1416383534669876,
          0.10294489562511444,
          -0.11997470259666443,
          -0.0666496604681015,
          0.030886992812156677,
          -0.06121676042675972,
          -0.09403853118419647,
          -0.04923646152019501,
          -0.08324587345123291,
          0.07729002833366394,
          -0.12438982725143433,
          -0.11652996391057968,
          0.013022508472204208,
          0.11091183871030807,
          0.02265252359211445,
          0.10591253638267517,
          -0.18977180123329163,
          -0.04510076344013214,
          -0.07876379787921906,
          -0.13104066252708435,
          -0.1201363205909729,
          -0.0359257347881794,
          -0.0644349679350853,
          0.01135367713868618,
          -0.07971401512622833,
          -0.01284774485975504,
          0.03901985287666321,
          0.04239313304424286,
          -0.06910217553377151,
          0.03644872084259987,
          0.05665828287601471,
          -0.09944973140954971,
          0.022259658202528954,
          0.02439175546169281,
          0.06435494124889374,
          0.08641652762889862,
          0.16170695424079895,
          -0.1231020987033844,
          0.003308437066152692,
          -0.014743172563612461,
          -0.03636164963245392,
          -0.19429121911525726,
          -0.09259019792079926,
          -0.10101708769798279,
          -0.003601474454626441,
          0.09632118791341782,
          0.06237976253032684,
          0.0067639946937561035,
          -0.2037103772163391,
          -0.0299660824239254,
          -0.12208825349807739,
          0.09447323530912399,
          0.09720565378665924,
          -0.103451207280159,
          0.005547880660742521
        ],
        [
          0.010859902016818523,
          -0.07942788302898407,
          0.032603919506073,
          0.008793815970420837,
          -0.08004307746887207,
          -0.02278725802898407,
          0.07371299713850021,
          -0.03477247804403305,
          0.01915326528251171,
          -0.053426314145326614,
          0.10712017118930817,
          -0.050639186054468155,
          0.05160059407353401,
          0.03376241773366928,
          -0.16607283055782318,
          0.0641271248459816,
          -0.09327773749828339,
          -0.06723921000957489,
          0.03700582683086395,
          0.08489528298377991,
          -0.11771707236766815,
          0.07254184037446976,
          -0.004153006710112095,
          0.07355865836143494,
          -0.007428526878356934,
          -0.10284044593572617,
          0.004177119117230177,
          0.08963117003440857,
          -0.15702477097511292,
          -0.08109258115291595,
          0.10249428451061249,
          -0.09466221183538437,
          -0.17081555724143982,
          0.08385001868009567,
          -0.010620540007948875,
          -0.1470169872045517,
          -0.1131671816110611,
          0.003754539880901575,
          -0.04118407890200615,
          0.02749270759522915,
          -0.04199390485882759,
          -0.12324627488851547,
          -0.10561919212341309,
          0.0818401575088501,
          -0.0010932087898254395,
          0.06240840256214142,
          -0.003393482184037566,
          0.09587260335683823,
          -0.008254542015492916,
          0.019618378952145576,
          -0.05283333733677864,
          0.05790647491812706,
          -0.13190656900405884,
          0.013601347804069519,
          0.11154141277074814,
          0.043631620705127716,
          0.03327932953834534,
          -0.0770854577422142,
          0.13194768130779266,
          0.09879699349403381,
          -0.11103291809558868,
          0.011900901794433594,
          -0.04581710323691368,
          -0.032289665192365646
        ],
        [
          0.09842044115066528,
          -0.10608416795730591,
          0.005743004847317934,
          -0.08360053598880768,
          0.06955700367689133,
          0.044407665729522705,
          -0.07944511622190475,
          0.07632306963205338,
          0.004562206566333771,
          0.02481408789753914,
          0.053598687052726746,
          0.09445365518331528,
          -0.11039901524782181,
          -0.0383804552257061,
          0.024658754467964172,
          -0.12772659957408905,
          -0.07904745638370514,
          -0.03206130862236023,
          -0.009490668773651123,
          -0.11133594810962677,
          -0.022729380056262016,
          0.041407641023397446,
          -0.06130869686603546,
          0.1074814572930336,
          -0.05820181965827942,
          -0.12247118353843689,
          0.03921663761138916,
          0.09548167884349823,
          0.10348401963710785,
          0.05367477238178253,
          0.022798165678977966,
          -0.10139342397451401,
          0.08471818268299103,
          -0.11171090602874756,
          -0.05216987431049347,
          -0.10436363518238068,
          -0.11197902262210846,
          -0.006995849311351776,
          -0.1375862956047058,
          -0.10950496047735214,
          -0.08602629601955414,
          -0.022829562425613403,
          -0.06915116310119629,
          -0.08431078493595123,
          0.07864324748516083,
          -0.06242937967181206,
          -0.11688049137592316,
          -0.10996297001838684,
          -0.05763986334204674,
          -0.05078766867518425,
          0.0978061705827713,
          -0.04249829053878784,
          -0.11401268094778061,
          0.10729771852493286,
          0.1139627993106842,
          -0.0368276946246624,
          0.09220042824745178,
          -0.006364081054925919,
          -0.07252722978591919,
          -0.08891445398330688,
          0.03631182760000229,
          0.05689127743244171,
          -0.010979583486914635,
          -0.11841830611228943
        ],
        [
          -0.11598096042871475,
          0.24098865687847137,
          -0.21244637668132782,
          -0.07563547790050507,
          0.019905881956219673,
          0.04320606589317322,
          -0.05239684134721756,
          0.06151221692562103,
          -0.025321591645479202,
          0.058195147663354874,
          -0.052916839718818665,
          -0.05326013267040253,
          -0.046932753175497055,
          0.025656210258603096,
          0.011394892819225788,
          0.02941102348268032,
          0.002422536490485072,
          -0.11977612972259521,
          -0.022461310029029846,
          -0.025739163160324097,
          -0.02725549414753914,
          -0.17558063566684723,
          0.013241014443337917,
          0.13586203753948212,
          -0.06154969334602356,
          -0.021882859990000725,
          -0.15147531032562256,
          0.11363081634044647,
          -0.1804625689983368,
          -0.08191706240177155,
          -0.01656540296971798,
          0.15054495632648468,
          -0.08582311868667603,
          -0.11148607730865479,
          0.22424668073654175,
          -0.355875700712204,
          -0.0013084560632705688,
          -0.10149836540222168,
          0.1528722196817398,
          -0.08635202795267105,
          0.043264929205179214,
          0.11763694137334824,
          -0.060810387134552,
          -0.14246957004070282,
          0.034605979919433594,
          0.06649313867092133,
          0.1285163164138794,
          0.007946349680423737,
          0.017467863857746124,
          0.12256700545549393,
          -0.1546138972043991,
          0.10356124490499496,
          0.0470585972070694,
          -0.0020992872305214405,
          -0.009433751925826073,
          -0.1422504335641861,
          0.10532072931528091,
          0.02651512622833252,
          0.2276296615600586,
          0.046871572732925415,
          0.06694389879703522,
          0.0479605495929718,
          0.09080281108617783,
          0.14715401828289032
        ],
        [
          0.17117714881896973,
          -0.9194441437721252,
          -0.038046929985284805,
          -0.01039266586303711,
          -0.049613699316978455,
          -0.07645739614963531,
          0.057786617428064346,
          -0.036947596818208694,
          -0.08941204845905304,
          0.07553493976593018,
          0.08555205911397934,
          -0.018249738961458206,
          -0.048973459750413895,
          -0.030886823311448097,
          0.20346663892269135,
          -0.09830722957849503,
          -0.08904153853654861,
          0.0486554354429245,
          0.0917273461818695,
          0.014777004718780518,
          0.03260639309883118,
          0.01931360363960266,
          -0.07520226389169693,
          0.06375709176063538,
          -0.11798210442066193,
          0.02960178442299366,
          0.2628825604915619,
          -0.05029529333114624,
          -0.1217794120311737,
          -0.09915328025817871,
          0.016092810779809952,
          -0.16173706948757172,
          -0.07297639548778534,
          -0.0054649002850055695,
          0.11005506664514542,
          -0.17230238020420074,
          -0.12168291211128235,
          -0.08230698853731155,
          0.10501924157142639,
          -0.060000039637088776,
          -0.025010384619235992,
          -0.6020374298095703,
          0.09119652211666107,
          -0.06082621216773987,
          0.0918126106262207,
          0.07961037009954453,
          -0.08592169731855392,
          -0.001237941556610167,
          0.0662507489323616,
          0.07037823647260666,
          0.07307407259941101,
          -0.012899927794933319,
          0.06422910839319229,
          -0.04910913482308388,
          0.025363733991980553,
          0.01010261382907629,
          0.055671628564596176,
          -0.168893963098526,
          0.05465901270508766,
          -0.007640436291694641,
          -0.02403659000992775,
          -0.08559641242027283,
          0.002510469639673829,
          0.010915183462202549
        ],
        [
          -0.10935264080762863,
          0.06209038570523262,
          -0.052297428250312805,
          -0.10618244111537933,
          0.023830769583582878,
          -0.08859600126743317,
          -0.15253323316574097,
          -0.10447990894317627,
          -0.045749276876449585,
          0.04878248646855354,
          0.07951325178146362,
          0.11601166427135468,
          -0.04159051179885864,
          -0.0022648214362561703,
          -0.025457262992858887,
          -0.026602253317832947,
          0.0493115670979023,
          0.11167064309120178,
          0.039509668946266174,
          -0.05551046133041382,
          0.059292882680892944,
          -0.058616068214178085,
          -0.15008006989955902,
          -0.04447586461901665,
          -0.0022373050451278687,
          -0.10004664957523346,
          -0.06703042984008789,
          -0.11119464039802551,
          0.09172046184539795,
          -0.1108202189207077,
          -0.1205456554889679,
          -0.018520720303058624,
          -0.19547618925571442,
          0.02746090106666088,
          -0.12919598817825317,
          0.01101744081825018,
          0.029321953654289246,
          -0.10327303409576416,
          0.02783260866999626,
          -0.005940611474215984,
          0.06080583110451698,
          0.12307020276784897,
          -0.06439007818698883,
          0.05563269183039665,
          -0.0748046338558197,
          -0.13620294630527496,
          -0.10296010226011276,
          -0.07551785558462143,
          -0.14266900718212128,
          0.015741102397441864,
          -0.05788169801235199,
          0.04531777650117874,
          -0.14564429223537445,
          -0.11282991617918015,
          0.0018967677606269717,
          -0.059556715190410614,
          -0.057070694863796234,
          -0.13480934500694275,
          0.01902570202946663,
          0.017035767436027527,
          -0.1061888188123703,
          0.0495925098657608,
          -0.025548389181494713,
          0.12732666730880737
        ],
        [
          -0.02728946879506111,
          -0.21971052885055542,
          0.10355858504772186,
          0.11592939496040344,
          -0.07464410364627838,
          0.047087326645851135,
          -0.08642695844173431,
          -0.022537339478731155,
          0.065078005194664,
          -0.043738119304180145,
          -0.019256120547652245,
          0.0057563274167478085,
          0.17015571892261505,
          -0.014919993467628956,
          0.25158101320266724,
          -0.0777486264705658,
          -0.19977407157421112,
          -0.09355255961418152,
          -0.10669435560703278,
          0.014088362455368042,
          0.04892803356051445,
          -0.15528851747512817,
          0.23292215168476105,
          -0.09476055204868317,
          0.02377784252166748,
          0.038302015513181686,
          0.24782632291316986,
          -0.02324092388153076,
          -0.057906605303287506,
          0.11635372042655945,
          -0.037210237234830856,
          0.08608680218458176,
          0.0023411433212459087,
          0.07619977742433548,
          0.006198257673531771,
          -0.000918317586183548,
          -0.08742906153202057,
          0.009617514908313751,
          -0.05187753960490227,
          -0.05257207900285721,
          0.05091517046093941,
          -0.24352265894412994,
          -0.0968644917011261,
          -0.12555952370166779,
          -0.0022499412298202515,
          -0.1593199521303177,
          0.01045567449182272,
          -0.07017429172992706,
          -0.0847332552075386,
          0.06135394051671028,
          0.03706069663167,
          0.11490875482559204,
          0.00031444226624444127,
          -0.09893092513084412,
          -0.17611871659755707,
          -0.04169290512800217,
          0.038325242698192596,
          -0.12449216097593307,
          0.13541801273822784,
          -0.037268027663230896,
          0.10580112040042877,
          -0.08793868124485016,
          -0.13793587684631348,
          -0.08123153448104858
        ],
        [
          -0.07390458136796951,
          -0.2185285985469818,
          -0.083023302257061,
          -0.03250157833099365,
          -0.06348560005426407,
          0.11213180422782898,
          -0.07414587587118149,
          0.01220785453915596,
          -0.03352399170398712,
          0.11564458906650543,
          0.03750591725111008,
          -0.011975310742855072,
          -0.07451356947422028,
          0.023603903129696846,
          -0.04307439178228378,
          -0.011078005656599998,
          0.11908639967441559,
          -0.03626565635204315,
          -0.022497937083244324,
          -0.050920769572257996,
          0.14749455451965332,
          -0.005408204160630703,
          0.13553600013256073,
          0.09168684482574463,
          0.06793159246444702,
          -0.007857194170355797,
          0.06518653780221939,
          -0.09528404474258423,
          -0.13543085753917694,
          -0.08593977987766266,
          -0.07073518633842468,
          0.0822359099984169,
          -0.07695005089044571,
          0.003834877163171768,
          0.04053499922156334,
          0.05167517066001892,
          -0.052853792905807495,
          0.031066277995705605,
          0.07882953435182571,
          0.005250357557088137,
          0.06714217364788055,
          -0.13997986912727356,
          -0.06852062046527863,
          -0.023172523826360703,
          -0.12405815720558167,
          0.03546948358416557,
          0.0023182700388133526,
          0.05982648953795433,
          -0.01838359422981739,
          0.06451689451932907,
          -0.15008120238780975,
          -0.08056218177080154,
          -0.01636683940887451,
          0.10294870287179947,
          0.1570194959640503,
          0.02197999507188797,
          -0.08281602710485458,
          -0.0960346907377243,
          -0.03513024374842644,
          -0.10684658586978912,
          -0.03239881619811058,
          -0.09389902651309967,
          0.03494233265519142,
          -0.02381901629269123
        ],
        [
          0.0789155438542366,
          0.031276021152734756,
          -0.11574158072471619,
          -0.007169544696807861,
          0.014364071190357208,
          -0.060142144560813904,
          0.07251287251710892,
          -0.09903519600629807,
          0.03481481969356537,
          0.012508751824498177,
          0.053258176892995834,
          0.08128584921360016,
          -0.0956180989742279,
          -0.10607288777828217,
          -0.061628907918930054,
          -0.02152634784579277,
          -0.017662907019257545,
          0.028143703937530518,
          0.005153745412826538,
          -0.03548528254032135,
          -0.002900149440392852,
          0.034110549837350845,
          0.06886572390794754,
          0.016647784039378166,
          -0.07851235568523407,
          -0.02434619702398777,
          -0.06540332734584808,
          -0.020935475826263428,
          0.09927292913198471,
          -0.0978054404258728,
          0.0858902633190155,
          -0.05541083961725235,
          -0.04757052659988403,
          -0.09443691372871399,
          0.09449749439954758,
          0.0959552600979805,
          -0.06877771019935608,
          -0.05685050040483475,
          -0.014517277479171753,
          -0.005417037755250931,
          -0.13490411639213562,
          0.06845627725124359,
          0.10499221086502075,
          -0.08868194371461868,
          0.03326678276062012,
          -0.141390860080719,
          -0.07967885583639145,
          -0.057612333446741104,
          -0.11163687705993652,
          -0.12065066397190094,
          -0.02073952555656433,
          -0.10099813342094421,
          0.06422680616378784,
          -0.038318436592817307,
          0.06182580068707466,
          -0.0855683833360672,
          -0.048001810908317566,
          -0.016324765980243683,
          0.07456642389297485,
          0.04358397424221039,
          -0.08310751616954803,
          -0.07225733995437622,
          -0.06567450612783432,
          -0.02639598399400711
        ],
        [
          0.09439815580844879,
          0.021298721432685852,
          -0.08625153452157974,
          -0.10357668995857239,
          0.002858721651136875,
          0.03883306682109833,
          -0.08299030363559723,
          0.09717515856027603,
          -0.0707046166062355,
          0.09299605339765549,
          -0.12468480318784714,
          -0.04075944796204567,
          -0.03118678741157055,
          0.055976737290620804,
          -0.016669005155563354,
          0.03273175284266472,
          0.05353062227368355,
          0.017972812056541443,
          -0.09971372783184052,
          -0.08161123096942902,
          0.021249793469905853,
          -0.14200551807880402,
          0.18651968240737915,
          0.02167637087404728,
