{
  "layers": [
    {
      "name": "0",
      "kind": "Linear",
      "inputSize": 15,
      "outputSize": 64,
      "hasBiases": true,
      "weights": [
        [
          0.0280008427798748,
          0.45351964235305786,
          -0.21050295233726501,
          -0.07348708808422089,
          -0.07034173607826233,
          -0.2925780415534973,
          -0.14102259278297424,
          -0.17894284427165985,
          -0.20884183049201965,
          0.02844238094985485,
          -0.12876369059085846,
          0.23087385296821594,
          0.02496585063636303,
          0.12664546072483063,
          0.2234666794538498
        ],
        [
          -0.25110137462615967,
          -1.3368619680404663,
          0.06252237409353256,
          -0.22740356624126434,
          0.20740455389022827,
          -0.37617960572242737,
          -0.2801620066165924,
          -0.4872928261756897,
          -0.0898129940032959,
          0.10809814929962158,
          0.08404189348220825,
          -0.03931887447834015,
          0.06922824680805206,
          -0.2258807122707367,
          0.2143218070268631
        ],
        [
          0.6876734495162964,
          0.6248594522476196,
          0.11709992587566376,
          0.1912064254283905,
          -0.00841048825532198,
          -0.08594878017902374,
          0.12081580609083176,
          -0.06642693281173706,
          -0.0907948836684227,
          -0.31178784370422363,
          -0.1520502269268036,
          -0.003884875448420644,
          -0.022968025878071785,
          -0.23386189341545105,
          0.09647515416145325
        ],
        [
          -0.8443487882614136,
          0.13716208934783936,
          -0.09129862487316132,
          0.11982608586549759,
          0.049396540969610214,
          0.2412087768316269,
          0.3016582727432251,
          -0.1849442720413208,
          0.08149676769971848,
          0.2035636305809021,
          -0.04315660521388054,
          0.09762132912874222,
          -0.23538738489151,
          -0.551611065864563,
          0.05862991139292717
        ],
        [
          0.6771232485771179,
          -0.036293577402830124,
          -0.0067263091914355755,
          0.11050721257925034,
          -0.2816351354122162,
          -0.08102892339229584,
          0.2419319897890091,
          -0.15737663209438324,
          0.15455614030361176,
          0.13735264539718628,
          -0.05197060480713844,
          0.028211602941155434,
          -0.13156241178512573,
          0.0855398178100586,
          0.1038435772061348
        ],
        [
          -0.39796581864356995,
          -0.5325669646263123,
          -0.019480478018522263,
          -0.10390420258045197,
          -0.02212485671043396,
          -0.22568774223327637,
          0.19640502333641052,
          -0.21081088483333588,
          0.19157874584197998,
          -0.005100963171571493,
          -0.1650063842535019,
          0.11806140094995499,
          0.15393228828907013,
          0.10726962983608246,
          0.2218531370162964
        ],
        [
          0.9130896329879761,
          0.6858161687850952,
          0.05734840780496597,
          -0.2106165736913681,
          -0.10646454244852066,
          0.07455293834209442,
          -0.04709859937429428,
          0.12379039078950882,
          -0.06014576181769371,
          -0.071486696600914,
          0.006066018249839544,
          -0.01095887366682291,
          0.07878842949867249,
          -0.220988929271698,
          -0.08843334764242172
        ],
        [
          -0.1827014684677124,
          -0.09037379920482635,
          -0.14154872298240662,
          0.16334280371665955,
          0.06482717394828796,
          0.08251139521598816,
          0.13724464178085327,
          0.10733935236930847,
          0.08327511698007584,
          -0.14346659183502197,
          0.21333718299865723,
          -0.08903773874044418,
          0.09200311452150345,
          -0.24962668120861053,
          0.22655454277992249
        ],
        [
          0.05036109685897827,
          0.04270938038825989,
          -0.06449887156486511,
          -0.2464853674173355,
          0.01647341251373291,
          -0.19036823511123657,
          0.07231196761131287,
          -0.10404220223426819,
          -0.09089158475399017,
          0.05924522876739502,
          0.07223382592201233,
          -0.23544923961162567,
          -0.050113245844841,
          -0.040036022663116455,
          -0.0743885189294815
        ],
        [
          0.33314070105552673,
          0.1587940901517868,
          -0.21473328769207,
          0.1479714810848236,
          -0.0792500227689743,
          -0.0863247737288475,
          0.08370285481214523,
          -0.06504585593938828,
          0.04066788777709007,
          -0.2398633360862732,
          0.1357557326555252,
          -0.045610375702381134,
          -0.02795192413032055,
          0.03535093367099762,
          -0.1327393651008606
        ],
        [
          -0.5538299679756165,
          -0.00966987106949091,
          -0.0407479852437973,
          0.015459572896361351,
          -0.11203204840421677,
          -0.020785221830010414,
          -0.19517982006072998,
          -0.07281335443258286,
          -0.0764869898557663,
          -0.2685023546218872,
          -0.5531784892082214,
          -0.41803914308547974,
          0.11961668729782104,
          0.10484195500612259,
          0.2807675302028656
        ],
        [
          -0.7564110159873962,
          -0.16438278555870056,
          0.02694411762058735,
          0.03903894126415253,
          0.15163466334342957,
          0.2808171808719635,
          0.22788244485855103,
          -0.2257363647222519,
          0.21659235656261444,
          0.3490864038467407,
          -0.13735248148441315,
          -0.01363709382712841,
          -0.23466756939888,
          -0.8598113656044006,
          -0.09522886574268341
        ],
        [
          0.5853575468063354,
          -0.5852503776550293,
          0.1517704427242279,
          -0.12894125282764435,
          -0.04075907915830612,
          0.04298938438296318,
          0.00024667277466505766,
          0.15431909263134003,
          -0.1599874049425125,
          -0.46920064091682434,
          -0.058046817779541016,
          0.02322784624993801,
          -0.33998826146125793,
          0.07787764817476273,
          0.18074655532836914
        ],
        [
          0.3404141068458557,
          -0.9543651938438416,
          0.12450480461120605,
          -0.14880090951919556,
          0.011198594234883785,
          -0.24145783483982086,
          -0.07224318385124207,
          -0.10522279888391495,
          -0.20387503504753113,
          -0.03969002887606621,
          -0.09515809267759323,
          0.001139360829256475,
          0.1294393092393875,
          -0.05388830229640007,
          -0.11969345062971115
        ],
        [
          0.1602534055709839,
          -0.24736258387565613,
          -0.16810134053230286,
          0.06577500700950623,
          -0.05852422118186951,
          0.12845906615257263,
          -0.16044104099273682,
          -0.12499216198921204,
          -0.0059473514556884766,
          -0.16441968083381653,
          -0.04208816587924957,
          0.1015230119228363,
          -0.2288231998682022,
          -0.0900125652551651,
          0.14183595776557922
        ],
        [
          0.013617778196930885,
          0.6817390322685242,
          -0.11207108944654465,
          0.11571476608514786,
          -0.007925039157271385,
          0.18099074065685272,
          -0.03484853357076645,
          -0.3306194543838501,
          -0.35409659147262573,
          -0.3514139950275421,
          -0.28037604689598083,
          -0.2185874730348587,
          0.03991600498557091,
          -0.1388183832168579,
          -0.18446385860443115
        ],
        [
          0.40682893991470337,
          0.37465596199035645,
          0.1836562603712082,
          -0.014153559692203999,
          0.13975319266319275,
          -0.06132965162396431,
          -0.047388795763254166,
          0.04172375053167343,
          -0.19956596195697784,
          -0.22387225925922394,
          -0.3840199112892151,
          -0.3070751428604126,
          -0.1568508893251419,
          -0.19564662873744965,
          -0.030744269490242004
        ],
        [
          0.12137816846370697,
          0.07931089401245117,
          -0.1449989676475525,
          0.21453793346881866,
          0.1347672939300537,
          -0.14263060688972473,
          -0.042302485555410385,
          -0.24804510176181793,
          -0.3894486725330353,
          -0.06831125915050507,
          -0.3418363928794861,
          0.09229404479265213,
          -0.1338055282831192,
          0.05132059380412102,
          0.1256861537694931
        ],
        [
          0.08397406339645386,
          0.22471031546592712,
          -0.1349114179611206,
          0.13936078548431396,
          -0.12900510430335999,
          -0.24221710860729218,
          -0.022644296288490295,
          -0.12988869845867157,
          -0.008640974760055542,
          0.20782798528671265,
          -0.06779414415359497,
          -0.14755365252494812,
          -0.10086867213249207,
          0.12922486662864685,
          -0.16074323654174805
        ],
        [
          0.05463651940226555,
          0.5820379853248596,
          0.016914580017328262,
          0.20621296763420105,
          0.12463613599538803,
          -0.11340190470218658,
          -0.10581226646900177,
          0.18144385516643524,
          0.0833960548043251,
          -0.20740385353565216,
          0.038593392819166183,
          0.11473122984170914,
          -0.094661183655262,
          0.011148834601044655,
          0.1310422420501709
        ],
        [
          -0.5101356506347656,
          0.9507871270179749,
          0.047152962535619736,
          0.12029331177473068,
          -0.07428456842899323,
          -0.12662900984287262,
          0.1493106484413147,
          0.13816630840301514,
          -0.1971803605556488,
          0.1897105574607849,
          0.19614431262016296,
          -0.11476880311965942,
          0.20730888843536377,
          -0.016880659386515617,
          -0.10769615322351456
        ],
        [
          -0.8191552758216858,
          -0.11572772264480591,
          -0.00540730357170105,
          0.19157184660434723,
          0.3342508375644684,
          -0.12800055742263794,
          -0.03598044067621231,
          0.22817127406597137,
          0.14900125563144684,
          0.31438949704170227,
          -0.057138629257678986,
          -0.005219006910920143,
          -0.12948077917099,
          -0.1952790915966034,
          -0.10088278353214264
        ],
        [
          0.12062014639377594,
          -0.0018436643294990063,
          -0.020229779183864594,
          0.14344154298305511,
          -0.17934179306030273,
          0.002184090670198202,
          0.06443797051906586,
          -0.17824120819568634,
          0.18951989710330963,
          0.21056915819644928,
          -0.18032735586166382,
          -0.14233702421188354,
          -0.030772021040320396,
          0.11475249379873276,
          -0.1622401922941208
        ],
        [
          -0.2355317771434784,
          -0.07654567062854767,
          -0.2875271439552307,
          0.12033919245004654,
          0.08595478534698486,
          -0.14856553077697754,
          0.07794703543186188,
          -0.3297625780105591,
          0.04224817827343941,
          0.03636905923485756,
          -0.2636299729347229,
          -0.2156507521867752,
          0.016394436359405518,
          0.19287553429603577,
          0.057412322610616684
        ],
        [
          -0.5589504837989807,
          0.09523780643939972,
          -0.4575795531272888,
          0.004755155649036169,
          0.1317063421010971,
          -0.3372940719127655,
          -0.0955401211977005,
          -0.3315868675708771,
          -0.12551134824752808,
          -0.07013066112995148,
          -0.31441932916641235,
          -0.41003257036209106,
          -0.03935202956199646,
          -0.04925394430756569,
          0.24210001528263092
        ],
        [
          0.023056481033563614,
          1.2228084802627563,
          0.14192023873329163,
          0.11417236179113388,
          -0.11960285156965256,
          -0.26068732142448425,
          0.1454537957906723,
          -0.23461323976516724,
          -0.17254480719566345,
          0.09807920455932617,
          -0.36314111948013306,
          -0.14873512089252472,
          -0.009097510017454624,
          0.15588727593421936,
          -0.23441877961158752
        ],
        [
          0.4935253858566284,
          -0.1443551778793335,
          0.07933730632066727,
          -0.32936790585517883,
          -0.032522037625312805,
          -0.24789591133594513,
          -0.1296703964471817,
          0.12664861977100372,
          0.0728502944111824,
          -0.2096979320049286,
          -0.01562091987580061,
          -0.11804644763469696,
          -0.28721150755882263,
          0.18244360387325287,
          0.04328532889485359
        ],
        [
          -0.771737277507782,
          0.5500123500823975,
          0.014807041734457016,
          0.14590419828891754,
          -0.17147418856620789,
          0.06343982368707657,
          0.15554025769233704,
          -0.2607943117618561,
          0.007003503851592541,
          0.18747270107269287,
          -0.23333102464675903,
          -0.09358422458171844,
          0.04642760008573532,
          -0.13734374940395355,
          -0.14081141352653503
        ],
        [
          -0.016321033239364624,
          0.24928012490272522,
          -0.24449071288108826,
          -0.022670671343803406,
          -0.15367725491523743,
          -0.17943011224269867,
          -0.07276898622512817,
          0.030565857887268066,
          -0.18777123093605042,
          0.14026755094528198,
          -0.02911369502544403,
          0.002041637897491455,
          -0.0853760689496994,
          -0.19931316375732422,
          -0.09686243534088135
        ],
        [
          0.13989053666591644,
          0.015691475942730904,
          0.1858215034008026,
          0.11834801733493805,
          -0.11650960147380829,
          -0.10958119481801987,
          0.07366414368152618,
          -0.20552650094032288,
          -0.20436246693134308,
          0.1984018087387085,
          0.1779615879058838,
          -0.018168499693274498,
          0.15910954773426056,
          0.2163597196340561,
          0.12459136545658112
        ],
        [
          -0.4980122148990631,
          -0.42470207810401917,
          0.1457209289073944,
          0.029979143291711807,
          -0.21240703761577606,
          -0.2649693787097931,
          -0.29341763257980347,
          -0.11502441018819809,
          -0.07656816393136978,
          0.08720165491104126,
          -0.0858997330069542,
          -0.032014526426792145,
          -0.1189885213971138,
          0.2551504671573639,
          0.23406264185905457
        ],
        [
          -0.30188608169555664,
          -0.28330448269844055,
          0.07603339105844498,
          -0.0015445244498550892,
          -0.021456526592373848,
          -0.08507948368787766,
          -0.16563823819160461,
          -0.24666884541511536,
          -0.20340998470783234,
          0.02599303051829338,
          -0.07795854657888412,
          0.11197591572999954,
          0.018036236986517906,
          -0.11836239695549011,
          0.1207335889339447
        ],
        [
          -0.2783071994781494,
          -0.19060200452804565,
          -0.1649913489818573,
          -0.11660914868116379,
          0.2149980515241623,
          0.23453758656978607,
          -0.1424882411956787,
          -0.38807517290115356,
          -0.0480581633746624,
          -0.07741022855043411,
          0.30487269163131714,
          0.18728379905223846,
          -0.16854208707809448,
          -0.5676437616348267,
          0.15037386119365692
        ],
        [
          -0.07085251808166504,
          0.22789832949638367,
          -0.012275652028620243,
          0.21597042679786682,
          -0.1301565319299698,
          -0.2087177038192749,
          -0.08597464859485626,
          0.09613308310508728,
          -0.16133378446102142,
          0.0055061946623027325,
          -0.11331841349601746,
          -0.016518594697117805,
          -0.18304666876792908,
          -0.13217870891094208,
          -0.14837431907653809
        ],
        [
          0.390970915555954,
          -0.3589721620082855,
          -0.23057138919830322,
          0.06576108932495117,
          -0.06297792494297028,
          0.019451266154646873,
          0.2665770351886749,
          -0.1945616602897644,
          -0.2298438549041748,
          0.08283970504999161,
          -0.017290988937020302,
          0.17283713817596436,
          -0.05606035888195038,
          -0.16211098432540894,
          0.019193822517991066
        ],
        [
          -0.049141306430101395,
          1.4031929969787598,
          0.0008041994879022241,
          0.00909761805087328,
          -0.035298097878694534,
          0.07106142491102219,
          -0.14102651178836823,
          -0.032494403421878815,
          -0.37235116958618164,
          -0.036393553018569946,
          -0.26064351201057434,
          -0.15985731780529022,
          0.15691418945789337,
          -0.16223740577697754,
          -0.1705789864063263
        ],
        [
          -1.042145848274231,
          0.3242817521095276,
          0.053547490388154984,
          -0.184775248169899,
          0.05877047777175903,
          -0.05053487792611122,
          -0.019748680293560028,
          0.16347472369670868,
          -0.18129108846187592,
          -0.05317390337586403,
          -0.36340421438217163,
          -0.18653617799282074,
          -0.20837563276290894,
          0.22048698365688324,
          -0.1308012157678604
        ],
        [
          0.18481773138046265,
          -0.046478986740112305,
          -0.09490999579429626,
          0.1567632555961609,
          -0.05071908235549927,
          -0.07616659998893738,
          0.16618001461029053,
          0.0955720841884613,
          -0.1762257218360901,
          -0.21366184949874878,
          0.16027683019638062,
          -0.09029845893383026,
          -0.09221628308296204,
          -0.083051398396492,
          0.0024467408657073975
        ],
        [
          -0.8662094473838806,
          -0.5637731552124023,
          -0.012623616494238377,
          0.0508529394865036,
          -0.022023243829607964,
          -0.08060058951377869,
          0.38217693567276,
          -0.4212014079093933,
          0.11239433288574219,
          0.33964166045188904,
          0.17567746341228485,
          -0.10109878331422806,
          0.03983960300683975,
          -0.39941704273223877,
          -0.05871634930372238
        ],
        [
          0.6792454719543457,
          -0.2814023494720459,
          0.08145754039287567,
          -0.1644553691148758,
          -0.1833629608154297,
          0.10710275918245316,
          0.058936093002557755,
          -0.1794746220111847,
          0.09952196478843689,
          0.1837613731622696,
          -0.04257115349173546,
          -0.033038195222616196,
          0.03235236927866936,
          0.21890749037265778,
          0.08176145702600479
        ],
        [
          -0.0928991436958313,
          0.02279229275882244,
          0.0010808904189616442,
          -0.010811532847583294,
          0.06987736374139786,
          0.2092442363500595,
          -0.0950201079249382,
          -0.36174121499061584,
          0.012916170991957188,
          -0.11125767976045609,
          -0.12168421596288681,
          -0.2762429714202881,
          -0.11439001560211182,
          0.030701102688908577,
          -0.14686860144138336
        ],
        [
          -0.9353366494178772,
          0.16535425186157227,
          -0.289253830909729,
          -0.26784858107566833,
          0.07629856467247009,
          0.03979945182800293,
          -0.19171875715255737,
          0.07414983212947845,
          -0.1734548658132553,
          -0.031221890822052956,
          -0.2450426071882248,
          -0.25491631031036377,
          -0.07151831686496735,
          0.13003312051296234,
          0.08590956032276154
        ],
        [
          -0.1948956400156021,
          1.0679931640625,
          -0.03895027935504913,
          0.05568624287843704,
          0.14219920337200165,
          -0.04408225044608116,
          -0.026392251253128052,
          -0.09759946167469025,
          -0.06314640492200851,
          -0.06023826077580452,
          -0.059925053268671036,
          0.0030622542835772038,
          0.07559975236654282,
          -0.1499480903148651,
          -0.0513327419757843
        ],
        [
          0.06385339051485062,
          0.11261417716741562,
          -0.017556587234139442,
          0.10307037085294724,
          -0.27298182249069214,
          0.04619227722287178,
          -0.3702543377876282,
          -0.0424397774040699,
          0.0539020374417305,
          -0.5283299684524536,
          0.15226079523563385,
          0.0626438558101654,
          0.15953460335731506,
          -0.12753470242023468,
          0.30987244844436646
        ],
        [
          -0.001469006878323853,
          -0.30404040217399597,
          0.02584405429661274,
          -0.2452480047941208,
          -0.2828100323677063,
          -0.08517761528491974,
          0.09591562300920486,
          -0.10827867686748505,
          -0.10091199725866318,
          -0.03403693437576294,
          0.06089102104306221,
          -0.2507527768611908,
          -0.08256617933511734,
          -0.17038890719413757,
          0.19932861626148224
        ],
        [
          0.01927346922457218,
          -0.9227641820907593,
          -0.023865925148129463,
          0.10142664611339569,
          -0.20648901164531708,
          -0.05553678423166275,
          0.03338915854692459,
          0.14407004415988922,
          0.010699576698243618,
          -0.42454662919044495,
          0.026064535602927208,
          -0.2591085731983185,
          0.17819900810718536,
          -0.03763827309012413,
          -0.22236132621765137
        ],
        [
          -0.5394508242607117,
          0.0631670132279396,
          0.16258464753627777,
          -0.15492340922355652,
          0.10593128949403763,
          -0.24681541323661804,
          0.12058968842029572,
          -0.29495495557785034,
          -0.2895336151123047,
          0.025623226538300514,
          -0.24051924049854279,
          0.07560160011053085,
          -0.3550580143928528,
          0.10991153120994568,
          0.14020399749279022
        ],
        [
          0.13141576945781708,
          -0.10113219916820526,
          0.12085916101932526,
          -0.2526051700115204,
          0.10787296295166016,
          -0.23887501657009125,
          -0.007237154524773359,
          0.1361016482114792,
          -0.20449452102184296,
          0.2026359736919403,
          0.1654341071844101,
          -0.26401814818382263,
          0.11026087403297424,
          -0.30044278502464294,
          0.1570362150669098
        ],
        [
          0.03006383776664734,
          -0.0377785861492157,
          -0.0012919604778289795,
          -0.224123015999794,
          -0.18346016108989716,
          -0.21455171704292297,
          -0.22036579251289368,
          0.05013817548751831,
          -0.1411985456943512,
          0.17935529351234436,
          0.032725125551223755,
          -0.15809744596481323,
          -0.08281959593296051,
          0.19229662418365479,
          -0.07215732336044312
        ],
        [
          0.55027836561203,
          -0.3868565559387207,
          0.028356028720736504,
          0.012695107609033585,
          -0.20903515815734863,
          0.1718338280916214,
          -0.004296955652534962,
          -0.0039023226127028465,
          0.05821847543120384,
          -0.2796027362346649,
          -0.1467660367488861,
          0.034069452434778214,
          0.13454373180866241,
          0.18430469930171967,
          -0.043728847056627274
        ],
        [
          0.1291995793581009,
          -0.3314494490623474,
          -0.1064421534538269,
          -0.12810109555721283,
          -0.07179118692874908,
          -0.012147658504545689,
          -0.03206139802932739,
          0.20453369617462158,
          0.05141827464103699,
          -0.07019475847482681,
          -0.24681134521961212,
          0.12698040902614594,
          0.03206358477473259,
          -0.06328210979700089,
          0.07160601019859314
        ],
        [
          0.029495803639292717,
          0.8126567006111145,
          0.1864190548658371,
          -0.06177188456058502,
          0.14137668907642365,
          -0.04198691248893738,
          -0.07600382715463638,
          0.05906900763511658,
          -0.19366814196109772,
          0.04293406754732132,
          0.12063826620578766,
          -0.19238333404064178,
          0.15971988439559937,
          -0.24897730350494385,
          -0.1840861439704895
        ],
        [
          0.02004147507250309,
          -0.1577172428369522,
          -0.24180689454078674,
          -0.2088746577501297,
          -0.2766025960445404,
          -0.00020460368250496686,
          0.026926936581730843,
          -0.08822037279605865,
          0.16408906877040863,
          0.21733252704143524,
          0.15553943812847137,
          -0.06161728501319885,
          0.15307459235191345,
          0.12705008685588837,
          0.1531132310628891
        ],
        [
          0.19054989516735077,
          -0.2730746865272522,
          0.12833677232265472,
          0.10819835215806961,
          0.21494629979133606,
          0.07501766830682755,
          0.033508531749248505,
          -0.1979786604642868,
          0.11380112916231155,
          -0.09111625701189041,
          0.07419271022081375,
          0.05775183066725731,
          -0.09805706888437271,
          -0.10617566108703613,
          -0.040794771164655685
        ],
        [
          1.0109868049621582,
          -0.05529089644551277,
          0.1870441734790802,
          -0.058494847267866135,
          -0.3461564779281616,
          0.09059908241033554,
          -0.1314706951379776,
          0.11288951337337494,
          -0.17259323596954346,
          -0.16377681493759155,
          0.07275629788637161,
          -0.05585341155529022,
          -0.16921624541282654,
          0.29917487502098083,
          0.22869902849197388
        ],
        [
          0.9541316032409668,
          -0.2958810329437256,
          -0.0584225170314312,
          0.21739545464515686,
          -0.2482670098543167,
          0.06637902557849884,
          -0.17292775213718414,
          0.25132477283477783,
          0.08843664079904556,
          -0.1505647599697113,
          0.1747114211320877,
          0.0026501547545194626,
          -0.2644193768501282,
          -0.34048089385032654,
          -0.18882635235786438
        ],
        [
          0.42772960662841797,
          -0.22084468603134155,
          0.035098299384117126,
          -0.19283375144004822,
          -0.032822418957948685,
          -0.036501117050647736,
          -0.36035487055778503,
          0.29071399569511414,
          0.10766636580228806,
          -0.3014306426048279,
          0.2545415759086609,
          -0.07009626179933548,
          -0.17759200930595398,
          0.11307397484779358,
          0.15420177578926086
        ],
        [
          -0.15842509269714355,
          -0.021033838391304016,
          -0.1326722353696823,
          -0.04941819608211517,
          -0.12136860191822052,
          -0.1528729498386383,
          -0.23747076094150543,
          0.09581953287124634,
          0.14297494292259216,
          0.21204566955566406,
          0.08899441361427307,
          -0.21890093386173248,
          -0.1516548991203308,
          0.18807077407836914,
          0.12365224957466125
        ],
        [
          0.09792888909578323,
          -1.2812970876693726,
          -0.1430993378162384,
          0.05830550193786621,
          -0.02804332971572876,
          0.011247421614825726,
          -0.07158402353525162,
          -0.008855915628373623,
          -0.024856863543391228,
          0.3585365116596222,
          0.200580433011055,
          0.10343561321496964,
          -0.17849306762218475,
          0.22937548160552979,
          0.15762341022491455
        ],
        [
          -0.083472341299057,
          0.1344907283782959,
          -0.06141766905784607,
          -0.20777055621147156,
          -0.07956594228744507,
          -0.0844913125038147,
          -0.1940411478281021,
          0.2173694670200348,
          -0.06072130799293518,
          -0.09166744351387024,
          0.13359946012496948,
          -0.24015933275222778,
          -0.21662083268165588,
          -0.12045112252235413,
          0.04589354991912842
        ],
        [
          -0.9929183721542358,
          -0.16114415228366852,
          0.10842107981443405,
          -0.07996673136949539,
          0.03318062052130699,
          -0.18422873318195343,
          -0.08373702317476273,
          -0.13962945342063904,
          0.035790808498859406,
          0.10721112787723541,
          0.13360245525836945,
          0.01272396370768547,
          -0.2592160403728485,
          -0.11552039533853531,
          0.18206192553043365
        ],
        [
          0.790904700756073,
          0.19741478562355042,
          -0.09551988542079926,
          -0.23254668712615967,
          -0.06520918756723404,
          0.22752968966960907,
          0.17333024740219116,
          0.13980257511138916,
          -0.23033463954925537,
          0.04846354201436043,
          0.0974431037902832,
          0.11467307806015015,
          -0.008399185724556446,
          0.07124704122543335,
          0.17945173382759094
        ],
        [
          0.39354243874549866,
          0.24399273097515106,
          -0.16820545494556427,
          0.14499534666538239,
          -0.19278748333454132,
          -0.1613902747631073,
          0.24701225757598877,
          0.01826099492609501,
          0.19415311515331268,
          0.18246015906333923,
          -0.13590070605278015,
          0.09182976931333542,
          -0.14420348405838013,
          0.04287208989262581,
          0.20820502936840057
        ],
        [
          -0.1035226434469223,
          0.07514810562133789,
          -0.20114383101463318,
          -0.0017557144165039062,
          -0.1602899432182312,
          -0.19527792930603027,
          -0.022105619311332703,
          0.11746519804000854,
          -0.24129405617713928,
          0.043176859617233276,
          -0.01619139313697815,
          0.06935295462608337,
          -0.2259541004896164,
          -0.032051458954811096,
          0.049713730812072754
        ]
      ],
      "biases": [
        -0.21571245789527893,
        -0.08534063398838043,
        -0.30709102749824524,
        0.217503622174263,
        0.014409355819225311,
        0.19256776571273804,
        -0.20125451683998108,
        -0.22543001174926758,
        -0.13632163405418396,
        0.20011058449745178,
        0.05280829966068268,
        -0.08184836804866791,
        0.12064151465892792,
        -0.274341881275177,
        -0.08317066729068756,
        -0.05080796405673027,
        0.12592275440692902,
        -0.14734618365764618,
        -0.1739635467529297,
        -0.26933884620666504,
        -0.1525038182735443,
        0.1755363643169403,
        -0.1775236576795578,
        -0.21180211007595062,
        0.16896679997444153,
        -0.11710784584283829,
        -0.3207576870918274,
        0.0810706689953804,
        0.022823870182037354,
        -0.08992759883403778,
        0.15164878964424133,
        0.08144646137952805,
        -0.1395571380853653,
        0.07897475361824036,
        0.07720565795898438,
        0.006952372845262289,
        0.04688476026058197,
        -0.2080257534980774,
        -0.1370496153831482,
        -0.04499461129307747,
        0.007452391088008881,
        0.015240415930747986,
        0.08180710673332214,
        -0.20405100286006927,
        -0.023905381560325623,
        0.12208100408315659,
        -0.21009865403175354,
        -0.052458055317401886,
        -0.08676183223724365,
        -0.1047893837094307,
        -0.2852405905723572,
        -0.2050020843744278,
        -0.22737066447734833,
        0.08044406026601791,
        -0.007966856472194195,
        0.1308746635913849,
        0.15168693661689758,
        -0.17329201102256775,
        -0.050519734621047974,
        -0.21601739525794983,
        0.08503450453281403,
        -0.061839573085308075,
        -0.19448263943195343,
        -0.18770131468772888
      ]
    },
    {
      "name": "1",
      "kind": "ReLU"
    },
    {
      "name": "2",
      "kind": "Linear",
      "inputSize": 64,
      "outputSize": 64,
      "hasBiases": true,
      "weights": [
        [
          0.03366689383983612,
          -0.4058530330657959,
          0.07155352830886841,
          -0.09947118908166885,
          -0.03837170824408531,
          0.061993833631277084,
          0.039818935096263885,
          -0.12865155935287476,
          0.04385729134082794,
          0.08990392833948135,
          -0.018154311925172806,
          0.030046269297599792,
          -0.133839949965477,
          0.022633511573076248,
          -0.05917854607105255,
          -0.14708979427814484,
          -0.17272792756557465,
          0.059071026742458344,
          0.12368787825107574,
          -0.01188600342720747,
          -0.04814056307077408,
          0.02270280197262764,
          0.06301119178533554,
          0.024583499878644943,
          0.09394330531358719,
          -0.08666083961725235,
          -0.026599355041980743,
          -0.03806878253817558,
          -0.07177434861660004,
          0.028782131150364876,
          0.11023613810539246,
          -0.1006317213177681,
          -0.15133549273014069,
          -0.10578933358192444,
          0.11839228123426437,
          -0.354629248380661,
          -0.06334120780229568,
          0.11691822111606598,
          0.06145191937685013,
          -0.018035409972071648,
          0.048980340361595154,
          -0.07743329554796219,
          0.12666943669319153,
          -0.022304031997919083,
          -0.11328782141208649,
          -0.07537192851305008,
          0.043050870299339294,
          -0.06475672870874405,
          0.07852061092853546,
          -0.06205345690250397,
          -0.02120347134768963,
          -0.13427409529685974,
          -0.022837460041046143,
          0.07030963897705078,
          -0.07838364690542221,
          0.1363045573234558,
          -0.0921124741435051,
          0.08452059328556061,
          0.07637175172567368,
          -0.06866726279258728,
          0.019510967656970024,
          0.022854842245578766,
          -0.00499099912121892,
          0.0765153020620346
        ],
        [
          -0.00808324571698904,
          -0.011053451336920261,
          -0.15296196937561035,
          -0.10671594738960266,
          0.07717198878526688,
          -0.06544112414121628,
          0.069576196372509,
          -0.10694204270839691,
          -0.05313386023044586,
          -0.0108744902536273,
          -0.0039159865118563175,
          -0.07694891095161438,
          -0.020309679210186005,
          0.08235164731740952,
          -0.08357727527618408,
          -0.07879964262247086,
          0.0488998219370842,
          -0.14259646832942963,
          -0.10791733860969543,
          0.025007493793964386,
          -0.2315348982810974,
          0.020282801240682602,
          -0.12838049232959747,
          -0.1630323976278305,
          -0.05188721790909767,
          -0.04447115212678909,
          0.04327874258160591,
          0.08762852847576141,
          -0.00496809184551239,
          0.017772292718291283,
          0.09418366104364395,
          -0.08952067792415619,
          0.1721682995557785,
          0.02955283224582672,
          -0.12009435147047043,
          0.19732005894184113,
          -0.058557819575071335,
          -0.025283262133598328,
          -0.06352918595075607,
          -0.06479352712631226,
          -0.05212606489658356,
          0.03201870992779732,
          -0.11167534440755844,
          -0.08699211478233337,
          0.0519522987306118,
          -0.0433414988219738,
          0.05807593837380409,
          0.01883719488978386,
          0.06052123010158539,
          -0.0969502404332161,
          -0.13068930804729462,
          -0.07296764105558395,
          0.06674224138259888,
          -0.09230633080005646,
          -0.1822444498538971,
          -0.08558816462755203,
          -0.17589877545833588,
          0.10315316915512085,
          0.3142401874065399,
          -0.05860908329486847,
          0.0030728867277503014,
          -0.061376262456178665,
          0.14338472485542297,
          -0.03929542005062103
        ],
        [
          -0.0010408404050394893,
          -0.03560834378004074,
          0.016565298661589622,
          -0.10750584304332733,
          -0.04400769621133804,
          -0.006502966396510601,
          0.0382746197283268,
          0.02794782817363739,
          0.05190582573413849,
          -0.050430722534656525,
          -0.021858032792806625,
          -0.06576156616210938,
          0.013662518933415413,
          -0.07599616795778275,
          0.08667248487472534,
          0.05853639170527458,
          -0.020103061571717262,
          -0.10734457522630692,
          -0.09274962544441223,
          -0.13878712058067322,
          0.0009394094813615084,
          -0.06782733649015427,
          0.04421297833323479,
          0.08984604477882385,
          -0.03609319031238556,
          -0.021841619163751602,
          -0.0036805851850658655,
          -0.06269403547048569,
          0.06348992884159088,
          -0.11809313297271729,
          -0.006977579556405544,
          0.04808612912893295,
          0.0468454584479332,
          -0.031064746901392937,
          -0.0020466321147978306,
          -0.07504960894584656,
          0.06376713514328003,
          -0.00988045334815979,
          0.010204598307609558,
          0.01532212644815445,
          -0.05108975991606712,
          -0.028664903715252876,
          -0.04476655274629593,
          0.07772013545036316,
          -0.1322566419839859,
          0.042312558740377426,
          -0.17127887904644012,
          -0.04395749419927597,
          0.0915326476097107,
          -0.12939736247062683,
          0.026137277483940125,
          0.002668731613084674,
          -0.0073356227949261665,
          0.039202746003866196,
          0.09340314567089081,
          -0.08116991817951202,
          0.0069188387133181095,
          -0.02310575544834137,
          0.046646226197481155,
          -0.07624948024749756,
          -0.009087643586099148,
          0.020493915304541588,
          -0.08605218678712845,
          0.004582881927490234
        ],
        [
          0.04657956212759018,
          -0.1715027242898941,
          0.059750352054834366,
          -0.10383281856775284,
          -0.011417691595852375,
          0.015688929706811905,
          -0.22201701998710632,
          -0.05211140215396881,
          -0.012749910354614258,
          -0.07401591539382935,
          -0.2366260290145874,
          0.21357963979244232,
          -0.08220656961202621,
          -0.04077911376953125,
          0.007241889834403992,
          -0.11016776412725449,
          0.027858978137373924,
          0.005611566361039877,
          -0.08538401126861572,
          0.0468294620513916,
          0.031003450974822044,
          0.030732158571481705,
          0.018810952082276344,
          0.001009626779705286,
          -0.1590431183576584,
          -0.045319896191358566,
          -0.10261815041303635,
          -0.03104500100016594,
          0.11295627057552338,
          0.16961072385311127,
          -0.0012035086983814836,
          0.1250831037759781,
          0.0712621808052063,
          0.05743563920259476,
          0.04494742304086685,
          -0.15852151811122894,
          -0.08627035468816757,
          0.029229238629341125,
          -0.01516328938305378,
          0.1428740918636322,
          -0.0754949301481247,
          -0.16160143911838531,
          0.03122982382774353,
          -0.07554687559604645,
          0.08321217447519302,
          -0.1674686074256897,
          0.03047744370996952,
          0.00940967071801424,
          0.013374358415603638,
          0.07815400511026382,
          0.0009597710450179875,
          -0.03495795652270317,
          -0.07910630851984024,
          -0.011801575310528278,
          -0.07185697555541992,
          0.05459015443921089,
          0.08284108340740204,
          0.09366600215435028,
          -0.16055342555046082,
          0.01964111626148224,
          0.0497765839099884,
          0.033405374735593796,
          0.03411862999200821,
          0.1221272200345993
        ],
        [
          0.08576029539108276,
          -0.057824794203042984,
          -0.05865735188126564,
          0.07689066231250763,
          0.032137077301740646,
          0.028955724090337753,
          -0.021700695157051086,
          0.03881483152508736,
          -0.09214799106121063,
          -0.11229284107685089,
          -0.14614242315292358,
          0.08667805790901184,
          -0.07226605713367462,
          -0.12500862777233124,
          -0.11138246953487396,
          -0.06045585870742798,
          0.09390312433242798,
          -0.15129676461219788,
          -0.05394566059112549,
          -0.06050323694944382,
          0.09145225584506989,
          -0.1317361742258072,
          0.07308774441480637,
          -0.08473385870456696,
          0.02002391777932644,
          0.07389511168003082,
          0.05979238823056221,
          0.07737060636281967,
          -0.018457338213920593,
          -0.12455133348703384,
          0.032308030873537064,
          -0.10255745053291321,
          -0.0496552437543869,
          0.10166801512241364,
          0.05938640236854553,
          0.09606485813856125,
          -0.03404678404331207,
          -0.018742933869361877,
          -0.019028756767511368,
          0.05313137546181679,
          0.00460690027102828,
          0.10551778227090836,
          -0.1437239795923233,
          -0.07073311507701874,
          0.018309742212295532,
          -0.03759400546550751,
          0.0652354285120964,
          -0.01277979463338852,
          -0.07023453712463379,
          -0.06962982565164566,
          -0.12173591554164886,
          -0.08334461599588394,
          -0.003070197533816099,
          -0.07355878502130508,
          -0.07827365398406982,
          0.06797908246517181,
          -0.1005871444940567,
          0.014641478657722473,
          -0.09667780250310898,
          -0.027320876717567444,
          0.052766285836696625,
          0.03136790916323662,
          0.1112140566110611,
          0.022081315517425537
        ],
        [
          -0.043204165995121,
          0.05639283359050751,
          -0.12628807127475739,
          -0.09486314654350281,
          -0.07775413244962692,
          0.027125539258122444,
          0.07229997962713242,
          0.06510937213897705,
          -0.09152001142501831,
          0.07876534759998322,
          -0.003638847731053829,
          0.08002577722072601,
          0.060678932815790176,
          -0.08911773562431335,
          0.0984123945236206,
          -0.1424635946750641,
          -0.10374221205711365,
          -0.14426155388355255,
          -0.025177359580993652,
          -0.010932228527963161,
          -0.0007897588075138628,
          0.017914248630404472,
          0.017360134050250053,
          -0.12889941036701202,
          0.0293201245367527,
          -0.034540627151727676,
          0.015819864347577095,
          -0.09237553924322128,
          0.06169852614402771,
          -0.07652638852596283,
          0.08659353852272034,
          -0.12942655384540558,
          -0.02731846272945404,
          -0.0579630583524704,
          -0.10227318108081818,
          0.039607156068086624,
          0.026065731421113014,
          -0.0505298376083374,
          -0.11673490703105927,
          -0.08231373876333237,
          -0.009222026914358139,
          -0.04974958300590515,
          -0.04241431504487991,
          -0.04223884269595146,
          0.0698939710855484,
          -0.12068366259336472,
          -0.10649164766073227,
          -0.03034552000463009,
          -0.107468381524086,
          0.019931336864829063,
          0.056038741022348404,
          -0.12728235125541687,
          0.013041488826274872,
          -0.20176029205322266,
          0.10311143100261688,
          0.09606394171714783,
          0.10935001075267792,
          0.06153641641139984,
          0.03816143050789833,
          0.116966113448143,
          -0.10456158965826035,
          0.08106398582458496,
          -0.03817340359091759,
          -0.08914259076118469
        ],
        [
          -0.06210777536034584,
          -0.07311368733644485,
          -0.032184526324272156,
          -0.04392477869987488,
          -0.071844682097435,
          0.07944522053003311,
          -0.26742812991142273,
          0.0145588219165802,
          0.06779263913631439,
          -0.052601952105760574,
          -0.008635330013930798,
          0.06821421533823013,
          -0.0735975056886673,
          0.052633654326200485,
          -0.083828866481781,
          0.002180849900469184,
          -0.04095233604311943,
          0.002164818113669753,
          0.008604288101196289,
          -0.01338917575776577,
          -0.05560668557882309,
          0.04946707934141159,
          0.10032812505960464,
          0.04306609183549881,
          0.11558929085731506,
          -0.04845932498574257,
          0.04084082320332527,
          -0.0389181487262249,
          -0.026556402444839478,
          0.1135660856962204,
          -0.03995165228843689,
          -0.049521178007125854,
          0.03022788278758526,
          0.017855044454336166,
          -0.051468074321746826,
          -0.3309907615184784,
          -0.10325433313846588,
          -0.03698401153087616,
          0.010583017021417618,
          0.03938145935535431,
          0.05215940624475479,
          0.10165772587060928,
          0.06967857480049133,
          -0.10019515454769135,
          -0.15891636908054352,
          0.050080541521310806,
          0.0965435728430748,
          -0.11186806112527847,
          -0.09983018040657043,
          0.010919255204498768,
          0.011657577008008957,
          -0.029097802937030792,
          0.11007355153560638,
          0.0797448456287384,
          -0.02029055915772915,
          -0.13071094453334808,
          -0.04989372566342354,
          0.013170763850212097,
          -0.007418368477374315,
          0.05643950402736664,
          -0.03829006105661392,
          -0.3171652555465698,
          -0.06240946799516678,
          -0.12267793715000153
        ],
        [
          0.006476481445133686,
          0.06319991499185562,
          -0.03994645178318024,
          0.04398561269044876,
          0.04114232584834099,
          -0.08675047010183334,
          0.10697425156831741,
          -0.1183425784111023,
          0.07161170244216919,
          -0.04032868519425392,
          0.0042207324877381325,
          -0.20358425378799438,
          -0.1222185418009758,
          0.02446790784597397,
          -0.12295712530612946,
          0.0820499062538147,
          -0.15511684119701385,
          -0.12822037935256958,
          0.005035504698753357,
          -0.19623588025569916,
          0.07958535104990005,
          0.022393228486180305,
          -0.1311284303665161,
          0.14495137333869934,
          -0.09139635413885117,
          0.1612207293510437,
          0.08348825573921204,
          0.025945182889699936,
          -0.0015077143907546997,
          -0.08548007160425186,
          -0.1033191978931427,
          -0.17784103751182556,
          -0.09701638668775558,
          0.11529992520809174,
          0.020748864859342575,
          0.19657844305038452,
          0.2109367698431015,
          0.05124908685684204,
          0.06175000220537186,
          0.013846873305737972,
          -0.058114081621170044,
          -0.035992033779621124,
          -0.01878958009183407,
          0.08910863101482391,
          -0.11437013000249863,
          -0.08085046708583832,
          0.018160058185458183,
          -0.04774148389697075,
          -0.049703449010849,
          0.0041778855957090855,
          0.0391727052628994,
          -0.020127352327108383,
          -0.06097949296236038,
          -0.031143298372626305,
          0.028452882543206215,
          -0.051284708082675934,
          0.07720822840929031,
          0.03881651163101196,
          -0.028764910995960236,
          0.09663137793540955,
          -0.003595460671931505,
          0.008608262985944748,
          0.028220197185873985,
          0.0007585138082504272
        ],
        [
          -0.08850285410881042,
          0.5482515096664429,
          -0.2876068353652954,
          0.0538497120141983,
          -0.051558878272771835,
          0.04647192731499672,
          -0.12002268433570862,
          0.0514456145465374,
          -0.07215699553489685,
          0.06020886451005936,
          0.07340146601200104,
          -0.04759506508708,
          -0.4284622073173523,
          0.15189090371131897,
          0.08119113743305206,
          0.07492663711309433,
          -0.052418407052755356,
          -0.11714509129524231,
          -0.09090667963027954,
          -0.07257166504859924,
          -0.007428477052599192,
          -0.017627911642193794,
          -0.05847308412194252,
          -0.09878230094909668,
          0.06716962903738022,
          0.389220654964447,
          -0.20763280987739563,
          0.20607714354991913,
          0.020139828324317932,
          -0.15072101354599,
          -0.18846780061721802,
          0.08163812011480331,
          -0.1743992567062378,
          0.10464687645435333,
          -0.0909344032406807,
          0.12603223323822021,
          0.2136843502521515,
          -0.0834844559431076,
          0.3257383406162262,
          0.055898576974868774,
          -0.009334797970950603,
          -0.009281676262617111,
          0.018688751384615898,
          0.08603035658597946,
          0.03956868126988411,
          -0.41965630650520325,
          0.03684263303875923,
          -0.016747459769248962,
          -0.10644330084323883,
          -0.09153848141431808,
          -0.10586240887641907,
          -0.20544420182704926,
          0.030959343537688255,
          0.05073120817542076,
          -0.10172754526138306,
          -0.13368161022663116,
          -0.23635633289813995,
          0.019585788249969482,
          0.2190943956375122,
          0.07922707498073578,
          0.1589003950357437,
          -0.08745267242193222,
          -0.12017478793859482,
          0.037919238209724426
        ],
        [
          0.09779788553714752,
          0.0061339763924479485,
          -0.011459648609161377,
          -0.03433692455291748,
          0.03698106110095978,
          0.00444768974557519,
          0.08866915106773376,
          -0.017728716135025024,
          0.02360306680202484,
          -0.08538046479225159,
          -0.03147994726896286,
          0.07860863208770752,
          0.08963125944137573,
          -0.001969291362911463,
          0.022296950221061707,
          -0.004442891106009483,
          -0.0804600864648819,
          -0.012421071529388428,
          0.06171277165412903,
          -0.06404036283493042,
          -0.09514941275119781,
          -0.006220608483999968,
          -0.09163602441549301,
          0.003625626675784588,
          -0.11091761291027069,
          0.1056704968214035,
          0.012624623253941536,
          0.07000268250703812,
          -0.0018911212682724,
          -0.13525183498859406,
          -0.021925076842308044,
          -0.027606546878814697,
          0.08299590647220612,
          0.02287416160106659,
          -0.056030213832855225,
          0.017862999811768532,
          0.09799209982156754,
          -0.028410717844963074,
          -0.10523161292076111,
          0.0598490871489048,
          -0.022489503026008606,
          0.0054460852406919,
          0.00823582150042057,
          -0.10636693239212036,
          -0.039538800716400146,
          -0.06716048717498779,
          0.09150921553373337,
          0.0811089277267456,
          -0.09071125090122223,
          -0.0746382400393486,
          0.10642066597938538,
          -0.0801987573504448,
          -0.11670108139514923,
          -0.11149592697620392,
          -0.07362395524978638,
          -0.10014109313488007,
          0.09292206913232803,
          0.008716702461242676,
          0.011727050878107548,
          0.09245918691158295,
          -0.07278788089752197,
          -0.10847076773643494,
          0.0005929619073867798,
          0.06578896939754486
        ],
        [
          -0.05848383903503418,
          0.10722391307353973,
          -0.016633281484246254,
          -0.02733456902205944,
          -0.08254537731409073,
          0.016016654670238495,
          0.042886391282081604,
          -0.044210463762283325,
          -0.08057582378387451,
          0.010783135890960693,
          0.01473119668662548,
          0.016657112166285515,
          -0.05436598137021065,
          -0.015620962716639042,
          -0.09330888092517853,
          -0.05110688507556915,
          -0.003298536641523242,
          -0.022093400359153748,
          -0.11816245317459106,
          -0.11584974825382233,
          0.04060585796833038,
          -0.08732376992702484,
          -0.012338701635599136,
          0.0965689867734909,
          -0.11919166147708893,
          -0.04583553969860077,
          -0.06954442709684372,
          0.011591672897338867,
          -0.10505418479442596,
          -0.13622787594795227,
          0.004270210396498442,
          -0.017906777560710907,
          0.013667166233062744,
          0.016257137060165405,
          0.10441713035106659,
          0.11034351587295532,
          0.11728675663471222,
          0.03846168518066406,
          0.019236402586102486,
          0.06441475450992584,
          -0.0018482452724128962,
          -0.06298138201236725,
          -0.0791732519865036,
          0.02536671981215477,
          0.041663751006126404,
          -0.018067285418510437,
          0.07755307108163834,
          -0.12117058783769608,
          0.0024196654558181763,
          -0.06446811556816101,
          -0.10641421377658844,
          -0.13546589016914368,
          0.09212151169776917,
          -0.025070134550333023,
          0.021783560514450073,
          -0.0011130273342132568,
          -0.009361968375742435,
          -0.10810251533985138,
          0.008520558476448059,
          -0.09758514165878296,
          0.06950318068265915,
          0.046868517994880676,
          -0.08903062343597412,
          0.07071034610271454
        ],
        [
          0.04710294306278229,
          0.15152494609355927,
          0.13764722645282745,
          -0.24214580655097961,
          0.01859184540808201,
          -0.03546155244112015,
          0.3408145308494568,
          -0.11221776902675629,
          0.10741227865219116,
          0.10089022666215897,
          -0.030433718115091324,
          -0.09895386546850204,
          0.0410567969083786,
          -0.1757085770368576,
          -0.1235751062631607,
          0.15797975659370422,
          -0.042283423244953156,
          -0.13409416377544403,
          0.06643630564212799,
          0.041980549693107605,
          0.03179021179676056,
          -0.18071821331977844,
          0.01815936528146267,
          0.03204787150025368,
          0.09568338096141815,
          0.36143988370895386,
          -0.14681611955165863,
          0.16658496856689453,
          -0.03956510126590729,
          -0.1698175072669983,
          -0.09254230558872223,
          0.03827822953462601,
          -0.1675516813993454,
          -0.07487979531288147,
          -0.18335537612438202,
          0.3696625828742981,
          0.05099029466509819,
          0.036967262625694275,
          -0.11190911382436752,
          -0.1832239031791687,
          0.017905354499816895,
          -0.008378889411687851,
          0.06294136494398117,
          -0.05246824398636818,
          0.029513472691178322,
          -0.2986682653427124,
          0.10470680892467499,
          -0.008557939901947975,
          -0.04700519144535065,
          -0.0902041420340538,
          -0.10008244961500168,
          -0.0065191155299544334,
          -0.07327539473772049,
          -0.17727871239185333,
          0.1679363250732422,
          -0.08028712123632431,
          -0.04881810024380684,
          0.07727518677711487,
          0.08397551625967026,
          0.057700127363204956,
          -0.11426961421966553,
          -0.045281682163476944,
          -0.0064049954526126385,
          0.011779218912124634
        ],
        [
          -0.01860816963016987,
          0.07825228571891785,
          0.011095086112618446,
          0.056579262018203735,
          -0.09101589024066925,
          -0.10494387894868851,
          0.1083679348230362,
          -0.07229341566562653,
          0.06429025530815125,
          -0.12228654325008392,
          -0.025968875735998154,
          -0.061831459403038025,
          -0.11561845242977142,
          -0.0640992745757103,
          -0.12041322886943817,
          0.007382617332041264,
          -0.041609104722738266,
          0.009963824413716793,
          -0.08381056785583496,
          0.07725659012794495,
          -0.09438469260931015,
          -0.09467191994190216,
          0.03943689540028572,
          -0.11551746726036072,
          0.07756559550762177,
          -0.0009360582916997373,
          0.03822143375873566,
          0.08702660351991653,
          0.11551737785339355,
          4.0258273656945676e-05,
          0.04390150308609009,
          -0.11671191453933716,
          -0.06324434280395508,
          -0.0556969940662384,
          -0.03530284762382507,
          -0.011271548457443714,
          -0.10665777325630188,
          0.01752305030822754,
          -0.11323801428079605,
          -0.05009552463889122,
          0.03018493950366974,
          0.05616481602191925,
          0.07242920249700546,
          -0.05056895315647125,
          0.11154498159885406,
          -0.07551364600658417,
          0.03723633289337158,
          0.0032847255934029818,
          0.0723583847284317,
          -0.10185182839632034,
          -0.12306860089302063,
          0.028909942135214806,
          -0.13800139725208282,
          -0.08915863931179047,
          0.01968550682067871,
          0.015783965587615967,
          -0.04759912192821503,
          0.08054499328136444,
          -0.06532123684883118,
          -0.027058660984039307,
          0.037507932633161545,
          0.02705061435699463,
          0.05035507678985596,
          0.10645265877246857
        ],
        [
          -0.0965171679854393,
          -0.21312099695205688,
          -0.035189203917980194,
          0.08463910967111588,
          0.16726309061050415,
          -0.09131113439798355,
          0.0065503232181072235,
          0.07920429110527039,
          -0.11643370985984802,
          0.020203202962875366,
          -0.11695772409439087,
          0.013647421263158321,
          -0.015167671255767345,
          -0.004294338636100292,
          -0.12197412550449371,
          0.018041128292679787,
          0.0864647701382637,
          0.023759543895721436,
          -0.03116534650325775,
          0.03801625967025757,
          0.040660686790943146,
          0.11682258546352386,
          -0.0023845944087952375,
          -0.11549525707960129,
          -0.2082981914281845,
          0.07212024927139282,
          0.12607687711715698,
          0.02033531852066517,
          -0.09803815186023712,
          -0.038982030004262924,
          -0.03291809558868408,
          -0.007733508013188839,
          0.03263762593269348,
          -0.04622175917029381,
          0.20089393854141235,
          0.06532631069421768,
          0.2073095738887787,
          0.07754604518413544,
          -0.012210355140268803,
          0.028824450448155403,
          0.06546266376972198,
          0.07971770316362381,
          -0.04240642860531807,
          -0.21435779333114624,
          -0.10898742824792862,
          0.1252806931734085,
          -0.030274303629994392,
          -0.05052153393626213,
          -0.09026335179805756,
          0.10171304643154144,
          -0.08873467892408371,
          0.07587211579084396,
          -0.11289786547422409,
          0.006283256225287914,
          0.09531159698963165,
          -0.11267363280057907,
          -0.02117213048040867,
          -0.024544119834899902,
          0.016203848645091057,
          -0.10458624362945557,
          -0.11254521459341049,
          -0.1019945964217186,
          0.20014435052871704,
          0.047483548521995544
        ],
        [
          -0.04550576210021973,
          0.11771298944950104,
          -0.04441949725151062,
          0.04690754413604736,
          -0.011006087064743042,
          -0.09085515141487122,
          -0.07527536153793335,
          0.0016086101531982422,
          0.013968735933303833,
          -0.12192738056182861,
          -0.09038639068603516,
          0.06817644834518433,
          0.05239115655422211,
          0.10634247958660126,
          -0.058638885617256165,
          -0.05639401078224182,
          0.11653724312782288,
          -0.11184501647949219,
          -0.03559315204620361,
          -0.12498621642589569,
          -0.055473774671554565,
          -0.05023138225078583,
          -0.0047338008880615234,
          -0.058086514472961426,
          0.0525311678647995,
          0.0070047080516815186,
          -0.12018260359764099,
          -0.09670713543891907,
          0.06364606320858002,
          -0.05128587782382965,
          -0.07959388196468353,
          -0.084061399102211,
          0.015264257788658142,
          0.10772474110126495,
          -0.022534221410751343,
          -0.12001991271972656,
          -0.0572725385427475,
          0.059358999133110046,
          -0.05788429081439972,
          -0.04097898304462433,
          0.08533519506454468,
          0.07454782724380493,
          -0.026907071471214294,
          -0.024792343378067017,
          -0.05595017969608307,
          0.08256545662879944,
          -0.08599534630775452,
          -0.08431771397590637,
          0.05045969784259796,
          -0.11571723222732544,
          0.053026750683784485,
          -0.02818414568901062,
          0.05230063199996948,
          -0.10612219572067261,
          0.10294099152088165,
          -0.01285456120967865,
          0.012864142656326294,
          0.117392897605896,
          -0.09206685423851013,
          -0.06042279303073883,
          0.00821736454963684,
          0.08021605014801025,
          -0.0637984573841095,
          -0.09078894555568695
        ],
        [
          0.04336429387331009,
          0.04424092546105385,
          0.029772425070405006,
          0.011600511148571968,
          -0.24590998888015747,
          -0.009619886986911297,
          0.2712472677230835,
          0.02443086728453636,
          0.11112338304519653,
          0.00896297488361597,
          0.1234297826886177,
          -0.03252186253666878,
          -0.07927775382995605,
          -0.37714439630508423,
          -0.10530348122119904,
          -0.03105083853006363,
          -0.04367303475737572,
          0.08697546273469925,
          -0.12044429779052734,
          0.018261998891830444,
          0.035099148750305176,
          -0.040744468569755554,
          0.03209942206740379,
          0.042026691138744354,
          0.13763295114040375,
          0.38339781761169434,
          0.046035218983888626,
          0.02104203775525093,
          -0.09472380578517914,
          -0.04157334938645363,
          0.09621457010507584,
          0.026174314320087433,
          -0.08648139238357544,
          -0.08051342517137527,
          0.1722315102815628,
          0.011963710188865662,
          0.3453211784362793,
          0.08801987767219543,
          0.04000663012266159,
          -0.028431570157408714,
          0.002304755849763751,
          0.17730478942394257,
          0.05831063166260719,
          0.03300963714718819,
          -0.13819928467273712,
          -0.09410981833934784,
          0.04516274854540825,
          -0.13747066259384155,
          -0.062353044748306274,
          -0.024393485859036446,
          0.04726944863796234,
          -0.02608359232544899,
          -0.11431022733449936,
          -0.13611137866973877,
          -0.010569844394922256,
          -0.08467792719602585,
          -0.2502247095108032,
          -0.033388733863830566,
          -0.3411356508731842,
          0.10313400626182556,
          0.01372253056615591,
          -0.062086936086416245,
          0.05306999012827873,
          -0.052947089076042175
        ],
        [
          0.060976382344961166,
          -0.21634525060653687,
          -0.10250429064035416,
          0.05754804238677025,
          0.0321517251431942,
          -0.1011628583073616,
          -0.04452282562851906,
          -0.044198740273714066,
          0.08524741232395172,
          -0.006154045462608337,
          -0.01917586289346218,
          -0.08433976769447327,
          0.07925844192504883,
          -0.03531463444232941,
          -0.10301491618156433,
          -0.0692029744386673,
          -0.17408116161823273,
          -0.04742765426635742,
          -0.021873831748962402,
          -0.03533128276467323,
          0.043628059327602386,
          0.12777961790561676,
          0.022863274440169334,
          -0.12480765581130981,
          -0.03241581469774246,
          -0.1440572887659073,
          -0.043087296187877655,
          -0.06839019060134888,
          0.08771944046020508,
          0.00530255725607276,
          0.07157960534095764,
          0.04528375342488289,
          -0.022470995783805847,
          -0.10275323688983917,
          -0.013514856807887554,
          -0.15751591324806213,
          -0.06314028799533844,
          -0.05286243557929993,
          -0.04265492781996727,
          -0.016953876242041588,
          -0.017809877172112465,
          0.039352718740701675,
          -0.11395438760519028,
          -0.0007485547685064375,
          0.012220683507621288,
          0.01791399158537388,
          -0.05537167191505432,
          0.07272785902023315,
          0.11833080649375916,
          0.043488942086696625,
          -0.07465840876102448,
          0.08933806419372559,
          0.07975585758686066,
          0.041659917682409286,
          0.019893918186426163,
          0.029413005337119102,
          -0.05240878835320473,
          -0.028673261404037476,
          0.10046597570180893,
          0.028067439794540405,
          -0.0015414556255564094,
          0.1963820904493332,
          0.06811493635177612,
          0.07194934785366058
        ],
        [
          0.08079613000154495,
          -0.17813481390476227,
          0.2163473516702652,
          -0.04416126012802124,
          -0.300176203250885,
          -0.16332069039344788,
          0.11387577652931213,
          0.030039329081773758,
          -0.0984775722026825,
          0.008562598377466202,
          0.13873949646949768,
          0.0001505104883108288,
          -0.14616864919662476,
          -0.71356600522995,
          -0.05476389825344086,
          0.13844160735607147,
          -0.21168160438537598,
          0.07287809997797012,
          0.09533339738845825,
          0.1355777084827423,
          0.16359126567840576,
          -0.03954857587814331,
          0.09876333922147751,
          0.12533916532993317,
          -0.017772657796740532,
          0.2012280970811844,
          -0.16112065315246582,
          0.14786729216575623,
          0.011946499347686768,
          -0.01605318672955036,
          0.11242936551570892,
          -0.03238797187805176,
          -0.12798194587230682,
          -0.1159605085849762,
          0.025931281968951225,
          0.20857614278793335,
          -0.018061548471450806,
          0.04874524474143982,
          0.04833385348320007,
          -0.15244561433792114,
          0.03089696168899536,
          0.056171491742134094,
          0.2648022472858429,
          0.03744291514158249,
          -0.07745922356843948,
          0.19912154972553253,
          0.043060872703790665,
          -0.11510902643203735,
          -0.02038973569869995,
          -0.048921044915914536,
          -0.17001308500766754,
          0.10887087881565094,
          0.0031789776403456926,
          -0.10204794257879257,
          -0.31951242685317993,
          -0.29792293906211853,
          -0.1078033521771431,
          -0.10678111016750336,
          -0.5076103806495667,
          0.0934087336063385,
          -0.13869857788085938,
          0.036513540893793106,
          -0.18040615320205688,
          0.06549493968486786
        ],
        [
          -0.04054449126124382,
          -0.01873757503926754,
          0.06340719014406204,
          -0.23160037398338318,
          0.007664593402296305,
          -0.0007887331885285676,
          0.00927923247218132,
          0.01964310184121132,
          -0.10284455120563507,
          -0.0076475590467453,
          -0.03577573224902153,
          -0.15307633578777313,
          0.047008685767650604,
          0.09884025901556015,
          -0.06640271842479706,
          -0.1336173415184021,
          -0.0752253532409668,
          0.11464626342058182,
          0.021991297602653503,
          -0.08641649037599564,
          -0.05054425075650215,
          0.002157034119591117,
          -0.04420024901628494,
          0.04997441545128822,
          -0.29904627799987793,
          -0.010678261518478394,
          0.05741728097200394,
          -0.05346469581127167,
          0.0988263487815857,
          -0.0039348178543150425,
          0.10601864755153656,
          -0.15653885900974274,
          -0.1747695803642273,
          -0.060537584125995636,
          0.015256604179739952,
          0.07093309611082077,
          -0.1897023469209671,
          0.007156074047088623,
          0.07364214211702347,
          -0.0358501598238945,
          -0.052389368414878845,
          -0.10268117487430573,
          0.0201853197067976,
          -0.08575742691755295,
          0.033113282173871994,
          0.015210532583296299,
          -0.12163001298904419,
          -0.08232775330543518,
          0.052923187613487244,
          0.015549677424132824,
          0.11343909800052643,
          0.08323566615581512,
          0.0679539367556572,
          0.05668078735470772,
          0.025153400376439095,
          -0.040867723524570465,
          -0.08806300908327103,
          -0.00651569664478302,
          -0.0349331796169281,
          -0.002392023801803589,
          0.018043210729956627,
          0.008328947238624096,
          0.029853591695427895,
          -0.11404992640018463
        ],
        [
          -0.031238030642271042,
          -0.020387910306453705,
          -0.26294976472854614,
          -0.27672523260116577,
          -0.011545747518539429,
          0.1324048936367035,
          -0.014934791252017021,
          -0.0023585043381899595,
          0.013237744569778442,
          -0.07108389586210251,
          0.08126232773065567,
          -0.593707263469696,
          -0.06221267208456993,
          0.22753529250621796,
          0.053410932421684265,
          0.06776485592126846,
          -0.045312050729990005,
          -0.05085139349102974,
          -0.02088358998298645,
          -0.1065492108464241,
          -0.15056036412715912,
          0.1703464686870575,
          -0.06439026445150375,
          0.12901659309864044,
          0.1058226227760315,
          -0.01986667700111866,
          0.028402362018823624,
          -0.1208864226937294,
          -0.06693646311759949,
          -0.03585376590490341,
          -0.15047003328800201,
          -0.02755141071975231,
          -0.2893863916397095,
          0.10277976840734482,
          0.07588218152523041,
          -0.17990326881408691,
          0.04041234403848648,
          -0.09520520269870758,
          -0.18138137459754944,
          0.031031303107738495,
          -0.0430867001414299,
          0.06623338907957077,
          -0.2058897167444229,
          0.07527948170900345,
          0.015118877403438091,
          0.07269652932882309,
          0.01212512981146574,
          -0.05621526762843132,
          -0.024384886026382446,
          -0.11556878685951233,
          0.13683786988258362,
          0.006145265884697437,
          0.15274928510189056,
          0.0012734720949083567,
          -0.00602316576987505,
          -0.025065328925848007,
          0.14668399095535278,
          0.04590427875518799,
          0.675812304019928,
          0.06549222767353058,
          0.04698505252599716,
          -0.2596465051174164,
          -0.06071664020419121,
          -0.02667677402496338
        ],
        [
          -0.11171375960111618,
          -0.07947234064340591,
          -0.016215026378631592,
          0.06587722897529602,
          -0.09960238635540009,
          0.08108934015035629,
          0.07858392596244812,
          0.10403326153755188,
          0.06545865535736084,
          0.04291290044784546,
          -0.01887294463813305,
          0.0905086100101471,
          0.12065894901752472,
          0.009497073478996754,
          -0.015364646911621094,
          0.05499361455440521,
          0.042681559920310974,
          0.07007597386837006,
          0.002330213785171509,
          0.05893569439649582,
          -0.01665389910340309,
          0.053702373057603836,
          0.011283648200333118,
          -0.1014750599861145,
          0.08465795964002609,
          -0.011415542103350163,
          0.0089254230260849,
          0.09546822309494019,
          -0.09511418640613556,
          -0.11702936887741089,
          0.11677448451519012,
          -0.03306778892874718,
          -0.08590002357959747,
          -0.0042683035135269165,
          -0.08893299102783203,
          0.06106656789779663,
          0.04844607412815094,
          -0.05343657732009888,
          -0.007791638374328613,
          0.012582328170537949,
          -0.032641083002090454,
          0.05043230950832367,
          -0.015421767719089985,
          -0.06545302271842957,
          -0.026271000504493713,
          -0.052480652928352356,
          -0.0844368040561676,
          -0.09592118859291077,
          0.12307028472423553,
          0.023345662280917168,
          -0.02164265513420105,
          -0.06571996957063675,
          0.07413272559642792,
          -0.12453704327344894,
          -0.08158126473426819,
          -0.0816127359867096,
          0.06325298547744751,
          0.029987633228302002,
          0.08919145166873932,
          -0.04547499120235443,
          -0.10169295966625214,
          0.08552369475364685,
          -0.032933562994003296,
          -0.08364748954772949
        ],
        [
          0.0025231563486158848,
          0.020363155752420425,
          -0.1527474969625473,
          0.1934208869934082,
          -0.01844940334558487,
          -0.051648952066898346,
          -0.4801025986671448,
          0.09472531825304031,
          -0.10307900607585907,
          -0.07437032461166382,
          -0.05806237459182739,
          -0.030075229704380035,
          -0.3528831899166107,
          0.20206698775291443,
          -0.0890243798494339,
          -0.01934228651225567,
          -0.17558875679969788,
          0.04865468293428421,
          0.0096406489610672,
          -0.041374001652002335,
          -0.12830452620983124,
          0.1284046173095703,
          -0.01915360800921917,
          -0.002707842970266938,
          -0.336360365152359,
          0.11104363948106766,
          -0.0318712517619133,
          -0.016682777553796768,
          0.11052785813808441,
          0.0317235104739666,
          -0.13535326719284058,
          0.13841159641742706,
          -0.22487667202949524,
          0.1201704740524292,
          -0.29306405782699585,
          -0.03280286490917206,
          -0.16357949376106262,
          -0.049223944544792175,
          0.24442873895168304,
          -0.22311998903751373,
          0.03576340153813362,
          -0.044086843729019165,
          -0.08936260640621185,
          -0.2646483778953552,
          -0.011229738593101501,
          -0.3221237063407898,
          0.1493910253047943,
          -0.076372891664505,
          -0.006556645035743713,
          -0.10927541553974152,
          0.0006078477017581463,
          -0.14009538292884827,
          0.014966672286391258,
          -0.10374005138874054,
          -0.25203976035118103,
          -0.3792673349380493,
          -0.2538629174232483,
          -0.04020188748836517,
          0.09986476600170135,
          0.11644178628921509,
          0.2299247533082962,
          -0.24371777474880219,
          0.032489728182554245,
          0.052940115332603455
        ],
        [
          0.03330766037106514,
          0.03858993947505951,
          -0.006651155184954405,
          -0.027084140107035637,
          0.04557998850941658,
          -0.07743583619594574,
          0.1214091032743454,
          -0.10986527800559998,
          -0.10866601765155792,
          -0.004295885097235441,
          -0.22685882449150085,
          0.08295409381389618,
          -0.018932893872261047,
          0.018126174807548523,
          0.004926949739456177,
          0.06396529823541641,
          0.035362306982278824,
          0.050926871597766876,
          0.12127512693405151,
          0.10574182868003845,
          -0.019142890349030495,
          -0.025978289544582367,
          0.026057051494717598,
          -0.0076714176684618,
          -0.07867179811000824,
          0.14585964381694794,
          -0.0025645254645496607,
          -0.12672649323940277,
          0.09731203317642212,
          0.12095138430595398,
          0.1043049693107605,
          0.05856737494468689,
          -0.031232427805662155,
          -0.1166263073682785,
          0.0012413347139954567,
          -0.1281321793794632,
          -0.0851866602897644,
          0.07681573927402496,
          -0.02139723114669323,
          -0.07281821221113205,
          0.019405268132686615,
          -0.08145720511674881,
          -0.013681434094905853,
          -0.042176034301519394,
          -0.1383766233921051,
          -0.06780947744846344,
          -0.11051031947135925,
          0.05300165340304375,
          -0.10186514258384705,
          0.012095293961465359,
          -0.014751074835658073,
          0.025071708485484123,
          0.03810259699821472,
          0.164299875497818,
          0.08717045187950134,
          -0.00503615802153945,
          0.09616153687238693,
          -0.0031910091638565063,
          -0.048108939081430435,
          -0.10733437538146973,
          0.07570361346006393,
          -0.0334753692150116,
          0.11577646434307098,
          0.016319692134857178
        ],
        [
          -0.10907349735498428,
          -0.0330008901655674,
          0.013469377532601357,
          -0.3646623492240906,
          -0.07544368505477905,
          -0.2197917103767395,
          -0.24795623123645782,
          0.06812729686498642,
          0.02518761157989502,
          -0.07713672518730164,
          -0.18410229682922363,
          0.33999893069267273,
          -0.29027098417282104,
          -0.18147291243076324,
          0.11896638572216034,
          0.007264781277626753,
          0.2681017220020294,
          -0.137098029255867,
          -0.07347795367240906,
          -0.16904492676258087,
          -0.022786037996411324,
          0.13412122428417206,
          0.030607331544160843,
          0.0014378979103639722,
          0.06315304338932037,
          0.24917243421077728,
          -0.12026485055685043,
          0.13997741043567657,
          -0.08932414650917053,
          -0.019466476514935493,
          -0.1707213819026947,
          -0.11548121273517609,
          -0.14656531810760498,
          0.057163894176483154,
          -0.13720233738422394,
          0.05482595041394234,
          -0.08664683252573013,
          -0.008200153708457947,
          0.32433998584747314,
          0.08814704418182373,
          0.1497041881084442,
          -0.06307473033666611,
          -0.026946580037474632,
          0.1111173927783966,
          -0.03947877511382103,
          -0.1300530582666397,
          -0.059210989624261856,
          0.16794529557228088,
          0.05333222448825836,
          -0.47239044308662415,
          -0.062341682612895966,
          -0.007139857392758131,
          0.014139359816908836,
          0.03388265520334244,
          -0.1803319901227951,
          -0.6391262412071228,
          -0.2644693851470947,
          -0.12026312947273254,
          -0.006979865953326225,
          -0.006879553198814392,
          -0.006286976393312216,
          -0.011656297370791435,
          -0.03784994035959244,
          -0.11723722517490387
        ],
        [
          0.06275191903114319,
          -0.12386410683393478,
          -0.0429067499935627,
          0.05476346239447594,
          -0.15032845735549927,
          -0.019209647551178932,
          -0.0972873792052269,
          0.032007649540901184,
          0.07076993584632874,
          0.04076924920082092,
          0.034705840051174164,
          -0.09423559904098511,
          -0.11472480744123459,
          -0.11061150580644608,
          -0.10271783173084259,
          0.01844693534076214,
          0.09386252611875534,
          -0.12462902069091797,
          -0.10100558400154114,
          -0.07405312359333038,
          -0.08246055245399475,
          -0.12660527229309082,
          0.011272822506725788,
          0.019490186125040054,
          0.05563993752002716,
          -0.13624122738838196,
          -0.08451451361179352,
          0.0278520155698061,
          -0.08006027340888977,
          -0.019619356840848923,
          0.05672100931406021,
          -0.05915193259716034,
          -0.08642222732305527,
          0.033322371542453766,
          -0.06721185147762299,
          0.012692829594016075,
          -0.09124423563480377,
          -0.1177220344543457,
          -0.023444699123501778,
          0.03294326737523079,
          0.04611220955848694,
          -0.10867433249950409,
          -0.11531834304332733,
          0.07251325249671936,
          -0.11230720579624176,
          -0.05702856928110123,
          -0.12242907285690308,
          -0.11523829400539398,
          -0.1181974709033966,
          -0.14506278932094574,
          -0.103556327521801,
          0.05673405900597572,
          -0.035253122448921204,
          0.03433825820684433,
          0.08242738246917725,
          0.0054671261459589005,
          0.06258038431406021,
          -0.12375441193580627,
          0.16689494252204895,
          -0.030878275632858276,
          -0.12852859497070312,
          -0.053432006388902664,
          -0.09906428307294846,
          -0.08515788614749908
        ],
        [
          -0.0023040850646793842,
          -0.8091728091239929,
          -0.02204466424882412,
          -0.007182163652032614,
          0.03496578335762024,
          0.11243446171283722,
          -0.07265882939100266,
          0.04032212495803833,
          0.007138282060623169,
          -0.09962713718414307,
          0.006429978180676699,
          0.006893785670399666,
          0.03508514165878296,
          -0.0074334354139864445,
          0.07336603105068207,
          0.021784555166959763,
          0.04749056696891785,
          0.04856191575527191,
          0.08254662156105042,
          0.05944238603115082,
          0.05060700699687004,
          -0.044028811156749725,
          0.027269858866930008,
          0.10314365476369858,
          0.020571228116750717,
          0.06946296244859695,
          0.11766505986452103,
          0.1448771208524704,
          -0.11743712425231934,
          -0.04128490760922432,
          -0.25805699825286865,
          0.05918626859784126,
          0.19592046737670898,
          -0.08956237137317657,
          0.00129098875913769,
          -0.08777469396591187,
          -0.2712688446044922,
          0.02351057529449463,
          -0.1570703089237213,
          0.04104851186275482,
          -0.03365379571914673,
          -0.1245417669415474,
          0.08074040710926056,
          0.11178271472454071,
          -0.007895738817751408,
          0.26704391837120056,
          0.06376420706510544,
          -0.13468433916568756,
          -0.09925699234008789,
          -0.055809203535318375,
          -0.04021986573934555,
          0.03591654822230339,
          0.06364297866821289,
          -0.032271888107061386,
          -0.06942231208086014,
          0.04205615073442459,
          0.16752824187278748,
          0.07697111368179321,
          0.17094896733760834,
          0.07859236001968384,
          -0.03943497687578201,
          -0.12146463245153427,
          0.0932450219988823,
          0.0015260577201843262
        ],
        [
          -0.11860986053943634,
          0.2506590485572815,
          0.1324397176504135,
          -0.21328549087047577,
          0.10270088165998459,
          -0.09619206190109253,
          0.39410480856895447,
          0.03721441328525543,
          -0.056454211473464966,
          0.1525198370218277,
          0.0014183493331074715,
          -0.3270566761493683,
          0.2105799913406372,
          0.09330351650714874,
          0.04561664164066315,
          -0.05229344591498375,
          -0.05952950939536095,
          0.016833767294883728,
          -0.06225171685218811,
          0.010219307616353035,
          -0.22339671850204468,
          -0.3588641285896301,
          -0.09873657673597336,
          -0.06478706747293472,
          -0.16065891087055206,
          -0.07690402120351791,
          -0.13581813871860504,
          0.1990833431482315,
          0.04654867947101593,
          -0.029467642307281494,
          -0.31060680747032166,
          -0.07656259834766388,
          -0.21075798571109772,
          0.1174536868929863,
          0.0831531211733818,
          0.160445436835289,
          -0.03344789147377014,
          -0.0026891082525253296,
          -0.38334590196609497,
          0.0867358148097992,
          0.041825052350759506,
          -0.22200186550617218,
          -0.11725883185863495,
          0.21403107047080994,
          -0.12050837278366089,
          0.007022096775472164,
          0.03482271730899811,
          -0.023639731109142303,
          -0.02445228397846222,
          0.07819215953350067,
          -0.0017550162738189101,
          0.008559313602745533,
          -0.079949289560318,
          -0.08850132673978806,
          0.22862404584884644,
          0.27045938372612,
          0.12131709605455399,
          -0.010450541973114014,
          0.09798728674650192,
          0.09520608186721802,
          -0.08723866194486618,
          0.1583176702260971,
          -0.007457121275365353,
          -0.09052081406116486
        ],
        [
          0.009473444893956184,
          0.1471048891544342,
          -0.1803969293832779,
          0.08862871676683426,
          0.10178665071725845,
          0.17957140505313873,
          -0.4910602569580078,
          0.07202428579330444,
          -0.01584021747112274,
          -0.006006862968206406,
          0.08521244674921036,
          0.11457247287034988,
          -0.5057345628738403,
          0.1531650871038437,
          -0.04353703558444977,
          0.06372224539518356,
          -0.037592124193906784,
          0.011780383065342903,
          0.11053560674190521,
          0.02854108437895775,
          -0.3263311982154846,
          -0.04368763417005539,
          0.04240340366959572,
          -0.262104868888855,
          -0.25418731570243835,
          0.16376416385173798,
          -0.07773329317569733,
          0.08888087421655655,
          -0.03674086928367615,
          0.09113743156194687,
          -0.09644267708063126,
          0.08272573351860046,
          0.025811808183789253,
          -0.09328427910804749,
          0.04812737926840782,
          -0.09865359961986542,
          -0.07248470932245255,
          -0.024007976055145264,
          0.2423471212387085,
          0.08543839305639267,
          -0.01009020023047924,
          -0.03505055606365204,
          -0.0898250862956047,
          -0.10166662931442261,
          0.02744285576045513,
          -0.44108787178993225,
          0.039341121912002563,
          -0.23795950412750244,
          -0.0014052093029022217,
          0.006265487056225538,
          0.13662904500961304,
          -0.24099569022655487,
          0.051772378385066986,
          -0.11515554040670395,
          -0.3740944564342499,
          -0.3065837621688843,
          -0.2464132159948349,
          0.11638866364955902,
          0.18888354301452637,
          -0.027321383357048035,
          0.06113400682806969,
          -0.4528160095214844,
          0.06771089136600494,
          0.08059936761856079
        ],
        [
          -0.18437893688678741,
          -0.08222315460443497,
          0.06157337874174118,
          -0.7378208637237549,
          0.09669823199510574,
          -0.3911910951137543,
          0.2987379729747772,
          -0.09243935346603394,
          -0.04420113563537598,
          0.06924693286418915,
          -0.2323075383901596,
          -0.8498567342758179,
          0.08264965564012527,
          0.15307217836380005,
          0.10802683234214783,
          -0.08323387801647186,
          0.22078095376491547,
          -0.036765843629837036,
          0.11067712306976318,
          -0.08943182229995728,
          -0.36377769708633423,
          -0.781568706035614,
          -0.1414303332567215,
          0.06860402971506119,
          0.08852873742580414,
          0.0927288606762886,
          0.14223866164684296,
          -0.2814292907714844,
          0.09757773578166962,
          -0.10191895812749863,
          -0.0036367762368172407,
          -0.13016150891780853,
          -0.1584937870502472,
          -0.07033313065767288,
          0.12860865890979767,
          -0.18137206137180328,
          -0.011117473244667053,
          0.012171566486358643,
          -0.4048181474208832,
          0.10651171952486038,
          -0.12440457940101624,
          0.020129024982452393,
          -0.10395829379558563,
          0.10382024943828583,
          0.09069119393825531,
          0.07668215036392212,
          -0.12175022065639496,
          -0.00036342881503514946,
          -0.07117049396038055,
          0.11875540018081665,
          0.09348548948764801,
          -0.10024677962064743,
          -0.17391841113567352,
          0.0006310269818641245,
          0.2653195261955261,
          0.18474113941192627,
          -0.07970194518566132,
          0.09597502648830414,
          0.08081717044115067,
          0.07913212478160858,
          -0.29998669028282166,
          0.08857648074626923,
          0.20953397452831268,
          -0.09625090658664703
        ],
        [
          -0.09778054803609848,
          -0.09371510148048401,
          0.06571197509765625,
          0.02793949842453003,
          0.07539890706539154,
          -0.043563246726989746,
          -0.036643803119659424,
          0.027338862419128418,
          -0.021371155977249146,
          0.03028273396193981,
          -0.009823264554142952,
          -0.005320802330970764,
          -0.10889364033937454,
          -0.06349247694015503,
          -0.09939445555210114,
          0.09181299060583115,
          -0.0048881471157073975,
          0.0606100931763649,
          -0.024590030312538147,
          0.010819852352142334,
          -0.003271223744377494,
          -0.09193252772092819,
          -0.005266756750643253,
          0.023966627195477486,
          0.09428959339857101,
          -0.06979900598526001,
          -0.10851462185382843,
          -0.04176528751850128,
          0.10030734539031982,
          0.022036755457520485,
          0.008420184254646301,
          -0.015699759125709534,
          -0.10576227307319641,
          -0.12056219577789307,
          0.09873080253601074,
          0.08608300983905792,
          0.03242374584078789,
          -0.0914178192615509,
          -0.09283927083015442,
          -0.04871242120862007,
          -0.0072817206382751465,
          -0.03957020118832588,
          0.07734805345535278,
          -0.06049064174294472,
          0.0902329683303833,
          -0.12318294495344162,
          -0.1204935759305954,
          -0.04386071860790253,
          -0.08732238411903381,
          0.060177531093358994,
          0.021117044612765312,
          -0.13906855881214142,
          -0.11094968020915985,
          -0.0248933807015419,
          -0.08554436266422272,
          -0.00728251039981842,
          -0.04192441329360008,
          0.10775317251682281,
          0.0898045003414154,
          -0.03910355269908905,
          -0.04338547959923744,
          0.032191671431064606,
          0.007326409220695496,
          0.07542519271373749
        ],
        [
          -0.048771828413009644,
          -3.644308162620291e-05,
          0.06779502332210541,
          0.030195964500308037,
          0.07772917300462723,
          -0.1156114861369133,
          0.08039066195487976,
          -0.09472973644733429,
          0.10882486402988434,
          0.05208668112754822,
          0.10057959705591202,
          -0.032277002930641174,
          -0.04292019456624985,
          -0.0053480216301977634,
          0.04157780110836029,
          -0.06391841173171997,
          0.07345950603485107,
          0.07318159937858582,
          0.011658906936645508,
          -0.09067785739898682,
          0.027738559991121292,
          0.08448927849531174,
          -0.022256657481193542,
          0.05931752920150757,
          0.05543747544288635,
          -0.06322943419218063,
          -0.0435454361140728,
          -0.11671990901231766,
          -0.06097233295440674,
          -0.13586655259132385,
          -0.03052477352321148,
          -0.08594346046447754,
          0.058565832674503326,
          0.02008707821369171,
          0.10543862730264664,
          -0.03090955875813961,
          0.03525806963443756,
          0.02291788160800934,
          0.07011914253234863,
          -0.05099044740200043,
          -0.05675337836146355,
          0.0462525337934494,
          -0.01909257471561432,
          0.03334406390786171,
          -0.05899535492062569,
          -0.08502086251974106,
          -0.09915070980787277,
          0.08031413704156876,
          0.03058888018131256,
          -0.051201097667217255,
          -0.1153811663389206,
          -0.016693362966179848,
          -0.10140585899353027,
          0.02459818683564663,
          -0.00044926308328285813,
          -0.003763760905712843,
          -0.08619824051856995,
          -0.09007741510868073,
          -0.0065869661048054695,
          0.005525469779968262,
          0.06957335770130157,
          -0.1095890998840332,
          -0.03137130290269852,
          0.11458884179592133
        ],
        [
          -0.16504161059856415,
          0.5711036920547485,
          -0.0659712553024292,
          0.12929557263851166,
          0.03373853117227554,
          -0.08609254658222198,
          0.22635214030742645,
          -0.005880721844732761,
          -0.001990869641304016,
          -0.07820063829421997,
          -0.08896369487047195,
          -0.20244137942790985,
          -0.41911542415618896,
          0.052490707486867905,
          -0.035836219787597656,
          0.23393431305885315,
          -0.01576128788292408,
          -0.03075452707707882,
          0.02204248309135437,
          -0.07826521247625351,
          0.018380457535386086,
          -0.10092533379793167,
          -0.010160026140511036,
          0.0738101452589035,
          -0.24597038328647614,
          0.4521673321723938,
          -0.008645229041576385,
          0.07829282432794571,
          -0.11458317935466766,
          -0.09486007690429688,
          -0.010062090121209621,
          0.08872388303279877,
          -0.2010096162557602,
          0.028108298778533936,
          -0.028613068163394928,
          0.641692042350769,
          -0.08525096625089645,
          0.06143230199813843,
          0.09651534259319305,
          -0.08074232190847397,
          0.12684790790081024,
          0.06997578591108322,
          0.09079988300800323,
          -0.02251126617193222,
          -0.09057935327291489,
          -0.38534489274024963,
          0.01626581698656082,
          -0.08677138388156891,
          0.017981350421905518,
          0.01776163838803768,
          -0.038348063826560974,
          -0.06272884458303452,
          0.030094973742961884,
          0.012071765027940273,
          -0.04975912719964981,
          -0.013954305090010166,
          -0.15639686584472656,
          -0.031052395701408386,
          0.3836447596549988,
          0.004963323473930359,
          0.29670238494873047,
          -0.18705646693706512,
          -0.052156418561935425,
          -0.08940368890762329
        ],
        [
          -0.0852099284529686,
          -0.2691468298435211,
          0.044910747557878494,
          -0.0206674262881279,
          0.25235944986343384,
          -0.21791140735149384,
          0.42755600810050964,
          -0.09264679998159409,
          -0.012942135334014893,
          0.0023560700938105583,
          -0.10826676338911057,
          -0.16337162256240845,
          0.12239272147417068,
          0.01126796379685402,
          -0.11459194123744965,
          -0.08191177248954773,
          -0.15901382267475128,
          -0.0711582601070404,
          0.039623409509658813,
          0.101324662566185,
          -0.16247916221618652,
          -0.2983688414096832,
          -0.09813954681158066,
