{
  "layers": [
    {
      "name": "0",
      "kind": "Linear",
      "inputSize": 7,
      "outputSize": 64,
      "hasBiases": true,
      "weights": [
        [
          -0.29444605112075806,
          0.07041916251182556,
          -0.2500254511833191,
          -0.10106325149536133,
          0.1545754373073578,
          0.23457089066505432,
          0.3181036710739136
        ],
        [
          -0.027215858921408653,
          0.35156434774398804,
          -0.23159992694854736,
          0.15144824981689453,
          0.07033364474773407,
          0.23007330298423767,
          -0.3431970775127411
        ],
        [
          -0.33299919962882996,
          0.13310745358467102,
          -0.37197771668434143,
          -0.22390541434288025,
          0.05952337384223938,
          0.047726213932037354,
          -0.1439262181520462
        ],
        [
          0.25217968225479126,
          -0.16100183129310608,
          -0.08897706866264343,
          0.1525128185749054,
          0.07618149369955063,
          0.14860571920871735,
          0.29149943590164185
        ],
        [
          -0.03370937332510948,
          -0.17605291306972504,
          -0.15010087192058563,
          0.36312395334243774,
          0.10710650682449341,
          -0.31697994470596313,
          0.18989713490009308
        ],
        [
          0.23949125409126282,
          -0.3520624339580536,
          0.0430147647857666,
          -0.3598896861076355,
          -0.16176383197307587,
          -0.18253815174102783,
          -0.18903522193431854
        ],
        [
          -0.3688150942325592,
          -0.2691689729690552,
          -0.27252843976020813,
          0.1379561722278595,
          -0.09423515200614929,
          0.10146325826644897,
          0.22531411051750183
        ],
        [
          0.17023395001888275,
          0.20772014558315277,
          -0.28010472655296326,
          -0.04666435718536377,
          0.05831202119588852,
          0.38911789655685425,
          0.04597252607345581
        ],
        [
          -0.3072233200073242,
          -0.12579843401908875,
          0.00924629345536232,
          -0.017359202727675438,
          0.318112313747406,
          -0.11769343912601471,
          0.2466168999671936
        ],
        [
          -0.3016621470451355,
          -0.008096622303128242,
          0.2356576770544052,
          0.355251669883728,
          0.003652758663520217,
          0.2770514190196991,
          -0.25711551308631897
        ],
        [
          -0.27596622705459595,
          -0.20331059396266937,
          -0.34541791677474976,
          0.0240095853805542,
          -0.11560693383216858,
          -0.15640944242477417,
          -0.27293071150779724
        ],
        [
          0.2607083320617676,
          -0.00022499248734675348,
          0.15483470261096954,
          -0.3191835582256317,
          -0.1936439573764801,
          0.18323080241680145,
          -0.4290308654308319
        ],
        [
          -0.2812526226043701,
          -0.07421442866325378,
          0.03500068187713623,
          -0.31623905897140503,
          -0.25876757502555847,
          -0.36143386363983154,
          -0.04140537977218628
        ],
        [
          0.13736286759376526,
          -0.14091449975967407,
          0.3516571819782257,
          -0.13683420419692993,
          0.11789631098508835,
          -0.0368933342397213,
          -0.3100564777851105
        ],
        [
          -0.2302236706018448,
          0.006698158569633961,
          0.031688399612903595,
          -0.3633114695549011,
          -0.2935531437397003,
          0.20489181578159332,
          0.2537299692630768
        ],
        [
          0.3569298982620239,
          -0.15149782598018646,
          -0.1417136788368225,
          0.38124263286590576,
          -0.3808952867984772,
          -0.07176239043474197,
          -0.48943039774894714
        ],
        [
          -0.1744098663330078,
          -0.13312837481498718,
          -0.01851494051516056,
          -0.17268775403499603,
          0.15914832055568695,
          0.02178242802619934,
          -0.363398015499115
        ],
        [
          -0.2470095157623291,
          0.22017422318458557,
          -0.09755773097276688,
          -0.20134234428405762,
          -0.2359382063150406,
          0.0627249926328659,
          0.43290629982948303
        ],
        [
          -0.0548926442861557,
          -0.4097098708152771,
          -0.17238833010196686,
          0.1924852877855301,
          -0.22264012694358826,
          -0.12041276693344116,
          0.419624924659729
        ],
        [
          0.20686255395412445,
          -0.08486054092645645,
          -0.09086813032627106,
          -0.19979211688041687,
          0.21997176110744476,
          -0.2868335247039795,
          -0.25750571489334106
        ],
        [
          0.16653743386268616,
          -0.3366777300834656,
          0.16425447165966034,
          -0.07594911754131317,
          0.1587725430727005,
          -0.30956289172172546,
          0.3544938564300537
        ],
        [
          -0.06778328120708466,
          0.024063222110271454,
          0.33630257844924927,
          -0.2979434132575989,
          -0.17003433406352997,
          -0.003426928771659732,
          0.4276043772697449
        ],
        [
          -0.20492544770240784,
          -0.27451997995376587,
          0.11675375699996948,
          0.09266003221273422,
          0.04079212248325348,
          -0.2932901978492737,
          -0.32841187715530396
        ],
        [
          0.17133605480194092,
          0.32329681515693665,
          0.08311332762241364,
          0.3514081835746765,
          0.07829151302576065,
          0.2863345742225647,
          -0.27012524008750916
        ],
        [
          -0.19314400851726532,
          -0.27710476517677307,
          -0.31840780377388,
          0.0991491749882698,
          -0.2511085867881775,
          0.10166356712579727,
          -0.3641893267631531
        ],
        [
          0.16899649798870087,
          0.1877574771642685,
          -0.03743673115968704,
          0.06572084873914719,
          0.00956810638308525,
          0.15605172514915466,
          0.26128050684928894
        ],
        [
          0.20945331454277039,
          -0.17715463042259216,
          -0.3373757302761078,
          0.050379298627376556,
          0.22261397540569305,
          -0.1406044065952301,
          0.1629798710346222
        ],
        [
          -0.2570455074310303,
          0.04368983209133148,
          -0.01891426183283329,
          0.3400872051715851,
          0.2452058643102646,
          0.12827762961387634,
          0.32853299379348755
        ],
        [
          0.3024151921272278,
          0.33915120363235474,
          0.05031414330005646,
          0.08357033878564835,
          -0.32315772771835327,
          -0.11359158903360367,
          0.25129029154777527
        ],
        [
          0.03806796669960022,
          -0.18853788077831268,
          -0.20224179327487946,
          0.08520013093948364,
          0.010892003774642944,
          -0.27787449955940247,
          -0.24077709019184113
        ],
        [
          0.38946032524108887,
          -0.2507222294807434,
          -0.18884208798408508,
          -0.07870219647884369,
          -0.24904678761959076,
          0.35380586981773376,
          0.26923465728759766
        ],
        [
          0.2209824174642563,
          -0.3587879240512848,
          -0.17106543481349945,
          0.11889324337244034,
          0.1054861918091774,
          -0.28878915309906006,
          0.20125675201416016
        ],
        [
          0.0833941251039505,
          -0.3002743721008301,
          0.270527720451355,
          -0.10384261608123779,
          0.218393936753273,
          0.1612856090068817,
          0.09265214204788208
        ],
        [
          -0.04429849237203598,
          0.3890162408351898,
          -0.25897443294525146,
          -0.2868588864803314,
          -0.02137613296508789,
          -0.10897070169448853,
          -0.2791125774383545
        ],
        [
          -0.07251846790313721,
          -0.19643504917621613,
          0.27536147832870483,
          0.32615527510643005,
          0.23706336319446564,
          -0.3570505678653717,
          -0.20307156443595886
        ],
        [
          0.07145941257476807,
          -0.26167842745780945,
          -0.09509826451539993,
          0.27715784311294556,
          -0.052190087735652924,
          0.12589511275291443,
          0.09048882871866226
        ],
        [
          -0.06836789846420288,
          -0.3106965720653534,
          -0.2893712520599365,
          -0.10351812839508057,
          -0.351777583360672,
          -0.15984097123146057,
          0.28184840083122253
        ],
        [
          -0.025208815932273865,
          -0.09503933042287827,
          0.16260606050491333,
          -0.34342607855796814,
          0.10243187099695206,
          0.08963708579540253,
          0.26946204900741577
        ],
        [
          -0.29129353165626526,
          0.28368908166885376,
          0.3821818232536316,
          0.12519559264183044,
          -0.1987857073545456,
          0.2881366014480591,
          0.015802647918462753
        ],
        [
          0.024092447012662888,
          0.11405804008245468,
          0.21248947083950043,
          -0.17191247642040253,
          -0.10848714411258698,
          0.3143496513366699,
          -0.03430772200226784
        ],
        [
          0.10964880883693695,
          0.14430047571659088,
          -0.014046325348317623,
          0.18951044976711273,
          0.17859187722206116,
          -0.12062890082597733,
          0.2489616423845291
        ],
        [
          0.3939806818962097,
          0.06041022017598152,
          -0.2884204387664795,
          -0.21223512291908264,
          0.10757825523614883,
          -0.25563251972198486,
          -0.03882680460810661
        ],
        [
          0.26185524463653564,
          0.3506055772304535,
          -0.21065759658813477,
          -0.36377403140068054,
          -0.1498740166425705,
          0.12009422481060028,
          -0.39869406819343567
        ],
        [
          0.26036378741264343,
          0.3097270429134369,
          -0.028183143585920334,
          0.09152563661336899,
          -0.3421083688735962,
          0.377898246049881,
          -0.1389181762933731
        ],
        [
          -0.2525227963924408,
          0.14137831330299377,
          -0.4497028589248657,
          -0.05678142234683037,
          0.05283826217055321,
          -0.0630258098244667,
          0.3966461718082428
        ],
        [
          -0.2340707629919052,
          -0.01129201240837574,
          -0.3654193580150604,
          0.04614586755633354,
          0.22908014059066772,
          0.07293422520160675,
          0.12114639580249786
        ],
        [
          0.22820250689983368,
          -0.0777977928519249,
          0.29745012521743774,
          0.16637252271175385,
          0.04498444125056267,
          0.23568740487098694,
          -0.4358730912208557
        ],
        [
          0.33731329441070557,
          0.3246672749519348,
          0.0114522660151124,
          -0.034742847084999084,
          -0.09808506071567535,
          -0.3241053521633148,
          -0.06734214723110199
        ],
        [
          0.03564715385437012,
          -0.25832563638687134,
          -0.34199512004852295,
          -0.2085806280374527,
          -0.23528313636779785,
          -0.3228757381439209,
          -0.21520289778709412
        ],
        [
          0.24566569924354553,
          -0.11909996718168259,
          0.21604977548122406,
          -0.385693222284317,
          0.16006873548030853,
          0.03781462833285332,
          0.03321898356080055
        ],
        [
          0.13815467059612274,
          0.060902148485183716,
          0.09951623529195786,
          0.13455715775489807,
          -0.3198733925819397,
          0.0656186044216156,
          -0.43461355566978455
        ],
        [
          0.12324069440364838,
          -0.17842333018779755,
          0.06324984133243561,
          0.278043270111084,
          0.3116666376590729,
          -0.23317445814609528,
          -0.26054444909095764
        ],
        [
          0.14686113595962524,
          0.09393226355314255,
          0.08446672558784485,
          -0.175477996468544,
          -0.06626185774803162,
          -0.036887381225824356,
          0.08696039766073227
        ],
        [
          0.0901128277182579,
          -0.16866549849510193,
          0.040771570056676865,
          0.20712091028690338,
          -0.039087988436222076,
          0.29228082299232483,
          -0.16047123074531555
        ],
        [
          0.30161675810813904,
          -0.2052290290594101,
          0.027327608317136765,
          -0.1450766623020172,
          -0.19743964076042175,
          0.327671080827713,
          -0.12437944114208221
        ],
        [
          0.032207682728767395,
          0.36124685406684875,
          -0.0227171890437603,
          -0.09880334883928299,
          -0.1465167999267578,
          0.06282664835453033,
          0.3025629222393036
        ],
        [
          0.06641885638237,
          0.1298176646232605,
          -0.17383283376693726,
          -0.10061140358448029,
          0.1458989977836609,
          0.05613916739821434,
          0.36305710673332214
        ],
        [
          0.230613112449646,
          0.31296461820602417,
          0.23029442131519318,
          0.27944567799568176,
          0.02511707693338394,
          -0.32071712613105774,
          -0.019444415345788002
        ],
        [
          0.2770538032054901,
          -0.006785091944038868,
          0.21915501356124878,
          0.2510661482810974,
          -0.3176199793815613,
          -0.3430347740650177,
          0.04306710883975029
        ],
        [
          0.19130228459835052,
          -0.18335537612438202,
          -0.3232196867465973,
          0.35981500148773193,
          0.014124114066362381,
          0.37675830721855164,
          -0.12115372717380524
        ],
        [
          0.0035728781949728727,
          -0.2968027889728546,
          -0.19107310473918915,
          -0.270148366689682,
          0.32835671305656433,
          0.2420021891593933,
          0.11737149208784103
        ],
        [
          0.35291120409965515,
          -0.04331406578421593,
          -0.1707705408334732,
          0.02363508567214012,
          -0.24129419028759003,
          -0.23341161012649536,
          0.31427887082099915
        ],
        [
          0.1193614974617958,
          0.03426495939493179,
          -0.24100881814956665,
          0.07330042868852615,
          0.11511187255382538,
          -0.21863695979118347,
          -0.20793884992599487
        ],
        [
          -0.18654868006706238,
          -0.13674837350845337,
          -0.3702789843082428,
          0.03913922980427742,
          0.31056463718414307,
          0.2893851697444916,
          -0.011285623535513878
        ]
      ],
      "biases": [
        0.0011797917541116476,
        -0.2766987383365631,
        -0.11072361469268799,
        0.1544780731201172,
        -0.21862578392028809,
        -0.14993387460708618,
        -0.3247835636138916,
        0.3734219968318939,
        0.3586895763874054,
        -0.03844664618372917,
        -0.07090410590171814,
        -0.08759642392396927,
        -0.07373297214508057,
        -0.27066683769226074,
        0.3679211437702179,
        0.39829444885253906,
        0.19686488807201385,
        -0.014016692526638508,
        0.15049229562282562,
        0.09499642997980118,
        0.2489793300628662,
        0.1105971485376358,
        0.2000616192817688,
        0.2136376053094864,
        0.12397892028093338,
        -0.10400428622961044,
        -0.06788570433855057,
        -0.10645470023155212,
        -0.32911601662635803,
        -0.25683945417404175,
        -0.01092506479471922,
        0.19184410572052002,
        -0.28595930337905884,
        0.28900688886642456,
        0.2168094515800476,
        0.3330560028553009,
        0.19792833924293518,
        0.1322082281112671,
        -0.08101364970207214,
        0.3026549518108368,
        0.33142438530921936,
        0.0774410143494606,
        0.0018822638085111976,
        0.1863606572151184,
        0.15953496098518372,
        0.19699658453464508,
        0.013205266557633877,
        0.2295817732810974,
        -0.036456406116485596,
        0.13136577606201172,
        0.09560972452163696,
        -0.3374934196472168,
        0.2736532390117645,
        -0.06531437486410141,
        0.052503470331430435,
        0.30482399463653564,
        -0.27023041248321533,
        -0.3207739293575287,
        0.3493308126926422,
        -0.13542692363262177,
        -0.2985486090183258,
        0.00890037789940834,
        -0.27445006370544434,
        0.16269439458847046
      ]
    },
    {
      "name": "1",
      "kind": "ReLU"
    },
    {
      "name": "2",
      "kind": "Linear",
      "inputSize": 64,
      "outputSize": 64,
      "hasBiases": true,
      "weights": [
        [
          0.05822405219078064,
          -0.059139519929885864,
          -0.007791638374328613,
          0.03778151422739029,
          -0.01164358388632536,
          0.021192476153373718,
          -0.010880634188652039,
          -0.06179332360625267,
          -0.007897297851741314,
          -0.07938838005065918,
          -0.0844368040561676,
          -0.14642895758152008,
          0.12307028472423553,
          0.028108086436986923,
          0.040646497160196304,
          -0.09084578603506088,
          0.06864804029464722,
          -0.0008151860092766583,
          0.04221945255994797,
          -0.0893447995185852,
          0.08210746943950653,
          0.07482964545488358,
          0.09300120919942856,
          -0.06460723280906677,
          -0.09252023696899414,
          0.10146655887365341,
          -0.02701658383011818,
          -0.06394493579864502,
          0.1624068170785904,
          -0.1120036244392395,
          0.0441339947283268,
          0.13252286612987518,
          -0.09251914918422699,
          -0.06946183741092682,
          -0.026773272082209587,
          0.09249366819858551,
          -0.10307900607585907,
          0.0009259657235816121,
          -0.006669729016721249,
          -0.0924132913351059,
          0.009838024154305458,
          0.1218748614192009,
          -0.09916650503873825,
          0.07797042280435562,
          -0.06282176822423935,
          0.07414547353982925,
          -0.018926430493593216,
          0.001097799395211041,
          -0.008282795548439026,
          -0.0021019065752625465,
          -0.006076847668737173,
          0.09939035028219223,
          -0.0937960147857666,
          0.09771914780139923,
          0.052394889295101166,
          0.1456459015607834,
          0.14946287870407104,
          0.07337038964033127,
          -0.08272772282361984,
          0.06894975900650024,
          0.07767631113529205,
          0.1797356754541397,
          -0.03534771129488945,
          0.06597016006708145
        ],
        [
          -0.031190995126962662,
          -0.049041997641325,
          -0.06498409807682037,
          -0.09435000270605087,
          0.10338316857814789,
          0.07460983097553253,
          -0.01762622594833374,
          -0.0489986389875412,
          -0.04119890183210373,
          -0.09525551646947861,
          -0.0059029459953308105,
          -0.04046518728137016,
          -0.006556645035743713,
          0.009457106702029705,
          0.10901749134063721,
          0.030401533469557762,
          0.06358415633440018,
          0.0034656801726669073,
          -0.05255287513136864,
          0.0832582488656044,
          -0.008094513788819313,
          -0.05395367369055748,
          -0.11600006371736526,
          0.13290894031524658,
          0.06734268367290497,
          0.10197267681360245,
          0.0995539128780365,
          0.03906061872839928,
          -0.012562586925923824,
          0.05437181890010834,
          -0.08949372172355652,
          0.07289346307516098,
          0.0011428572470322251,
          -0.102145716547966,
          -0.004838686436414719,
          -0.09010464698076248,
          -0.10866601765155792,
          -0.007045240607112646,
          -0.08514080941677094,
          0.05019646883010864,
          -0.03949829190969467,
          -0.07771733403205872,
          -0.05077419802546501,
          0.1419161707162857,
          -0.023623399436473846,
          -0.10633896291255951,
          0.15070004761219025,
          0.11694854497909546,
          -0.015249237418174744,
          -0.07960448414087296,
          0.074338398873806,
          -0.038239799439907074,
          -0.019411219283938408,
          0.1281501054763794,
          0.009820939041674137,
          -0.05669168382883072,
          0.0778285413980484,
          0.08144889771938324,
          0.07494352757930756,
          0.09105667471885681,
          -0.11011459678411484,
          -0.11578839272260666,
          -0.10039072483778,
          -0.0601363331079483
        ],
        [
          -0.03616425767540932,
          0.1543516218662262,
          -0.04264216125011444,
          -0.12965919077396393,
          0.05401968955993652,
          -0.02241356670856476,
          -0.07904250919818878,
          0.015715008601546288,
          -0.1350652575492859,
          -0.13205745816230774,
          -0.06814265251159668,
          0.1453636735677719,
          -0.10186514258384705,
          -0.10802106559276581,
          0.009399738162755966,
          0.009300108067691326,
          0.07291596382856369,
          0.04375305771827698,
          0.027638420462608337,
          -0.055609773844480515,
          0.01830567978322506,
          -0.027727097272872925,
          -0.1129450649023056,
          -0.08654513210058212,
          0.0792757123708725,
          -0.021792860701680183,
          0.0598311573266983,
          -0.03288595378398895,
          0.05513074994087219,
          0.10003554821014404,
          -0.03454727306962013,
          -0.15951114892959595,
          0.07895738631486893,
          0.06399723142385483,
          -0.030213529244065285,
          0.06250201165676117,
          0.02518761157989502,
          -0.11290142685174942,
          -0.10713714361190796,
          0.07654179632663727,
          -0.05369286611676216,
          0.14131198823451996,
          0.17130306363105774,
          0.093351811170578,
          -0.03312130644917488,
          -0.05537066608667374,
          -0.03639966621994972,
          0.025597883388400078,
          -0.05681246519088745,
          0.1141662672162056,
          0.08122403174638748,
          -0.03586500883102417,
          -0.021180611103773117,
          0.13768842816352844,
          -0.051924899220466614,
          -0.08881931751966476,
          -0.1328437328338623,
          -0.013671777211129665,
          -0.06177424639463425,
          -0.07082504034042358,
          -0.0069949012249708176,
          0.04019790142774582,
          0.05067071318626404,
          0.11495658755302429
        ],
        [
          0.10411203652620316,
          -0.037713535130023956,
          0.11908157169818878,
          0.15750762820243835,
          0.0835549384355545,
          -0.11933566629886627,
          0.07787163555622101,
          0.0751258060336113,
          0.013076585717499256,
          -0.08721616864204407,
          -0.045478031039237976,
          0.04791504517197609,
          0.05333222448825836,
          -0.11155664175748825,
          0.043069325387477875,
          -0.0762951672077179,
          0.017688361927866936,
          0.12786957621574402,
          -0.10520491003990173,
          0.08481665700674057,
          -0.07428447902202606,
          -0.06712315231561661,
          0.07311618328094482,
          0.0005044005811214447,
          -0.10431837290525436,
          -0.005487833637744188,
          0.061152271926403046,
          -0.06932760030031204,
          0.10288147628307343,
          -0.11395473778247833,
          0.023882605135440826,
          0.07536362111568451,
          -0.18372179567813873,
          -0.013200439512729645,
          -0.12063692510128021,
          0.057522132992744446,
          0.07076993584632874,
          0.059369415044784546,
          0.06283970177173615,
          -0.037279658019542694,
          -0.053764838725328445,
          -0.06097870320081711,
          -0.11778208613395691,
          0.036336008459329605,
          0.2047605663537979,
          -0.032430171966552734,
          -0.16391970217227936,
          -0.030172333121299744,
          -0.04409372806549072,
          -0.07881112396717072,
          -0.05204134061932564,
          -0.023209862411022186,
          0.08167672902345657,
          -0.13014090061187744,
          -0.043787628412246704,
          0.07584486156702042,
          0.0023776863235980272,
          0.006411662325263023,
          0.08860760182142258,
          -0.01843186467885971,
          -0.07425995171070099,
          0.07516718655824661,
          -0.05045478045940399,
          0.044116102159023285
        ],
        [
          -0.10854757577180862,
          -0.09615575522184372,
          -0.00592784583568573,
          0.08116438239812851,
          0.09233586490154266,
          -0.11648319661617279,
          -0.11256544291973114,
          0.12622664868831635,
          -0.16495153307914734,
          0.003253260161727667,
          -0.11089065670967102,
          -0.009786476381123066,
          -0.1181974709033966,
          -0.08634750545024872,
          -0.08220268040895462,
          0.13620205223560333,
          -0.04130680859088898,
          0.04633818939328194,
          0.021276546642184258,
          0.04373205825686455,
          0.09687539935112,
          -0.14916262030601501,
          -0.01974683441221714,
          0.00022432539844885468,
          -0.07712458819150925,
          -0.06413358449935913,
          -0.1224498376250267,
          -0.09614158421754837,
          -0.044458404183387756,
          -0.11708419024944305,
          0.03708222880959511,
          0.10819210112094879,
          -0.03530307114124298,
          0.07603348791599274,
          0.0334634855389595,
          0.06715873628854752,
          0.007138282060623169,
          -0.1220800057053566,
          0.09618885070085526,
          0.0922180712223053,
          -0.09594878554344177,
          0.003925803117454052,
          0.12742015719413757,
          0.11572039872407913,
          -0.033548563718795776,
          0.040018655359745026,
          0.12390981614589691,
          0.14336225390434265,
          0.054626137018203735,
          0.015781836584210396,
          0.10768739134073257,
          0.08757273852825165,
          0.06449807435274124,
          0.054642099887132645,
          0.09792676568031311,
          0.1058696061372757,
          -0.15753906965255737,
          -0.04076189547777176,
          -0.09334146976470947,
          0.11528865993022919,
          0.10427869111299515,
          -0.10904225707054138,
          -0.08367794752120972,
          -0.03345424309372902
        ],
        [
          0.09378676861524582,
          0.017725907266139984,
          0.07452791929244995,
          0.10560209304094315,
          -0.026378946378827095,
          -0.04985593259334564,
          0.12429966032505035,
          0.10146539658308029,
          0.05779021233320236,
          0.06785032153129578,
          0.10107758641242981,
          -0.18802759051322937,
          -0.09925699234008789,
          -0.06372323632240295,
          -0.018021756783127785,
          0.006844624876976013,
          -0.0028405648190528154,
          0.0014371186261996627,
          0.18723051249980927,
          0.003963862545788288,
          0.08836304396390915,
          0.17041835188865662,
          0.08382929861545563,
          0.07263508439064026,
          0.027012571692466736,
          -0.07646015286445618,
          0.05017567425966263,
          0.024856865406036377,
          -0.026593904942274094,
          0.11250457167625427,
          0.14518383145332336,
          -0.08321187645196915,
          0.04211495444178581,
          -0.007668274454772472,
          0.12936049699783325,
          0.04383479431271553,
          -0.056454211473464966,
          0.12778885662555695,
          -0.09823226928710938,
          0.003371301107108593,
          0.10569693148136139,
          -0.009825034998357296,
          0.013659116812050343,
          -0.09861734509468079,
          0.04540526866912842,
          0.022318854928016663,
          -0.06766197830438614,
          -0.0022658605594187975,
          -0.08488918840885162,
          -0.02444152720272541,
          -0.06155607849359512,
          0.013290521688759327,
          -0.04089507460594177,
          -0.059226036071777344,
          -0.11961591988801956,
          0.10327661782503128,
          0.0932852029800415,
          0.006875927560031414,
          -0.09154099971055984,
          -0.11364547908306122,
          -0.09255318343639374,
          0.15730760991573334,
          0.014838353730738163,
          0.09978130459785461
        ],
        [
          -0.022496994584798813,
          -0.02381191775202751,
          0.12034419178962708,
          0.06225309148430824,
          0.10384998470544815,
          -0.09700728952884674,
          0.02887904644012451,
          0.06681986898183823,
          -0.1098233237862587,
          -0.01628240942955017,
          0.10491055250167847,
          0.0636151060461998,
          -0.02445228397846222,
          -0.027542244642972946,
          -0.10318119078874588,
          0.10579261183738708,
          -0.07823382318019867,
          -0.1830792874097824,
          0.04010811075568199,
          0.09984634071588516,
          0.08121324330568314,
          -0.03035866841673851,
          0.04722518473863602,
          0.11837391555309296,
          0.10526752471923828,
          0.029668761417269707,
          -0.08257964253425598,
          -0.09095798432826996,
          -0.05007054656744003,
          0.02901582419872284,
          -0.06562111526727676,
          -0.0023291155230253935,
          0.06562138348817825,
          0.047890279442071915,
          0.008690270595252514,
          0.09429627656936646,
          -0.01584021747112274,
          0.0640082061290741,
          -0.015549412928521633,
          0.1329880654811859,
          -0.09582590311765671,
          -0.03238809481263161,
          -0.01757759414613247,
          0.07781770080327988,
          0.009332108311355114,
          0.0010926631512120366,
          0.13797499239444733,
          0.09933054447174072,
          -0.09302398562431335,
          -0.04217032715678215,
          -0.017514117062091827,
          -0.052411869168281555,
          -0.10389639437198639,
          0.0805383175611496,
          0.1381392776966095,
          -0.03127940371632576,
          -0.05215458944439888,
          0.13287578523159027,
          0.1409418135881424,
          0.14845459163188934,
          -0.005749972071498632,
          -0.17997196316719055,
          -0.12125523388385773,
          -0.10065627098083496
        ],
        [
          0.09108415246009827,
          -0.034045927226543427,
          0.08918049931526184,
          0.12838317453861237,
          -0.004175689537078142,
          -0.007318660616874695,
          -0.01572190225124359,
          -0.09449757635593414,
          0.05103622004389763,
          0.012477165088057518,
          -0.03566545248031616,
          -0.1187891811132431,
          -0.0014052093029022217,
          0.04505666345357895,
          0.02423235960304737,
          -0.11259211599826813,
          0.046006206423044205,
          -0.020664706826210022,
          -0.08064258843660355,
          -0.09630966186523438,
          0.11654019355773926,
          0.1308256983757019,
          -0.08078037947416306,
          -0.02945118024945259,
          -0.032673463225364685,
          -0.08839896321296692,
          0.04629451036453247,
          0.07882236689329147,
          0.05844974145293236,
          0.09286263585090637,
          0.01981247216463089,
          0.013149019330739975,
          0.052340224385261536,
          -0.07019837200641632,
          -0.020840302109718323,
          -0.08814139664173126,
          -0.04420113563537598,
          0.03716808184981346,
          -0.1160195991396904,
          -0.10850883275270462,
          0.009229514747858047,
          0.03811249881982803,
          0.18178020417690277,
          -0.05220266059041023,
          0.019581342115998268,
          -0.016592497006058693,
          0.11491232365369797,
          -0.08046891540288925,
          -0.049790337681770325,
          -0.08346471190452576,
          -0.03635827451944351,
          0.06470397859811783,
          0.09905073046684265,
          0.0924566239118576,
          0.11334288865327835,
          -0.003040952840819955,
          0.0914829894900322,
          -0.05965759605169296,
          -0.016553588211536407,
          -0.09533834457397461,
          -0.06242894381284714,
          -0.08675359934568405,
          0.08769964426755905,
          0.09305230528116226
        ],
        [
          -0.0028621982783079147,
          0.029133684933185577,
          -0.0290982723236084,
          0.11566620320081711,
          -0.10496935248374939,
          0.014572009444236755,
          0.03384441137313843,
          -0.008715544827282429,
          0.07999815046787262,
          0.11190034449100494,
          -0.11467492580413818,
          0.0606209933757782,
          -0.07117049396038055,
          0.09114909172058105,
          0.12682639062404633,
          0.01749332807958126,
          -0.06147883087396622,
          0.04536499083042145,
          0.17272579669952393,
          0.08416681736707687,
          -0.10831248015165329,
          0.09096524864435196,
          -0.005070043727755547,
          0.08565185219049454,
          -0.08786045759916306,
          -0.0725662112236023,
          -0.055747680366039276,
          -0.088233083486557,
          -0.0631011351943016,
          -0.10938413441181183,
          0.05344409868121147,
          0.013593144714832306,
          0.06801676750183105,
          -0.0013020782498642802,
          -0.04220682382583618,
          0.025075525045394897,
          -0.021371155977249146,
          0.03622483089566231,
          0.030267978087067604,
          5.532977229449898e-05,
          -0.10730679333209991,
          -0.016752397641539574,
          -0.03890551999211311,
          0.12343516945838928,
          -0.0034490390680730343,
          0.08476339280605316,
          -0.027374187484383583,
          0.018860604614019394,
          0.015561521053314209,
          -0.08189328759908676,
          0.01936403475701809,
          0.04151557758450508,
          0.095102958381176,
          -0.05586850643157959,
          -0.11416658014059067,
          -0.025720125064253807,
          0.082255519926548,
          0.0374077744781971,
          -0.0009103993070311844,
          -0.013230899348855019,
          -0.10873863101005554,
          -0.15092673897743225,
          0.09873080253601074,
          0.11811131983995438
        ],
        [
          -0.0007477431790903211,
          -0.0914178192615509,
          -0.09283927083015442,
          -0.06703019887208939,
          -0.011468948796391487,
          -0.0228709876537323,
          0.09444263577461243,
          -0.06268820911645889,
          0.08166375756263733,
          -0.11216674000024796,
          -0.12336201965808868,
          -0.03162948414683342,
          -0.08732238411903381,
          0.06611418724060059,
          0.12137214094400406,
          -0.12592047452926636,
          -0.1118803471326828,
          0.03988875448703766,
          -0.08137563616037369,
          -0.01076702494174242,
          -0.06551244109869003,
          0.12657755613327026,
          0.09145554155111313,
          -0.0425574854016304,
          -0.03869515657424927,
          0.033222224563360214,
          0.0015500454464927316,
          0.07132377475500107,
          0.020167583599686623,
          0.014419391751289368,
          0.06179758533835411,
          0.03868446499109268,
          0.08137264847755432,
          -0.10361327230930328,
          0.08832788467407227,
          -0.09982483088970184,
          0.10882486402988434,
          0.04695998132228851,
          0.14970475435256958,
          -0.013489177450537682,
          -0.025858964771032333,
          0.012781605124473572,
          0.04042186215519905,
          -0.05149047449231148,
          0.08535787463188171,
          0.0630759671330452,
          0.005289528053253889,
          -0.04805267974734306,
          0.05078493058681488,
          0.0934409499168396,
          0.03720199316740036,
          0.05136331915855408,
          0.054046276956796646,
          -0.05442649871110916,
          -0.03662188723683357,
          -0.07776886224746704,
          -0.07007026672363281,
          -0.11180354654788971,
          -0.0025791767984628677,
          -0.07141347229480743,
          0.04642382636666298,
          0.02270074188709259,
          0.101207435131073,
          -0.02889753133058548
        ],
        [
          0.060625553131103516,
          0.03988189995288849,
          0.08626954257488251,
          -0.033541351556777954,
          -0.04751243442296982,
          0.0462525337934494,
          -0.01909257471561432,
          0.07430190593004227,
          -0.0195293165743351,
          -0.04659198224544525,
          -0.08596225082874298,
          0.07338029146194458,
          0.03058888018131256,
          -0.04503002390265465,
          -0.11487286537885666,
          0.0009681111550889909,
          -0.06644532084465027,
          0.07482978701591492,
          0.0440598763525486,
          0.05322874337434769,
          -0.06244403496384621,
          -0.10719017684459686,
          -0.009364813566207886,
          0.014956631697714329,
          0.10248085111379623,
          -0.10655446350574493,
          -0.0071159410290420055,
          0.13320840895175934,
          -0.0082286037504673,
          0.10610073804855347,
          -0.13050682842731476,
          0.03626510500907898,
          -0.13719423115253448,
          0.01642020046710968,
          -0.1229218915104866,
          -2.851482349797152e-05,
          -0.001990869641304016,
          -0.1212792694568634,
          -0.06947328895330429,
          -0.047496795654296875,
          -0.0730830654501915,
          -0.058385252952575684,
          -0.03982401266694069,
          0.08468391746282578,
          0.07382860779762268,
          0.00018613709835335612,
          0.01871109940111637,
          -0.09611958265304565,
          0.0857522040605545,
          -0.012594355270266533,
          -0.024187738075852394,
          0.036068063229322433,
          -0.12331552803516388,
          0.02066919580101967,
          0.08087776601314545,
          -0.013396462425589561,
          -0.08450654149055481,
          -0.05723334476351738,
          0.08433381468057632,
          0.08507243543863297,
          0.06607320159673691,
          0.09514890611171722,
          -0.05784890055656433,
          0.11858636140823364
        ],
        [
          -0.10151781141757965,
          0.06143230199813843,
          -0.07291151583194733,
          -0.11529707908630371,
          0.09074023365974426,
          0.09275063872337341,
          0.08127255737781525,
          0.015425235033035278,
          0.003819987177848816,
          -0.08720800280570984,
          -0.09121489524841309,
          -0.005009308457374573,
          0.017981350421905518,
          -0.07044364511966705,
          -0.05042499303817749,
          -0.029637321829795837,
          0.11443901062011719,
          -0.013889133930206299,
          0.059594541788101196,
          0.04645104706287384,
          0.0050976574420928955,
          -0.031052395701408386,
          -0.021229252219200134,
          0.004963323473930359,
          0.08169035613536835,
          -0.03652472794055939,
          0.0045257508754730225,
          -0.08940368890762329,
          0.005685657262802124,
          -0.05908544361591339,
          -0.0860443264245987,
          -0.12300290167331696,
          0.022453218698501587,
          -0.06760300695896149,
          0.10374978184700012,
          -0.08860309422016144,
          -0.012942135334014893,
          -0.010692805051803589,
          -0.11639541387557983,
          -0.04081438481807709,
          0.07960395514965057,
          -0.06964589655399323,
          -0.11459194123744965,
          -0.07688659429550171,
          0.028937965631484985,
          -0.11502212285995483,
          0.039623409509658813,
          0.10444393754005432,
          0.08024978637695312,
          -0.03581614792346954,
          -0.04436877369880676,
          -0.031675443053245544,
          0.03673486411571503,
          0.08015885949134827,
          0.06548255681991577,
          -0.0689392238855362,
          0.0684153139591217,
          0.0012507140636444092,
          -0.05288270115852356,
          -0.05043451488018036,
          0.07550401985645294,
          -0.09423887729644775,
          0.08513106405735016,
          0.09946371614933014
        ],
        [
          -0.007962271571159363,
          -0.10770726203918457,
          0.10824145376682281,
          0.08294130861759186,
          0.07170522212982178,
          0.046137139201164246,
          0.05482487380504608,
          -0.013247877359390259,
          0.07838957011699677,
          -0.09266062080860138,
          -0.0689142644405365,
          0.06981375813484192,
          0.05833451449871063,
          0.017518937587738037,
          0.02482961118221283,
          -0.06321263313293457,
          0.08216707408428192,
          -0.060809388756752014,
          0.018872812390327454,
          -0.07831081748008728,
          0.044577375054359436,
          -0.05890493094921112,
          0.08550679683685303,
          -0.05311839282512665,
          0.03616465628147125,
          -0.044806092977523804,
          0.06716926395893097,
          -0.00769314169883728,
          -0.056463614106178284,
          0.09401656687259674,
          -0.02574653923511505,
          -0.10125163197517395,
          0.11355361342430115,
          -0.10242098569869995,
          0.044207289814949036,
          -0.08074162900447845,
          -0.08617645502090454,
          -0.12478986382484436,
          0.07218647003173828,
          0.1028495579957962,
          0.053308263421058655,
          -0.07208086550235748,
          0.019019559025764465,
          -0.025759130716323853,
          -0.07330597937107086,
          0.0073833167552948,
          -0.05714347958564758,
          -0.017393574118614197,
          -0.05806681513786316,
          0.058194294571876526,
          -0.054680079221725464,
          -0.004843473434448242,
          -0.07470095157623291,
          -0.1138492077589035,
          0.11511044204235077,
          -0.10653036832809448,
          0.003218814730644226,
          -0.02392330765724182,
          -0.11615361273288727,
          0.05032475292682648,
          0.10683546960353851,
          -0.01630222797393799,
          -0.1081804633140564,
          -0.08541403710842133
        ],
        [
          0.035038597881793976,
          0.10057174414396286,
          0.07291293144226074,
          -0.06708960980176926,
          -0.005058306735008955,
          0.09677034616470337,
          0.06633560359477997,
          0.1202249675989151,
          -0.135978102684021,
          0.09513060003519058,
          -0.1056918054819107,
          0.15012000501155853,
          -0.09237901866436005,
          0.09714078158140182,
          0.05712868645787239,
          -0.06795523315668106,
          -0.13586483895778656,
          0.027866099029779434,
          -0.1904497593641281,
          0.07781852036714554,
          0.05524231120944023,
          -0.02475729212164879,
          0.08011697977781296,
          0.04026661068201065,
          0.01137872040271759,
          -0.05851384997367859,
          0.1165916696190834,
          -0.07064826041460037,
          -0.22093917429447174,
          -0.011251270771026611,
          -0.0488598495721817,
          -0.09730243682861328,
          -0.10673568397760391,
          0.06726498901844025,
          0.037550296634435654,
          0.05628552287817001,
          0.001993805170059204,
          -0.09754742681980133,
          0.09365915507078171,
          0.11639459431171417,
          -0.10111749172210693,
          0.14175167679786682,
          0.12012475728988647,
          0.15753987431526184,
          -0.12072540074586868,
          0.08809968829154968,
          -0.08373256772756577,
          0.010571909137070179,
          0.07800322771072388,
          0.13286763429641724,
          0.050260040909051895,
          -0.12458967417478561,
          0.13087861239910126,
          0.10388992726802826,
          0.11166366934776306,
          0.023300059139728546,
          0.047973036766052246,
          0.006700323428958654,
          0.01545968372374773,
          -0.07856914401054382,
          0.06311796605587006,
          0.01569974422454834,
          -0.06007872521877289,
          -0.011225588619709015
        ],
        [
          -0.029447313398122787,
          0.09059470146894455,
          0.03094482421875,
          -0.03936800733208656,
          -0.03517824038863182,
          -0.01288767158985138,
          -0.09450753033161163,
          -0.02376079186797142,
          0.08562391251325607,
          -0.07793597877025604,
          0.1170072853565216,
          0.11164668947458267,
          0.0902664065361023,
          0.019470103085041046,
          -0.06457351893186569,
          -0.03786380589008331,
          -0.09643931686878204,
          -0.08467679470777512,
          -0.067294180393219,
          0.0668199211359024,
          0.09757278859615326,
          0.10290446132421494,
          0.09163966774940491,
          -0.08638762682676315,
          -0.11342418193817139,
          -0.1013188362121582,
          -0.06412509083747864,
          0.001188026973977685,
          -0.04633937031030655,
          -0.016673102974891663,
          -0.04464777186512947,
          0.01662166230380535,
          -0.06894416362047195,
          -0.04896729439496994,
          0.06179310008883476,
          -0.13266867399215698,
          0.030594363808631897,
          -0.07156215608119965,
          -0.0671270564198494,
          -0.07372893393039703,
          0.10255205631256104,
          0.03550052270293236,
          -0.016032826155424118,
          -0.059827499091625214,
          -0.010973633266985416,
          -0.05937223508954048,
          0.029633600264787674,
          -0.13035351037979126,
          0.02875034511089325,
          0.04786710441112518,
          0.04747369885444641,
          -0.008933894336223602,
          0.025614578276872635,
          0.010900212451815605,
          -0.10396882891654968,
          0.05258415266871452,
          0.09560141712427139,
          0.0643567219376564,
          -0.05920080095529556,
          0.023555124178528786,
          0.03359037637710571,
          -0.13503484427928925,
          0.1149832159280777,
          -0.10027233511209488
        ],
        [
          0.0077926781959831715,
          -0.15175092220306396,
          -0.0939987301826477,
          -0.08376491069793701,
          -0.014308267273008823,
          -0.11892436444759369,
          -0.043673545122146606,
          -0.00993396621197462,
          -0.00034985950333066285,
          0.02202918380498886,
          -0.0706803947687149,
          0.032582756131887436,
          -0.08531810343265533,
          0.07777033001184464,
          -0.06854183226823807,
          0.0038593546487390995,
          -0.07059656083583832,
          -0.07160576432943344,
          -0.1503748744726181,
          0.033373452723026276,
          0.04312654584646225,
          -0.10258737951517105,
          -0.01273660734295845,
          0.1437016725540161,
          0.0866914615035057,
          -0.05530957132577896,
          -0.05366095155477524,
          -0.12908701598644257,
          -0.1532985270023346,
          -0.08671976625919342,
          -0.031506385654211044,
          -0.07680846750736237,
          -0.10810188949108124,
          -0.10088440030813217,
          -0.05608042702078819,
          0.01235385425388813,
          0.11128957569599152,
          0.036997780203819275,
          0.12484642118215561,
          -0.038609687238931656,
          0.10366480052471161,
          -0.08064225316047668,
          -0.031010497361421585,
          -0.03516600281000137,
          0.04811893776059151,
          -0.15135397017002106,
          -0.01843094639480114,
          -0.027270052582025528,
          0.11103644967079163,
          -0.004372713156044483,
          -0.003305113408714533,
          -0.06855609267950058,
          0.07189235836267471,
          0.03607290983200073,
          -0.004299902822822332,
          -0.03895064815878868,
          -0.07664846628904343,
          0.12514106929302216,
          0.14488652348518372,
          0.13413302600383759,
          0.07531503587961197,
          0.019473189488053322,
          -0.12247302383184433,
          -0.10721848160028458
        ],
        [
          -0.1094893142580986,
          -0.0037328004837036133,
          0.039331331849098206,
          0.05724149942398071,
          -0.10184574127197266,
          -0.06459228694438934,
          0.10261224210262299,
          -0.1110830307006836,
          0.09077806770801544,
          -0.032195545732975006,
          0.03818503022193909,
          -0.00188426673412323,
          -0.01324300467967987,
          0.08151691406965256,
          -0.0914328321814537,
          -0.10192488133907318,
          -0.06179399788379669,
          -0.08698802441358566,
          0.09191612899303436,
          -0.13111557066440582,
          -0.007011427544057369,
          0.017459729686379433,
          0.08104753494262695,
          -0.07429055869579315,
          -0.06268876791000366,
          -0.07153085619211197,
          0.12312321364879608,
          0.08535740524530411,
          -0.011025425046682358,
          0.04065248370170593,
          0.08031225204467773,
          -0.08945748209953308,
          -0.005273751448839903,
          0.0036970973014831543,
          0.01855304278433323,
          -0.029565857723355293,
          -0.050901710987091064,
          0.027805935591459274,
          0.04296021908521652,
          0.07233045250177383,
          -0.1136656329035759,
          0.008764445781707764,
          -0.03385491669178009,
          -0.11210979521274567,
          -0.06263099610805511,
          0.07102785259485245,
          -0.038633547723293304,
          0.047401174902915955,
          0.1054762452840805,
          0.013563246466219425,
          -0.1289670169353485,
          -0.07668116688728333,
          -0.09582071751356125,
          -0.02025015838444233,
          -0.0059279208071529865,
          0.0743611752986908,
          -0.14270614087581635,
          0.03439328819513321,
          -0.10880547761917114,
          0.08810760080814362,
          -0.10679125040769577,
          -0.07857909798622131,
          -0.010274499654769897,
          -0.09192028641700745
        ],
        [
          0.08732698857784271,
          -0.0038128644227981567,
          -0.03755691647529602,
          -0.09961432218551636,
          0.06241968274116516,
          -0.023465201258659363,
          0.05345819890499115,
          -0.06673640012741089,
          -0.012426034547388554,
          -0.08746035397052765,
          -0.07399192452430725,
          0.08704695105552673,
          -0.06421932578086853,
          0.02751314826309681,
          0.09885702282190323,
          -0.10478514432907104,
          0.03352980315685272,
          0.09939175099134445,
          -0.02210712432861328,
          0.07603082060813904,
          0.011023500934243202,
          -0.09614541381597519,
          -0.10283848643302917,
          -0.011470445431768894,
          0.02615867555141449,
          -0.09957066178321838,
          -0.0372568815946579,
          -0.09584479033946991,
          0.1061897799372673,
          0.008371502161026001,
          -0.10587827861309052,
          0.1099732369184494,
          0.0836087167263031,
          0.07248559594154358,
          -0.1285707801580429,
          0.04329279437661171,
          -0.022641301155090332,
          0.06974045932292938,
          0.07418380677700043,
          -0.0673031210899353,
          -0.009305022656917572,
          -0.05504482984542847,
          0.1154170036315918,
          -0.06710205972194672,
          0.10091771185398102,
          0.08786693215370178,
          0.0780825987458229,
          -0.11049799621105194,
          -0.08831357955932617,
          0.03861309960484505,
          0.013286112807691097,
          -0.005517125129699707,
          -0.02756839245557785,
          -0.03725815564393997,
          -0.11979706585407257,
          0.019313765689730644,
          -0.008978143334388733,
          -0.00439067417755723,
          -0.03242279589176178,
          0.019693896174430847,
          -0.03531068563461304,
          -0.09445364773273468,
          0.06423772871494293,
          -0.07956521213054657
        ],
        [
          0.015142107382416725,
          -0.05974917858839035,
          -0.11321619153022766,
          -0.08479338139295578,
          -0.047290414571762085,
          -0.05335494875907898,
          0.029827818274497986,
          0.0055515700951218605,
          0.022077059373259544,
          -0.057196181267499924,
          -0.0002848803997039795,
          0.052319541573524475,
          -0.12225788831710815,
          -0.020003776997327805,
          -0.01867852360010147,
          -0.08848883211612701,
          0.04776547849178314,
          0.04970420524477959,
          -0.009666135534644127,
          -0.08030223846435547,
          0.052875954657793045,
          0.008133156225085258,
          0.048862919211387634,
          0.012552076019346714,
          0.029488643631339073,
          -0.08570394665002823,
          0.15998493134975433,
          -0.025041494518518448,
          0.11807312071323395,
          0.04395473003387451,
          0.050692956894636154,
          0.05699664726853371,
          0.024703562259674072,
          -0.07553300261497498,
          -0.10661548376083374,
          0.06751776486635208,
          -0.10886158049106598,
          -0.08401067554950714,
          0.05582915619015694,
          0.10094945877790451,
          -0.10868307203054428,
          0.0809776782989502,
          -0.03134077787399292,
          0.08727461844682693,
          0.016330579295754433,
          0.0724981427192688,
          -0.0973362922668457,
          0.021861115470528603,
          -0.035361990332603455,
          -0.0982804000377655,
          -0.09405721724033356,
          -0.11503297835588455,
          0.015484511852264404,
          -0.10966066271066666,
          -0.005017753690481186,
          0.025511762127280235,
          0.1385546773672104,
          -0.058062586933374405,
          0.07391011714935303,
          -0.12121005356311798,
          -0.000900649989489466,
          0.12289263308048248,
          0.107354536652565,
          -0.0305536687374115
        ],
        [
          -0.03489919751882553,
          0.059416353702545166,
          -0.05210795998573303,
          -0.009669329971075058,
          0.1356106847524643,
          -0.09767735004425049,
          0.09290915727615356,
          -0.08666455000638962,
          0.11232321709394455,
          0.10874204337596893,
          0.03240378201007843,
          0.08690390735864639,
          0.08188925683498383,
          -0.02494480274617672,
          -0.07368873804807663,
          0.09709973633289337,
          0.060112468898296356,
          -0.11617609858512878,
          -0.09330813586711884,
          0.09709437191486359,
          0.1084117442369461,
          0.012075122445821762,
          0.11334018409252167,
          -0.0069808876141905785,
          -0.02203354239463806,
          0.054197460412979126,
          -0.07649654150009155,
          -0.12009526789188385,
          -0.032621875405311584,
          -0.02174663543701172,
          -0.015673093497753143,
          0.0020603889133781195,
          0.07045887410640717,
          0.03460006043314934,
          -0.09449894726276398,
          0.08054766803979874,
          0.04074469208717346,
          0.009272405877709389,
          -0.012723206542432308,
          -0.08484997600317001,
          0.03728625178337097,
          -0.06469329446554184,
          -0.0945768728852272,
          -0.05680166557431221,
          0.016425905749201775,
          -0.03805429860949516,
          0.09114181250333786,
          -0.09421046823263168,
          0.00925588607788086,
          0.08604652434587479,
          -0.09411969035863876,
          -0.062466759234666824,
          -0.02506067417562008,
          -0.04431714490056038,
          -0.07652297616004944,
          0.09561856836080551,
          -0.08142977952957153,
          0.02663922868669033,
          -0.11592236906290054,
          0.005348291248083115,
          -0.005823894403874874,
          -0.07333818823099136,
          0.03233155608177185,
          0.04641583934426308
        ],
        [
          0.0016412585973739624,
          0.11358411610126495,
          0.059587880969047546,
          0.10377305746078491,
          0.10224682092666626,
          -0.023311391472816467,
          -0.11212524771690369,
          -0.01955065131187439,
          0.019633978605270386,
          0.10402457416057587,
          0.1169903576374054,
          0.10963496565818787,
          0.02186550199985504,
          0.09602724015712738,
          0.10607782006263733,
          0.05595111846923828,
          0.12149068713188171,
          -0.02574746310710907,
          0.02983953058719635,
          -0.03543198108673096,
          -0.0024587810039520264,
          -0.12288755178451538,
          0.01050633192062378,
          -0.08862875401973724,
          -0.014519467949867249,
          0.09844069182872772,
          -0.06463256478309631,
          0.07681460678577423,
          0.029172435402870178,
          -0.09453465044498444,
          0.03872011601924896,
          0.07529084384441376,
          -0.04372572898864746,
          -0.06127968430519104,
          -0.10193270444869995,
          -0.08531172573566437,
          0.045192837715148926,
          -0.10327006876468658,
          -0.10836529731750488,
          0.09611879289150238,
          -0.09374307096004486,
          0.02423013746738434,
          -0.04985441267490387,
          0.056450068950653076,
          -0.10927966237068176,
          -0.06237789988517761,
          -0.11664886772632599,
          0.0431731641292572,
          0.0351656973361969,
          -0.08796389400959015,
          -0.01941533386707306,
          -0.048302486538887024,
          -0.08609385788440704,
          -0.11194318532943726,
          0.02578715980052948,
          0.0017989426851272583,
          -0.03580905497074127,
          0.011919990181922913,
          -0.06953459978103638,
          0.0883084237575531,
          -0.013143107295036316,
          -0.11661633849143982,
          0.021132707595825195,
          -0.08918292820453644
        ],
        [
          0.013377035036683083,
          -0.03319362923502922,
          -0.017579466104507446,
          -0.05153627321124077,
          0.03693573176860809,
          0.07275965809822083,
          -0.12079966068267822,
          -0.03348126634955406,
          0.06615234911441803,
          -0.05269051715731621,
          -0.05300396680831909,
          -0.09540362656116486,
          0.037439003586769104,
          -0.05570453405380249,
          0.04708142578601837,
          0.06139124557375908,
          0.09704118221998215,
          0.02819289267063141,
          -0.08783551305532455,
          0.03489455580711365,
          0.09334340691566467,
          -0.04798419773578644,
          -0.021419420838356018,
          0.08608889579772949,
          -0.036927729845047,
          -0.05527281388640404,
          -0.10110004991292953,
          -0.10217606276273727,
          0.09454084187746048,
          0.05385090410709381,
          0.01783359982073307,
          0.019481107592582703,
          0.021378960460424423,
          0.013866502791643143,
          -0.05655045807361603,
          0.10873734951019287,
          -0.0075612664222717285,
          -0.02803226001560688,
          -0.09972897171974182,
          -0.022910354658961296,
          0.11144360899925232,
          -0.14176924526691437,
          0.09135652333498001,
          -0.12303560972213745,
          -0.10180670022964478,
          -0.06830266118049622,
          0.004758294206112623,
          0.055383820086717606,
          -0.03719766438007355,
          -0.006807311903685331,
          -0.10141657292842865,
          0.01540223229676485,
          -0.045256659388542175,
          0.11570179462432861,
          -0.047394540160894394,
          -0.007168321870267391,
          -0.10009080916643143,
          -0.07110996544361115,
          -0.08420015871524811,
          -0.04026498273015022,
          -0.018136041238904,
          -0.001866049598902464,
          -0.08659012615680695,
          -0.00911991111934185
        ],
        [
          -0.10330656170845032,
          -0.019145319238305092,
          -0.11325117945671082,
          -0.06752569228410721,
          -0.040376659482717514,
          0.08787629008293152,
          -0.0767173022031784,
          0.010994425974786282,
          -0.07390592247247696,
          -0.08775115758180618,
          -0.053888171911239624,
          0.0541682206094265,
          0.013203069567680359,
          -0.09612113982439041,
          -0.04061678797006607,
          0.17360560595989227,
          0.07707024365663528,
          0.013102944940328598,
          -0.1458977907896042,
          0.09618683904409409,
          -0.03546491265296936,
          0.100734181702137,
          0.03904171660542488,
          -0.010377992875874043,
          -0.025839075446128845,
          0.01619003154337406,
          0.024741696193814278,
          -0.000690735992975533,
          -0.0027682501822710037,
          -0.09261913597583771,
          0.146580308675766,
          -0.05301745980978012,
          -0.05614228546619415,
          -0.02907991036772728,
          0.06754559278488159,
          -0.03416040167212486,
          -0.08765694499015808,
          0.08577835559844971,
          -0.004353140480816364,
          0.1340109407901764,
          0.101537324488163,
          0.032954681664705276,
          0.006208828184753656,
          0.08079845458269119,
          -0.1391405463218689,
          -0.13182522356510162,
          0.06137051805853844,
          -0.045313674956560135,
          -0.022823184728622437,
          -0.018119318410754204,
          0.16034412384033203,
          0.04723748564720154,
          0.10849778354167938,
          0.011563736945390701,
          0.1522444784641266,
          -0.09426241368055344,
          -0.14860393106937408,
          -0.08368417620658875,
          0.09050029516220093,
          0.12591508030891418,
          -0.12871795892715454,
          -0.0025067352689802647,
          -0.0004500746726989746,
          -0.03989085182547569
        ],
        [
          0.0322209894657135,
          -0.0772886723279953,
          -0.011705592274665833,
          -0.044468194246292114,
          -0.12354296445846558,
          -0.034384191036224365,
          0.09889163076877594,
          -0.11118312180042267,
          -0.018460094928741455,
          -0.08565668761730194,
          0.07423077523708344,
          0.06676426529884338,
          0.12483644485473633,
          0.056853100657463074,
          0.10866767168045044,
          -0.05008392035961151,
          0.011007234454154968,
          -0.04925300180912018,
          0.09160731732845306,
          0.05704320967197418,
          -0.008670225739479065,
          -0.05383078753948212,
          0.1063997894525528,
          0.10586732625961304,
          0.12496128678321838,
          -0.016479849815368652,
          -0.07218337059020996,
          -0.09736436605453491,
          -0.04151467978954315,
          -0.1217488944530487,
          0.036623626947402954,
          -0.045741334557533264,
          -0.08575393259525299,
          -0.11608593165874481,
          -0.03448896110057831,
          0.012240201234817505,
          0.010580524802207947,
          -0.09100392460823059,
          -0.07676433026790619,
          0.050682440400123596,
          -0.04991455376148224,
          -0.023274987936019897,
          0.09377288818359375,
          -0.08612553775310516,
          -0.037401631474494934,
          0.07342720031738281,
          0.06189428269863129,
          -0.07855640351772308,
          -0.09347142279148102,
          0.10379064083099365,
          0.07988062500953674,
          -0.0035985708236694336,
          -0.09357580542564392,
          0.062468379735946655,
          -0.05484236776828766,
          0.030925869941711426,
          0.03754730522632599,
          -0.09763255715370178,
          -0.06861895322799683,
          -0.022130191326141357,
          0.0951482355594635,
          0.06130509078502655,
          -0.1173725575208664,
          -0.04541097581386566
        ],
        [
          0.014193511568009853,
          0.04103495553135872,
          -0.1021689772605896,
          0.11188795417547226,
          0.03808670490980148,
          0.08587867021560669,
          0.0010567158460617065,
          -0.05786796286702156,
          -0.06531583517789841,
          -0.06434790045022964,
          -0.07791528105735779,
          0.03695892170071602,
          -0.07476961612701416,
          0.04149691015481949,
          -0.0952625498175621,
          0.03192568197846413,
          -0.010707640089094639,
          0.11607594043016434,
          0.03425351157784462,
          0.019472699612379074,
          -0.0418127216398716,
          0.1122676357626915,
          -0.041581008583307266,
          -0.10131338983774185,
          -0.047212403267621994,
          -0.036421872675418854,
          -0.0033877408131957054,
          -0.07315430045127869,
          -0.04472245275974274,
          0.05486278235912323,
          0.004307064227759838,
          0.020657414570450783,
          0.06373285502195358,
          0.01938340812921524,
          -0.08010664582252502,
          0.07251567393541336,
          0.117479607462883,
          0.09987049549818039,
          0.06473540514707565,
          -0.00945726316422224,
          0.1071387231349945,
          -0.0773230567574501,
          -0.12444304674863815,
          -0.045196011662483215,
          0.07422515749931335,
          -0.06652119010686874,
          -0.09795725345611572,
          0.08255992829799652,
          -0.0627300888299942,
          -0.040735866874456406,
          0.1344793736934662,
          0.0852905809879303,
          0.04146001860499382,
          0.05123065412044525,
          0.05210670083761215,
          -0.0792674720287323,
          0.044139474630355835,
          0.03320394083857536,
          0.04776378720998764,
          0.10353495925664902,
          0.03640682250261307,
          0.10661695897579193,
          -0.0380825474858284,
          0.03156021237373352
        ],
        [
          -0.05289600044488907,
          -0.016574496403336525,
          0.05712255835533142,
          -0.023521892726421356,
          0.03971334919333458,
          -0.1089935451745987,
          -0.049466997385025024,
          0.015719648450613022,
          0.09026012569665909,
          -0.07673302292823792,
          -0.040221333503723145,
          -0.1288854479789734,
          -0.029678747057914734,
          -0.12289249897003174,
          -0.104285828769207,
          0.04277709126472473,
          -0.1299595832824707,
          -0.06444703042507172,
          0.09236808121204376,
          -0.0011413291795179248,
          -0.12035677582025528,
          0.10796105116605759,
          0.031166082248091698,
          0.07108771800994873,
          0.11759290099143982,
          -0.027835335582494736,
          0.04915664345026016,
          0.057752445340156555,
          -0.09888617694377899,
          0.05808642506599426,
          -0.0008811121224425733,
          0.09281624108552933,
          -0.027967533096671104,
          0.018054505810141563,
          -0.11228366196155548,
          -0.04716463014483452,
          -0.02854524552822113,
          -0.09595146775245667,
          -0.09774461388587952,
          0.04345204681158066,
          0.05743271857500076,
          -0.11664483696222305,
          -0.06468920409679413,
          -0.09176009148359299,
          0.05831319838762283,
          -0.03480647876858711,
          0.10772471129894257,
          0.04030083119869232,
          0.07501932978630066,
          -0.030788371339440346,
          -0.0323265939950943,
          0.08878596872091293,
          0.08492431044578552,
          0.04703089967370033,
          0.09389947354793549,
          -0.12533193826675415,
          -0.03368014469742775,
          -0.11007341742515564,
          -0.08364909142255783,
          -0.021118631586432457,
          0.02648787386715412,
          -0.13132360577583313,
          0.000550683937035501,
          -0.06297658383846283
        ],
        [
          -0.05707048997282982,
          -0.07804393768310547,
          0.11489355564117432,
          0.004385237582027912,
          -0.11217581480741501,
          0.08298954367637634,
          0.05693162977695465,
          -0.025666430592536926,
          0.051011230796575546,
          -0.094092458486557,
          -0.050941526889801025,
          -0.05181074142456055,
          0.007237225770950317,
          -0.1152048110961914,
          0.0378546416759491,
          0.0794253796339035,
          0.07938240468502045,
          -0.08480745553970337,
          0.043167099356651306,
          -0.07978957146406174,
          -0.10675300657749176,
          0.00516916811466217,
          -0.06130567193031311,
          -0.012749288231134415,
          -0.053909286856651306,
          -0.02088487520813942,
          0.0781499519944191,
          -0.033774085342884064,
          -0.11056400835514069,
          0.036052778363227844,
          0.08116194605827332,
          -0.04788278043270111,
          -0.04448199272155762,
          0.12043066322803497,
          -0.010964891873300076,
          0.022324586287140846,
          0.12330290675163269,
          -0.09223318099975586,
          0.021301060914993286,
          -0.05948140099644661,
          0.021443946287035942,
          0.08995076268911362,
          0.004021793603897095,
          -0.016058092936873436,
          0.004928987007588148,
          -0.11310578882694244,
          -0.11320342868566513,
          0.002621652791276574,
          0.015133082866668701,
          -0.019409289583563805,
          0.005704373121261597,
          0.10394109785556793,
          0.12022440880537033,
          -0.04973263293504715,
          -0.11933289468288422,
          -0.056990012526512146,
          0.045275770127773285,
          0.011125611141324043,
          0.05149786174297333,
          -0.03862481936812401,
          0.11027394235134125,
          -0.11040505766868591,
          0.011488421820104122,
          0.09937596321105957
        ],
        [
          -0.10515987128019333,
          0.11508636921644211,
          -0.09865702688694,
          0.0871325135231018,
          0.010792437940835953,
          0.05605313181877136,
          -0.09237946569919586,
          0.004243807401508093,
          0.02703605778515339,
          -0.011244531720876694,
          0.05251951515674591,
          0.11186455935239792,
          0.060758039355278015,
          0.1351938098669052,
          0.047694358974695206,
          -0.04191860184073448,
          -0.1097993478178978,
          -0.13405658304691315,
          -0.11467132717370987,
          -0.012977554462850094,
          0.027725527063012123,
          -0.13995766639709473,
          -0.017644552513957024,
          0.140279620885849,
          0.02326454035937786,
          0.05022866278886795,
          -0.010671934112906456,
          -0.06470958888530731,
          -0.08516941219568253,
          -0.09486989676952362,
          0.0708036720752716,
          -0.037512943148612976,
          0.05490555986762047,
          -0.03927747160196304,
          -0.039447538554668427,
          0.024160197004675865,
          0.0949195921421051,
          -0.0558011494576931,
          0.005405232775956392,
          0.1533234566450119,
          -0.09301933646202087,
          -0.051483236253261566,
          0.16896319389343262,
          0.07255425304174423,
          -0.0951695367693901,
          0.06638219207525253,
          0.13217085599899292,
          -0.05727788433432579,
          0.012937381863594055,
          -0.04385120049118996,
          -0.015585587359964848,
          0.03521899878978729,
          -0.003061598865315318,
          0.0721885934472084,
          0.08626698702573776,
          0.008490283042192459,
          -0.08836215734481812,
          0.005453532095998526,
          -0.014200209639966488,
          0.014196840114891529,
          -0.11171913146972656,
          -0.008785541169345379,
          0.11197170615196228,
          -0.03179222717881203
        ],
        [
          -0.09781534969806671,
          -0.011240987107157707,
          -0.01854272186756134,
          -0.06719385832548141,
          -0.09518078714609146,
          0.0032217204570770264,
          0.05031190812587738,
          0.04974504932761192,
          0.10256271809339523,
          0.048453621566295624,
          0.08679749071598053,
          -0.034979406744241714,
          0.05152338743209839,
          0.009728934615850449,
          -0.05293137952685356,
          0.046324364840984344,
          0.012969352304935455,
          -0.042755380272865295,
          -0.10278623551130295,
          -0.029896393418312073,
          -0.07853008806705475,
          -0.1423548310995102,
          0.10519051551818848,
          0.11611504852771759,
          -0.008271737024188042,
          0.0735815241932869,
          0.10501427203416824,
          -0.048141926527023315,
          0.035012856125831604,
          -0.082254558801651,
          -0.016137083992362022,
          -0.045481421053409576,
          0.1281292885541916,
          -0.018663199618458748,
          0.12202022969722748,
          0.09133053570985794,
          0.11265802383422852,
          0.0004551037563942373,
          -0.04522356018424034,
          -0.013082224875688553,
          -0.021693287417292595,
          -0.12679290771484375,
          0.15421202778816223,
          0.07444524019956589,
          0.03724120184779167,
          -0.004117526113986969,
          0.0955432578921318,
          -0.10792958736419678,
          0.0648113489151001,
          0.053250428289175034,
          0.11867474764585495,
          -0.022311560809612274,
          0.1055765300989151,
          0.08312267810106277,
          -0.12053787708282471,
          -0.018584057688713074,
          -0.1108943298459053,
          0.06444688141345978,
          0.10573633015155792,
          0.11975687742233276,
          0.08424120396375656,
          0.04716844856739044,
          -0.09022054821252823,
          -0.042096804827451706
        ],
        [
          -0.11586112529039383,
          0.014456018805503845,
          0.08092953264713287,
          -0.04475430026650429,
          -0.012705311179161072,
          -0.09373828768730164,
          -0.027637362480163574,
          0.10068486630916595,
          0.05285051465034485,
          -0.08797003328800201,
          0.06407573819160461,
          -0.12322200834751129,
          0.08372588455677032,
          -0.09147332608699799,
          0.049578145146369934,
          0.014313265681266785,
          -0.058519646525382996,
          0.07139454782009125,
          0.032838717103004456,
          -0.10418116301298141,
          0.06520230323076248,
          -0.01090183388441801,
          0.07245014607906342,
          0.04946102201938629,
          -0.04531732201576233,
          -0.12629510462284088,
          0.10335317999124527,
          0.033369604498147964,
          -0.1036478728055954,
          0.10999387502670288,
          -0.04135797917842865,
          -0.10572009533643723,
          0.11072184145450592,
          -0.029759570956230164,
          -0.12179836630821228,
          -0.09994908422231674,
          0.06369201838970184,
          0.07608569413423538,
          0.055838216096162796,
          -0.062093861401081085,
          -0.0904732272028923,
          0.10959549248218536,
          -0.1140582412481308,
          -0.11482496559619904,
          -0.0666750967502594,
          0.09478374570608139,
          0.08125568926334381,
          -0.0743769034743309,
          -0.0609060674905777,
          -0.054470889270305634,
          -0.0005830079317092896,
          -0.05927722528576851,
          0.014551563188433647,
          0.00040670897578820586,
          -0.10047367960214615,
          -0.09834933280944824,
          -0.046130917966365814,
          0.10705511271953583,
          0.08734288811683655,
          -0.07213476300239563,
          -0.06858525425195694,
          0.05282990634441376,
          -0.006537914276123047,
          -0.05532335862517357
        ],
        [
          0.07039716094732285,
          0.10127175599336624,
          0.019886478781700134,
          0.013879933394491673,
          -0.08263508975505829,
          0.07494445145130157,
          -0.1168009340763092,
          -0.04309181123971939,
          0.05730271339416504,
          0.049992602318525314,
          -0.05172184109687805,
          -0.08271555602550507,
          -0.062018588185310364,
          -0.02397015690803528,
          -0.12326956540346146,
          0.10681310296058655,
          -0.009586110711097717,
          -0.17265334725379944,
          -0.1820833832025528,
          -0.11923235654830933,
          -0.08203186839818954,
          0.025715386494994164,
          -0.015485591255128384,
          0.11713691055774689,
          -0.05784929171204567,
          0.03688284009695053,
          -0.015420383773744106,
          0.005419083405286074,
          -0.03673729673027992,
          0.04781632125377655,
          -0.061332039535045624,
          -0.024279942736029625,
          0.11367063969373703,
          -0.007424674462527037,
          0.12711679935455322,
          -0.025879578664898872,
          -0.08064247667789459,
          0.10481292009353638,
          0.07307877391576767,
          0.034804947674274445,
          0.0805211067199707,
          -0.05946226790547371,
          -0.11897295713424683,
          -0.07608875632286072,
          -0.04419470205903053,
          0.08784671872854233,
          0.13765791058540344,
          -0.016096703708171844,
          0.03748138248920441,
          0.07964905351400375,
          -0.02472520060837269,
          -0.02177492156624794,
          0.09064037352800369,
          0.0004680895945057273,
          0.09781951457262039,
          0.04107622802257538,
          -0.02868526801466942,
          -0.060348521918058395,
          -0.08463867008686066,
          0.01578439585864544,
          -0.01723204366862774,
          -0.24663488566875458,
          -0.010047217831015587,
          -0.10878101736307144
        ],
        [
          0.014622475951910019,
          -0.030193841084837914,
          0.007469087839126587,
          0.04799685999751091,
          0.030484218150377274,
          -0.09569837152957916,
          -0.007050603628158569,
          0.08377960324287415,
          0.01108026597648859,
          -0.08465397357940674,
          0.0941154807806015,
          0.006032582372426987,
          0.11186723411083221,
          0.030157288536429405,
          0.054251961410045624,
          -0.0025851100217550993,
          -0.0798986628651619,
          0.11293527483940125,
          -0.02815277688205242,
          -0.039565250277519226,
          0.04658443480730057,
          -0.08432680368423462,
          0.0574374720454216,
          0.09106384217739105,
          -0.028049487620592117,
          -0.02713191881775856,
          -0.026268383488059044,
          0.026302043348550797,
          -0.07132800668478012,
          -0.10480350255966187,
          -0.13450045883655548,
          0.044791702181100845,
          0.08647076785564423,
          -0.13757003843784332,
          0.05106191337108612,
          -0.04850366339087486,
          0.023919180035591125,
          0.001650569960474968,
          -0.13165846467018127,
          -0.003537580603733659,
          -0.008908778429031372,
          -0.09097752720117569,
          0.10179295390844345,
          0.08101515471935272,
          0.03907938674092293,
          -0.007575897965580225,
          0.0932626873254776,
          -0.11819134652614594,
          0.07377953827381134,
          0.026009120047092438,
          0.09448818862438202,
          0.02757350727915764,
          -0.13279618322849274,
          0.079989954829216,
          -0.13674941658973694,
          0.03556813299655914,
          -0.031919486820697784,
          -0.045581016689538956,
          -0.059411756694316864,
          -0.13140591979026794,
          0.0018674687016755342,
          0.12886039912700653,
          -0.06285154074430466,
          -0.0012841217685490847
        ],
        [
          -0.09255462139844894,
          0.09527653455734253,
          -0.07188475131988525,
          0.05091584101319313,
          0.0661788061261177,
          0.022296905517578125,
          -0.00544486939907074,
          0.10271761566400528,
          0.07358323782682419,
          0.0743044838309288,
          -0.08082623779773712,
          0.02040047012269497,
          0.07515960931777954,
          -0.04236632212996483,
          -0.08413604646921158,
          0.11023671925067902,
          -0.06870562583208084,
          -0.16970494389533997,
          -0.05384993180632591,
          0.023557212203741074,
          0.02663452737033367,
          -0.14219233393669128,
          0.05085911974310875,
          -0.06438466906547546,
          -0.06292446702718735,
          0.03237480670213699,
          0.09321708232164383,
          -0.1318051964044571,
          0.08946786820888519,
          -0.001494675874710083,
          0.059925153851509094,
          0.05272899940609932,
          0.04690948501229286,
          0.11626826971769333,
          -0.05265526846051216,
          0.05847114324569702,
          -0.0901629626750946,
          -0.08557894825935364,
          -0.01665746234357357,
          -0.07938974350690842,
          -0.041030243039131165,
          0.008616085164248943,
          0.17986226081848145,
          0.011774631217122078,
          -0.12093819677829742,
          -0.1228460967540741,
          0.11439588665962219,
          0.12878264486789703,
          0.05356691777706146,
          -0.052380405366420746,
          0.06659857928752899,
          -0.047588322311639786,
          0.041867226362228394,
          -0.004921361338347197,
          0.061665818095207214,
          -0.08433661609888077,
          -0.024447226896882057,
          0.05017133057117462,
          -0.046484820544719696,
          -0.015905283391475677,
          0.07143239676952362,
          -0.03040480986237526,
          -0.033782269805669785,
          0.08339951932430267
        ],
        [
          0.06493616849184036,
          -0.12235938757658005,
          -0.10807855427265167,
          -0.11075858771800995,
          -0.08924616873264313,
          0.0005970299243927002,
          0.001337990164756775,
          0.03614146634936333,
          0.04356972500681877,
          0.034718431532382965,
          -0.10297754406929016,
          -0.14355623722076416,
          0.02685961127281189,
          0.0175747349858284,
          0.11352037638425827,
          0.04170430451631546,
          -0.11959035694599152,
          -0.11225851625204086,
          -0.0507923886179924,
          -0.11179007589817047,
          0.03064236417412758,
          0.0814644992351532,
          -0.11063818633556366,
          -0.1049417182803154,
          -0.09861423075199127,
          -0.039131857454776764,
          -0.11806614696979523,
          -0.05568816140294075,
          -0.023348351940512657,
          -0.10603861510753632,
          -0.021632565185427666,
          -0.09611964225769043,
          0.025601021945476532,
          0.07736515253782272,
          -0.052817437797784805,
          -0.0414310097694397,
          0.024660497903823853,
          0.0629332959651947,
          0.1124197468161583,
          -0.08263032883405685,
          -0.0324074886739254,
          0.06358090043067932,
          -0.019599661231040955,
          -0.07423126697540283,
          -0.02640657126903534,
          -0.01844077743589878,
          0.00831181462854147,
          -0.05774461850523949,
          0.010967493057250977,
          -0.09709010273218155,
          0.05563386529684067,
          0.03552880510687828,
          0.06782405823469162,
          -0.12071888148784637,
          0.11538994312286377,
          -0.003544603008776903,
          0.08493173867464066,
          0.05655224248766899,
          0.07405579835176468,
          -0.017653703689575195,
          -0.06369538605213165,
          -0.05329008400440216,
          0.013895988464355469,
          0.04283778741955757
        ],
        [
          0.06003142148256302,
          0.09439361840486526,
          0.006163150072097778,
          0.10079281777143478,
          -0.08932517468929291,
          -0.0944657027721405,
          -0.08306768536567688,
          -0.03254857659339905,
          0.06412095576524734,
          -0.13411977887153625,
          0.01600848138332367,
          0.040881380438804626,
          -0.06618167459964752,
          0.017199739813804626,
          0.01746032014489174,
          -0.14746598899364471,
          -0.00933427456766367,
          0.13978499174118042,
          0.07367148995399475,
          0.12049651145935059,
          -0.12419568747282028,
          -0.14196856319904327,
          -0.044318199157714844,
          -0.06381626427173615,
          0.09938353300094604,
          -0.10537873953580856,
          0.003483247710391879,
          0.11580777168273926,
          -0.027127470821142197,
          0.08116522431373596,
          -0.10134777426719666,
          -0.041271794587373734,
          0.10481937229633331,
          -0.024145057424902916,
          0.0661969780921936,
          0.050501320511102676,
          -0.0450616329908371,
          -0.08195158839225769,
          0.04230431467294693,
          -0.025114934891462326,
          -0.03920409083366394,
          0.14451733231544495,
          0.014729062095284462,
          -0.06326846033334732,
          0.000512931786943227,
          -0.12151870876550674,
          0.020314207300543785,
          0.11670669168233871,
          0.1043839156627655,
          -0.09885908663272858,
          0.060943182557821274,
          -0.08094847202301025,
          0.0291430726647377,
          -0.0624435693025589,
          -0.10525345057249069,
          0.1200457215309143,
          -0.02696431241929531,
          -0.025788383558392525,
          -0.10445800423622131,
          0.07083894312381744,
          0.019665013998746872,
          0.0638541579246521,
          -0.01577816903591156,
          -0.09393765777349472
        ],
        [
          -0.0440119244158268,
          -0.041862424463033676,
          -0.0208904892206192,
          0.09558413922786713,
          0.006269171368330717,
          -0.07583092153072357,
          0.006258577108383179,
          -0.05722435563802719,
          0.004811287857592106,
          0.11273108422756195,
          0.11639295518398285,
          -0.027114108204841614,
          0.07868997752666473,
          -0.026210086420178413,
          0.1909998208284378,
          -0.14741244912147522,
          -0.007128749042749405,
          0.0612792894244194,
          -0.015146629884839058,
          -0.04147609695792198,
          0.07738900184631348,
          0.08544787019491196,
          0.11421987414360046,
          -0.07930291444063187,
          -0.029681088402867317,
          -0.02863471582531929,
          -0.1292850822210312,
          0.05948636680841446,
          0.114845409989357,
          -0.010408982634544373,
          0.02439388632774353,
          -0.0016886579105630517,
          -0.01420286949723959,
          -0.04640866070985794,
          0.05306883901357651,
          0.05201739817857742,
          -0.047373831272125244,
          0.09849254786968231,
          0.04605652391910553,
          -0.06249174848198891,
          -0.07527530938386917,
          0.09823186695575714,
          0.04545983299612999,
          -0.07747141271829605,
          0.1124812588095665,
          -0.02194877155125141,
          -0.1298239380121231,
          -0.08688624948263168,
          -0.05907689034938812,
          0.12074310332536697,
          -0.05863135680556297,
          0.01817203313112259,
          -0.05633462220430374,
          0.0035725499037653208,
          0.0722869262099266,
          0.15871694684028625,
          -0.07652797549962997,
          -0.00017785241652745754,
          0.14535589516162872,
          0.044887788593769073,
          0.0880691409111023,
          0.024050066247582436,
          -0.10876327753067017,
          -0.05286557227373123
        ],
        [
          0.01430474128574133,
          0.0613170750439167,
          -0.10420827567577362,
          0.0004169941530562937,
          -0.00018321149400435388,
          -0.07852193713188171,
          -0.09960907697677612,
          0.11424507200717926,
          -0.007383603602647781,
          -0.004132511559873819,
          -0.11103275418281555,
          0.12990079820156097,
          0.012523427605628967,
          -0.043958067893981934,
          0.06315214931964874,
          0.05277319997549057,
          -0.1457945555448532,
          -0.16887173056602478,
          -0.14341172575950623,
          -0.007388611789792776,
          0.06931865215301514,
          0.0779930129647255,
          -0.07445944845676422,
          -0.043716952204704285,
          0.08615114539861679,
          0.04615156352519989,
          -0.11122119426727295,
          -0.014288120903074741,
          0.10653716325759888,
          0.07677485048770905,
          0.14044597744941711,
          0.11498312652111053,
          0.029788630083203316,
          0.08465427160263062,
          0.13061589002609253,
          0.1290723830461502,
          -0.12472501397132874,
          -0.09355756640434265,
          0.06408949941396713,
          -0.009586133994162083,
          0.029794704169034958,
          0.034586530178785324,
          -0.07377670705318451,
          0.06490060687065125,
          -0.11502883583307266,
          0.009844635613262653,
          0.11484682559967041,
          0.012817814014852047,
          0.03986319899559021,
          0.09304110705852509,
          -0.020331991836428642,
          -0.0034026610665023327,
          0.09989242255687714,
          0.06213080510497093,
          0.07737395912408829,
          -0.07284848392009735,
          0.09861132502555847,
          0.1159399226307869,
          -0.10284973680973053,
          -0.03104916587471962,
          0.05894403159618378,
          -0.06501482427120209,
          -0.03609021380543709,
          0.04897480085492134
        ],
        [
          -0.023142322897911072,
          0.1190539300441742,
          -0.04227222502231598,
          -0.07854025065898895,
          -0.10696548223495483,
          -0.07368730008602142,
          -0.04553687572479248,
          0.0463966429233551,
          -0.0941285640001297,
          -0.022774890065193176,
          0.03803236782550812,
          -0.10885952413082123,
          0.0077819377183914185,
          0.07824355363845825,
          0.09102830290794373,
          0.12047486007213593,
          -0.01721101999282837,
          -0.024232342839241028,
          -0.03214050829410553,
          0.05659694969654083,
          -0.0720648467540741,
          0.07574309408664703,
          0.11379289627075195,
          -0.09461426734924316,
          0.03056587278842926,
          0.061758652329444885,
          -0.020061016082763672,
          0.08483444154262543,
          0.019468456506729126,
          0.0425553023815155,
          0.029484018683433533,
          -0.028593167662620544,
          0.008495032787322998,
          -0.02926512062549591,
          0.10923245549201965,
          -0.05326448380947113,
          0.059212878346443176,
          0.09623308479785919,
          -0.010682627558708191,
          -0.04092012345790863,
          -0.07863181829452515,
          0.08934241533279419,
          0.07600443065166473,
          -0.07333068549633026,
          0.04391351342201233,
          -0.12193010747432709,
          -0.11384125053882599,
          -0.049188241362571716,
          0.09157969057559967,
          -0.0738629698753357,
          0.08226385712623596,
          0.06364400684833527,
          0.047936126589775085,
          -0.0847882330417633,
          -0.08189891278743744,
          0.11412523686885834,
          0.08153434097766876,
          -0.03125715255737305,
          -0.06382325291633606,
          0.049005985260009766,
          0.028214871883392334,
          -0.06954130530357361,
          0.01210564374923706,
          -0.0832483172416687
        ],
        [
          0.09662164002656937,
          -0.14125500619411469,
          -0.052938029170036316,
          -0.09043002128601074,
          0.11321984231472015,
          0.056801214814186096,
          0.015691310167312622,
          -0.036207519471645355,
          -0.10583814978599548,
          -0.0005338862538337708,
          0.044091030955314636,
          0.04084063321352005,
          0.06826229393482208,
          0.00025252869818359613,
          -0.05435610190033913,
          -0.07605744153261185,
          0.06689783930778503,
          0.10113143920898438,
          -0.05393975228071213,
          0.05972103029489517,
          -0.010359774343669415,
          0.13416264951229095,
          -0.05107364058494568,
          0.0650165006518364,
          -0.11293640732765198,
          0.004362128209322691,
          -0.11863439530134201,
          0.11567933112382889,
          -0.0030814323108643293,
          -0.040236696600914,
          -0.019945211708545685,
          -0.05966590344905853,
          -0.0008043089183047414,
          0.00421330239623785,
          -0.026672018691897392,
          -0.11003702878952026,
          -0.07665333151817322,
          -0.05366998910903931,
          0.11345250904560089,
          0.09907953441143036,
          -0.07377775758504868,
          -0.09579570591449738,
          -0.11263317614793777,
          0.021731099113821983,
          -0.11526791751384735,
          0.09630472958087921,
          0.12598976492881775,
          0.006005092523992062,
          0.06347478926181793,
          0.03366412594914436,
          0.0549829937517643,
          -0.0020003693643957376,
          -0.0015571441035717726,
          0.022962938994169235,
          -0.06443934887647629,
          0.021613838151097298,
          -0.007526118773967028,
          -0.043986670672893524,
          -0.04031550511717796,
          -0.01959199830889702,
          0.0079569760710001,
          -0.09161286056041718,
          0.11080461740493774,
          -0.014281277544796467
        ],
        [
          -0.08989260345697403,
          -0.007137917913496494,
          -0.027598485350608826,
          -0.11276627331972122,
          0.05789150670170784,
          -0.09339433908462524,
          -0.08329243957996368,
          -0.05981260538101196,
          0.1297217160463333,
          0.10361583530902863,
          -0.08358485996723175,
          -0.12388672679662704,
          -0.07581193745136261,
          -0.12023942172527313,
          -0.007472172379493713,
          -0.03063332475721836,
          0.0591752789914608,
          0.057548731565475464,
          -0.09463012963533401,
          -0.015772409737110138,
          -0.02196326293051243,
          0.0756826102733612,
          -0.04155376926064491,
          -0.040950529277324677,
          -0.042311426252126694,
          -0.10612701624631882,
          -0.010743572376668453,
          0.05143939331173897,
          -0.005241044331341982,
          0.015300169587135315,
          -0.03231002762913704,
          -0.08265125751495361,
          0.11601431667804718,
          -0.053736377507448196,
          -0.01743815653026104,
          0.04971899092197418,
          0.03935308754444122,
          0.09212060272693634,
          0.10146702826023102,
          0.0479004792869091,
          0.0635383278131485,
          0.0913185104727745,
          0.06729546189308167,
          0.03736031800508499,
          0.12662892043590546,
          -0.021819086745381355,
          0.09110698103904724,
          -0.09548807889223099,
          -0.09875017404556274,
          -0.0690220519900322,
          -0.06582675129175186,
          0.01854446344077587,
          -0.047159016132354736,
          -0.10994545370340347,
          -0.018893294036388397,
          0.007524138316512108,
          0.12505005300045013,
          -0.01867346093058586,
          -0.08912923187017441,
          -0.09565421938896179,
          0.03548462688922882,
          -0.008222267962992191,
          0.07766664773225784,
          0.1310022622346878
        ],
        [
          -0.07271558046340942,
          -0.04156515747308731,
          -0.07946856319904327,
          0.07593336701393127,
          0.031245063990354538,
          0.08475372195243835,
          0.09897977113723755,
          -0.026688020676374435,
          0.04583381488919258,
          -0.14111021161079407,
          -0.05509398877620697,
          0.0865573063492775,
          -0.1079651266336441,
          -0.06023884937167168,
          0.11129825562238693,
