{
  "layers": [
    {
      "name": "0",
      "kind": "Linear",
      "inputSize": 7,
      "outputSize": 64,
      "hasBiases": true,
      "weights": [
        [
          -0.20552828907966614,
          0.05822664499282837,
          -0.3056941330432892,
          -0.08763320744037628,
          -0.21426881849765778,
          0.07674188166856766,
          -0.1856006681919098
        ],
        [
          0.24795235693454742,
          0.0641859695315361,
          0.3581251800060272,
          0.19503827393054962,
          -0.19168202579021454,
          0.10588393360376358,
          -0.221351757645607
        ],
        [
          0.07979708909988403,
          -0.24529476463794708,
          -0.1872795820236206,
          0.052534908056259155,
          -0.26363807916641235,
          -0.14239968359470367,
          -0.019875317811965942
        ],
        [
          -0.2937823235988617,
          0.11849485337734222,
          -0.0856308564543724,
          0.0006224276730790734,
          -0.06566597521305084,
          0.3752361834049225,
          0.22306467592716217
        ],
        [
          -0.37276721000671387,
          0.34468093514442444,
          0.3462238609790802,
          -0.3486638069152832,
          -0.24992351233959198,
          0.2866312861442566,
          -0.2447463423013687
        ],
        [
          -0.22224847972393036,
          0.31001725792884827,
          -0.007984976284205914,
          -0.3715514838695526,
          0.17136713862419128,
          0.21667234599590302,
          0.30197447538375854
        ],
        [
          -0.09249208867549896,
          0.28205713629722595,
          -0.14503996074199677,
          0.2282533347606659,
          -0.35580331087112427,
          -0.057366058230400085,
          -0.3214442729949951
        ],
        [
          -0.31233543157577515,
          -0.03545320779085159,
          0.29059886932373047,
          -0.06072612479329109,
          -0.2565420866012573,
          0.1506883203983307,
          0.2863168716430664
        ],
        [
          -0.2707347571849823,
          -0.0528034009039402,
          0.32606929540634155,
          -0.24046124517917633,
          -0.3065117597579956,
          -0.3386071026325226,
          0.20202215015888214
        ],
        [
          0.20209376513957977,
          0.3353393077850342,
          0.1136089339852333,
          0.30479803681373596,
          -0.2700294852256775,
          0.20756986737251282,
          0.2004917562007904
        ],
        [
          0.3364849388599396,
          -0.3385868966579437,
          -0.2674347460269928,
          0.031870607286691666,
          0.12730003893375397,
          -0.007919138297438622,
          0.05628339946269989
        ],
        [
          0.1129547655582428,
          0.023789528757333755,
          0.3463352918624878,
          0.18875735998153687,
          -0.3731262683868408,
          0.22189801931381226,
          -0.27704885601997375
        ],
        [
          0.40725594758987427,
          -0.04894465208053589,
          -0.0046666827984154224,
          0.19797082245349884,
          -0.20699676871299744,
          0.09034807980060577,
          0.22214891016483307
        ],
        [
          0.2166012078523636,
          -0.1727813482284546,
          0.27216240763664246,
          -0.2734980285167694,
          0.06983765214681625,
          0.37211093306541443,
          -0.2558177411556244
        ],
        [
          0.026306983083486557,
          0.24195411801338196,
          0.26915591955184937,
          -0.02214595302939415,
          -0.03050927445292473,
          -0.2792786657810211,
          0.39394548535346985
        ],
        [
          -0.2355593889951706,
          0.36793726682662964,
          0.3606780767440796,
          0.3845580220222473,
          -0.09864892065525055,
          -0.04330741614103317,
          -0.34488445520401
        ],
        [
          -0.051249533891677856,
          -0.20078600943088531,
          -0.1355883926153183,
          -0.09958893060684204,
          -0.18719640374183655,
          -0.026490062475204468,
          0.07838034629821777
        ],
        [
          -0.027112508192658424,
          0.28637823462486267,
          0.15522241592407227,
          0.2939087450504303,
          0.04345160722732544,
          0.19787614047527313,
          -0.05934230610728264
        ],
        [
          -0.12033507972955704,
          0.20671528577804565,
          -0.01583828590810299,
          0.2539968192577362,
          0.009952153079211712,
          -0.3882465958595276,
          0.11406111717224121
        ],
        [
          0.34170645475387573,
          -0.08756135404109955,
          0.2478206604719162,
          -0.11773655563592911,
          0.20423799753189087,
          0.014921953901648521,
          -0.03282187879085541
        ],
        [
          0.2959895431995392,
          0.2005300521850586,
          0.10517316311597824,
          -0.15763475000858307,
          -0.06215084716677666,
          -0.24857021868228912,
          -0.013208962976932526
        ],
        [
          -0.20263338088989258,
          -0.08926135301589966,
          -0.06423234939575195,
          -0.29927170276641846,
          -0.20618553459644318,
          -0.3330850601196289,
          0.23407182097434998
        ],
        [
          -0.1478389948606491,
          -0.3136715888977051,
          0.33932003378868103,
          0.2540436089038849,
          -0.20006848871707916,
          -0.3442132771015167,
          0.26828905940055847
        ],
        [
          0.39278966188430786,
          0.3234482705593109,
          0.30959591269493103,
          0.24566656351089478,
          -0.29163098335266113,
          -0.21932072937488556,
          -0.19398339092731476
        ],
        [
          -0.06657632440328598,
          -0.15536873042583466,
          -0.17694370448589325,
          0.340666800737381,
          0.36748307943344116,
          -0.01253579556941986,
          0.06979909539222717
        ],
        [
          0.18729935586452484,
          0.04923254996538162,
          0.3654387295246124,
          -0.09022205322980881,
          -0.2119666337966919,
          0.011396842077374458,
          -0.001756020588800311
        ],
        [
          0.13731829822063446,
          -0.32040882110595703,
          0.32723498344421387,
          0.27959144115448,
          -0.15262678265571594,
          -0.3170698285102844,
          0.17628547549247742
        ],
        [
          -0.2917419672012329,
          -0.28212758898735046,
          -0.30343160033226013,
          -0.08695143461227417,
          -0.29213300347328186,
          -0.026538997888565063,
          -0.34595444798469543
        ],
        [
          -0.01744549535214901,
          0.00917693693190813,
          0.13774806261062622,
          -0.27115267515182495,
          0.11781749129295349,
          0.2348504215478897,
          0.38498973846435547
        ],
        [
          0.29664233326911926,
          0.0954899713397026,
          -0.1823064684867859,
          0.31486228108406067,
          0.08803071826696396,
          -0.2557486295700073,
          0.18464747071266174
        ],
        [
          0.353620320558548,
          -0.06906791031360626,
          0.06078581511974335,
          0.0911022201180458,
          0.20050376653671265,
          -0.08784625679254532,
          -0.23830772936344147
        ],
        [
          0.037680160254240036,
          0.0675835907459259,
          -0.07774381339550018,
          0.013677379116415977,
          0.04019651561975479,
          -0.1845841407775879,
          -0.07824663817882538
        ],
        [
          0.11817359179258347,
          0.2741594612598419,
          0.12277419865131378,
          0.21893100440502167,
          -0.038509659469127655,
          -0.33943477272987366,
          0.3665356934070587
        ],
        [
          -0.36009544134140015,
          -0.1776750236749649,
          0.06273055821657181,
          0.3281102478504181,
          0.18669427931308746,
          -0.31322380900382996,
          0.04488504305481911
        ],
        [
          0.080800361931324,
          -0.0744917169213295,
          0.2595141530036926,
          0.10375227779150009,
          -0.13473112881183624,
          0.21411053836345673,
          -0.28487199544906616
        ],
        [
          -0.01755419373512268,
          -0.3309330940246582,
          -0.18115265667438507,
          -0.358514666557312,
          -0.2799421548843384,
          -0.36154988408088684,
          0.12984362244606018
        ],
        [
          0.19746516644954681,
          -0.11076393723487854,
          0.0538359172642231,
          0.020549217239022255,
          -0.37734609842300415,
          -0.14159798622131348,
          0.11729741841554642
        ],
        [
          0.26128581166267395,
          0.05331980437040329,
          0.3226742148399353,
          0.10653281956911087,
          0.23207813501358032,
          -0.13387177884578705,
          -0.07919754832983017
        ],
        [
          0.41225552558898926,
          -0.27239763736724854,
          0.26347360014915466,
          -0.2611801326274872,
          0.10745590180158615,
          -0.1050591841340065,
          -0.2902884781360626
        ],
        [
          -0.2741135060787201,
          -0.20326130092144012,
          -0.10354641079902649,
          0.2791576087474823,
          -0.059873104095458984,
          -0.12111744284629822,
          0.202438086271286
        ],
        [
          0.31147313117980957,
          0.35586389899253845,
          0.2092871069908142,
          0.3171779215335846,
          -0.21451741456985474,
          0.24604731798171997,
          -0.150013729929924
        ],
        [
          -0.0008471906185150146,
          0.03779923915863037,
          0.22575756907463074,
          -0.19562560319900513,
          -0.37315261363983154,
          0.02576059103012085,
          -0.239848330616951
        ],
        [
          -0.26112306118011475,
          0.07109551131725311,
          0.19215932488441467,
          -0.3796301782131195,
          0.1925429254770279,
          -0.362807959318161,
          0.10909853130578995
        ],
        [
          -0.23230746388435364,
          -0.2833826541900635,
          -0.2566360533237457,
          0.027505453675985336,
          0.2973006069660187,
          -0.09979487955570221,
          0.19314062595367432
        ],
        [
          -0.03305621072649956,
          -0.026214394718408585,
          -0.0034946489613503218,
          0.3505186140537262,
          -0.3772895932197571,
          -0.2735331654548645,
          0.0905621126294136
        ],
        [
          0.24427378177642822,
          0.2963569164276123,
          0.1713256537914276,
          0.17003361880779266,
          0.16624458134174347,
          0.2880260944366455,
          0.016459980979561806
        ],
        [
          -0.2715705931186676,
          -0.3789958655834198,
          0.17979417741298676,
          -0.27813372015953064,
          0.16980405151844025,
          0.26859331130981445,
          -0.31059208512306213
        ],
        [
          0.17496411502361298,
          -0.11436595767736435,
          -0.09878464788198471,
          -0.3554968535900116,
          0.30673566460609436,
          0.028392035514116287,
          0.2495187222957611
        ],
        [
          -0.3569315969944,
          -0.12855273485183716,
          0.2679617404937744,
          -0.28180456161499023,
          -0.12375429272651672,
          0.330365389585495,
          0.07631167769432068
        ],
        [
          -0.2756740152835846,
          -0.0721563920378685,
          -0.06225907430052757,
          0.3437311053276062,
          0.12877638638019562,
          -0.15008880198001862,
          -0.20229041576385498
        ],
        [
          -0.3559243977069855,
          0.03944292664527893,
          0.1459009349346161,
          -0.1792098879814148,
          0.019653141498565674,
          -0.2624363303184509,
          0.23699608445167542
        ],
        [
          0.25148990750312805,
          0.1976354420185089,
          0.28367477655410767,
          -0.2555464804172516,
          -0.009396698325872421,
          0.22875793278217316,
          -0.018155666068196297
        ],
        [
          0.003496761666610837,
          -0.3747810125350952,
          -0.08078797906637192,
          0.2066577821969986,
          0.18856053054332733,
          -0.049399372190237045,
          -0.33709919452667236
        ],
        [
          0.34472206234931946,
          -0.3060671091079712,
          -0.25667744874954224,
          0.13901479542255402,
          0.3632637858390808,
          -0.123163603246212,
          0.0006609672564081848
        ],
        [
          0.10196933150291443,
          -0.17377601563930511,
          -0.3383027911186218,
          0.31075963377952576,
          -0.04851578548550606,
          0.32417598366737366,
          0.29357385635375977
        ],
        [
          -0.3279202878475189,
          -0.10570449382066727,
          0.25381535291671753,
          -0.37410828471183777,
          0.3115357756614685,
          -0.15445074439048767,
          -0.3128177225589752
        ],
        [
          -0.2890342175960541,
          -0.020445441827178,
          0.2067575752735138,
          0.2650381326675415,
          0.32146644592285156,
          -0.26463234424591064,
          0.24209417402744293
        ],
        [
          -0.10501275956630707,
          -0.20666848123073578,
          -0.169216588139534,
          0.16119691729545593,
          0.09115380048751831,
          0.24081967771053314,
          -0.027477804571390152
        ],
        [
          -0.3344942331314087,
          -0.03225621581077576,
          -0.10368738323450089,
          0.2347297966480255,
          -0.3763425648212433,
          -0.05921857804059982,
          0.2112184464931488
        ],
        [
          0.3157966732978821,
          0.13693813979625702,
          0.14621004462242126,
          0.1418822556734085,
          0.3301498293876648,
          0.02962672896683216,
          -0.19219471514225006
        ],
        [
          -0.16667316854000092,
          0.2574336528778076,
          -0.13318872451782227,
          0.13026489317417145,
          -0.11893942952156067,
          -0.24358107149600983,
          0.19499345123767853
        ],
        [
          -0.06744572520256042,
          0.27353915572166443,
          -0.035560403019189835,
          -0.19827395677566528,
          -0.08696583658456802,
          0.298843652009964,
          0.15867763757705688
        ],
        [
          0.06345728039741516,
          0.007004101295024157,
          0.08276741206645966,
          -0.19375388324260712,
          -0.19002538919448853,
          -0.029012486338615417,
          0.36317411065101624
        ],
        [
          0.137822225689888,
          0.04172383248806,
          -0.1913047730922699,
          0.10223477333784103,
          -0.2136673629283905,
          -0.3752196133136749,
          -0.06316404044628143
        ]
      ],
      "biases": [
        0.2663865387439728,
        0.30246874690055847,
        0.019519180059432983,
        0.22070589661598206,
        0.0051592569798231125,
        -0.16772982478141785,
        0.20252063870429993,
        0.2333175539970398,
        0.08646418899297714,
        -0.1238311305642128,
        0.09860642999410629,
        -0.1104218065738678,
        -0.2968573570251465,
        0.17075127363204956,
        0.0080540357157588,
        -0.13632752001285553,
        0.16202136874198914,
        0.2903527021408081,
        0.19233141839504242,
        0.03479233384132385,
        0.25361624360084534,
        0.03760460019111633,
        0.20329594612121582,
        -0.315563827753067,
        -0.08782128989696503,
        -0.13165275752544403,
        -0.3844869136810303,
        0.29048874974250793,
        -0.22132529318332672,
        -0.031837210059165955,
        -0.010245302692055702,
        0.2866919934749603,
        -0.0522090308368206,
        0.27889904379844666,
        0.403695285320282,
        -0.37511301040649414,
        0.23503099381923676,
        0.1280774623155594,
        -0.05167705565690994,
        -0.26980704069137573,
        -0.21535615622997284,
        -0.27839863300323486,
        -0.08188353478908539,
        0.2926274240016937,
        0.13251817226409912,
        -0.11404740810394287,
        -0.025981903076171875,
        -0.1865740865468979,
        0.346269816160202,
        0.11356063932180405,
        -0.17580580711364746,
        -0.10238068550825119,
        -0.14810943603515625,
        -0.21864254772663116,
        0.06412452459335327,
        0.04190508648753166,
        0.2779267430305481,
        0.31854048371315,
        -0.15795740485191345,
        -0.17268897593021393,
        -0.29207441210746765,
        0.15403303503990173,
        -0.04454410448670387,
        -0.22306255996227264
      ]
    },
    {
      "name": "1",
      "kind": "ReLU"
    },
    {
      "name": "2",
      "kind": "Linear",
      "inputSize": 64,
      "outputSize": 64,
      "hasBiases": true,
      "weights": [
        [
          -0.03289103880524635,
          0.12854328751564026,
          0.0055113285779953,
          0.07335678488016129,
          0.06672218441963196,
          0.054326415061950684,
          0.07839450985193253,
          0.09558305144309998,
          -0.012706936337053776,
          0.12388075888156891,
          0.09525702893733978,
          0.026435036212205887,
          0.10747924447059631,
          0.040190424770116806,
          -0.017888100817799568,
          0.08329977095127106,
          -0.11683329939842224,
          -0.03633788228034973,
          0.002978899981826544,
          0.10821102559566498,
          0.034100428223609924,
          -0.030261382460594177,
          -0.012356524355709553,
          0.0971505343914032,
          -0.039027683436870575,
          0.10853846371173859,
          0.07489261776208878,
          0.08044765889644623,
          -0.13415810465812683,
          -0.013202313333749771,
          0.1521380990743637,
          0.022093599662184715,
          -0.082209013402462,
          -0.10846253484487534,
          0.10128851979970932,
          0.09541575610637665,
          -0.07566961646080017,
          0.14544560015201569,
          0.026964237913489342,
          0.05158662796020508,
          0.15311512351036072,
          0.027879849076271057,
          -0.0803121030330658,
          -0.12291145324707031,
          0.041503239423036575,
          -0.00028163197566755116,
          -0.036800872534513474,
          -0.1436222642660141,
          0.10403304547071457,
          0.11880986392498016,
          -0.10543851554393768,
          0.0008800198556855321,
          -0.05988851562142372,
          -0.025975702330470085,
          0.10672076046466827,
          -0.08586916327476501,
          0.03180725872516632,
          0.07761436700820923,
          0.11210836470127106,
          0.12916788458824158,
          0.04042380675673485,
          0.11595495790243149,
          -0.07577242702245712,
          0.09546176344156265
        ],
        [
          -0.060242537409067154,
          0.006189855746924877,
          -0.07023152709007263,
          -0.10073842108249664,
          -0.024926286190748215,
          0.004368938971310854,
          0.0942654013633728,
          0.02963765151798725,
          0.11853821575641632,
          0.043704044073820114,
          0.08884087949991226,
          -0.005439898930490017,
          0.059128738939762115,
          0.12697814404964447,
          0.06668460369110107,
          0.06265910714864731,
          -0.09318791329860687,
          0.03430952504277229,
          0.11663154512643814,
          -0.12591329216957092,
          0.047894399613142014,
          -0.08416998386383057,
          -0.07807076722383499,
          -0.07674232125282288,
          -0.045413125306367874,
          0.0785321518778801,
          0.09334418922662735,
          -0.10685296356678009,
          -0.04618047550320625,
          0.0917406901717186,
          0.07548505067825317,
          0.13767659664154053,
          -0.12084157019853592,
          0.08299499750137329,
          0.025455418974161148,
          -0.08430629968643188,
          0.019343651831150055,
          0.03444075956940651,
          -0.06076686084270477,
          0.0899960845708847,
          0.04961150139570236,
          0.06751646101474762,
          0.028408383950591087,
          0.060777828097343445,
          -0.04508201405405998,
          0.06759936362504959,
          -0.07520803809165955,
          -0.0047570038586854935,
          -0.11094596236944199,
          0.06629490107297897,
          -0.10617390275001526,
          0.06670510768890381,
          0.0041863806545734406,
          -0.017910344526171684,
          -0.09697134047746658,
          -0.09446600079536438,
          0.05565660819411278,
          0.12188683450222015,
          -0.09737367928028107,
          -0.02488795481622219,
          0.09219831973314285,
          0.009241634048521519,
          -0.12981432676315308,
          -0.08070322871208191
        ],
        [
          0.054152559489011765,
          -0.040445391088724136,
          0.10807071626186371,
          -0.04101744666695595,
          0.038776494562625885,
          -0.05983246862888336,
          -0.06830380856990814,
          -0.016738872975111008,
          -0.0887635201215744,
          0.055245716124773026,
          -0.1033841073513031,
          0.007371248211711645,
          -0.060421161353588104,
          -0.028588803485035896,
          0.000321807834552601,
          0.032138220965862274,
          -0.07765354216098785,
          0.061894431710243225,
          0.08491163700819016,
          0.09683948010206223,
          -0.07009517401456833,
          0.047562360763549805,
          0.10746197402477264,
          -0.047936540096998215,
          0.014418342150747776,
          0.02079109288752079,
          0.11085320264101028,
          -0.01418788731098175,
          0.09712527692317963,
          -0.06872090697288513,
          0.0042500304989516735,
          -0.020270204171538353,
          0.02556069754064083,
          0.1258130669593811,
          0.04815639182925224,
          -0.025964409112930298,
          0.018467215821146965,
          -0.053155846893787384,
          0.052740879356861115,
          0.10040155053138733,
          -0.06315754354000092,
          -0.06678494811058044,
          0.0290815532207489,
          0.1245211809873581,
          0.11673158407211304,
          0.12151525914669037,
          -0.07831023633480072,
          -0.011718536727130413,
          0.03247840702533722,
          0.05767318606376648,
          -0.060177624225616455,
          0.07028844952583313,
          -0.021770726889371872,
          -0.01681959256529808,
          0.0206036027520895,
          0.10212236642837524,
          0.10482054203748703,
          0.0869276225566864,
          -0.15119262039661407,
          -0.08376514166593552,
          -0.0463908426463604,
          -0.05863700807094574,
          0.1596064567565918,
          -0.06593528389930725
        ],
        [
          0.06745481491088867,
          0.07420758157968521,
          0.083488330245018,
          0.11284542083740234,
          -0.0750814825296402,
          0.016451912000775337,
          -0.053838130086660385,
          -0.0836125910282135,
          -0.006354371085762978,
          0.10074663162231445,
          0.11082557588815689,
          0.07400835305452347,
          0.008772398345172405,
          -0.10481231659650803,
          0.02443765476346016,
          0.0590515173971653,
          0.034195005893707275,
          0.047268304973840714,
          -0.08016886562108994,
          -0.02196660451591015,
          0.022497577592730522,
          -0.009211450815200806,
          -0.006416903808712959,
          -0.06021744757890701,
          -0.045016855001449585,
          -0.09126303344964981,
          -0.1208939477801323,
          0.10515201091766357,
          0.0289918165653944,
          -0.07474717497825623,
          0.0838577002286911,
          0.02440021000802517,
          -0.03590928390622139,
          0.12613901495933533,
          -0.11735963076353073,
          -0.05007240176200867,
          -0.10710769146680832,
          0.11441584676504135,
          -0.06613501161336899,
          0.041682228446006775,
          -0.07581799477338791,
          -0.11581826210021973,
          -0.04227655380964279,
          -0.07095561921596527,
          -0.01838964968919754,
          -0.024745170027017593,
          0.019898798316717148,
          -0.09431187808513641,
          -0.036487728357315063,
          0.07634427398443222,
          -0.08692514896392822,
          -0.06341332197189331,
          0.11500284820795059,
          -0.11063049733638763,
          0.02216050587594509,
          0.061913441866636276,
          0.06345874816179276,
          -0.10237813740968704,
          0.03495943546295166,
          0.09343978017568588,
          -0.025281473994255066,
          0.011936262249946594,
          0.04167904704809189,
          0.01432263758033514
        ],
        [
          0.06286735087633133,
          -0.04513121023774147,
          -0.12330113351345062,
          -0.09681075811386108,
          -0.0208577960729599,
          -0.06748427450656891,
          0.1344073861837387,
          -0.023257609456777573,
          -0.09479855000972748,
          0.014779256656765938,
          -0.038619060069322586,
          -0.05298113822937012,
          -0.09281538426876068,
          0.045940518379211426,
          0.13118723034858704,
          -0.0446394607424736,
          -0.06834582984447479,
          0.06693823635578156,
          0.10437175631523132,
          -0.1410752534866333,
          0.09449853003025055,
          -0.10331942141056061,
          0.055583786219358444,
          -0.0336885005235672,
          0.03224681317806244,
          -0.0658520758152008,
          0.0661589577794075,
          0.057091593742370605,
          0.04495283216238022,
          -0.0262274369597435,
          0.05462745949625969,
          0.10862997174263,
          -0.09746140986680984,
          0.011006809771060944,
          0.07827085256576538,
          0.027200788259506226,
          0.09565508365631104,
          0.0008839593501761556,
          -0.07827972620725632,
          -0.0719088762998581,
          -0.012498718686401844,
          0.04215376079082489,
          0.030814366415143013,
          -0.01052164938300848,
          -0.03721606358885765,
          0.0923757404088974,
          0.11834361404180527,
          0.0763888731598854,
          0.1150013729929924,
          -0.05108831822872162,
          -0.005535542964935303,
          -0.1265590786933899,
          0.05755529925227165,
          -0.04107806831598282,
          0.027889488264918327,
          0.11007020622491837,
          0.0038021935615688562,
          0.03402320295572281,
          -0.13583455979824066,
          0.041962847113609314,
          0.04129206761717796,
          0.1139889508485794,
          -0.12351404875516891,
          0.0168598722666502
        ],
        [
          0.0031990171410143375,
          0.11341433227062225,
          -0.08853556215763092,
          0.053046662360429764,
          0.1017330139875412,
          0.01152225211262703,
          -0.04267201945185661,
          0.07728710025548935,
          0.11852724850177765,
          -0.07940389215946198,
          -0.13340812921524048,
          0.09994079172611237,
          -0.00609289575368166,
          0.0009662846568971872,
          0.07513094693422318,
          -0.06318412721157074,
          -0.06469196081161499,
          -0.03683960810303688,
          0.029865596443414688,
          -0.04482435807585716,
          -0.0939689353108406,
          0.009890556335449219,
          0.03401623293757439,
          0.05076061189174652,
          0.10610563308000565,
          -0.07677173614501953,
          -0.023708488792181015,
          -0.10462768375873566,
          -0.08473385870456696,
          -0.008944880217313766,
          -0.05373162031173706,
          0.13738349080085754,
          -0.018846692517399788,
          0.06048686429858208,
          0.09399813413619995,
          -0.028466328978538513,
          -0.0722840428352356,
          0.09837225079536438,
          -0.13257788121700287,
          -0.09466895461082458,
          -0.10502751916646957,
          0.025982514023780823,
          0.06210249289870262,
          0.07935895770788193,
          -0.00393589586019516,
          0.06147925555706024,
          0.09176600724458694,
          -0.0919751301407814,
          0.10383307933807373,
          -0.0984475389122963,
          -0.029336079955101013,
          0.042255327105522156,
          -0.06062920019030571,
          -0.07249103486537933,
          0.06004948168992996,
          0.08758409321308136,
          -0.11470410972833633,
          0.03975413367152214,
          -0.0020388937555253506,
          0.05922740697860718,
          0.038228124380111694,
          0.14146730303764343,
          -0.16309528052806854,
          0.06799189001321793
        ],
        [
          0.07239273190498352,
          0.06247015297412872,
          0.013121932744979858,
          -0.0910283699631691,
          -0.006100229453295469,
          -0.05247731879353523,
          0.0690794438123703,
          0.017294205725193024,
          0.016633788123726845,
          -0.04927472770214081,
          -0.07477430254220963,
          0.0644691213965416,
          0.11381621658802032,
          0.08760301023721695,
          -0.039660703390836716,
          -0.04710749164223671,
          -0.10577112436294556,
          0.09786571562290192,
          -0.13625992834568024,
          0.09828397631645203,
          -0.012273148633539677,
          0.11228525638580322,
          0.0668674036860466,
          0.0697908028960228,
          -0.06454652547836304,
          0.04170645400881767,
          0.12401523441076279,
          0.09207375347614288,
          0.04604068771004677,
          0.0765802189707756,
          -0.0070687090046703815,
          0.08566461503505707,
          -0.06256800889968872,
          -0.10296159237623215,
          0.12648065388202667,
          -0.10203970968723297,
          -0.03395066410303116,
          0.09136562049388885,
          0.08325979113578796,
          -0.05452866852283478,
          0.03276533633470535,
          -0.006272122263908386,
          0.04930625483393669,
          -0.05995019152760506,
          -0.051087360829114914,
          0.09432295709848404,
          -0.08697271347045898,
          -0.03660592436790466,
          -0.003563852282240987,
          0.044460952281951904,
          0.04970082640647888,
          0.09702447801828384,
          0.018855145201086998,
          -0.013866090215742588,
          -0.08748169988393784,
          -0.014455948024988174,
          0.10720109939575195,
          -0.029467832297086716,
          -0.026017723605036736,
          -0.05678832530975342,
          -0.12393971532583237,
          0.1322280615568161,
          -0.11160776019096375,
          0.07671129703521729
        ],
        [
          -0.060836926102638245,
          -0.08956876397132874,
          -0.055177539587020874,
          -0.11620612442493439,
          0.038582876324653625,
          0.11750650405883789,
          0.0875701904296875,
          -0.09896118938922882,
          -0.032851606607437134,
          -0.06779246032238007,
          -0.04494936764240265,
          -0.07538042962551117,
          0.003202274441719055,
          -0.0588846355676651,
          0.07348181307315826,
          -0.04730735719203949,
          0.07426491379737854,
          0.12178419530391693,
          0.08000664412975311,
          0.10325156152248383,
          -0.11907516419887543,
          0.042958006262779236,
          -0.015945225954055786,
          0.05718584358692169,
          -0.111054927110672,
          -0.06583406031131744,
          0.0059486329555511475,
          0.019905701279640198,
          -0.028075039386749268,
          -0.025896146893501282,
          -0.08523191511631012,
          -0.12289901077747345,
          -0.07005742192268372,
          -0.07699020206928253,
          0.08325320482254028,
          0.06398403644561768,
          -0.012716159224510193,
          0.0016961395740509033,
          0.023039400577545166,
          0.017612233757972717,
          -0.03427159786224365,
          -0.0008821785449981689,
          -0.11297130584716797,
          0.09209360182285309,
          0.07282295823097229,
          -0.039421647787094116,
          0.04009513556957245,
          0.08106197416782379,
          -0.02663584053516388,
          0.08072903752326965,
          0.09434430301189423,
          -0.03119666874408722,
          -0.08315254747867584,
          -0.01574835181236267,
          -0.06061428785324097,
          -0.12071631848812103,
          0.0243062824010849,
          0.029490813612937927,
          0.05298280715942383,
          -0.09903369843959808,
          0.05849951505661011,
          0.07598146796226501,
          -0.06339812278747559,
          -0.12311975657939911
        ],
        [
          0.04136260226368904,
          -0.11081528663635254,
          0.07679133117198944,
          0.07259589433670044,
          0.059357721358537674,
          0.15007421374320984,
          -0.17901891469955444,
          0.07821070402860641,
          -0.001958264736458659,
          -0.006692409981042147,
          0.009065413847565651,
          -0.04363316297531128,
          0.1310746818780899,
          -0.00010089221177622676,
          0.008493819274008274,
          -0.05939039960503578,
          0.05890025198459625,
          0.03895385563373566,
          -0.016056310385465622,
          0.030191851779818535,
          -0.05149383470416069,
          -0.0015890896320343018,
          -0.08396518975496292,
          -0.07465929538011551,
          -0.04877319186925888,
          0.11959150433540344,
          0.08247096836566925,
          -0.09140278398990631,
          0.0432930588722229,
          0.1395975649356842,
          -0.004870431963354349,
          -0.007219746708869934,
          0.06271643191576004,
          0.024658501148223877,
          -0.03081016056239605,
          0.09715327620506287,
          0.0852903202176094,
          0.07786033302545547,
          -0.05686292052268982,
          0.026261985301971436,
          0.056736547499895096,
          -0.03110557794570923,
          0.06739485263824463,
          0.09893185645341873,
          -0.027671461924910545,
          -0.0791311115026474,
          0.03999216854572296,
          0.09282777458429337,
          0.0519430935382843,
          -0.13984166085720062,
          -0.10892230272293091,
          0.07025722414255142,
          -0.017315514385700226,
          0.009064038284122944,
          0.05321531742811203,
          0.10622597485780716,
          -0.057399772107601166,
          -0.11329251527786255,
          -0.1026390939950943,
          -0.032764218747615814,
          -0.12330061942338943,
          -0.010803334414958954,
          0.17000630497932434,
          -0.007144078612327576
        ],
        [
          0.07751445472240448,
          0.11953680962324142,
          0.04746471345424652,
          0.06536109000444412,
          -0.10590101778507233,
          0.09425854682922363,
          0.0015060693258419633,
          -0.01973169669508934,
          -0.05551356449723244,
          0.11778469383716583,
          0.04989935830235481,
          0.07165931910276413,
          0.06857653707265854,
          0.03393130749464035,
          -0.023184677585959435,
          0.06187530234456062,
          0.04938359558582306,
          0.0068864282220602036,
          -0.034181613475084305,
          -0.027302904054522514,
          -0.10270584374666214,
          0.07232888042926788,
          0.019899770617485046,
          -0.11876562237739563,
          0.03142750263214111,
          0.013783752918243408,
          0.07820542901754379,
          -0.03153078258037567,
          0.08052915334701538,
          0.04010211303830147,
          -0.08816821128129959,
          -0.0461897999048233,
          -0.09167467057704926,
          -0.028387779369950294,
          -0.09866704046726227,
          0.017978772521018982,
          0.08171766251325607,
          -0.012804210186004639,
          -0.06862912327051163,
          0.06436584889888763,
          0.1258387565612793,
          -0.09434174001216888,
          -0.014918943867087364,
          -0.09402431547641754,
          0.11222279071807861,
          -0.10161927342414856,
          -0.06984266638755798,
          0.03261670097708702,
          0.029337462037801743,
          -0.0728263109922409,
          -0.04606702923774719,
          -0.03934355080127716,
          0.09630700945854187,
          -0.009852485731244087,
          0.04342280328273773,
          -0.053203001618385315,
          -0.1073724627494812,
          -0.022800344973802567,
          0.0035921577364206314,
          -0.0876697301864624,
          -0.13167327642440796,
          0.041717857122421265,
          0.007899788208305836,
          0.07593300193548203
        ],
        [
          -0.09774602949619293,
          0.03863316774368286,
          -0.09774649143218994,
          0.021004974842071533,
          -0.07847143709659576,
          -0.07912120223045349,
          -0.1035924106836319,
          0.022233277559280396,
          0.06539741158485413,
          -0.12007541954517365,
          0.08922079205513,
          -0.058721840381622314,
          -0.11369547247886658,
          -0.10482144355773926,
          0.012439519166946411,
          0.013962432742118835,
          0.07527312636375427,
          0.06422457098960876,
          -0.05600249767303467,
          -0.09599870443344116,
          0.09271068871021271,
          0.11279633641242981,
          -0.10204347968101501,
          0.07390336692333221,
          -0.03372098505496979,
          0.030143797397613525,
          -0.09346960484981537,
          0.028757065534591675,
          0.10214748978614807,
          -0.058260172605514526,
          0.006806373596191406,
          0.002199113368988037,
          -0.06565713882446289,
          0.05286069214344025,
          0.029096052050590515,
          -0.0002250969409942627,
          0.10425877571105957,
          -0.04212947189807892,
          0.02063383162021637,
          0.0895194411277771,
          -0.0935850739479065,
          -0.02100290358066559,
          -0.10453774034976959,
          -0.05579093098640442,
          -0.07798966765403748,
          0.07055185735225677,
          -0.05049680173397064,
          -0.021393924951553345,
          -0.08267708122730255,
          -0.04713483154773712,
          -0.00807863473892212,
          -0.11687645316123962,
          0.07521787285804749,
          -0.028796806931495667,
          -0.10293503105640411,
          0.031234845519065857,
          0.03802448511123657,
          0.06566016376018524,
          0.008681759238243103,
          -0.0881182849407196,
          -0.11206790804862976,
          0.03334285318851471,
          0.12077926099300385,
          -0.008483394980430603
        ],
        [
          -0.10104517638683319,
          0.07326498627662659,
          -0.050864219665527344,
          0.05671420693397522,
          -0.058452993631362915,
          -0.04833969473838806,
          -0.034424081444740295,
          0.09487301111221313,
          0.03485792875289917,
          0.0029278546571731567,
          0.0882418155670166,
          -0.05094084143638611,
          0.0911659300327301,
          -0.07317730784416199,
          0.002068161964416504,
          0.05041375756263733,
          -0.004638180136680603,
          -0.09517237544059753,
          -0.10068535804748535,
          0.07367801666259766,
          0.05823981761932373,
          0.08554653823375702,
          0.05673791468143463,
          0.015426456928253174,
          0.030112311244010925,
          0.025085970759391785,
          0.08337178826332092,
          -0.07790625095367432,
          0.07990801334381104,
          -0.05177821218967438,
          0.06533612310886383,
          0.08495655655860901,
          -0.006759822368621826,
          0.11252252757549286,
          -0.04485189914703369,
          -0.04652433097362518,
          -0.008146926760673523,
          -0.04734434187412262,
          -0.12448930740356445,
          -0.04165123403072357,
          -0.10144400596618652,
          0.12451177835464478,
          -0.07891647517681122,
          -0.06957665085792542,
          -0.008373349905014038,
          -0.03457362949848175,
          0.1093960702419281,
          -0.002748146653175354,
          0.10081565380096436,
          0.015142291784286499,
          0.01523272693157196,
          -0.061842694878578186,
          -0.003106251358985901,
          0.08411091566085815,
          -0.11692258715629578,
          0.043253421783447266,
          -0.06986913084983826,
          -0.04617577791213989,
          -0.11438220739364624,
          -0.122500941157341,
          -0.10108983516693115,
          0.12495753169059753,
          0.03755737841129303,
          0.019374236464500427
        ],
        [
          0.10583478957414627,
          -0.044879116117954254,
          0.054027631878852844,
          0.013776407577097416,
          -0.011488965712487698,
          0.05448845773935318,
          0.07747937738895416,
          0.024155396968126297,
          0.03575338050723076,
          -0.07608340680599213,
          -0.00679693603888154,
          0.159465491771698,
          0.07395026087760925,
          -0.041528571397066116,
          -0.007452527992427349,
          -0.10747089236974716,
          0.1085725873708725,
          0.1113094687461853,
          0.10132864862680435,
          -0.021072249859571457,
          0.12136417627334595,
          0.05898241698741913,
          0.1120636835694313,
          0.10079390555620193,
          -0.0008134656818583608,
          0.09959827363491058,
          -0.07780462503433228,
          -0.0725945234298706,
          0.014595670625567436,
          -0.05168062821030617,
          0.15293292701244354,
          -0.08911257982254028,
          -0.0672164112329483,
          0.00895783957093954,
          0.014727300964295864,
          0.12129457294940948,
          0.12894614040851593,
          0.013941371813416481,
          -0.02467857487499714,
          -0.0916176289319992,
          0.01730400323867798,
          0.021164730191230774,
          -0.018634259700775146,
          0.03413824364542961,
          -0.04375413805246353,
          0.02203024923801422,
          -0.11746145039796829,
          0.036185868084430695,
          0.0328679196536541,
          0.08745681494474411,
          -0.11210177838802338,
          -0.07909751683473587,
          0.05111803486943245,
          -0.05736178159713745,
          0.02669765241444111,
          0.02749468944966793,
          0.02958804927766323,
          0.11659365892410278,
          0.018598413094878197,
          0.07328672707080841,
          0.012797250412404537,
          0.12050811201334,
          -0.0881647989153862,
          0.1243792325258255
        ],
        [
          -0.06219875440001488,
          -0.0066535682417452335,
          0.11965756118297577,
          0.09952852129936218,
          -0.048608504235744476,
          -0.04483947157859802,
          0.14360783994197845,
          0.08990228921175003,
          0.05025855451822281,
          0.1345309317111969,
          0.0027207322418689728,
          -0.09116530418395996,
          0.11345691978931427,
          -0.029239194467663765,
          -0.12971793115139008,
          -0.09048755466938019,
          -0.08693428337574005,
          0.0068014017306268215,
          0.07507193088531494,
          0.06613733619451523,
          0.012519529089331627,
          0.10546793043613434,
          -0.09680265188217163,
          0.09492052346467972,
          -0.11432958394289017,
          0.10921259969472885,
          -0.08793142437934875,
          -0.03661419451236725,
          -0.050778135657310486,
          -0.039120517671108246,
          0.132262721657753,
          0.11037176102399826,
          -0.07668387144804001,
          -0.06891831755638123,
          0.09406812489032745,
          0.025244295597076416,
          0.0006081880419515073,
          0.06459499150514603,
          0.04012341797351837,
          -0.0588630735874176,
          -0.011534242890775204,
          0.121342733502388,
          0.006643215660005808,
          0.03597249463200569,
          0.06552755832672119,
          -0.023623023182153702,
          -0.10821544378995895,
          0.10159385204315186,
          0.05753520131111145,
          -0.07308933883905411,
          0.07556168735027313,
          0.15522053837776184,
          -0.11038536578416824,
          -0.09912838041782379,
          0.07686569541692734,
          0.0037629783619195223,
          0.05573172867298126,
          0.10463207960128784,
          -0.11861101537942886,
          0.14874930679798126,
          -0.05560467019677162,
          0.05277061089873314,
          -0.12725746631622314,
          -0.11696136742830276
        ],
        [
          -0.1342700868844986,
          0.09507346898317337,
          0.03311905264854431,
          0.11362436413764954,
          0.06149354949593544,
          0.004630222916603088,
          -0.12766975164413452,
          0.09578969329595566,
          0.004910726100206375,
          0.09513943642377853,
          0.1419338583946228,
          0.14028142392635345,
          -0.025993214920163155,
          -0.06465126574039459,
          0.07494901120662689,
          0.04807129129767418,
          -0.06542427837848663,
          0.019137907773256302,
          -0.08224368095397949,
          0.05558070167899132,
          -0.005799801088869572,
          -0.09150457382202148,
          0.04914897680282593,
          0.11945991963148117,
          -0.09050439298152924,
          -0.055127788335084915,
          0.024882514029741287,
          0.10179731249809265,
          0.013057375326752663,
          -0.09349611401557922,
          0.031099189072847366,
          -0.11190211772918701,
          0.08758296817541122,
          -0.12150242179632187,
          0.03200855106115341,
          -0.06413771212100983,
          0.025971107184886932,
          -0.012214295566082,
          0.1593102663755417,
          0.012047260999679565,
          -0.10305487364530563,
          0.12277339398860931,
          -0.006607017479836941,
          -0.07273241132497787,
          0.07247025519609451,
          0.005255238618701696,
          -0.06480930745601654,
          -0.016740847378969193,
          0.10616243630647659,
          -0.011305670253932476,
          0.048988714814186096,
          -0.06628929823637009,
          -0.11625401675701141,
          0.0990854948759079,
          -0.08854199200868607,
          0.10648889094591141,
          0.0252094604074955,
          0.11091098189353943,
          -0.14386619627475739,
          -0.08021233975887299,
          -0.050578586757183075,
          0.02737060934305191,
          0.20606188476085663,
          0.009551409631967545
        ],
        [
          0.1348169595003128,
          0.0928226187825203,
          -0.027520328760147095,
          -0.10921930521726608,
          0.029554814100265503,
          0.0796111449599266,
          0.11279768496751785,
          -0.0924273207783699,
          0.012216148898005486,
          0.11443492770195007,
          -0.046176258474588394,
          -0.049387890845537186,
          0.11750316619873047,
          0.022374287247657776,
          -0.07726708054542542,
          -0.07918072491884232,
          -0.0399966835975647,
          0.12821026146411896,
          0.11255308985710144,
          0.03550935164093971,
          0.05458659678697586,
          0.0635717511177063,
          0.018292954191565514,
          0.14941200613975525,
          -0.019633589312434196,
          0.0295395664870739,
          -0.08763165026903152,
          0.013699918985366821,
          0.032676465809345245,
          -0.011412231251597404,
          0.017703775316476822,
          -0.06330572068691254,
          -0.12736065685749054,
          -0.11022718995809555,
          0.09221965819597244,
          0.08101291954517365,
          0.05280717834830284,
          -0.009755367413163185,
          0.052547965198755264,
          -0.0040139853954315186,
          -0.0891508162021637,
          0.03798270225524902,
          0.05930497124791145,
          -0.061476707458496094,
          -0.03635617718100548,
          0.0449993759393692,
          0.003228750778362155,
          -0.00853004865348339,
          0.020894542336463928,
          -0.0017428705468773842,
          -0.05160078406333923,
          0.050150852650403976,
          0.050865381956100464,
          0.05423036590218544,
          0.10091269016265869,
          -0.06982871890068054,
          0.08780479431152344,
          0.14045609533786774,
          -0.02908521145582199,
          -0.09761516004800797,
          -0.039091069251298904,
          -0.01110465545207262,
          -0.18860474228858948,
          0.023993613198399544
        ],
        [
          -0.01822746731340885,
          -0.05778425931930542,
          -0.029906034469604492,
          -0.05667591840028763,
          0.08035820722579956,
          -0.04418328404426575,
          0.10463368892669678,
          -0.0629236102104187,
          0.043025270104408264,
          0.05970072001218796,
          -0.10281975567340851,
          -0.12037910521030426,
          0.08851655572652817,
          -0.043592289090156555,
          -0.07054062932729721,
          -0.03362664207816124,
          -0.08949117362499237,
          -0.03742051497101784,
          0.002318922197446227,
          -0.12818384170532227,
          0.0878416895866394,
          0.005545035004615784,
          -6.355632649501786e-05,
          0.04077097028493881,
          0.061030201613903046,
          0.05495065450668335,
          0.09002925455570221,
          0.09551112353801727,
          0.0646081268787384,
          0.06091208755970001,
          -0.0947393849492073,
          -0.05586782470345497,
          -0.0033877810928970575,
          -0.10577657073736191,
          -0.08264166116714478,
          -0.06574985384941101,
          0.025349728763103485,
          -0.04027010127902031,
          -0.1150532066822052,
          -0.10290569067001343,
          0.0671449676156044,
          -0.05551236867904663,
          -0.0003869759675581008,
          0.012845534831285477,
          -0.061117690056562424,
          0.0170116126537323,
          0.04154925048351288,
          0.05971655994653702,
          -0.012238960713148117,
          -0.0544903464615345,
          0.025484398007392883,
          -0.01890026405453682,
          -0.056215450167655945,
          0.08432353287935257,
          -0.12385933101177216,
          -0.007848858833312988,
          0.053001176565885544,
          0.06615881621837616,
          -0.07131059467792511,
          -0.01906503364443779,
          -0.08978646248579025,
          0.004143913276493549,
          -0.10597085952758789,
          -0.059352170675992966
        ],
        [
          0.05356872081756592,
          0.11976698786020279,
          -0.06470075249671936,
          0.08182044327259064,
          0.12499567121267319,
          -0.0794096365571022,
          0.0786694884300232,
          -0.05068996548652649,
          0.0404205396771431,
          -0.06325188279151917,
          -0.06720763444900513,
          0.14506813883781433,
          0.014072302728891373,
          0.16205792129039764,
          -0.06312809884548187,
          -0.08851434290409088,
          0.010552406311035156,
          -0.011629833839833736,
          0.04808671399950981,
          0.03154943138360977,
          -0.035906799137592316,
          0.05158121883869171,
          0.05970488861203194,
          0.04474417492747307,
          -0.10735835134983063,
          0.008523162454366684,
          -0.08006604760885239,
          -0.027575403451919556,
          -0.043368782848119736,
          -0.049150656908750534,
          0.08283298462629318,
          0.07975742220878601,
          0.03063344582915306,
          0.09563110023736954,
          0.01663057878613472,
          0.05250170826911926,
          0.12979237735271454,
          0.03518996387720108,
          -0.012085928581655025,
          -0.11457964777946472,
          0.12109427154064178,
          0.11251859366893768,
          -0.013917976059019566,
          -0.0861838087439537,
          -0.09806538373231888,
          -0.03684939071536064,
          -0.030556518584489822,
          -0.020491717383265495,
          0.12844529747962952,
          -0.07359768450260162,
          0.11437202990055084,
          -0.07285763323307037,
          0.06567832827568054,
          0.08721163123846054,
          -0.014630337245762348,
          0.09109078347682953,
          -0.0912599116563797,
          -0.029993824660778046,
          0.04609818011522293,
          -0.00654775882139802,
          0.05005667358636856,
          -0.019342392683029175,
          -0.23648151755332947,
          -0.06448431313037872
        ],
        [
          -0.04343034699559212,
          0.10023211687803268,
          0.12150867283344269,
          -0.08740139752626419,
          0.03480565547943115,
          -0.024751916527748108,
          -0.02479783445596695,
          0.07012353092432022,
          -0.12756691873073578,
          -0.05055743083357811,
          0.0005423277616500854,
          -0.019062412902712822,
          -0.030761685222387314,
          -0.046664804220199585,
          -0.06708893179893494,
          -0.030654776841402054,
          -0.09675176441669464,
          0.09428852051496506,
          0.059383902698755264,
          0.011660194955766201,
          0.009147406555712223,
          -0.057473450899124146,
          0.032695263624191284,
          -0.010059617459774017,
          -0.01217478234320879,
          0.004229342564940453,
          0.11848549544811249,
          0.08441890776157379,
          -0.09108031541109085,
          0.09521377831697464,
          0.04513536021113396,
          -0.02825389802455902,
          0.08177775144577026,
          -0.03016618639230728,
          0.015704354271292686,
          0.09469681978225708,
          0.025383559986948967,
          -0.008927050046622753,
          -0.07486379146575928,
          -0.04949401319026947,
          -0.055273573845624924,
          -0.006733059883117676,
          -0.08398605138063431,
          -0.0971984937787056,
          0.10103917121887207,
          0.1210886612534523,
          -0.005727225914597511,
          0.03913440927863121,
          0.06624992191791534,
          -0.049505528062582016,
          0.09257546067237854,
          0.038125958293676376,
          0.10885406285524368,
          -0.09879406541585922,
          -0.05772366002202034,
          -0.04532714560627937,
          0.05562017112970352,
          -0.009104564785957336,
          0.15498243272304535,
          -0.07181014120578766,
          -0.04318348690867424,
          0.09921764582395554,
          -0.003264790866523981,
          0.027569688856601715
        ],
        [
          -0.12868420779705048,
          -0.04042164981365204,
          -0.11007112264633179,
          -0.021212998777627945,
          0.023486709222197533,
          -0.082094207406044,
          0.03191424533724785,
          0.035694681107997894,
          -0.11243242025375366,
          -0.054601408541202545,
          -0.10488174855709076,
          0.030763575807213783,
          0.031306326389312744,
          -0.06275558471679688,
          0.03925466537475586,
          0.03978468105196953,
          0.11690376698970795,
          0.0848083570599556,
          -0.10718297213315964,
          -0.10740640759468079,
          0.004271583631634712,
          -0.045024529099464417,
          0.03285980224609375,
          0.04447785019874573,
          0.09722904115915298,
          -0.09692233800888062,
          -0.10993121564388275,
          -0.0794282853603363,
          0.02105766534805298,
          -0.030290745198726654,
          -0.025821223855018616,
          -0.029199736192822456,
          0.05592046305537224,
          -0.021138614043593407,
          -0.037313733249902725,
          -0.017435982823371887,
          -0.11286208033561707,
          -0.0716405138373375,
          -0.025869622826576233,
          0.007393702864646912,
          -0.06029602140188217,
          0.12170687317848206,
          -0.06559614837169647,
          0.006917355582118034,
          0.06171194463968277,
          0.044700976461172104,
          -0.02509373426437378,
          -0.04125221073627472,
          0.039336416870355606,
          -0.061039455235004425,
          -0.07975947856903076,
          -0.11311880499124527,
          0.09786476939916611,
          -0.036200977861881256,
          0.04320642724633217,
          -0.047149982303380966,
          -0.01974698342382908,
          0.06254111975431442,
          0.047331973910331726,
          -0.11280859261751175,
          0.06357592344284058,
          -0.07695535570383072,
          -0.06382143497467041,
          0.09973965585231781
        ],
        [
          -0.02564147114753723,
          -0.08185768872499466,
          -0.07716505229473114,
          -0.123892642557621,
          -0.0015344023704528809,
          -0.025359753519296646,
          0.007998520508408546,
          0.02808629535138607,
          -0.04298585653305054,
          0.014389964751899242,
          -0.02264580875635147,
          0.007659513503313065,
          0.04669051244854927,
          -0.12171096354722977,
          0.050348736345767975,
          4.2390973248984665e-05,
          0.0652586966753006,
          0.07860548049211502,
          0.04568486288189888,
          -0.03729991614818573,
          -0.09650972485542297,
          -0.001751139760017395,
          -0.027173232287168503,
          0.11585233360528946,
          -0.03563366085290909,
          -0.04681225121021271,
          -0.09636971354484558,
          0.07058611512184143,
          0.008438686840236187,
          0.0974128395318985,
          -0.04537217319011688,
          -0.08894854784011841,
          0.01336278673261404,
          -0.11813877522945404,
          -0.10478011518716812,
          0.11721846461296082,
          0.06939966976642609,
          0.10321202874183655,
          -0.10904105007648468,
          -0.11003348231315613,
          -0.07040824741125107,
          0.07036170363426208,
          -0.003175568301230669,
          -0.11685988306999207,
          0.09630706906318665,
          0.05820431932806969,
          -0.008006531745195389,
          -0.02592502161860466,
          0.015294224955141544,
          -0.11301612108945847,
          0.12119537591934204,
          0.06993142515420914,
          0.08147787302732468,
          0.02462378889322281,
          -0.012002390809357166,
          -0.03942134231328964,
          0.10837765783071518,
          -0.095953568816185,
          0.06993556022644043,
          0.08444295823574066,
          -0.07578334957361221,
          0.05959664657711983,
          -0.1061888337135315,
          0.09542553871870041
        ],
        [
          -0.011738399043679237,
          -0.0032635543029755354,
          0.04345010221004486,
          0.014677014201879501,
          0.024849966168403625,
          0.10425306856632233,
          0.026499997824430466,
          0.025926249101758003,
          0.10573258996009827,
          0.10002142190933228,
          -0.06864110380411148,
          -0.03916209936141968,
          0.12070943415164948,
          0.10416977852582932,
          -0.09278016537427902,
          0.10340152680873871,
          0.009504780173301697,
          0.13299262523651123,
          0.04469341039657593,
          -0.0029505083803087473,
          -0.0526859350502491,
          -0.024195596575737,
          0.06446272134780884,
          0.05745838209986687,
          -0.015971940010786057,
          -0.049872107803821564,
          0.11357102543115616,
          -0.017835408449172974,
          -0.04794938117265701,
          -0.026592884212732315,
          0.10265190899372101,
          0.11092188209295273,
          -0.0042932345531880856,
          -0.018520573154091835,
          -0.02442139945924282,
          0.082598015666008,
          -0.09947428852319717,
          -0.01156267337501049,
          0.046307556331157684,
          -0.11197799444198608,
          0.0044506327249109745,
          -0.10474023222923279,
          -0.005420992616564035,
          0.07904484868049622,
          0.02616165392100811,
          -0.05426939204335213,
          -0.0029875831678509712,
          0.07708919048309326,
          0.005999612621963024,
          0.005240514874458313,
          0.11371466517448425,
          -0.019682666286826134,
          0.057970549911260605,
          -0.08041999489068985,
          -0.025488844141364098,
          -0.07083060592412949,
          -0.014598922803997993,
          0.04860338568687439,
          -0.012758757919073105,
          0.030263550579547882,
          -0.03487137332558632,
          0.050061505287885666,
          -0.23178106546401978,
          0.0021559703163802624
        ],
        [
          0.00505299586802721,
          -0.07520683109760284,
          0.09367252886295319,
          -0.05657804012298584,
          0.011214378289878368,
          -0.09481695294380188,
          0.07620830088853836,
          -0.07898532599210739,
          -0.03395586833357811,
          0.11256832629442215,
          0.051987551152706146,
          -0.11392497271299362,
          0.009247452951967716,
          0.00896446779370308,
          -0.0176228079944849,
          -0.11329934746026993,
          -0.05879513919353485,
          0.050705935806035995,
          0.05889056995511055,
          0.06002135947346687,
          -0.12529738247394562,
          -0.11943013966083527,
          -0.13800527155399323,
          0.011522997170686722,
          -0.05176632106304169,
          0.02373313345015049,
          0.10629674047231674,
          0.12047016620635986,
          -0.041760414838790894,
          0.04128482565283775,
          -0.09457579255104065,
          0.05048923194408417,
          0.1355556696653366,
          0.10069494694471359,
          0.093894824385643,
          0.09656204283237457,
          0.03090231865644455,
          -0.12910345196723938,
          -0.11132396757602692,
          0.06569564342498779,
          0.016612308099865913,
          0.06584474444389343,
          0.09742467105388641,
          -0.07901226729154587,
          -0.10013121366500854,
          0.034134332090616226,
          0.09435132890939713,
          -0.09252166748046875,
          0.048405956476926804,
          0.09230440109968185,
          0.03882583975791931,
          -0.022055627778172493,
          -0.04334300383925438,
          -0.04153455048799515,
          0.11131253093481064,
          0.053683385252952576,
          0.05732876807451248,
          -0.01544217113405466,
          -0.004327659960836172,
          0.0988253504037857,
          0.04037618637084961,
          0.05784637853503227,
          0.2170955240726471,
          0.10848414152860641
        ],
        [
          -0.07838188111782074,
          0.015460247173905373,
          0.06595887243747711,
          0.10962224006652832,
          0.07689493149518967,
          -0.008229907602071762,
          -0.08033403754234314,
          0.002150024985894561,
          -0.00939552579075098,
          0.018265966325998306,
          0.025974782183766365,
          0.08521217107772827,
          0.00639087101444602,
          -0.08813203871250153,
          -0.13148759305477142,
          -0.03760872781276703,
          0.00799696147441864,
          0.12857915461063385,
          -0.03791031986474991,
          -0.02091510407626629,
          -0.11640334874391556,
          -0.05412787199020386,
          0.09582480788230896,
          -0.010131757706403732,
          -0.0019770655781030655,
          -0.05429341644048691,
          0.06846136599779129,
          -0.08433891832828522,
          -0.029090117663145065,
          0.09927934408187866,
          0.0007714953972026706,
          0.07303725928068161,
          -0.001205165171995759,
          0.10723680257797241,
          -0.020372292026877403,
          -0.10772331058979034,
          0.0653490349650383,
          -0.023781169205904007,
          0.12433435767889023,
          -0.06954595446586609,
          0.12094339728355408,
          -0.07615326344966888,
          -0.08509673178195953,
          0.11437204480171204,
          -0.0768294632434845,
          0.049564916640520096,
          0.0305002573877573,
          0.040662799030542374,
          -0.0725041925907135,
          0.08222989737987518,
          -0.013720929622650146,
          -0.06863710284233093,
          -0.10041896253824234,
          -0.10251342505216599,
          -0.01715516857802868,
          -0.1076212152838707,
          -0.07261177897453308,
          -0.1105528250336647,
          -0.04993781819939613,
          -0.013752264901995659,
          0.052532728761434555,
          -0.0203716941177845,
          -0.08121835440397263,
          -0.11278078705072403
        ],
        [
          -0.009906859137117863,
          0.09356152266263962,
          0.055450111627578735,
          -0.0196690633893013,
          0.02398865483701229,
          0.05936945602297783,
          0.019429488107562065,
          0.11500579118728638,
          0.09319975227117538,
          -0.016385555267333984,
          0.051392920315265656,
          -0.13647162914276123,
          0.03012913279235363,
          -0.05779630318284035,
          -0.057990867644548416,
          0.11145138740539551,
          -0.016172289848327637,
          -0.02693832851946354,
          -0.021008484065532684,
          -0.03679951652884483,
          -0.04531317204236984,
          0.009207218885421753,
          0.024956785142421722,
          -0.06052666902542114,
          -0.03642844408750534,
          -0.05722670257091522,
          0.09171261638402939,
          -0.0364086776971817,
          -0.13622155785560608,
          -0.010030397213995457,
          -0.015303721651434898,
          -0.06587086617946625,
          0.05488981679081917,
          -0.07828626781702042,
          -0.0179465189576149,
          0.035799428820610046,
          0.004126938059926033,
          -0.02158239856362343,
          -0.12655359506607056,
          -0.0670807957649231,
          0.0034191932063549757,
          0.11420978605747223,
          -0.08902943134307861,
          -0.08343980461359024,
          0.005153638310730457,
          -0.051735568791627884,
          -0.06721898168325424,
          -0.05662091448903084,
          -0.11427871137857437,
          -0.03801174461841583,
          -0.09703487157821655,
          0.08583839237689972,
          -0.11394371837377548,
          0.07174193114042282,
          0.10315393656492233,
          -0.049452103674411774,
          0.0642952248454094,
          0.09798194468021393,
          -0.005326184444129467,
          0.02290990762412548,
          -0.09496074914932251,
          -0.04716833308339119,
          -0.0003578086325433105,
          -0.04134047031402588
        ],
        [
          -0.09260998666286469,
          0.030341632664203644,
          -0.011357620358467102,
          -0.030847711488604546,
          0.0509493425488472,
          -0.03792060911655426,
          0.10256532579660416,
          0.09172191470861435,
          0.06731469184160233,
          -0.06265003979206085,
          -0.03220747783780098,
          0.06680596619844437,
          -0.07817865908145905,
          -0.011900803074240685,
          0.006758025847375393,
          0.12572436034679413,
          0.0463382750749588,
          -0.08754079788923264,
          0.01540457271039486,
          -0.08899188786745071,
          -0.09558366239070892,
          0.11317496001720428,
          0.12084527313709259,
          0.04450181871652603,
          0.06764914095401764,
          -0.0322338230907917,
          -0.0025932127609848976,
          -0.08913730084896088,
          0.05560525134205818,
          0.014185198582708836,
          0.014393983408808708,
          0.0476105697453022,
          0.06816186010837555,
          -0.06402957439422607,
          0.08351270109415054,
          0.0072091370820999146,
          -0.048616115003824234,
          0.06549173593521118,
          -0.0697079747915268,
          0.05747048556804657,
          -0.035667743533849716,
          0.0023843348026275635,
          0.08051764219999313,
          -0.06335287541151047,
          -0.09141658991575241,
          0.005497319623827934,
          0.006783195771276951,
          0.12193187326192856,
          0.10272620618343353,
          -0.08257065713405609,
          0.03465379774570465,
          0.035491786897182465,
          -0.11754846572875977,
          0.11151564866304398,
          -0.005670999176800251,
          0.011926348321139812,
          -0.10526981949806213,
          -0.090894415974617,
          0.02085421234369278,
          0.12059248983860016,
          -0.08016982674598694,
          -0.0912466049194336,
          0.028488220646977425,
          -0.03169913589954376
        ],
        [
          0.11584014445543289,
          0.0045531140640378,
          0.07060766220092773,
          0.09990986436605453,
          0.08566883951425552,
          -0.008995506912469864,
          -0.05089700594544411,
          -0.1388087123632431,
          -0.1144280880689621,
          -0.08193948864936829,
          0.09586318582296371,
          0.09707334637641907,
          0.018108747899532318,
          -0.028217099606990814,
          0.02279701456427574,
          0.10279107838869095,
          -0.016592741012573242,
          0.07248243689537048,
          0.017296578735113144,
          0.11961760371923447,
          0.017649129033088684,
          -0.09576836228370667,
          -0.10579259693622589,
          0.05064454302191734,
          -0.05568541958928108,
          0.05548500269651413,
          0.045242201536893845,
          -0.07895083725452423,
          -0.02384958602488041,
          0.10140020400285721,
          -0.11912048608064651,
          0.08237208425998688,
          -0.12404832988977432,
          0.10508903861045837,
          -0.05824419483542442,
          -0.11526823043823242,
          0.026029670611023903,
          0.10249165445566177,
          -0.06118570640683174,
          -0.061529844999313354,
          -0.009751048870384693,
          0.08446669578552246,
          -0.006304592359811068,
          0.08371587842702866,
          -0.10232019424438477,
          -0.07842066138982773,
          0.11183152347803116,
          0.0032556820660829544,
          -0.07219921052455902,
          0.06026540696620941,
          0.017328232526779175,
          0.013854709453880787,
          -0.03636578097939491,
          0.08048002421855927,
          0.08383580297231674,
          -0.00579972704872489,
          -0.07873684912919998,
          -0.04506867751479149,
          0.03334971144795418,
          0.0921228900551796,
          -0.059346068650484085,
          0.013401966542005539,
          -0.20852762460708618,
          -0.05005548894405365
        ],
        [
          0.09243185818195343,
          0.06418082118034363,
          0.01408115029335022,
          0.06749036908149719,
          0.05538428947329521,
          -0.011985158547759056,
          -0.05366004630923271,
          0.055108990520238876,
          0.08028967678546906,
          -0.04585421085357666,
          -0.006361800245940685,
          0.03908273205161095,
          0.12504711747169495,
          0.10027898102998734,
          -0.16573885083198547,
          0.09218128025531769,
          0.052784696221351624,
          -0.07594933360815048,
          0.024874744936823845,
          0.06372284889221191,
          0.0805838406085968,
          0.11682543158531189,
          -0.06040465831756592,
          -0.010826597921550274,
          -0.08053553849458694,
          -0.04619131237268448,
          -0.030862577259540558,
          0.06558157503604889,
          0.06397510319948196,
          -0.047923147678375244,
          0.04774042218923569,
          0.11507651209831238,
          0.031350672245025635,
          -0.06359436362981796,
          0.14613422751426697,
          0.06928035616874695,
          0.13163311779499054,
          0.016941489651799202,
          -0.07292212545871735,
          0.06563262641429901,
          0.09452977031469345,
          0.10351443290710449,
          0.05267879366874695,
          0.07668425887823105,
          0.15045684576034546,
          0.11586044728755951,
          0.08355297148227692,
          0.08941629528999329,
          -0.07024423032999039,
          -0.057660896331071854,
          -0.011602833867073059,
          -0.0561549998819828,
          -0.038687847554683685,
          0.12128861248493195,
          -0.03664160519838333,
          0.013660477474331856,
          0.04293334111571312,
          -0.009887524880468845,
          0.07665542513132095,
          -0.04398561269044876,
          0.011677675880491734,
          0.020126085728406906,
          -0.1924801468849182,
          0.0009303561528213322
        ],
        [
          0.04022085666656494,
          -0.023377060890197754,
          0.00541137158870697,
          -0.016516152769327164,
          0.07198750227689743,
          -0.09432888776063919,
          -0.07211969792842865,
          -0.0655612200498581,
          0.07401730120182037,
          0.05253428965806961,
          0.0932328850030899,
          0.0543404221534729,
          0.0029768282547593117,
          -0.06805174052715302,
          0.09228767454624176,
          -0.11467856168746948,
          -0.0481080561876297,
          -0.08562428504228592,
          -0.08179456740617752,
          0.0983516052365303,
          -0.1207600012421608,
          -0.08877384662628174,
          -0.07964024692773819,
          -0.01654215157032013,
          -0.06886430084705353,
          0.07655348628759384,
          -0.10651390254497528,
          0.0601826012134552,
          -0.12053441256284714,
          -0.06420525163412094,
          -0.09598012268543243,
          -0.12261383980512619,
          -0.06409702450037003,
          0.02478680945932865,
          0.1067829355597496,
          0.07264405488967896,
          -0.10331802070140839,
          0.09786444902420044,
          0.04776983708143234,
          0.041149333119392395,
          -0.034690503031015396,
          -0.08066929876804352,
          0.08876799792051315,
          -0.02704291045665741,
          0.05759620666503906,
          -0.046607304364442825,
          -0.06410422176122665,
          0.031607791781425476,
          0.10064888745546341,
          0.10037796944379807,
          0.06930698454380035,
          0.023642543703317642,
          -0.11120770126581192,
          0.05879012495279312,
          0.04196537286043167,
          0.06247631460428238,
          0.102574422955513,
          0.11479847878217697,
          -0.043435320258140564,
          -0.1034427136182785,
          -0.08515465259552002,
          0.07179176062345505,
          0.08785781264305115,
          -0.08158525824546814
        ],
        [
          0.06235896423459053,
          -0.01921781152486801,
          0.04379996657371521,
          0.05596974492073059,
          0.0029166671447455883,
          -0.10992930829524994,
          -0.025367559865117073,
          0.07882513850927353,
          0.06855582445859909,
          -0.017441337928175926,
          -0.11210718005895615,
          -0.07629816979169846,
          0.014471344649791718,
          -0.135772705078125,
          0.1294596791267395,
          -0.0931398794054985,
          0.09979955852031708,
          0.05076824128627777,
          -0.024359330534934998,
          -0.043958086520433426,
          -0.10301331430673599,
          0.09710614383220673,
          -0.09335141628980637,
          -0.015271770767867565,
          -0.09593887627124786,
          0.01043124869465828,
          0.0655888095498085,
          0.10543942451477051,
          0.016304438933730125,
          0.01955869048833847,
          -0.12150617688894272,
          0.028570106253027916,
          0.07064785063266754,
          -0.05482826009392738,
          0.061171334236860275,
          -0.027886688709259033,
          0.12589842081069946,
          0.11346324533224106,
          -0.11938397586345673,
          -0.11068114638328552,
          -0.07671571522951126,
          -0.12137360870838165,
          0.07150352746248245,
          0.10403438657522202,
          0.12994718551635742,
          0.02450561337172985,
          0.07003675401210785,
          0.11964590102434158,
          0.10892699658870697,
          -0.08130789548158646,
          -0.03560252487659454,
          0.022617818787693977,
          -0.10279413312673569,
          0.03956667333841324,
          0.03123088739812374,
          -0.03562139347195625,
          0.06687995791435242,
          0.01071635726839304,
          -0.0407940112054348,
          -0.10079251229763031,
          0.09665487706661224,
          -0.05568808317184448,
          0.16259315609931946,
          0.07015375792980194
        ],
        [
          0.09728176146745682,
          -0.052728768438100815,
          -0.11750513315200806,
          0.05945814028382301,
          0.08408507704734802,
          0.11662257462739944,
          0.03846012055873871,
          0.07454494386911392,
          0.08674260228872299,
          -0.0088454969227314,
          0.027081334963440895,
          0.025829430669546127,
          0.06394192576408386,
          0.011742559261620045,
          0.1167844831943512,
          0.010442959144711494,
          0.0614047646522522,
          -0.09324001520872116,
          0.06922309845685959,
          -0.03987541049718857,
          -0.0657859742641449,
          0.00857783854007721,
          0.05160640925168991,
          -0.02731231600046158,
          0.04390159249305725,
          -0.12713398039340973,
          -0.049107398837804794,
          0.0247516930103302,
          0.05110736936330795,
          0.001565889804624021,
          0.037718191742897034,
          -0.11158086359500885,
          -0.008467617444694042,
          -0.06571424752473831,
          -0.11946482956409454,
          -0.1034298837184906,
          0.0860394760966301,
          0.007070485036820173,
          0.11114291846752167,
          -0.10816223919391632,
          0.1042584776878357,
          -0.02405373752117157,
          -0.06981755793094635,
          0.03944891691207886,
          -0.09682103246450424,
          -0.024811752140522003,
          0.02581140771508217,
          -0.0022614076733589172,
          -0.12063127011060715,
          0.05503730848431587,
          -0.01772017776966095,
          -0.08309013396501541,
          0.013652315363287926,
          0.08848419040441513,
          -0.06639821082353592,
          -0.11470402032136917,
          0.1277693212032318,
          0.1135186105966568,
          -0.049213480204343796,
          0.11141366511583328,
          0.10002513229846954,
          -0.01849951036274433,
          0.04939315840601921,
          0.059185273945331573
        ],
        [
          -0.033022716641426086,
          0.09125083684921265,
          -0.0009870976209640503,
          0.07737428694963455,
          0.07364275306463242,
          0.08130431175231934,
          -0.10445835441350937,
          0.059597332030534744,
          -0.011572102084755898,
          -0.04817185178399086,
          -0.07226327806711197,
          -0.002147069899365306,
          0.12795209884643555,
          -0.14439304172992706,
          0.14974170923233032,
          0.057810164988040924,
          -0.03750559687614441,
          -0.026517780497670174,
          0.09862060099840164,
          0.002749865408986807,
          -0.09351147711277008,
          -0.09553070366382599,
          -0.03276475518941879,
          -0.07442434132099152,
          -0.10819222033023834,
          -0.031124534085392952,
          0.08352752029895782,
          0.07565686106681824,
          0.09503129124641418,
          -0.04114877060055733,
          -0.11062220484018326,
          0.04405536502599716,
          0.016687747091054916,
          0.0358537919819355,
          -0.0660114660859108,
          0.00726163387298584,
          0.06313174217939377,
          0.04071158543229103,
          0.006186772137880325,
          0.08170254528522491,
          0.08176908642053604,
          0.03763467073440552,
          0.08164413273334503,
          -0.03550776466727257,
          0.01800767332315445,
          0.003694369224831462,
          -0.021556612104177475,
          0.044122494757175446,
          -0.03092597797513008,
          0.09501655399799347,
          0.06435927748680115,
          0.099344901740551,
          0.04285096004605293,
          -0.09896644949913025,
          0.11060997098684311,
          0.045993879437446594,
          0.00507473386824131,
          0.05793694034218788,
          0.08658616244792938,
          0.010439323261380196,
          0.11670519411563873,
          0.04045818746089935,
          0.19597625732421875,
          -0.11654166132211685
        ],
        [
          0.07175709307193756,
          0.06643323600292206,
          0.05854003131389618,
          -0.1260821670293808,
          -0.02451331540942192,
          0.056315723806619644,
          -0.09520459920167923,
          -0.14890336990356445,
          -0.0673099085688591,
          0.08027442544698715,
          0.03309096023440361,
          -0.08338004350662231,
          0.04936334118247032,
          0.06572210788726807,
          0.007115726359188557,
          -0.020892443135380745,
          0.04506939649581909,
          -0.051489975303411484,
          0.0974874272942543,
          -0.05253668501973152,
          0.0765499696135521,
          0.10558708012104034,
          0.07169553637504578,
          -0.021702168509364128,
          0.05353035777807236,
          0.07753974944353104,
          0.0032436931505799294,
          0.06211356818675995,
          -0.07569009065628052,
          -0.015794090926647186,
          -0.05865013971924782,
          -0.05826619267463684,
          -0.027964439243078232,
          -0.04814818874001503,
          -0.020367754623293877,
          0.11529585719108582,
          0.044329628348350525,
          0.11498397588729858,
          0.12096615880727768,
          0.010704532265663147,
          -0.003447082359343767,
          -0.03000175952911377,
          0.06056303530931473,
          0.11384505778551102,
          0.01213161088526249,
          0.11360564082860947,
          -0.05006801337003708,
          -0.1034211590886116,
          -0.028487682342529297,
          0.019110780209302902,
          0.1027311235666275,
          -0.030619964003562927,
          0.013781698420643806,
          -0.08813511580228806,
          -0.10794376581907272,
          -0.06724340468645096,
          -0.014645872637629509,
          0.03657076507806778,
          -0.023286879062652588,
          -0.012672116979956627,
          -0.09183806926012039,
          0.04725165292620659,
          -0.06544172763824463,
          -0.0035162651911377907
        ],
        [
          0.08223233371973038,
          -0.011823157779872417,
          0.004330873489379883,
          -0.10120649635791779,
          0.0013059180928394198,
          -0.015314921736717224,
          -0.1224188432097435,
          -0.05980834364891052,
          -0.08396689593791962,
          0.03107570670545101,
          0.007379528600722551,
          0.00041661213617771864,
          -0.04876721277832985,
          0.12267698347568512,
          0.047284144908189774,
          0.030792927369475365,
          0.022019967436790466,
          0.02787676453590393,
          -0.09592190384864807,
          0.11373042315244675,
          -0.10421951115131378,
          -0.09333249926567078,
          -0.11124811321496964,
          -0.132499098777771,
          -0.05172428488731384,
          -0.020688464865088463,
          0.06905762851238251,
          -0.04515901207923889,
          -0.06312164664268494,
          -0.09870003163814545,
          -0.06198472902178764,
          -0.12483711540699005,
          0.09034613519906998,
          -0.0789642482995987,
          -0.12925198674201965,
          0.06540839374065399,
          0.0868508443236351,
          0.005615545436739922,
          0.11265400797128677,
          0.07241766154766083,
          0.07607702910900116,
          -0.06611645221710205,
          0.006648425478488207,
          0.03411171957850456,
          0.0793910026550293,
          -0.08435897529125214,
          0.104973204433918,
          -0.030263707041740417,
          0.08166530728340149,
          0.027653446421027184,
          0.07087185978889465,
          0.08368267863988876,
          -0.013727571815252304,
          -0.05711066350340843,
          -0.011530482210218906,
          0.011777304112911224,
          0.03344588354229927,
          0.018621105700731277,
          0.06896369159221649,
          -0.05776967108249664,
          0.06680077314376831,
          0.0797979086637497,
          -0.11277561634778976,
          -0.0012983828783035278
        ],
        [
          -0.06181676685810089,
          0.06373211741447449,
          0.07564853131771088,
          -0.10421615839004517,
          -0.0038514137268066406,
          -0.09748445451259613,
          -0.09725619852542877,
          0.07504144310951233,
          0.003244951367378235,
          -0.11022579669952393,
          0.00802256166934967,
          -0.02571970224380493,
          0.11445066332817078,
          0.07168944180011749,
          -0.07189621031284332,
          -0.12009607255458832,
          -0.10022084414958954,
          0.03592082858085632,
          0.07457785308361053,
          -0.11349566280841827,
          0.02404862642288208,
          0.07023869454860687,
          -0.007552921772003174,
          0.04556626081466675,
          -0.12244991958141327,
          -0.07924553751945496,
          -0.09892331063747406,
          -0.014615759253501892,
          -0.1025773137807846,
          -0.009374767541885376,
          -0.09217095375061035,
          0.003991216421127319,
          0.004311814904212952,
          -0.06791691482067108,
          -0.07708734273910522,
          0.10393580794334412,
          -0.1173979789018631,
          0.019682258367538452,
          -0.0498863160610199,
          -0.0879833847284317,
          -0.02057322859764099,
          -0.10964392125606537,
          0.03281484544277191,
          -0.03061544895172119,
          0.03365257382392883,
          -0.02071307599544525,
          -0.001393735408782959,
          0.06845729053020477,
          -0.017582237720489502,
          -0.09581796824932098,
          0.07600510120391846,
          -0.0570162832736969,
          0.08918352425098419,
          -0.061680346727371216,
          0.02699264883995056,
          -0.08703632652759552,
          0.02967280149459839,
          0.009234309196472168,
          0.10588845610618591,
          -0.00032041966915130615,
          0.003419920802116394,
          -0.05018171668052673,
          -0.03543347120285034,
          0.05581648647785187
        ],
        [
          -0.0400109700858593,
          0.060649704188108444,
          0.07211653888225555,
          0.09222441166639328,
          -0.1158364787697792,
          0.06987952440977097,
          -0.06962709128856659,
          0.010691091418266296,
          0.007192298769950867,
          -0.0845131129026413,
          -0.025674281641840935,
          -0.11657913774251938,
          0.1282336562871933,
          0.08593319356441498,
          -0.09314016252756119,
          -0.1236802414059639,
          0.10520756244659424,
          -0.10007569938898087,
          0.03364439308643341,
          0.08549565076828003,
          0.10770861804485321,
          0.08112706243991852,
          0.016848960891366005,
          -0.07042079418897629,
          -0.07642902433872223,
          -0.06425955891609192,
          -0.030788958072662354,
          0.038318485021591187,
          -0.05772561952471733,
          -0.023630212992429733,
          0.032084472477436066,
          0.1060815081000328,
          0.03677145391702652,
          0.023209232836961746,
          -0.05565701797604561,
          0.08794218301773071,
          -0.015905076637864113,
          -0.09347328543663025,
          0.10274628549814224,
          -0.0996035784482956,
          -0.13479477167129517,
          0.1136297881603241,
          0.03413337841629982,
          -0.021341387182474136,
          -0.06572327017784119,
          0.020921040326356888,
          0.0014804619131609797,
          -0.12522119283676147,
          0.07929114997386932,
          0.0032666646875441074,
          0.12004786729812622,
          -0.07005813717842102,
          -0.09149216115474701,
          0.12134656310081482,
          0.008902397938072681,
          0.05777773633599281,
          -0.08177049458026886,
          0.021518483757972717,
          -0.015531346201896667,
          0.0806547999382019,
          0.082227922976017,
          0.030158231034874916,
          0.1560024619102478,
          -0.11555501818656921
        ],
        [
          0.07996013015508652,
          -0.07773979008197784,
          0.118644580245018,
          0.10912599414587021,
          -0.007368681486696005,
          -0.07511848211288452,
          0.1040138378739357,
          0.03714771196246147,
          0.0008487200830131769,
          0.034273333847522736,
          0.08026387542486191,
          0.08600592613220215,
          -0.021145492792129517,
          -0.02408095821738243,
          -0.14967863261699677,
          -0.06310532242059708,
          -0.08838026225566864,
          -0.08456724882125854,
          0.07785727828741074,
          0.13847047090530396,
          -0.048348501324653625,
          -0.11723770201206207,
          -0.047340601682662964,
          -0.02766774781048298,
          0.11262605339288712,
          0.031336069107055664,
          -0.054950837045907974,
          0.03787820041179657,
          -0.1727508306503296,
          -0.03468455374240875,
          -0.06186501681804657,
          -0.0322495698928833,
          -0.14147387444972992,
          -0.08990771323442459,
          0.12329992651939392,
          -0.05159132182598114,
          0.08008482307195663,
          -0.02877368964254856,
          0.07385121285915375,
          -0.020608797669410706,
          0.14331048727035522,
          0.04496927559375763,
          -0.12226413935422897,
          -0.11243075132369995,
          0.06808481365442276,
          0.04605542868375778,
          -0.08868362754583359,
          0.09130316227674484,
          0.04222226142883301,
          0.10748250782489777,
          -0.12127994000911713,
          0.04055410996079445,
          0.021677330136299133,
          0.023881692439317703,
          0.05092222988605499,
          -0.027842767536640167,
          0.10605280101299286,
          0.10904696583747864,
          -0.09295205771923065,
          0.06812012195587158,
          -0.013991249725222588,
          0.13491621613502502,
          -0.11233795434236526,
          -0.004552577622234821
        ],
        [
          0.11337672173976898,
          0.12741263210773468,
          -0.0257587730884552,
          0.087205670773983,
          0.08322278410196304,
          -0.08626842498779297,
          -0.005054848734289408,
          -0.1247895359992981,
          -0.020685186609625816,
          0.06322859227657318,
          -0.05067845433950424,
          0.02370593696832657,
          0.1106325164437294,
          0.10120681673288345,
          -0.09468815475702286,
          0.09410660713911057,
          0.09811323881149292,
          -0.03643053397536278,
          -0.028744323179125786,
          0.006305525079369545,
          0.08292771875858307,
          -0.10030180215835571,
          -0.004144102800637484,
          -0.034040335565805435,
          0.05717642977833748,
          0.07272917032241821,
          -0.08585303276777267,
          -0.11343677341938019,
          -0.016220219433307648,
          0.04868738353252411,
          -0.07669299095869064,
          0.04120500013232231,
          0.028139060363173485,
          0.0919167697429657,
          0.04027281701564789,
          -0.09852294623851776,
          0.01945144310593605,
          0.13148179650306702,
          0.057819608598947525,
          0.08803622424602509,
          0.0654083713889122,
          0.047621309757232666,
          -0.08303754031658173,
          0.06562051177024841,
          -0.05837554112076759,
          -0.08766154199838638,
          0.08630803227424622,
          -0.03262738138437271,
          -0.03635335713624954,
          -0.11347545683383942,
          0.04894106090068817,
          0.13350506126880646,
          0.036101024597883224,
          0.11094938963651657,
          -0.02020428515970707,
          0.06639822572469711,
          -0.06285049766302109,
          0.07210402190685272,
          0.1580866426229477,
          0.07292566448450089,
          -0.034190524369478226,
          0.016171924769878387,
          -0.15779954195022583,
          0.04241349548101425
        ],
        [
          0.060736387968063354,
          -0.11206167936325073,
          -0.09690701961517334,
          0.03135092556476593,
          -0.07167616486549377,
          0.06642831861972809,
          -0.01772017776966095,
          0.0737917572259903,
          0.028316333889961243,
          -0.03324320912361145,
          0.08375853300094604,
          0.05314205586910248,
          -0.07158781588077545,
          -0.09905651211738586,
          -0.06636357307434082,
          -0.05289371311664581,
          -0.10128068923950195,
          -0.023853540420532227,
          0.11750327050685883,
          -0.0044364333152771,
          0.0175514817237854,
          0.11825686693191528,
          0.1054738461971283,
          0.06819568574428558,
          0.06936778128147125,
          0.11167125403881073,
          0.08568522334098816,
          0.02108311653137207,
          0.03142981231212616,
          -0.0587581992149353,
          -0.011738121509552002,
          0.009640857577323914,
          -0.0832299292087555,
          -0.09842251241207123,
          -0.07230566442012787,
          -0.00443248450756073,
          0.05027934908866882,
          -0.01062580943107605,
          0.06866972148418427,
          -0.10335777699947357,
          0.05811384320259094,
          -0.013372331857681274,
          -0.04278029501438141,
          -0.024290412664413452,
          -0.04003891348838806,
          0.005220234394073486,
          0.010236218571662903,
          0.046466365456581116,
          -0.09587925672531128,
          0.12132491171360016,
          -0.10845761001110077,
          0.00529460608959198,
          0.023155078291893005,
          0.030875489115715027,
          0.08657507598400116,
          -0.026773080229759216,
          -0.03359478712081909,
          -0.11927478015422821,
          -0.08352120220661163,
          0.0564267635345459,
          0.06647686660289764,
          0.038732320070266724,
          0.11714661121368408,
          -0.11975039541721344
        ],
        [
          -0.10383348912000656,
          0.09980428218841553,
          0.036927103996276855,
          0.10747654736042023,
          -0.11965487897396088,
          0.06476570665836334,
          -0.06745553016662598,
          -0.08302000164985657,
          -0.0635472983121872,
          -0.10014759004116058,
          -0.06632013618946075,
          -0.006690122652798891,
          0.06647905707359314,
          -0.004300102591514587,
          0.09347126632928848,
          -0.052273184061050415,
          0.10782109200954437,
          -0.11487247049808502,
          -0.06633510440587997,
          -0.08169306069612503,
          -0.021798456087708473,
          0.006791025400161743,
          -0.046781450510025024,
          -0.056289829313755035,
          -0.06352420151233673,
          -0.07324004918336868,
          -0.07287832349538803,
          -0.022243797779083252,
          0.10561615973711014,
          0.04470275342464447,
          0.09756849706172943,
          -0.018935976549983025,
          0.12193509936332703,
          -0.018940022215247154,
          0.06711120158433914,
          0.018459856510162354,
          -0.023043474182486534,
          0.0463087372481823,
          0.09347537159919739,
          -0.09918738901615143,
          0.06898055970668793,
          -0.10734888911247253,
          -0.005172393750399351,
          -0.15457099676132202,
          0.07602400332689285,
          0.015196925029158592,
          0.006638690829277039,
          0.03264203295111656,
          -0.054285354912281036,
          0.03489549458026886,
          -0.05327358841896057,
          0.0163252130150795,
          0.013675525784492493,
          -0.050867222249507904,
          -0.11549484729766846,
          0.001206269022077322,
          -0.1316806823015213,
          0.05465785413980484,
          -0.09447029232978821,
          -0.0635838732123375,
          0.11532729119062424,
          0.06496123224496841,
          -0.012095911428332329,
          -0.09814006090164185
        ],
        [
          -0.05671202391386032,
          0.11411000788211823,
          -0.10987523198127747,
          0.11518265306949615,
          -0.06866910308599472,
          -0.03403225541114807,
          0.0766884982585907,
          0.03755410015583038,
          -0.007777138613164425,
          0.06251811236143112,
          0.026993609964847565,
          -0.07005328685045242,
          -0.08096089214086533,
          0.1312972456216812,
          -0.11061672866344452,
          0.09992393106222153,
          0.04662273824214935,
          -0.07022639364004135,
