{
  "layers": [
    {
      "name": "0",
      "kind": "Linear",
      "inputSize": 7,
      "outputSize": 64,
      "hasBiases": true,
      "weights": [
        [
          -0.3083425760269165,
          -0.2408907264471054,
          -0.27139437198638916,
          0.15296652913093567,
          -0.2769903838634491,
          -0.09911367297172546,
          -0.19602200388908386
        ],
        [
          0.17755500972270966,
          0.372283399105072,
          -0.2218654602766037,
          -0.3613985478878021,
          0.05475141480565071,
          0.045927222818136215,
          -0.4739675521850586
        ],
        [
          0.3327990174293518,
          -0.28074362874031067,
          0.2988806962966919,
          0.2638375163078308,
          0.13983237743377686,
          0.06807313859462738,
          0.2725525498390198
        ],
        [
          0.03266590088605881,
          0.14328095316886902,
          -0.2551478445529938,
          0.22632357478141785,
          -0.29367485642433167,
          -0.17734792828559875,
          -0.42233559489250183
        ],
        [
          -0.05386388301849365,
          -0.3070341646671295,
          0.21798157691955566,
          0.00860968604683876,
          -0.2956181466579437,
          0.1413821578025818,
          0.16196542978286743
        ],
        [
          0.3290448486804962,
          -0.34366855025291443,
          -0.2886037230491638,
          -0.3297983705997467,
          -0.0828380361199379,
          0.15402205288410187,
          -0.04265403002500534
        ],
        [
          0.3259073495864868,
          -0.1380401998758316,
          0.027646532282233238,
          0.0020813504233956337,
          0.1609463393688202,
          0.3071158230304718,
          -0.4008820056915283
        ],
        [
          -0.20528458058834076,
          0.21051523089408875,
          -0.3519638478755951,
          -0.18055664002895355,
          -0.3519437313079834,
          -0.07351073622703552,
          -0.05631241202354431
        ],
        [
          -0.25146690011024475,
          -0.1281985193490982,
          0.3212936520576477,
          -0.044095441699028015,
          -0.06885436922311783,
          -0.2553083300590515,
          -0.21484743058681488
        ],
        [
          0.019283754751086235,
          0.30316245555877686,
          -0.14563481509685516,
          0.31633198261260986,
          0.2999148964881897,
          0.09133800864219666,
          0.048329513520002365
        ],
        [
          -0.4014994502067566,
          0.020025018602609634,
          -0.37335702776908875,
          -0.026910366490483284,
          0.09650331735610962,
          -0.2795650362968445,
          0.507860541343689
        ],
        [
          -0.37419480085372925,
          -0.04576505348086357,
          0.24287201464176178,
          -0.025450311601161957,
          0.033858522772789,
          -0.08263618499040604,
          0.03157205507159233
        ],
        [
          -0.0916285514831543,
          -0.36589038372039795,
          0.10230793803930283,
          -0.14228618144989014,
          0.16992203891277313,
          -0.28743886947631836,
          -0.10311850905418396
        ],
        [
          -0.026159346103668213,
          0.028830647468566895,
          -0.24890458583831787,
          -0.08322817087173462,
          -0.3064771294593811,
          -0.14037059247493744,
          0.21794036030769348
        ],
        [
          -0.10074084252119064,
          -0.3500540554523468,
          0.17285294830799103,
          0.24807725846767426,
          0.09846863895654678,
          0.20145711302757263,
          0.1203044131398201
        ],
        [
          -0.04934263229370117,
          0.014481514692306519,
          -0.024476349353790283,
          -0.13028758764266968,
          -0.12215298414230347,
          -0.33518773317337036,
          0.03423959016799927
        ],
        [
          -0.20971335470676422,
          -0.26112717390060425,
          -0.2576145827770233,
          -0.15493135154247284,
          -0.05007612705230713,
          -0.2661747634410858,
          -0.02513250708580017
        ],
        [
          0.3732442259788513,
          0.22589434683322906,
          0.07527656853199005,
          0.20075730979442596,
          0.1119721531867981,
          0.09795042872428894,
          -0.1251407116651535
        ],
        [
          0.08868587017059326,
          0.21773071587085724,
          0.1318289339542389,
          0.06690066307783127,
          -0.008295387029647827,
          0.013935080729424953,
          0.3144511282444
        ],
        [
          -0.2576856315135956,
          -0.10876345634460449,
          -0.13491177558898926,
          -0.3008127808570862,
          -0.1473526954650879,
          -0.3550058603286743,
          -0.14011430740356445
        ],
        [
          -0.042386528104543686,
          0.16674450039863586,
          0.24089013040065765,
          -0.32457637786865234,
          0.05570982024073601,
          -0.18653017282485962,
          -0.1777867078781128
        ],
        [
          0.3555435538291931,
          -0.36379972100257874,
          -0.18552136421203613,
          0.33124998211860657,
          -0.18988220393657684,
          -0.25054147839546204,
          0.03377731516957283
        ],
        [
          -0.4041089117527008,
          0.10440616309642792,
          -0.057542767375707626,
          0.05306971073150635,
          0.35243839025497437,
          0.31023940443992615,
          -0.15500465035438538
        ],
        [
          0.08658316731452942,
          0.3442232310771942,
          0.3212314248085022,
          -0.29212719202041626,
          -0.1708083152770996,
          0.1548738330602646,
          0.1678205281496048
        ],
        [
          -0.3415677547454834,
          -0.34486374258995056,
          -0.14338445663452148,
          0.14374873042106628,
          -0.03133246302604675,
          -0.032076746225357056,
          -0.31621253490448
        ],
        [
          0.37048158049583435,
          0.23093032836914062,
          0.09542623907327652,
          0.3137446343898773,
          0.3150513172149658,
          -0.09272798150777817,
          -0.1510476917028427
        ],
        [
          -0.25622865557670593,
          -0.15052147209644318,
          0.0675111934542656,
          -0.09527485072612762,
          -0.2615334391593933,
          0.37841495871543884,
          -0.3565298318862915
        ],
        [
          0.1825702041387558,
          -0.09563948214054108,
          0.17607522010803223,
          -0.12446826696395874,
          -0.04194505885243416,
          -0.07366622984409332,
          0.23206812143325806
        ],
        [
          -0.32435986399650574,
          -0.17665529251098633,
          -0.2033034712076187,
          0.1153305172920227,
          0.07826801389455795,
          0.0052172718569636345,
          -0.1812615543603897
        ],
        [
          0.18588481843471527,
          -0.09553154557943344,
          -0.27048784494400024,
          0.3272840082645416,
          -0.09309703856706619,
          0.05786414071917534,
          0.2069827765226364
        ],
        [
          0.14672821760177612,
          -0.04741034656763077,
          0.099343441426754,
          0.27076518535614014,
          -0.13419906795024872,
          -0.01016941387206316,
          0.39417269825935364
        ],
        [
          -0.01921667717397213,
          -0.08163671940565109,
          0.25055402517318726,
          0.07565657049417496,
          -0.32031965255737305,
          -0.020450696349143982,
          -0.41559386253356934
        ],
        [
          -0.34064340591430664,
          -0.27494895458221436,
          0.29027679562568665,
          -0.2782960534095764,
          -0.03314542770385742,
          -0.32489755749702454,
          0.22944477200508118
        ],
        [
          -0.3304915130138397,
          -0.05680246651172638,
          0.13265998661518097,
          0.32777899503707886,
          0.06331061571836472,
          0.12992779910564423,
          -0.17383740842342377
        ],
        [
          -0.24956433475017548,
          -0.012348195537924767,
          -0.3318510949611664,
          -0.33489805459976196,
          -0.06277086585760117,
          0.2174573838710785,
          0.16134731471538544
        ],
        [
          -0.17546817660331726,
          -0.0004112775204703212,
          0.15847796201705933,
          -0.1899942308664322,
          0.30115100741386414,
          -0.14368665218353271,
          -0.2926827073097229
        ],
        [
          0.21516463160514832,
          -0.14670896530151367,
          0.1766195148229599,
          0.012498997151851654,
          -0.3349074721336365,
          -0.08648568391799927,
          -0.06698361784219742
        ],
        [
          -0.3172047734260559,
          -0.11382509768009186,
          0.1725425273180008,
          0.2010868787765503,
          0.03944079205393791,
          0.1261025071144104,
          -0.21964100003242493
        ],
        [
          -0.04086410626769066,
          -0.13812364637851715,
          -0.3556235134601593,
          -0.20932649075984955,
          -0.03142039477825165,
          0.33067628741264343,
          -0.06108469143509865
        ],
        [
          0.21945075690746307,
          0.04718124121427536,
          -0.20937000215053558,
          0.3227837085723877,
          0.17391757667064667,
          0.15754003822803497,
          0.268106609582901
        ],
        [
          -0.1102835088968277,
          0.41452664136886597,
          0.2835373282432556,
          -0.1709156036376953,
          -0.10389555990695953,
          -0.06891116499900818,
          0.39942464232444763
        ],
        [
          0.19610649347305298,
          -0.38181960582733154,
          -0.36804112792015076,
          -0.08888117223978043,
          0.2303062081336975,
          0.21414577960968018,
          0.29750779271125793
        ],
        [
          -0.14253398776054382,
          0.33537647128105164,
          -0.15614789724349976,
          0.1518830955028534,
          0.22445148229599,
          -0.1763395071029663,
          -0.1389790177345276
        ],
        [
          -0.0954846739768982,
          -0.24432134628295898,
          0.08770683407783508,
          0.3050941228866577,
          -0.23880325257778168,
          0.2135571539402008,
          0.17070139944553375
        ],
        [
          -0.220100998878479,
          -0.3457030653953552,
          0.2841247320175171,
          -0.2812964916229248,
          -0.3286806643009186,
          0.32991573214530945,
          -0.39774417877197266
        ],
        [
          0.08703003823757172,
          -0.07268121838569641,
          0.03270065411925316,
          0.20992639660835266,
          0.24227693676948547,
          0.22253796458244324,
          0.15062929689884186
        ],
        [
          -0.13934870064258575,
          0.18084175884723663,
          -0.0711536779999733,
          -0.3307921886444092,
          0.3139887750148773,
          -0.2937536835670471,
          -0.09059998393058777
        ],
        [
          -0.2445591390132904,
          -0.05757308006286621,
          -0.06532103568315506,
          -0.0011937858071178198,
          0.1581871062517166,
          0.34414201974868774,
          -0.3317476809024811
        ],
        [
          0.2919628620147705,
          0.15664750337600708,
          -0.226586252450943,
          0.08234243839979172,
          -0.29842424392700195,
          0.338457316160202,
          0.006363340187817812
        ],
        [
          0.23913365602493286,
          -0.17901302874088287,
          0.03283379599452019,
          -0.012044292874634266,
          -0.35837411880493164,
          -0.1496618539094925,
          0.2990698516368866
        ],
        [
          -0.09871666133403778,
          -0.0050496612675487995,
          -0.0680881217122078,
          -0.31854304671287537,
          0.22383135557174683,
          -0.2513551115989685,
          0.3477489650249481
        ],
        [
          -0.15539734065532684,
          -0.1908619999885559,
          -0.13339899480342865,
          -0.3503658175468445,
          -0.28691643476486206,
          0.2369801104068756,
          -0.15365557372570038
        ],
        [
          -0.07743774354457855,
          -0.09967826306819916,
          -0.2200900912284851,
          -0.1268356740474701,
          -0.2435320019721985,
          -0.31360167264938354,
          0.21902650594711304
        ],
        [
          0.22668203711509705,
          -0.19790303707122803,
          0.09017229080200195,
          -0.04807722568511963,
          -0.21875996887683868,
          -0.2117222100496292,
          -0.16795112192630768
        ],
        [
          -0.30767199397087097,
          -0.2026328444480896,
          -0.3747345507144928,
          0.3220205008983612,
          0.050999127328395844,
          -0.22577111423015594,
          -0.048410333693027496
        ],
        [
          0.06078067421913147,
          0.13084736466407776,
          -0.03930523991584778,
          0.23578646779060364,
          -0.07486298680305481,
          -0.2193988710641861,
          -0.35262948274612427
        ],
        [
          -0.046813175082206726,
          0.3250645697116852,
          -0.17061060667037964,
          0.19227135181427002,
          0.12309000641107559,
          -0.08936331421136856,
          0.2792048454284668
        ],
        [
          -0.331673264503479,
          0.23908953368663788,
          -0.1309346854686737,
          0.31821176409721375,
          0.31804224848747253,
          0.20737837255001068,
          -0.1854693442583084
        ],
        [
          0.19408667087554932,
          -0.12485212832689285,
          0.2628791630268097,
          -0.25912442803382874,
          -0.3710479140281677,
          0.274254709482193,
          -0.21835821866989136
        ],
        [
          -0.289195716381073,
          0.08943413943052292,
          0.3039511442184448,
          -0.16123655438423157,
          -0.1238713338971138,
          -0.07706993818283081,
          0.31614938378334045
        ],
        [
          -0.09302721917629242,
          -0.31972959637641907,
          0.22401604056358337,
          0.2553631663322449,
          0.27533018589019775,
          -0.24127978086471558,
          0.34835243225097656
        ],
        [
          0.21221409738063812,
          -0.010543497279286385,
          0.2196795791387558,
          0.3485180139541626,
          -0.33104848861694336,
          0.37955784797668457,
          -0.12611261010169983
        ],
        [
          -0.3417775332927704,
          -0.3577117621898651,
          0.14567610621452332,
          -0.04644310474395752,
          -0.12550091743469238,
          -0.31031882762908936,
          -0.025986015796661377
        ],
        [
          0.39014628529548645,
          0.3925592601299286,
          0.1569996476173401,
          0.38908129930496216,
          -0.03443511575460434,
          0.09098508954048157,
          0.28910139203071594
        ]
      ],
      "biases": [
        0.138920396566391,
        -0.18157735466957092,
        0.3228619694709778,
        0.40758204460144043,
        -0.3368547260761261,
        0.3251625597476959,
        0.18899857997894287,
        -0.2613395154476166,
        -0.06466331332921982,
        -0.18778087198734283,
        0.18385528028011322,
        -0.13541939854621887,
        -0.048276301473379135,
        -0.2179248332977295,
        0.14822286367416382,
        -0.3369317054748535,
        -0.14916181564331055,
        0.15662764012813568,
        -0.3338816463947296,
        -0.18811970949172974,
        0.05056779459118843,
        0.2957122027873993,
        0.1622222661972046,
        -0.007295751944184303,
        -0.10429126024246216,
        -0.29087111353874207,
        0.04730972647666931,
        0.2990870773792267,
        0.0017074535135179758,
        -0.15814271569252014,
        -0.11814822256565094,
        0.1383717805147171,
        -0.35474711656570435,
        -0.10740768164396286,
        0.10382494330406189,
        0.322336345911026,
        -0.3067215085029602,
        -0.1661243736743927,
        -0.008103963918983936,
        0.28005528450012207,
        -0.18492799997329712,
        -0.2779654264450073,
        -0.11701338738203049,
        -0.1386234015226364,
        0.2792084813117981,
        0.2787536084651947,
        0.22988176345825195,
        0.2687743008136749,
        0.15371038019657135,
        0.06717324256896973,
        0.24281246960163116,
        -0.19440288841724396,
        0.22502854466438293,
        -0.09554103016853333,
        0.34968510270118713,
        -0.17226801812648773,
        0.04092017933726311,
        0.029962854459881783,
        0.17701297998428345,
        0.23691797256469727,
        0.02446185238659382,
        -0.12134312838315964,
        0.15509894490242004,
        0.2647625207901001
      ]
    },
    {
      "name": "1",
      "kind": "ReLU"
    },
    {
      "name": "2",
      "kind": "Linear",
      "inputSize": 64,
      "outputSize": 64,
      "hasBiases": true,
      "weights": [
        [
          0.02379189431667328,
          0.015362773090600967,
          0.06447748094797134,
          0.01947489194571972,
          -0.13716016709804535,
          -0.11843554675579071,
          0.1046881452202797,
          -0.005862325429916382,
          -0.13288137316703796,
          -0.034563515335321426,
          -0.12291303277015686,
          0.09108038991689682,
          0.09760970622301102,
          0.011696457862854004,
          0.03278576582670212,
          -0.052710309624671936,
          -0.08149775862693787,
          -0.020541083067655563,
          0.0682559460401535,
          0.026107028126716614,
          0.03000279702246189,
          0.02659023553133011,
          -0.07796428352594376,
          0.08676643669605255,
          -0.011523455381393433,
          -0.030971797183156013,
          -0.05294271558523178,
          -0.09589360654354095,
          0.03692755103111267,
          0.006345236208289862,
          0.058924559503793716,
          0.08831621706485748,
          0.005113884806632996,
          0.005518637597560883,
          0.020812004804611206,
          -0.03079565428197384,
          -0.06184886768460274,
          0.07922855019569397,
          -0.009553278796374798,
          -0.027559950947761536,
          0.005052787717431784,
          0.04731842130422592,
          0.1021902784705162,
          0.04455072060227394,
          0.09591753780841827,
          -0.048918139189481735,
          -0.0004530801670625806,
          0.07659521698951721,
          0.06213267892599106,
          -0.0638805702328682,
          0.04745016247034073,
          -0.04831153154373169,
          0.09188840538263321,
          -0.021049976348876953,
          -0.0013500747736543417,
          -0.0767013281583786,
          0.05598239600658417,
          0.08620349317789078,
          0.0777994692325592,
          -0.05008634924888611,
          0.09233932942152023,
          -0.11450416594743729,
          -0.026910707354545593,
          -0.13429729640483856
        ],
        [
          -0.10811091959476471,
          0.10871786624193192,
          -0.06422872096300125,
          -0.0007807420915924013,
          -0.14195944368839264,
          -0.05555232614278793,
          0.08124536275863647,
          0.10392257571220398,
          0.092071533203125,
          0.061527859419584274,
          -0.09115316718816757,
          0.014278619550168514,
          -0.013015836477279663,
          -0.00681188702583313,
          -0.025787364691495895,
          0.027913019061088562,
          -0.05277824401855469,
          0.04641886427998543,
          0.038611579686403275,
          0.0339791476726532,
          0.035623300820589066,
          0.041250765323638916,
          0.03730757161974907,
          -0.07246952503919601,
          0.023010194301605225,
          0.08426355570554733,
          0.045820243656635284,
          -0.09308590739965439,
          0.07184916734695435,
          -0.001345203723758459,
          -0.1285889893770218,
          -0.020848393440246582,
          -0.03731334209442139,
          0.08482713252305984,
          0.011101603507995605,
          -0.09207015484571457,
          -0.0017797944601625204,
          0.13874106109142303,
          -0.07576531916856766,
          -0.07493053376674652,
          0.025729352608323097,
          -0.17631776630878448,
          -0.03662911057472229,
          0.05854211747646332,
          0.16258367896080017,
          -0.06449800729751587,
          0.036977577954530716,
          0.07663238793611526,
          0.14436104893684387,
          -0.1567722111940384,
          -0.07381026446819305,
          -0.05112968385219574,
          -0.06927908957004547,
          0.10027581453323364,
          0.012064254842698574,
          -0.06609070301055908,
          0.09107145667076111,
          0.15575899183750153,
          0.035346802324056625,
          0.08726166933774948,
          -0.0740719735622406,
          0.14266370236873627,
          -0.0044480860233306885,
          0.04522763192653656
        ],
        [
          -0.0928955078125,
          -0.05618981271982193,
          -0.016220951452851295,
          0.12733367085456848,
          0.11467728018760681,
          0.05413931608200073,
          -0.04275223985314369,
          0.04769335687160492,
          0.06358437985181808,
          0.08068687468767166,
          -0.07856041938066483,
          -0.019467899575829506,
          0.04142802208662033,
          -0.07836134731769562,
          0.005253463983535767,
          0.04288718104362488,
          -0.029327526688575745,
          0.12594908475875854,
          -0.02730976603925228,
          0.08989925682544708,
          0.04327485337853432,
          -0.09250985085964203,
          -0.059483058750629425,
          0.12936505675315857,
          0.0725892186164856,
          0.08176498860120773,
          -0.017235316336154938,
          -0.1036544218659401,
          -0.03841876983642578,
          -0.04677353799343109,
          -0.11025048792362213,
          0.053855348378419876,
          -0.047125428915023804,
          -0.1137712225317955,
          -0.023640844970941544,
          0.07637925446033478,
          0.07375767081975937,
          0.03407980874180794,
          -0.04355206340551376,
          -0.044921230524778366,
          0.06124122068285942,
          -0.04247292876243591,
          0.004624184686690569,
          -0.050345733761787415,
          -0.05392507463693619,
          -0.017069393768906593,
          -0.02091626636683941,
          -0.07159066200256348,
          0.0033877850510179996,
          -0.01404472254216671,
          -0.07895602285861969,
          -0.04488961398601532,
          0.048865821212530136,
          -0.011442527174949646,
          0.07901424914598465,
          -0.02044859528541565,
          0.06840004026889801,
          0.11752099543809891,
          0.11640961468219757,
          -0.03662802278995514,
          0.12118223309516907,
          0.08182241767644882,
          0.009779602289199829,
          0.14372804760932922
        ],
        [
          0.060881003737449646,
          0.01611262746155262,
          0.1062452644109726,
          0.05408401042222977,
          0.010288700461387634,
          -0.02587697096168995,
          0.02506672963500023,
          0.09674005210399628,
          0.08333399891853333,
          0.05050119757652283,
          -0.11399213969707489,
          0.024264078587293625,
          -0.029725655913352966,
          -0.019255131483078003,
          -0.03570083901286125,
          -0.06923851370811462,
          -0.0886496752500534,
          -0.11752855777740479,
          0.0855291560292244,
          0.12481144070625305,
          0.10834011435508728,
          0.037641458213329315,
          -0.03215034306049347,
          -0.06673967838287354,
          0.04926520586013794,
          -0.11581221222877502,
          0.08257195353507996,
          -0.03348353132605553,
          -0.0956556648015976,
          -0.11068113148212433,
          -0.07537417113780975,
          -0.002842237474396825,
          -0.10601426661014557,
          -0.08626669645309448,
          -0.006692614872008562,
          -0.061797067523002625,
          -0.08362503349781036,
          -0.0536191388964653,
          -0.10136637091636658,
          0.0723135769367218,
          0.04851560294628143,
          -0.04213063046336174,
          0.0880572572350502,
          -0.0875696986913681,
          0.04575490951538086,
          0.045353446155786514,
          0.03387350216507912,
          0.06402115523815155,
          0.060526493936777115,
          -0.04006250202655792,
          0.11048711836338043,
          -0.08983880281448364,
          0.02528984844684601,
          0.011989682912826538,
          0.015481690876185894,
          0.019831731915473938,
          -0.03754094988107681,
          0.0932556539773941,
          0.045147936791181564,
          0.026439853012561798,
          -0.03556063398718834,
          0.05525651201605797,
          0.09549619257450104,
          -0.10017826408147812
        ],
        [
          -0.07146590948104858,
          -0.05171468108892441,
          -0.06425627321004868,
          0.03485194221138954,
          -0.16042184829711914,
          0.03188193216919899,
          0.07908346503973007,
          0.10981318354606628,
          0.04015115648508072,
          -0.04467083886265755,
          0.1708589345216751,
          -0.09514841437339783,
          0.016004975885152817,
          0.021100357174873352,
          -0.07054769992828369,
          0.007711172103881836,
          -0.044873207807540894,
          -0.07891018688678741,
          -0.09431129693984985,
          -0.06831449270248413,
          -0.011565850116312504,
          -0.12885597348213196,
          0.08115149289369583,
          0.12650422751903534,
          0.07395291328430176,
          -0.08517371118068695,
          0.06881102919578552,
          0.007720581721514463,
          -0.06795626133680344,
          0.018993468955159187,
          0.029923496767878532,
          0.1420089453458786,
          0.02078072726726532,
          0.10459287464618683,
          -0.11146824061870575,
          -0.10129781067371368,
          -0.0293342936784029,
          0.07015132158994675,
          0.11890588700771332,
          0.08630495518445969,
          -0.03701968491077423,
          0.07920247316360474,
          -0.06402608752250671,
          -0.006573675666004419,
          0.11144839227199554,
          0.04655627906322479,
          0.07836653292179108,
          0.10931506007909775,
          0.11947067826986313,
          -0.11890213191509247,
          -0.10962378233671188,
          -0.08687128126621246,
          0.028400758281350136,
          -0.08240610361099243,
          0.09721732139587402,
          -0.08334878087043762,
          -0.06441359966993332,
          0.07923702150583267,
          -0.06305508315563202,
          0.07626167684793472,
          0.01477575022727251,
          0.12731987237930298,
          0.04180064797401428,
          -0.0007073223241604865
        ],
        [
          0.10298490524291992,
          -0.07806102931499481,
          0.012445774860680103,
          -0.03360158950090408,
          -0.07638854533433914,
          -0.009265516884624958,
          0.07751801609992981,
          -0.06908933818340302,
          0.02097882702946663,
          0.07192976027727127,
          -0.047774024307727814,
          -0.09760880470275879,
          -0.04932562634348869,
          0.059075772762298584,
          -0.035909753292798996,
          -0.08958148956298828,
          0.049525633454322815,
          -0.048839226365089417,
          0.10529682040214539,
          -0.020363837480545044,
          -0.05256197229027748,
          0.1281544268131256,
          -0.017542434856295586,
          0.05021362006664276,
          -0.003989666700363159,
          -0.11217015981674194,
          0.09673266112804413,
          0.05922740325331688,
          0.11050231009721756,
          -0.03537683188915253,
          0.11459752172231674,
          0.06090584769845009,
          0.1037108302116394,
          0.14757367968559265,
          0.10152876377105713,
          0.06573812663555145,
          -0.005456404760479927,
          -0.029339877888560295,
          -0.11856604367494583,
          0.04792363569140434,
          -0.019469423219561577,
          0.05210711807012558,
          0.15178804099559784,
          -0.0313517302274704,
          0.10470324754714966,
          0.1317315399646759,
          0.04336461424827576,
          0.04409996047616005,
          -0.07034802436828613,
          -0.005785749759525061,
          0.011096449568867683,
          0.03504118323326111,
          -0.05677318945527077,
          -0.07126684486865997,
          0.15580113232135773,
          -0.08423392474651337,
          -0.06284017115831375,
          0.1403936743736267,
          0.03209925442934036,
          -0.08490722626447678,
          0.037020426243543625,
          0.11642623692750931,
          0.11235709488391876,
          0.11730507016181946
        ],
        [
          -0.020803198218345642,
          0.11299661546945572,
          -0.022583087906241417,
          0.08671486377716064,
          0.0723826140165329,
          -0.08361145853996277,
          0.0673714280128479,
          -0.0389663428068161,
          -0.02004854381084442,
          -0.04216839000582695,
          0.05808689445257187,
          -0.031014489009976387,
          0.05355476960539818,
          -0.11357955634593964,
          0.011881761252880096,
          -0.04042191803455353,
          -0.038420215249061584,
          0.01309994701296091,
          -0.021380605176091194,
          -0.03508502244949341,
          -0.05464623495936394,
          0.09906210750341415,
          0.0037652170285582542,
          0.03280233219265938,
          -0.05059593915939331,
          0.09966492652893066,
          -0.12609663605690002,
          -0.1304493099451065,
          0.0322842001914978,
          -0.008588968776166439,
          0.04808047041296959,
          -0.07526151835918427,
          0.008372202515602112,
          -0.12442783266305923,
          0.00833483599126339,
          0.14572985470294952,
          0.021046215668320656,
          -0.09745601564645767,
          0.0036253989674150944,
          0.03734701871871948,
          0.017904208973050117,
          -0.12388171255588531,
          -0.05582697317004204,
          -0.060992609709501266,
          0.10455730557441711,
          -0.023445334285497665,
          0.09219106286764145,
          0.06490389257669449,
          0.09648489207029343,
          -0.008352904580533504,
          0.014215654693543911,
          -0.020773202180862427,
          -0.10973484069108963,
          -0.019146636128425598,
          0.013654879294335842,
          0.058335572481155396,
          0.046112868934869766,
          0.026641996577382088,
          0.0346740297973156,
          0.012069118209183216,
          -0.03231627494096756,
          -0.06706751883029938,
          0.025941818952560425,
          -0.003794694785028696
        ],
        [
          0.003089427947998047,
          0.17188356816768646,
          -0.02115660347044468,
          -0.02578788809478283,
          -0.10395633429288864,
          0.08864762634038925,
          0.03133295476436615,
          -0.0715634673833847,
          -0.031926415860652924,
          0.09402569383382797,
          -0.017793066799640656,
          0.08594980835914612,
          0.09613139182329178,
          -0.03015868365764618,
          0.07095237076282501,
          0.1167735904455185,
          0.0658293217420578,
          -0.03528442233800888,
          -0.12161248177289963,
          -0.0578375905752182,
          -0.0895693451166153,
          -0.04929271340370178,
          -0.08220943063497543,
          0.11754321306943893,
          -0.05494549870491028,
          0.0028628804720938206,
          0.024318832904100418,
          0.027674095705151558,
          -0.08044572919607162,
          -0.12842638790607452,
          -0.07882454991340637,
          0.06572110950946808,
          -0.006533563137054443,
          0.02995041012763977,
          -0.00590038625523448,
          -0.05727796256542206,
          -0.019631128758192062,
          -0.034210190176963806,
          0.13012480735778809,
          0.10357553511857986,
          -0.16343770921230316,
          -0.1601921021938324,
          0.02065582014620304,
          0.05134586617350578,
          0.053556233644485474,
          0.05927354842424393,
          0.019936436787247658,
          -0.015761610120534897,
          0.09389985352754593,
          -0.07684604823589325,
          -0.129111647605896,
          -0.0030911266803741455,
          -0.05655934661626816,
          0.06908291578292847,
          0.0805019959807396,
          0.0774327963590622,
          -0.04676128551363945,
          -0.038697123527526855,
          0.0033870304469019175,
          -0.11252162605524063,
          -0.06272035837173462,
          0.1470351666212082,
          0.12378568947315216,
          -0.025527842342853546
        ],
        [
          0.040839433670043945,
          -0.03912917152047157,
          0.04920991137623787,
          -0.2071797102689743,
          -0.048988692462444305,
          -0.043332699686288834,
          -0.053084637969732285,
          -0.026922911405563354,
          0.010712183080613613,
          0.013623267412185669,
          -0.039327267557382584,
          0.0010949509451165795,
          0.02986895851790905,
          0.09041421115398407,
          -0.054610949009656906,
          -0.07074888050556183,
          0.08806242048740387,
          -0.03437769412994385,
          0.09914740920066833,
          0.10198917984962463,
          -0.04778943210840225,
          0.018119163811206818,
          -0.0733775645494461,
          0.08843772858381271,
          0.06429815292358398,
          -0.0997486412525177,
          0.017698217183351517,
          0.14702416956424713,
          0.09781952947378159,
          0.13113942742347717,
          0.15933753550052643,
          -0.029166683554649353,
          -0.063968226313591,
          -0.11470746248960495,
          -0.09341629594564438,
          0.04033447802066803,
          0.021337788552045822,
          -0.08289390802383423,
          -0.029730679467320442,
          -0.029674645513296127,
          0.10470417886972427,
          -0.06439003348350525,
          0.028449900448322296,
          -0.005703337956219912,
          -0.1337268054485321,
          -0.028103170916438103,
          0.14682112634181976,
          0.002550852717831731,
          -0.06939606368541718,
          0.11496876180171967,
          -0.07292475551366806,
          0.0996347963809967,
          -0.1031564250588417,
          -0.040671929717063904,
          -0.11643975228071213,
          -0.043144553899765015,
          0.1236550509929657,
          0.05731169134378433,
          -0.015110327862203121,
          -0.05077717453241348,
          0.11149486899375916,
          -0.0030805282294750214,
          -0.017328187823295593,
          0.08060886710882187
        ],
        [
          0.06406594812870026,
          -0.033747438341379166,
          0.00929269939661026,
          -0.007182508707046509,
          -0.13657793402671814,
          0.03213171660900116,
          0.03922254592180252,
          0.03203025460243225,
          -0.09769187867641449,
          0.0525110624730587,
          -0.07793498039245605,
          0.01158402394503355,
          0.10262175649404526,
          0.0018377751111984253,
          -0.10480653494596481,
          -0.05559675395488739,
          0.037886843085289,
          -0.05085153505206108,
          -0.13341675698757172,
          0.11503866314888,
          0.11749272048473358,
          0.09511995315551758,
          0.061941489577293396,
          0.035801567137241364,
          -0.11233627796173096,
          0.042273204773664474,
          0.11463166773319244,
          0.11034465581178665,
          -0.04916534945368767,
          -0.1405433714389801,
          -0.026164621114730835,
          0.11621003597974777,
          -0.04705891013145447,
          -0.0622258298099041,
          -0.09477940946817398,
          0.027940737083554268,
          0.08220681548118591,
          0.0627349391579628,
          -0.02120612934231758,
          0.1203644797205925,
          0.033635806292295456,
          0.005532574374228716,
          0.13870617747306824,
          -0.09076669067144394,
          0.11157152056694031,
          -0.047528207302093506,
          0.13510824739933014,
          0.13369198143482208,
          0.1008589118719101,
          0.04501661658287048,
          -0.05687524378299713,
          -0.024304166436195374,
          -0.05043918639421463,
          0.018652260303497314,
          -0.015385863371193409,
          -0.10390821099281311,
          0.018772637471556664,
          -0.059677448123693466,
          -0.013061064295470715,
          -0.0128553481772542,
          -0.07092053443193436,
          0.08423733711242676,
          -0.08348718285560608,
          0.12488860636949539
        ],
        [
          -0.05863809585571289,
          -0.07055918872356415,
          -0.07810249924659729,
          0.08528661727905273,
          0.11494743824005127,
          0.060985639691352844,
          -0.04530750960111618,
          0.08135895431041718,
          -0.08193640410900116,
          0.05746481940150261,
          0.06627403199672699,
          -0.09048555791378021,
          -0.015718266367912292,
          -0.06328548491001129,
          0.02301967889070511,
          0.06303617358207703,
          -0.06348282098770142,
          -0.05307277292013168,
          0.05478055775165558,
          0.04570339620113373,
          -0.05656041204929352,
          -0.038575947284698486,
          0.09055907279253006,
          -0.08796398341655731,
          -0.009602680802345276,
          -0.05496411770582199,
          0.08456454426050186,
          0.03647841513156891,
          -0.09323452413082123,
          0.05319671705365181,
          0.05725780501961708,
          0.06135421246290207,
          0.07102495431900024,
          -0.035398468375205994,
          0.08380945026874542,
          -0.10043290257453918,
          0.01930055022239685,
          0.10330937802791595,
          -0.09833748638629913,
          -0.08855631202459335,
          0.12283092737197876,
          0.024513140320777893,
          0.11855880171060562,
          -0.03675044700503349,
          0.10693539679050446,
          -0.017309200018644333,
          0.05023360252380371,
          -0.09083081781864166,
          0.043218087404966354,
          -0.11349116265773773,
          -0.10605652630329132,
          -0.06821005046367645,
          0.11183616518974304,
          -0.026442527770996094,
          -0.12665635347366333,
          0.07228660583496094,
          -0.11842522025108337,
          0.05563248693943024,
          0.06452378630638123,
          -0.09880337119102478,
          -0.05569292604923248,
          0.054984208196401596,
          -0.03182056546211243,
          -0.060539890080690384
        ],
        [
          -0.03205251693725586,
          0.11227928847074509,
          -0.1257963627576828,
          0.03133547306060791,
          -0.11035788059234619,
          -0.04345626011490822,
          0.016811685636639595,
          -0.12201744318008423,
          0.03964885696768761,
          0.08309435099363327,
          -0.03275547921657562,
          0.08406929671764374,
          -0.10871183127164841,
          0.028506577014923096,
          0.04459736496210098,
          0.027365192770957947,
          0.07686465978622437,
          0.11642502248287201,
          0.06302701681852341,
          0.0513472855091095,
          -0.04413105174899101,
          -0.1312575340270996,
          0.11139608174562454,
          -0.06776068359613419,
          -0.009235411882400513,
          -0.10204163938760757,
          -0.08110243827104568,
          0.09868219494819641,
          0.08153180032968521,
          -0.06467799842357635,
          0.004610724281519651,
          -0.08699161559343338,
          -0.07438164949417114,
          -0.0006218998460099101,
          -0.09261123836040497,
          0.0893016904592514,
          0.08626653254032135,
          0.02373482659459114,
          0.1106448844075203,
          0.065828338265419,
          -0.0803455039858818,
          -0.10319937020540237,
          0.06745448708534241,
          0.027580030262470245,
          0.0007544583640992641,
          -0.08025766909122467,
          0.027256235480308533,
          0.07171983271837234,
          0.028293557465076447,
          0.024869469925761223,
          -0.025407789275050163,
          0.04003883898258209,
          -0.037395015358924866,
          -0.07408067584037781,
          0.1090688705444336,
          -0.10224318504333496,
          -0.04219663143157959,
          0.1006372794508934,
          0.07699036598205566,
          0.08320847898721695,
          -0.1234215646982193,
          -0.09855497628450394,
          -0.0798008143901825,
          -0.00191541388630867
        ],
        [
          0.03094138205051422,
          -0.04457872360944748,
          0.03044789284467697,
          0.1580531895160675,
          -0.07448574900627136,
          0.10112389922142029,
          0.03236520662903786,
          -0.07605226337909698,
          0.07778339833021164,
          -0.09211436659097672,
          -0.06413979083299637,
          0.01301206648349762,
          0.10183988511562347,
          0.12448911368846893,
          -0.06238046661019325,
          0.0398688018321991,
          0.12401144206523895,
          0.08010219037532806,
          -0.09768906235694885,
          -0.09794002771377563,
          0.0031578221824020147,
          -0.021725015714764595,
          -0.038760386407375336,
          0.09612523764371872,
          0.07922488451004028,
          0.055764973163604736,
          -0.05985778942704201,
          0.06401902437210083,
          0.0637693777680397,
          -0.09196224063634872,
          -0.014359964057803154,
          0.17731769382953644,
          0.09752488136291504,
          -0.1035037636756897,
          0.026787951588630676,
          -0.0054305242374539375,
          0.06635354459285736,
          0.11445466428995132,
          0.055337246507406235,
          0.11250092834234238,
          -0.005990717094391584,
          -0.0074705020524561405,
          -0.0017861444503068924,
          -0.07526518404483795,
          -0.03887981176376343,
          -0.06631740927696228,
          0.01805073395371437,
          -0.03848548233509064,
          0.13511544466018677,
          -0.14573612809181213,
          0.0064785536378622055,
          0.1202080100774765,
          0.012394169345498085,
          0.040746867656707764,
          0.08941714465618134,
          -0.05379253625869751,
          0.058086130768060684,
          0.12105342000722885,
          0.1366826295852661,
          0.046859655529260635,
          -0.062472350895404816,
          -0.022686537355184555,
          -0.047995686531066895,
          0.13432367146015167
        ],
        [
          0.05164968967437744,
          -0.18402965366840363,
          0.024885669350624084,
          -0.12710203230381012,
          -0.032954223453998566,
          0.06368312984704971,
          -0.06414851546287537,
          -0.11060695350170135,
          0.13024373352527618,
          0.1119610071182251,
          -0.006461643148213625,
          0.07259920984506607,
          -0.012454998679459095,
          -0.02392292022705078,
          0.054560840129852295,
          -0.035133764147758484,
          0.0023176968097686768,
          -0.11176268756389618,
          -0.0016951746074482799,
          0.06620888411998749,
          -0.03749078884720802,
          -0.05559429153800011,
          -0.07290797680616379,
          0.048454511910676956,
          -0.11636386811733246,
          0.1229519248008728,
          -0.023457704111933708,
          -0.08053646236658096,
          -0.08145051449537277,
          0.12400717288255692,
          0.07684183865785599,
          0.1166955754160881,
          -0.023366451263427734,
          -0.07424113899469376,
          0.041345834732055664,
          0.08055660128593445,
          -0.021162601187825203,
          -0.04974197596311569,
          -0.06459975242614746,
          -0.037114303559064865,
          -0.007946869358420372,
          0.012252300046384335,
          0.08627418428659439,
          -0.11281923204660416,
          0.07914625108242035,
          0.06414207816123962,
          0.037046484649181366,
          -0.08063402026891708,
          0.015085236169397831,
          0.05801554024219513,
          0.014011015184223652,
          0.006111085414886475,
          -0.021503038704395294,
          -0.05718405544757843,
          -0.11409209668636322,
          0.06654396653175354,
          0.04879651218652725,
          -0.06994688510894775,
          0.09933542460203171,
          0.014033854007720947,
          0.06981068849563599,
          -0.12613122165203094,
          -0.016482681035995483,
          0.12175895273685455
        ],
        [
          -0.05984868109226227,
          0.12182341516017914,
          0.013360653072595596,
          0.11130578815937042,
          -0.0803716629743576,
          -0.0961240828037262,
          0.03564728796482086,
          -0.06674498319625854,
          0.0397384837269783,
          -0.0618421845138073,
          -0.0024825590662658215,
          -0.09126727283000946,
          -0.03546522557735443,
          0.09944561123847961,
          0.015067263506352901,
          -0.05052414536476135,
          -0.11700902879238129,
          0.09574917703866959,
          0.09532821923494339,
          0.06938457489013672,
          -0.002687087981030345,
          -0.07366690784692764,
          -0.07811079174280167,
          0.11569372564554214,
          0.1157049685716629,
          0.09086719900369644,
          0.04644524306058884,
          0.07862867414951324,
          -0.12812402844429016,
          -0.12071704119443893,
          -0.1255672425031662,
          0.08610932528972626,
          0.10563309490680695,
          0.11290299147367477,
          0.015437898226082325,
          -0.09736888855695724,
          0.12502175569534302,
          -0.10424929857254028,
          -0.02300284244120121,
          -0.019615663215517998,
          -0.13883410394191742,
          0.08417975157499313,
          0.08814187347888947,
          0.13582858443260193,
          -7.998994260560721e-05,
          -0.01946326531469822,
          -0.07243848592042923,
          -0.03531165421009064,
          0.1300671547651291,
          0.0364188514649868,
          -0.013381958939135075,
          -0.09264054894447327,
          -0.035260941833257675,
          0.11492772400379181,
          0.12833422422409058,
          -0.007243409752845764,
          0.011338005773723125,
          0.0649949237704277,
          -0.018813569098711014,
          0.03854703903198242,
          -0.08052892982959747,
          -0.03187710419297218,
          -0.011166200041770935,
          0.07133735716342926
        ],
        [
          0.10186630487442017,
          -0.0754193365573883,
          -0.11355224996805191,
          0.025287922471761703,
          -0.10003982484340668,
          0.05965881794691086,
          -0.13493163883686066,
          -0.010312601923942566,
          0.059969767928123474,
          0.08743247389793396,
          0.051529090851545334,
          -0.018944576382637024,
          0.11357136070728302,
          0.002303183078765869,
          -0.09217067062854767,
          -0.11677257716655731,
          -0.09681746363639832,
          0.11975368857383728,
          -0.005774682853370905,
          -0.10782884061336517,
          0.08867937326431274,
          0.1313728243112564,
          -0.1315557062625885,
          -0.10939587652683258,
          0.031149491667747498,
          0.021804584190249443,
          -0.0665600448846817,
          -0.07403294742107391,
          0.04524673521518707,
          0.03070393204689026,
          0.013806012459099293,
          -0.17736707627773285,
          -0.09988230466842651,
          -0.033361781388521194,
          0.059014756232500076,
          -0.16094531118869781,
          -0.032695040106773376,
          0.05426192283630371,
          -0.03810930252075195,
          -0.10028109699487686,
          0.008959376253187656,
          -0.03775515407323837,
          0.0487607941031456,
          0.016060488298535347,
          -0.0011496893130242825,
          -0.11836425960063934,
          0.06413473933935165,
          -0.027414724230766296,
          0.0680396631360054,
          -0.028234705328941345,
          -0.04908714443445206,
          0.002677604556083679,
          -0.0795549526810646,
          -0.10482582449913025,
          0.10453559458255768,
          0.09501765668392181,
          0.11644970625638962,
          -0.034563176333904266,
          0.09568894654512405,
          0.057984426617622375,
          0.0934886783361435,
          -0.06594082713127136,
          0.12179766595363617,
          0.11540364474058151
        ],
        [
          0.11418987810611725,
          0.11084530502557755,
          0.01323692500591278,
          -0.005050803069025278,
          0.04288214445114136,
          -0.030972763895988464,
          -0.013029549270868301,
          0.09489230811595917,
          -0.08003124594688416,
          -0.06501375883817673,
          0.1316998153924942,
          -0.18569301068782806,
          -0.10650300979614258,
          -0.04563015699386597,
          0.0559689886868,
          -0.12337696552276611,
          0.07981278002262115,
          -0.08533435314893723,
          0.05612482503056526,
          -0.09548379480838776,
          0.023141011595726013,
          0.02124420739710331,
          -0.1397259384393692,
          0.045887213200330734,
          -0.017798125743865967,
          0.00480085052549839,
          -0.16832232475280762,
          -0.056574784219264984,
          -0.09999042004346848,
          0.13360300660133362,
          0.033255741000175476,
          -0.09932239353656769,
          -0.04017585515975952,
          0.03051620163023472,
          0.12391965091228485,
          -0.018468061462044716,
          -0.019833071157336235,
          -0.040654804557561874,
          0.05473289266228676,
          0.005114490166306496,
          0.15755479037761688,
          -0.039515458047389984,
          -0.09363976120948792,
          -0.060401443392038345,
          -0.1277686208486557,
          0.11540635675191879,
          -0.12024583667516708,
          -0.009349724277853966,
          -0.021216411143541336,
          0.13118241727352142,
          -0.02711482159793377,
          -0.06344261765480042,
          -0.016878966242074966,
          -0.09053559601306915,
          -0.024972904473543167,
          -0.07597671449184418,
          0.08735990524291992,
          0.01564888469874859,
          0.1066359281539917,
          0.10624716430902481,
          -0.04335904121398926,
          -0.03138687461614609,
          -0.11523354053497314,
          -0.006959365680813789
        ],
        [
          0.08039429783821106,
          -0.11329293251037598,
          -0.10679703950881958,
          0.10569868981838226,
          -0.12244896590709686,
          0.008384689688682556,
          -0.03819265216588974,
          -0.07247577607631683,
          0.027231886982917786,
          -0.09344078600406647,
          0.033372312784194946,
          -0.10478027909994125,
          -0.09361982345581055,
          -0.04073372483253479,
          0.1019982397556305,
          -0.02867835760116577,
          0.10876339673995972,
          0.027878982946276665,
          0.03874192759394646,
          -0.01966729760169983,
          0.09189747273921967,
          0.046932633966207504,
          0.03215240314602852,
          0.01203733030706644,
          0.06345027685165405,
          -0.07412279397249222,
          -0.12487505376338959,
          -0.013521685265004635,
          0.035941556096076965,
          0.09467166662216187,
          -0.02902940660715103,
          0.049749165773391724,
          -0.060327962040901184,
          0.11356686800718307,
          -0.011198756285011768,
          0.09446079283952713,
          0.02558441460132599,
          0.009875482879579067,
          -0.029977157711982727,
          -0.004245605785399675,
          0.04873602092266083,
          0.015476571395993233,
          -0.05857846885919571,
          -0.10603637993335724,
          -0.0845702737569809,
          -0.014311998151242733,
          -0.03671299293637276,
          0.10867767035961151,
          -0.11486726999282837,
          -0.017193660140037537,
          0.07998121529817581,
          0.04819582402706146,
          -0.005211934447288513,
          0.0024739205837249756,
          -0.08542553335428238,
          0.08334974944591522,
          0.11031291633844376,
          0.030879558995366096,
          0.020339304581284523,
          -0.014497990719974041,
          -0.11508093029260635,
          0.012021864764392376,
          0.06220690906047821,
          0.027301210910081863
        ],
        [
          -0.03750024735927582,
          0.11240209639072418,
          -0.11322018504142761,
          0.05212324857711792,
          0.045815423130989075,
          -0.020325765013694763,
          0.07151201367378235,
          -0.12070685625076294,
          -0.05120289325714111,
          0.061477914452552795,
          -0.041448310017585754,
          0.01613512635231018,
          0.025716930627822876,
          -0.07440237700939178,
          -0.07233478128910065,
          0.08151988685131073,
          -0.030076265335083008,
          -0.033869728446006775,
          -0.050888195633888245,
          -0.10317260026931763,
          -0.10877573490142822,
          0.015219807624816895,
          -0.0519217848777771,
          0.09651307761669159,
          0.09820282459259033,
          0.09600988030433655,
          0.009795337915420532,
          -0.07256776094436646,
          0.016283303499221802,
          -0.11454761028289795,
          -0.03258354961872101,
          0.07134857773780823,
          0.03851307928562164,
          -0.0024285465478897095,
          0.029278188943862915,
          -0.05909526348114014,
          0.04442903399467468,
          -0.11135250329971313,
          0.09361563622951508,
          -0.02181468904018402,
          0.08345164358615875,
          -0.00021445751190185547,
          0.06272971630096436,
          -0.11546392738819122,
          0.08938117325305939,
          -0.10411177575588226,
          -0.08199398219585419,
          0.02599450945854187,
          0.08678063750267029,
          -0.07988715171813965,
          0.058777257800102234,
          -0.0031580328941345215,
          0.1041591465473175,
          0.04448746144771576,
          0.011241048574447632,
          0.10551649332046509,
          -0.11661098897457123,
          0.09932486712932587,
          -0.09092994034290314,
          -0.08962531387805939,
          0.05750654637813568,
          -0.08163630962371826,
          0.055339470505714417,
          -0.12064862251281738
        ],
        [
          -0.03907787799835205,
          0.016412388533353806,
          -0.08094692975282669,
          -0.0449669174849987,
          -0.07528097927570343,
          0.0036667566746473312,
          -0.04076804220676422,
          0.06130582094192505,
          -0.02454577386379242,
          0.028709933161735535,
          -0.013416126370429993,
          -0.09516291320323944,
          -0.09017869830131531,
          0.027765288949012756,
          -0.02102464996278286,
          0.011750847101211548,
          -0.03346423804759979,
          0.0776342898607254,
          -0.06286628544330597,
          -0.10132358968257904,
          -0.03446491062641144,
          0.031200924888253212,
          -0.10716083645820618,
          -0.03009200468659401,
          -0.10450108349323273,
          0.0919029638171196,
          0.11663366854190826,
          -0.024686738848686218,
          0.07553613185882568,
          -0.09806754440069199,
          -0.04433811828494072,
          0.12815313041210175,
          0.05637761950492859,
          0.10043882578611374,
          0.004948022775352001,
          -0.05838261544704437,
          -0.08015806972980499,
          0.05450909957289696,
          0.05439309403300285,
          0.003790286835283041,
          0.0688614696264267,
          0.02334706485271454,
          0.08313170820474625,
          0.05893346294760704,
          0.024487121030688286,
          -0.09604993462562561,
          -0.10389789938926697,
          0.04957997053861618,
          0.09810548275709152,
          -0.09249092638492584,
          -0.016818108037114143,
          0.04298907518386841,
          -0.10700428485870361,
          0.11558100581169128,
          0.014786932617425919,
          0.03146907687187195,
          -0.12143587321043015,
          0.03524424880743027,
          -0.0865616574883461,
          -0.07906147092580795,
          -0.003362252376973629,
          -0.10648300498723984,
          -0.08793267607688904,
          -0.04672689363360405
        ],
        [
          -0.04224146902561188,
          0.1553613394498825,
          -0.1110331118106842,
          0.10559563338756561,
          -0.08169245719909668,
          -0.03106616623699665,
          0.1409539133310318,
          -0.006471037864685059,
          -0.09425701200962067,
          0.09984318912029266,
          -0.1276804804801941,
          0.1051255464553833,
          -0.026671139523386955,
          -0.03343254327774048,
          -0.048584576696157455,
          0.06472828984260559,
          0.024066105484962463,
          -0.05907921865582466,
          0.06873734295368195,
          -0.03219318389892578,
          0.0581822469830513,
          -0.049203820526599884,
          -0.08392231166362762,
          -0.034155767410993576,
          -0.09439882636070251,
          0.047796156257390976,
          0.08967142552137375,
          -0.031090423464775085,
          0.04260015860199928,
          -0.0014970973134040833,
          0.029690435156226158,
          -0.15189692378044128,
          -0.08609522879123688,
          0.09361780434846878,
          -0.09718484431505203,
          -0.0009761685505509377,
          0.04925720393657684,
          0.05577003210783005,
          -0.0015944894403219223,
          0.10877951979637146,
          -0.12349909543991089,
          0.08360769599676132,
          -0.06669392436742783,
          0.10313005745410919,
          -0.15026986598968506,
          0.0631430521607399,
          0.09022504091262817,
          0.031922854483127594,
          0.09563829004764557,
          -0.16800759732723236,
          0.06088101491332054,
          -0.026912063360214233,
          -0.08373944461345673,
          0.0006910413503646851,
          0.1128801479935646,
          -0.05143873393535614,
          -0.0974290519952774,
          0.11237989366054535,
          -0.04034300148487091,
          -0.06528778374195099,
          0.02598269097507,
          -0.011364307254552841,
          0.0587739497423172,
          -0.0641498789191246
        ],
        [
          -0.09968195855617523,
          0.012755051255226135,
          0.03261928632855415,
          -0.07053820788860321,
          0.1422758847475052,
          -0.13681551814079285,
          0.014781120233237743,
          -0.03780728578567505,
          -7.117385393939912e-05,
          -0.09712398797273636,
          -0.06160745397210121,
          0.03474494814872742,
          -0.0072897206991910934,
          0.11211995780467987,
          0.11771447211503983,
          -0.09651832282543182,
          0.08128446340560913,
          0.049691878259181976,
          0.10880374908447266,
          0.04573366045951843,
          0.025111045688390732,
          0.011384899728000164,
          -0.02422245219349861,
          -0.07568290829658508,
          0.021401062607765198,
          0.08847390115261078,
          0.11040345579385757,
          0.01390852965414524,
          0.009795889258384705,
          -0.11109562963247299,
          -0.03877199813723564,
          0.07448818534612656,
          0.03896474838256836,
          -0.06932779401540756,
          0.012721225619316101,
          -0.05196382850408554,
          0.06220362335443497,
          -0.06722619384527206,
          -0.11335502564907074,
          -0.1074809581041336,
          0.06418932974338531,
          -0.0373854860663414,
          -0.09291169792413712,
          0.021595731377601624,
          0.007991337217390537,
          -0.059604570269584656,
          -0.008875212632119656,
          -0.13662008941173553,
          -0.025585122406482697,
          0.13693265616893768,
          0.09561411291360855,
          -0.051046937704086304,
          -0.1043025553226471,
          -0.07139094173908234,
          -0.00031822919845581055,
          0.11728876829147339,
          -0.047359973192214966,
          -0.0673244521021843,
          -0.04221492260694504,
          0.09730970859527588,
          0.04651923105120659,
          -0.0010256535606458783,
          0.10048535466194153,
          -0.029495885595679283
        ],
        [
          -0.04866434633731842,
          -0.10344990342855453,
          0.00786625687032938,
          -0.09842504560947418,
          0.056912168860435486,
          0.040045421570539474,
          -0.07076038420200348,
          -0.02332201600074768,
          0.01330094039440155,
          0.06266544759273529,
          0.07621347904205322,
          -0.017430275678634644,
          -0.1174350380897522,
          0.012297660112380981,
          -0.06062614545226097,
          0.00574861466884613,
          -0.11541053652763367,
          0.10887792706489563,
          0.04567138850688934,
          0.036992982029914856,
          0.03487648069858551,
          -0.11544904857873917,
          -0.060151662677526474,
          0.017501629889011383,
          -0.10358710587024689,
          -0.12911918759346008,
          0.10372039675712585,
          0.040849387645721436,
          0.055964529514312744,
          0.08547347784042358,
          0.08199146389961243,
          0.10170085728168488,
          0.1026347428560257,
          -0.029204249382019043,
          0.06407010555267334,
          -0.0932353287935257,
          0.012765854597091675,
          -0.10164454579353333,
          -0.12336459755897522,
          0.018504556268453598,
          -0.04107063263654709,
          -0.08782262355089188,
          -0.06263743340969086,
          -0.09980714321136475,
          0.02431274950504303,
          -0.08403026312589645,
          -0.10269947350025177,
          0.09096542000770569,
          -0.01795949973165989,
          0.04490898177027702,
          0.0771106407046318,
          -0.06362453103065491,
          0.08489210903644562,
          0.0561109334230423,
          -0.05853913724422455,
          0.00597381591796875,
          -0.09035990387201309,
          -0.0015738169895485044,
          0.015758775174617767,
          -0.06121997535228729,
          -0.05532638728618622,
          -0.028273150324821472,
          0.0387386828660965,
          -0.02577248588204384
        ],
        [
          0.021668776869773865,
          0.05505315959453583,
          -0.019072728231549263,
          0.03505982458591461,
          -0.037322819232940674,
          0.06885726749897003,
          -0.01795382611453533,
          0.09197060763835907,
          0.010663524270057678,
          -0.046034954488277435,
          -0.04751257598400116,
          -0.054110050201416016,
          -0.10194696485996246,
          0.05705283582210541,
          0.035286884754896164,
          0.11873996257781982,
          0.11901165544986725,
          -0.09265056997537613,
          -0.03388761729001999,
          0.03589487075805664,
          0.005851047113537788,
          0.07462945580482483,
          0.010620979592204094,
          -0.11527088284492493,
          -0.00790075957775116,
          0.03794410079717636,
          0.0013599246740341187,
          -0.021049344912171364,
          -0.09912164509296417,
          0.062005653977394104,
          0.10727274417877197,
          -0.11511939764022827,
          0.04723738133907318,
          -0.0012151558184996247,
          -0.08541344106197357,
          0.0933154746890068,
          -0.08394752442836761,
          -0.00036471421481110156,
          0.02838851511478424,
          0.003463303903117776,
          0.08593491464853287,
          -0.012586712837219238,
          -0.08295471221208572,
          0.026108533143997192,
          -0.060261085629463196,
          -0.06395474076271057,
          -0.017552493140101433,
          -0.11495666205883026,
          0.018147706985473633,
          -0.12375472486019135,
          0.10592702776193619,
          0.014081791043281555,
          0.116238534450531,
          -0.08979737758636475,
          -0.07953403890132904,
          0.08923883736133575,
          -0.13518458604812622,
          0.0337381549179554,
          -0.10791005194187164,
          0.0552673377096653,
          -0.10682135075330734,
          0.10634444653987885,
          0.11302006244659424,
          -0.037558820098638535
        ],
        [
          -0.041000887751579285,
          0.06701625883579254,
          0.047426749020814896,
          0.08344429731369019,
          0.08568989485502243,
          0.07742122560739517,
          0.09413090348243713,
          -0.02242569625377655,
          -0.09813728928565979,
          0.03413777053356171,
          0.06316538155078888,
          -0.07849802821874619,
          -0.06428799778223038,
          0.046157389879226685,
          -0.03296394646167755,
          0.04585424065589905,
          -0.11947748064994812,
          -0.09232906997203827,
          0.02485586702823639,
          0.04252743721008301,
          -0.03588254377245903,
          0.014202027581632137,
          0.03177648410201073,
          -0.08822176605463028,
          0.09495750069618225,
          0.03512013331055641,
          0.1171455830335617,
          -0.020453806966543198,
          0.08193753659725189,
          -0.032225701957941055,
          -0.059380412101745605,
          -0.09613477438688278,
          0.0873556137084961,
          0.029706092551350594,
          0.10775009542703629,
          0.10409216582775116,
          -0.04111887514591217,
          0.030220577493309975,
          0.08748488128185272,
          -0.09591659903526306,
          0.09483914077281952,
          -0.009235981851816177,
          -0.15430821478366852,
          -0.1203533336520195,
          0.03700306639075279,
          -0.07629023492336273,
          0.05192508175969124,
          0.07655801624059677,
          0.026618896052241325,
          -0.011247195303440094,
          0.00175699673127383,
          0.0437048077583313,
          0.09172418713569641,
          0.05528527498245239,
          -0.11515387892723083,
          0.0691942423582077,
          -0.029824694618582726,
          -0.006994830444455147,
          -0.08938177675008774,
          0.10051750391721725,
          0.0015099341981112957,
          0.017210079357028008,
          0.12270300090312958,
          -0.1203664243221283
        ],
        [
          0.08902664482593536,
          0.036196812987327576,
          -0.11577188968658447,
          -0.08507931232452393,
          0.011474549770355225,
          -0.06450076401233673,
          -0.11886054277420044,
          -0.01731550693511963,
          0.035081252455711365,
          -0.07660210132598877,
          -0.07646328210830688,
          0.053503721952438354,
          -0.023217305541038513,
          -0.10601374506950378,
          -0.11200135946273804,
          -0.06644211709499359,
          -0.1074410229921341,
          0.07099482417106628,
          0.04317109286785126,
          -0.05001366138458252,
          -0.06863605976104736,
          0.07510563731193542,
          0.03136621415615082,
          -0.09528537094593048,
          0.03129541873931885,
          0.07071109116077423,
          0.009087324142456055,
          0.04982207715511322,
          -0.011221662163734436,
          0.007185101509094238,
          -0.05980643630027771,
          0.033144399523735046,
          -0.09335760772228241,
          -0.05657127499580383,
          -0.06208908557891846,
          -0.0659652054309845,
          0.10617145895957947,
          -0.10547685623168945,
          0.02011798322200775,
          0.04086895287036896,
          -0.04074843227863312,
          0.08643899857997894,
          0.01472744345664978,
          -0.047004953026771545,
          -0.12451186776161194,
          -0.08937957882881165,
          -0.007963791489601135,
          0.1141262948513031,
          0.06250697374343872,
          0.03934234380722046,
          -0.03870813548564911,
          -0.03084452450275421,
          0.0329568088054657,
          -0.10463103652000427,
          0.024082154035568237,
          0.004549667239189148,
          0.03160865604877472,
          -0.04392486810684204,
          -0.12098109722137451,
          0.046973004937171936,
          0.019511952996253967,
          -0.08806273341178894,
          0.041712552309036255,
          0.08103746175765991
        ],
        [
          -0.023838311433792114,
          -0.11979138851165771,
          -0.06632578372955322,
          -0.02788493037223816,
          0.021359926089644432,
          -0.09774155914783478,
          -0.1192297637462616,
          -0.002758324146270752,
          -0.014233690686523914,
          -0.1288979947566986,
          -0.07495631277561188,
          0.09426040202379227,
          0.08998815715312958,
          -0.05870822072029114,
          -0.09525980800390244,
          -0.10196956992149353,
          -0.037969738245010376,
          0.05263996496796608,
          -0.04011641442775726,
          0.07329019904136658,
          0.027284463867545128,
          -0.11713850498199463,
          0.059216633439064026,
          -0.08835352212190628,
          -0.11079363524913788,
          -0.06797835975885391,
          0.015666993334889412,
          -0.004072664771229029,
          -0.006426796317100525,
          0.05841885879635811,
          0.07154248654842377,
          0.06417082995176315,
          -0.09855771064758301,
          0.1120171919465065,
          -0.03866696357727051,
          0.13353928923606873,
          0.06917712092399597,
          0.07548119872808456,
          -0.08415018022060394,
          0.051453594118356705,
          0.061103347688913345,
          -0.09290038049221039,
          0.00785541720688343,
          -0.0008995189564302564,
          0.014744683168828487,
          -0.10199201852083206,
          0.09263326227664948,
          -0.0925062969326973,
          0.039212070405483246,
          -0.031003877520561218,
          -0.055805400013923645,
          0.06994247436523438,
          -0.022098887711763382,
          -0.019905254244804382,
          0.012038194574415684,
          0.03840005397796631,
          -0.09508419781923294,
          -0.10136079788208008,
          -0.10092468559741974,
          -0.041418563574552536,
          0.09075263887643814,
          0.08338561654090881,
          0.07041968405246735,
          0.04278752952814102
        ],
        [
          -0.11704693734645844,
          0.0640101507306099,
          0.04402156546711922,
          0.09825263172388077,
          -0.01638956367969513,
          0.009052492678165436,
          0.00448783440515399,
          0.07364045083522797,
          0.08262583613395691,
          0.08299428224563599,
          0.1634654551744461,
          -0.03822292387485504,
          -0.10412577539682388,
          -0.08083504438400269,
          -0.12406767159700394,
          -0.11223839223384857,
          0.09607788920402527,
          0.034716635942459106,
          -0.04514428600668907,
          -0.10114887356758118,
          -0.03675194829702377,
          -0.07275222986936569,
          0.02804393693804741,
          0.04030262678861618,
          -0.004062294960021973,
          0.08103271573781967,
          0.08487604558467865,
          0.06360936909914017,
          -0.08854485303163528,
          -0.03828464820981026,
          -0.00814774353057146,
          0.09255252033472061,
          -0.09643986821174622,
          -0.02545546181499958,
          0.06580527126789093,
          -0.13044415414333344,
          0.06965897232294083,
          0.10829119384288788,
          -0.12360474467277527,
          -0.008562230505049229,
          0.05205332115292549,
          0.01077178679406643,
          -0.11833050847053528,
          0.09941861778497696,
          -0.04481160640716553,
          0.006114496849477291,
          -0.024818340316414833,
          -0.13235986232757568,
          -0.04618329927325249,
          -0.04562511295080185,
          0.07591313868761063,
          0.05695722997188568,
          0.09627063572406769,
          -0.06112886965274811,
          -0.11445830017328262,
          0.05878420174121857,
          0.021087955683469772,
          0.05322781577706337,
          0.002741804113611579,
          -0.0836208388209343,
          0.04431244358420372,
          -0.14663685858249664,
          0.06868876516819,
          -0.04744509980082512
        ],
        [
          -0.06250537931919098,
          0.14422519505023956,
          0.03437745198607445,
          0.1591399610042572,
          -0.04839570075273514,
          0.08831612020730972,
          0.010524946264922619,
          0.006021171808242798,
          0.04498150199651718,
          -0.021413272246718407,
          -0.13966578245162964,
          0.07266034930944443,
          -0.01751868985593319,
          -0.11472326517105103,
          0.07661393284797668,
          0.08462268114089966,
          -0.01937587559223175,
          -0.09011160582304001,
          0.04484586417675018,
          -0.011599943041801453,
          -0.010915081948041916,
          0.0711318626999855,
          -0.01857331208884716,
          0.011689581908285618,
          -0.021290138363838196,
          0.10635177791118622,
          0.018618406727910042,
          -0.031451839953660965,
          -0.1263865977525711,
          -0.09031970053911209,
          -0.02192840166389942,
          0.1282167285680771,
          0.09456780552864075,
          -0.06804013252258301,
          0.07924531400203705,
          -0.012227651663124561,
          -0.037167757749557495,
          -0.0011658130679279566,
          -0.06261827051639557,
          0.07232984155416489,
          0.010458466596901417,
          0.01122699212282896,
          0.027887778356671333,
          -0.05426723510026932,
          0.15269657969474792,
          -0.00012848472397308797,
          -0.10923726856708527,
          -0.021474258974194527,
          0.06085030362010002,
          0.043439801782369614,
          -0.019825268536806107,
          0.07427749037742615,
          0.07805923372507095,
          0.021819427609443665,
          -0.035167593508958817,
          -0.0774138867855072,
          -0.02085505798459053,
          -0.04617854580283165,
          -0.002638615667819977,
          0.017931735143065453,
          0.07785520702600479,
          0.05870096758008003,
          -0.0053632259368896484,
          0.0045209540985524654
        ],
        [
          0.07489186525344849,
          -0.04728322848677635,
          0.08232850581407547,
          -0.023596402257680893,
          -0.017711907625198364,
          -0.02768051251769066,
          0.07523876428604126,
          -0.07804633677005768,
          0.08467516303062439,
          0.06760139763355255,
          0.079070083796978,
          0.08273127675056458,
          -0.005530888680368662,
          -0.11036652326583862,
          0.0778430849313736,
          0.10291416943073273,
          -0.03753231465816498,
          0.004916139412671328,
          0.11834847927093506,
          -0.024800822138786316,
          -0.05177813023328781,
          0.02749469317495823,
          -0.041980743408203125,
          -0.0877893716096878,
          -0.08367696404457092,
          -0.04321179911494255,
          0.014429137110710144,
          -0.015751264989376068,
          -0.03711714968085289,
          0.10036856681108475,
          0.15041521191596985,
          0.0020522577688097954,
          -0.019772127270698547,
          0.1035238653421402,
          -0.05759601667523384,
          -0.09136656671762466,
          -0.05276791378855705,
          0.08430264890193939,
          -0.122935950756073,
          -0.08793244510889053,
          0.0036689387634396553,
          0.12151817977428436,
          -0.04778734967112541,
          -0.10572636127471924,
          -0.017568141222000122,
          0.057960812002420425,
          0.054386723786592484,
          0.024853719398379326,
          0.10249927639961243,
          -0.020510433241724968,
          0.046004969626665115,
          0.09242908656597137,
          0.02504885196685791,
          -0.09967392683029175,
          0.06114094331860542,
          0.06830848753452301,
          -0.09012163430452347,
          -0.04607249051332474,
          0.072955422103405,
          0.13370196521282196,
          -0.1121906191110611,
          0.0367417149245739,
          0.009189799427986145,
          0.0815553367137909
        ],
        [
          0.007115423679351807,
          -0.031708091497421265,
          -0.021715527400374413,
          -0.10635578632354736,
          0.10279203951358795,
          0.06625737994909286,
          0.018090087920427322,
          -0.005004867911338806,
          -0.0533098429441452,
          0.012261390686035156,
          0.09039941430091858,
          -0.045138075947761536,
          0.008071795105934143,
          0.10406321287155151,
          -0.07892531156539917,
          -0.04184259474277496,
          0.09691739082336426,
          0.10700362920761108,
          0.09285391867160797,
          -0.033406198024749756,
          0.08711645752191544,
          0.01947627402842045,
          -0.02397681586444378,
          -0.032880958169698715,
          0.0908677875995636,
          0.09272401034832001,
          0.0792756974697113,
          -0.05807984620332718,
          -0.12497816979885101,
          -0.06427954882383347,
          0.04172859340906143,
          -0.11949056386947632,
          0.07038615643978119,
          -0.05918923020362854,
          0.06987009942531586,
          -0.07791507989168167,
          -0.04911601543426514,
          -0.11815571784973145,
          -0.0999407172203064,
          -0.034300971776247025,
          -0.048784416168928146,
          0.008216812275350094,
          0.0861470177769661,
          -0.05388741195201874,
          0.07897555828094482,
          -0.029533006250858307,
          -0.0477236732840538,
          -0.01830538548529148,
          0.04164645075798035,
          -0.07363930344581604,
          -0.09106624871492386,
          -0.1014072597026825,
          -0.024580759927630424,
          0.05262625217437744,
          0.14994284510612488,
          0.007583305239677429,
          -0.03151721507310867,
          -0.03141912445425987,
          -0.13340947031974792,
          -0.10125242173671722,
          -0.03645007684826851,
          -0.03380339965224266,
          0.04547135531902313,
          0.07887203246355057
        ],
        [
          -0.06451137363910675,
          -0.10161258280277252,
          -0.14384254813194275,
          0.028705498203635216,
          0.10539890825748444,
          0.06381542235612869,
          0.09666487574577332,
          0.02858114242553711,
          -0.06386912614107132,
          0.10232780128717422,
          0.023403523489832878,
          0.05807012319564819,
          -0.08225464820861816,
          -0.046303361654281616,
          -0.0743316039443016,
          -0.10364826023578644,
          0.08722418546676636,
          -0.10051161050796509,
          -0.09801366180181503,
          -0.010262742638587952,
          -0.09873005747795105,
          -0.0030391006730496883,
          -0.045276712626218796,
          0.06939774006605148,
          0.03654159605503082,
          0.004795771557837725,
          0.054583754390478134,
          -0.039877135306596756,
          -0.11990988999605179,
          0.11982346326112747,
          -0.03444486856460571,
          -0.020848697051405907,
          -0.05748850107192993,
          0.09215230494737625,
          -0.04513849690556526,
          -0.032919347286224365,
          0.009620650671422482,
          -0.0251479409635067,
          -0.061077043414115906,
          0.008049052208662033,
          0.05666646733880043,
          -0.07668367028236389,
          0.11674685031175613,
          0.054204102605581284,
          0.06252690404653549,
          0.0014105710433796048,
          -0.0046419668942689896,
          -0.016397718340158463,
          -0.027225593104958534,
          -0.10974423587322235,
          -0.030662033706903458,
          0.02826663851737976,
          -0.07168503105640411,
          0.0875733494758606,
          0.0824805498123169,
          -0.048146963119506836,
          -0.03923793137073517,
          -0.009519737213850021,
          -0.014949274249374866,
          0.10357847064733505,
          0.03940705955028534,
          0.06048883497714996,
          -0.007912397384643555,
          -0.017609156668186188
        ],
        [
          -0.10232026875019073,
          0.044803325086832047,
          0.04581155627965927,
          -0.017650406807661057,
          0.011892725713551044,
          0.10869273543357849,
          0.016555605456233025,
          -0.0693824291229248,
          0.10798561573028564,
          0.09892814606428146,
          -0.2622641623020172,
          -0.09428180009126663,
          0.06627631932497025,
          -0.1022217720746994,
          -0.039845868945121765,
          0.11932176351547241,
          -0.07414580881595612,
          0.0779535248875618,
          0.031158272176980972,
          0.07621681690216064,
          -0.07722597569227219,
          -0.06291067600250244,
          0.09719739854335785,
          -0.04226307198405266,
          0.11746621131896973,
          -0.06421219557523727,
          -0.020690103992819786,
          0.0030724364332854748,
          -0.08351146429777145,
          -0.0772794559597969,
          0.01141329761594534,
          -0.12205708771944046,
          -0.1246974915266037,
          -0.03326314687728882,
          -0.10171209275722504,
          0.08707161247730255,
          -0.04435598477721214,
          0.06585322320461273,
          0.11768796294927597,
          0.02360277995467186,
          -0.04392853379249573,
          -0.07255565375089645,
          0.1233615130186081,
          0.07541538029909134,
          -0.16701988875865936,
          -0.03140238672494888,
          0.02468741498887539,
          0.09632536768913269,
          0.13873939216136932,
          -0.005425214767456055,
          -0.01156376488506794,
          0.0033101141452789307,
          0.09954879432916641,
          0.08974809944629669,
          -0.05706566572189331,
          -0.05368034541606903,
          -0.06810580939054489,
          -0.0637434795498848,
          0.003315811976790428,
          0.07517622411251068,
          -0.11405378580093384,
          -0.12924537062644958,
          0.04052239656448364,
          -0.012380359694361687
        ],
        [
          0.026663213968276978,
          -0.049737900495529175,
          0.06592495739459991,
          -0.11037130653858185,
          -0.048617370426654816,
          -0.05311531573534012,
          0.0019307791953906417,
          0.01580841839313507,
          0.02882837876677513,
          0.0534692220389843,
          0.003713725134730339,
          0.10507037490606308,
          0.07718483358621597,
          0.05719393491744995,
          -0.03085772693157196,
          0.040341779589653015,
          -0.03956283628940582,
          -0.07682768255472183,
          0.0041778977029025555,
          0.055582210421562195,
          0.04189154878258705,
          -0.11182373762130737,
          -0.04759631305932999,
          -0.010063243098556995,
          -0.11232122778892517,
          -0.003992920275777578,
          0.05340766906738281,
          0.11037502437829971,
          -0.12288367003202438,
          0.03406502306461334,
          0.1483163833618164,
          -0.07277994602918625,
          -0.028438374400138855,
          0.1194341778755188,
          0.09338436275720596,
          -0.05183783173561096,
          -0.0011092384811490774,
          -0.05208655819296837,
          -0.08011811971664429,
          -0.040044717490673065,
          0.08165048807859421,
          -0.016282327473163605,
          -0.008263732306659222,
          0.08085986971855164,
          -0.1360362023115158,
          0.09507393836975098,
          -0.002236091298982501,
          -0.05780680105090141,
          0.015641171485185623,
          0.16314782202243805,
          -0.06602353602647781,
          0.00932362675666809,
          0.11325761675834656,
          -0.10339133441448212,
          0.09726738184690475,
          0.08401598036289215,
          0.06992990523576736,
          0.03840132802724838,
          -0.06535720080137253,
          0.14999325573444366,
          -0.10511116683483124,
          -0.018111923709511757,
          -0.07651364803314209,
          0.10032662004232407
        ],
        [
          0.05035465955734253,
          0.10100063681602478,
          0.0216884333640337,
          0.1492687314748764,
          0.0008826815173961222,
          -0.0889260470867157,
          0.0064550237730145454,
          0.12012523412704468,
          0.04340807721018791,
          0.08452966064214706,
          -0.056276384741067886,
          0.06547526270151138,
          -0.04796094074845314,
          -0.013575166463851929,
          -0.1063925102353096,
          0.11720725893974304,
          -0.06470027565956116,
          -0.005502989050000906,
          -0.14332017302513123,
          0.11664572358131409,
          0.05392720550298691,
          0.06697620451450348,
          -0.044842835515737534,
          -0.022720929235219955,
          0.1247672587633133,
          0.005340851377695799,
          -0.006374532822519541,
          -0.09141828864812851,
          -0.07639038562774658,
          -0.11628410220146179,
          -0.12606805562973022,
          0.020301707088947296,
          0.06996609270572662,
          0.07992728054523468,
          -0.037651389837265015,
          0.06193330138921738,
          0.012415202334523201,
          -0.07346975803375244,
          0.05745478346943855,
          -0.07209505885839462,
          -0.1628468632698059,
          -0.0717473030090332,
          0.1046273410320282,
          -0.11261843144893646,
          0.10176630318164825,
          0.08809812366962433,
          0.03926084190607071,
          0.12373576313257217,
          0.12446394562721252,
          -0.12252523750066757,
          -0.07007136195898056,
          0.08422340452671051,
          0.009246348403394222,
          -0.10323554277420044,
          -0.03203519061207771,
          0.056258589029312134,
          0.030626554042100906,
          0.12105952948331833,
          0.12135408073663712,
          0.06998875737190247,
          0.09335971623659134,
          0.14939211308956146,
          -0.1016976535320282,
          0.0885995477437973
        ],
        [
          -0.06423763930797577,
          0.10026732087135315,
          0.0022636563517153263,
          0.1022118404507637,
          0.021345045417547226,
          0.015360112302005291,
          0.014489549212157726,
          -0.017483949661254883,
          0.0709742084145546,
          -0.04889334365725517,
          -0.17744027078151703,
          -0.07264681160449982,
          -0.05029192939400673,
          -0.08831369876861572,
          0.03788398578763008,
          -0.009904995560646057,
          -0.024235278367996216,
          0.1494593620300293,
          -0.14820538461208344,
          0.06114833056926727,
          -0.07759550958871841,
          0.0894322395324707,
          0.06242784112691879,
          0.09721725434064865,
          0.023624613881111145,
          0.07483364641666412,
          0.06704166531562805,
          0.035678308457136154,
          -0.11220297962427139,
          -0.13025738298892975,
          -0.12524573504924774,
          -0.05037694424390793,
          -0.0333353728055954,
          -0.10549940913915634,
          -0.040100835263729095,
          0.056593623012304306,
          -0.028460977599024773,
          -0.05204731598496437,
          -0.051274195313453674,
          0.0858292356133461,
          -0.12557381391525269,
          -0.05162212625145912,
          0.0039619444869458675,
          -0.08677998185157776,
          -0.10674259811639786,
          -0.023194296285510063,
          0.09840184450149536,
          0.05919342860579491,
          0.0701829046010971,
          -0.13354380428791046,
          -0.1220569834113121,
          0.08979691565036774,
          0.060972344130277634,
          0.009283885359764099,
          -0.12150068581104279,
          0.08657969534397125,
          -0.03319226950407028,
          0.0028938003815710545,
          0.0017767532262951136,
          -0.19523084163665771,
          -0.06601466238498688,
          -0.010204726830124855,
          -0.05011144280433655,
          0.03199480473995209
        ],
        [
          -0.03401005268096924,
          0.12805892527103424,
          -0.050813157111406326,
          -0.08209923654794693,
          0.029055628925561905,
          -0.10908862203359604,
          0.09691498428583145,
          0.042333975434303284,
          -0.05796463042497635,
          0.05660707876086235,
          0.01826898194849491,
          0.06993488222360611,
          -0.037066999822854996,
          0.08413001894950867,
          0.0946800634264946,
          0.1088676005601883,
          0.0634707361459732,
          0.12073899805545807,
          -0.04799117147922516,
          -0.08551539480686188,
          0.12090343981981277,
          0.011168213561177254,
          0.11882910877466202,
          0.006062722764909267,
          -0.0075280070304870605,
          0.001437435275875032,
          -0.08676513284444809,
          0.07980407029390335,
          -0.013023109175264835,
          0.10873740166425705,
          0.13442140817642212,
          0.05780986696481705,
          -0.045160844922065735,
          -0.033187855035066605,
          -0.06224383786320686,
          0.08636149764060974,
          0.016661589965224266,
          -0.0545499287545681,
          0.10175999253988266,
          0.08423563092947006,
          -0.0010738427517935634,
          -0.022830450907349586,
          -0.05089152231812477,
          -0.03841669112443924,
          -0.14426706731319427,
          -0.10248112678527832,
          0.14690499007701874,
          -0.05465902388095856,
          -0.00609635328873992,
          -0.05697806552052498,
          0.07680906355381012,
          0.06560121476650238,
          0.10573285818099976,
          -0.10850650072097778,
          -0.013553963974118233,
          0.05740310251712799,
          -0.00903286412358284,
          -0.07501466572284698,
          -0.11515647917985916,
          0.029620438814163208,
          0.07774154096841812,
          0.03340131416916847,
          0.0025357604026794434,
          -0.06650597602128983
        ],
        [
          -0.11166611313819885,
          -0.09700556844472885,
          0.07836619764566422,
          -0.018964476883411407,
          0.06613278388977051,
          0.005208258517086506,
          0.12016473710536957,
          -0.073039710521698,
          0.00354138296097517,
          -0.015379371121525764,
          -0.06684869527816772,
          0.0011413502506911755,
          -0.12705568969249725,
          0.0249498188495636,
          0.12067519873380661,
          0.07165868580341339,
          0.08199676871299744,
          -0.10433276742696762,
          -0.05274003744125366,
          0.027250900864601135,
          0.10132522135972977,
          -0.009684650227427483,
          -0.12196985632181168,
          0.010674319230020046,
          -0.08633072674274445,
          0.049785081297159195,
          -0.1128239557147026,
          -0.010984876193106174,
          -0.07397572696208954,
          -0.016185777261853218,
          -0.08313983678817749,
          0.11904370784759521,
          -0.0005381107330322266,
          0.10829342901706696,
          0.03732387349009514,
          0.01460388582199812,
          0.0850367322564125,
          -0.10440665483474731,
          -0.09520244598388672,
          0.015730835497379303,
          -0.11960458755493164,
          0.017238754779100418,
          -0.006975802592933178,
          0.03555348515510559,
          0.12727762758731842,
          -0.01567474938929081,
          0.028491538017988205,
          -0.05834948644042015,
          0.04139978438615799,
          -0.03718166425824165,
          0.043971385806798935,
          -0.03952151536941528,
          -0.1207047551870346,
          -0.11266018450260162,
          0.09015734493732452,
          0.06677822768688202,
          -0.128651425242424,
          0.0005540098645724356,
          0.0620252750813961,
          -0.04446183145046234,
          -0.13157473504543304,
          -0.05260496959090233,
          0.10343849658966064,
          -0.0529165081679821
        ],
        [
          -0.07364505529403687,
          -0.009652046486735344,
          -0.06246773526072502,
          0.15308329463005066,
          -0.11288417130708694,
          0.05740978196263313,
          0.020385369658470154,
          0.06184150278568268,
          0.07946037501096725,
          0.021096808835864067,
          -0.028913849964737892,
          0.0684983879327774,
          0.05580441653728485,
          -0.11537858843803406,
          0.06452905386686325,
          0.11017394065856934,
          -0.1138172447681427,
          0.03235485032200813,
          -0.028090976178646088,
          0.12432266771793365,
          0.09079062193632126,
          0.13100013136863708,
          0.08709322661161423,
          0.09732729941606522,
          0.07427631318569183,
          -0.1017487496137619,
          0.037580057978630066,
          0.07447353005409241,
          -0.02796759642660618,
          0.010987847112119198,
          0.0550229512155056,
          -0.031603697687387466,
          -0.12294206023216248,
          -0.024767929688096046,
          -0.17424626648426056,
          -0.08161072432994843,
          -0.09021910279989243,
          0.0403481088578701,
          0.028922157362103462,
          0.0838421881198883,
          0.01084145437926054,
          -0.005692700389772654,
          0.04232855886220932,
          -0.012233750894665718,
          -0.08326654136180878,
          0.11565616726875305,
          0.0710386410355568,
          0.16738420724868774,
          0.054817233234643936,
          -0.010470759123563766,
          -0.02281433343887329,
          0.03743539750576019,
          0.023746035993099213,
          0.04122211039066315,
          -0.03779810294508934,
          -0.015417829155921936,
          -0.04328446090221405,
          0.13350901007652283,
          -0.044301386922597885,
          -0.14621220529079437,
          -0.05686497315764427,
          -0.08908063918352127,
          0.050368472933769226,
          0.11422979831695557
        ],
        [
          -0.12424416840076447,
          0.11482800543308258,
          -0.02028663456439972,
          -0.019370242953300476,
          -0.07895395159721375,
          -0.04620747268199921,
          0.043872982263565063,
          -0.0017878860235214233,
          -0.021261066198349,
          -0.018823981285095215,
          0.042274028062820435,
          0.02974472939968109,
          -0.0594373494386673,
          -0.036717489361763,
          -0.050942301750183105,
          0.03798858821392059,
          -0.1213834285736084,
          -0.11440454423427582,
          0.0518883615732193,
          -0.08545783162117004,
          0.05647987127304077,
          -0.05506059527397156,
          -0.08837413787841797,
          0.08944135904312134,
          0.025573670864105225,
          -0.12155748903751373,
          0.09393900632858276,
          0.08309008181095123,
          -0.08264268934726715,
          0.028033047914505005,
          0.10758978128433228,
          0.028362855315208435,
          -0.09411381185054779,
          0.09587827324867249,
          -0.019199728965759277,
          0.10048635303974152,
          0.013696685433387756,
          -0.11501145362854004,
          -0.1006600558757782,
          -0.06958049535751343,
          -0.08491480350494385,
          -0.08538724482059479,
          -0.011319056153297424,
          -0.03086426854133606,
          0.07301604747772217,
          -0.12466150522232056,
          0.03586892783641815,
          -0.0792231410741806,
          0.030285313725471497,
          -0.034497201442718506,
          -0.07481980323791504,
          -0.03520531952381134,
          0.009785592555999756,
          0.12016290426254272,
          -0.05246233940124512,
          -0.11884599924087524,
          -0.024538710713386536,
          -0.021476104855537415,
          -0.028575867414474487,
          -0.054666683077812195,
          0.10435967147350311,
          0.0703185647726059,
          -0.10950484871864319,
          -0.0706649124622345
        ],
        [
          -0.12395766377449036,
          8.056559454416856e-05,
          -0.1128915473818779,
          0.05007344111800194,
          -0.05345319211483002,
          0.02501824125647545,
          0.11737319827079773,
          -0.04286184906959534,
          0.02828185260295868,
          0.10660050064325333,
          -0.13904958963394165,
          -0.13038285076618195,
          -0.0536537766456604,
          0.06759783625602722,
          -0.03823630139231682,
