{
  "layers": [
    {
      "name": "0",
      "kind": "Linear",
      "inputSize": 7,
      "outputSize": 64,
      "hasBiases": true,
      "weights": [
        [
          -0.3083425760269165,
          -0.2408907264471054,
          -0.27139437198638916,
          0.15296652913093567,
          -0.2769903838634491,
          -0.09911367297172546,
          -0.19602200388908386
        ],
        [
          0.17556145787239075,
          0.37028995156288147,
          -0.2218654602766037,
          -0.3613985478878021,
          0.05878402665257454,
          0.043933719396591187,
          -0.47624316811561584
        ],
        [
          0.31597888469696045,
          -0.28621962666511536,
          0.27869972586631775,
          0.2567494511604309,
          0.12447897344827652,
          0.055983345955610275,
          0.24664455652236938
        ],
        [
          0.030175499618053436,
          0.14218612015247345,
          -0.25573548674583435,
          0.23207154870033264,
          -0.29097217321395874,
          -0.1784944087266922,
          -0.41487038135528564
        ],
        [
          -0.054328449070453644,
          -0.32127243280410767,
          0.21627961099147797,
          0.007029279600828886,
          -0.2956181466579437,
          0.13980142772197723,
          0.15967322885990143
        ],
        [
          0.3247411847114563,
          -0.34775495529174805,
          -0.28966429829597473,
          -0.33085891604423523,
          -0.0820474773645401,
          0.14971823990345,
          -0.027997324243187904
        ],
        [
          0.3243720829486847,
          -0.13607601821422577,
          0.022512396797537804,
          0.005385640077292919,
          0.1609213501214981,
          0.3071821928024292,
          -0.3964445888996124
        ],
        [
          -0.20528458058834076,
          0.21051523089408875,
          -0.3519638478755951,
          -0.18055664002895355,
          -0.3519437313079834,
          -0.07351073622703552,
          -0.05631241202354431
        ],
        [
          -0.2518879175186157,
          -0.1281985193490982,
          0.3208729028701782,
          -0.04451703280210495,
          -0.0728268176317215,
          -0.2557298541069031,
          -0.21526911854743958
        ],
        [
          0.014461290091276169,
          0.30453428626060486,
          -0.1610080599784851,
          0.3080495595932007,
          0.29247668385505676,
          0.08758141100406647,
          0.034968119114637375
        ],
        [
          -0.4151429533958435,
          0.010116171091794968,
          -0.3738994598388672,
          -0.02192418836057186,
          0.08662504702806473,
          -0.28976765275001526,
          0.4972214102745056
        ],
        [
          -0.3778463304042816,
          -0.05941108241677284,
          0.23715417087078094,
          -0.03213450685143471,
          0.02889762818813324,
          -0.08932001888751984,
          0.02488831803202629
        ],
        [
          -0.0916285514831543,
          -0.36589038372039795,
          0.10230793803930283,
          -0.14228618144989014,
          0.16992203891277313,
          -0.28743886947631836,
          -0.10311850905418396
        ],
        [
          -0.026159346103668213,
          0.028830647468566895,
          -0.24890458583831787,
          -0.08322817087173462,
          -0.3064771294593811,
          -0.14037059247493744,
          0.21794036030769348
        ],
        [
          -0.10486031323671341,
          -0.3590732514858246,
          0.16665782034397125,
          0.24017444252967834,
          0.09453974664211273,
          0.1926862895488739,
          0.11090867221355438
        ],
        [
          -0.04934263229370117,
          0.014481514692306519,
          -0.024476349353790283,
          -0.13028758764266968,
          -0.12215298414230347,
          -0.33518773317337036,
          0.03423959016799927
        ],
        [
          -0.20971335470676422,
          -0.26112717390060425,
          -0.2576145827770233,
          -0.15493135154247284,
          -0.05007612705230713,
          -0.2661747634410858,
          -0.02513250708580017
        ],
        [
          0.3704131841659546,
          0.22646813094615936,
          0.06058836355805397,
          0.20150509476661682,
          0.10865169763565063,
          0.09561023116111755,
          -0.12116626650094986
        ],
        [
          0.0775258019566536,
          0.2088511735200882,
          0.12125606834888458,
          0.059979286044836044,
          -0.020296450704336166,
          0.002384752966463566,
          0.2978633642196655
        ],
        [
          -0.2576856315135956,
          -0.10876345634460449,
          -0.13491177558898926,
          -0.3008127808570862,
          -0.1473526954650879,
          -0.3550058603286743,
          -0.14011430740356445
        ],
        [
          -0.051388200372457504,
          0.16444940865039825,
          0.224477618932724,
          -0.3366940915584564,
          0.045192454010248184,
          -0.19414840638637543,
          -0.189845010638237
        ],
        [
          0.35315725207328796,
          -0.369233101606369,
          -0.18544192612171173,
          0.33182477951049805,
          -0.1886480152606964,
          -0.25224602222442627,
          0.026807889342308044
        ],
        [
          -0.41194966435432434,
          0.10523852705955505,
          -0.06736140698194504,
          0.0454699732363224,
          0.34737253189086914,
          0.3047439754009247,
          -0.16294249892234802
        ],
        [
          0.08513335138559341,
          0.3442911207675934,
          0.32082992792129517,
          -0.2869495153427124,
          -0.17322491109371185,
          0.15445555746555328,
          0.17482319474220276
        ],
        [
          -0.3415677547454834,
          -0.34486374258995056,
          -0.14338445663452148,
          0.14374873042106628,
          -0.03133246302604675,
          -0.032076746225357056,
          -0.31621253490448
        ],
        [
          0.3679306209087372,
          0.22743730247020721,
          0.09738209843635559,
          0.31691935658454895,
          0.31390896439552307,
          -0.09540202468633652,
          -0.15082432329654694
        ],
        [
          -0.26035404205322266,
          -0.14843589067459106,
          0.06697621196508408,
          -0.08811932802200317,
          -0.2615334391593933,
          0.3803715705871582,
          -0.3565298318862915
        ],
        [
          0.1735430210828781,
          -0.10530133545398712,
          0.1621702015399933,
          -0.13014930486679077,
          -0.05022688955068588,
          -0.08211416751146317,
          0.22711683809757233
        ],
        [
          -0.32435986399650574,
          -0.18247424066066742,
          -0.2033034712076187,
          0.10951165109872818,
          0.07283832877874374,
          -0.0006016476545482874,
          -0.1812615543603897
        ],
        [
          0.1820182502269745,
          -0.10148882120847702,
          -0.2663728892803192,
          0.324548602104187,
          -0.09961660206317902,
          0.050998687744140625,
          0.19463063776493073
        ],
        [
          0.14339011907577515,
          -0.06611587107181549,
          0.10299447178840637,
          0.27322232723236084,
          -0.13139481842517853,
          -0.01692415587604046,
          0.38865926861763
        ],
        [
          -0.022546548396348953,
          -0.08217015117406845,
          0.2532069981098175,
          0.08124104887247086,
          -0.32031965255737305,
          -0.020845593884587288,
          -0.4095388352870941
        ],
        [
          -0.34064340591430664,
          -0.27494895458221436,
          0.29027679562568665,
          -0.2782960534095764,
          -0.03314542770385742,
          -0.32489755749702454,
          0.22944477200508118
        ],
        [
          -0.3408874571323395,
          -0.050703249871730804,
          0.11803630739450455,
          0.32636526226997375,
          0.04790733382105827,
          0.1285141259431839,
          -0.1913089007139206
        ],
        [
          -0.2594029903411865,
          -0.021908946335315704,
          -0.3318510949611664,
          -0.3348892331123352,
          -0.07157640159130096,
          0.20789657533168793,
          0.1509120911359787
        ],
        [
          -0.17565007507801056,
          0.001336831133812666,
          0.1595642864704132,
          -0.18734999001026154,
          0.3032674491405487,
          -0.14332082867622375,
          -0.2928432822227478
        ],
        [
          0.22104646265506744,
          -0.14670896530151367,
          0.18057067692279816,
          0.018380822613835335,
          -0.3349074721336365,
          -0.08060383051633835,
          -0.06403502076864243
        ],
        [
          -0.32569846510887146,
          -0.11690239608287811,
          0.1582220047712326,
          0.192058265209198,
          0.031139642000198364,
          0.11707398295402527,
          -0.23602746427059174
        ],
        [
          -0.042985524982213974,
          -0.14024510979652405,
          -0.3556235134601593,
          -0.20932649075984955,
          -0.027870800346136093,
          0.328555166721344,
          -0.049848590046167374
        ],
        [
          0.21816878020763397,
          0.04681888967752457,
          -0.20961573719978333,
          0.3241941034793854,
          0.1764511913061142,
          0.15765801072120667,
          0.27070319652557373
        ],
        [
          -0.11016904562711716,
          0.4153839647769928,
          0.27442407608032227,
          -0.17244094610214233,
          -0.1134125143289566,
          -0.06890398263931274,
          0.3902709186077118
        ],
        [
          0.18562111258506775,
          -0.39407801628112793,
          -0.36686912178993225,
          -0.08764096349477768,
          0.22475174069404602,
          0.20374563336372375,
          0.2784813344478607
        ],
        [
          -0.14359253644943237,
          0.33782774209976196,
          -0.1707349419593811,
          0.15288203954696655,
          0.222066730260849,
          -0.17454807460308075,
          -0.1542336344718933
        ],
        [
          -0.10513117909431458,
          -0.2527620494365692,
          0.07548476755619049,
          0.29264622926712036,
          -0.25154948234558105,
          0.20172426104545593,
          0.15917596220970154
        ],
        [
          -0.22595393657684326,
          -0.3585502803325653,
          0.28454750776290894,
          -0.2814532518386841,
          -0.3286806643009186,
          0.32422831654548645,
          -0.3951486349105835
        ],
        [
          0.07880306243896484,
          -0.084123894572258,
          0.03399008512496948,
          0.21452179551124573,
          0.2393714338541031,
          0.2170020192861557,
          0.1472320556640625
        ],
        [
          -0.13993798196315765,
          0.18098773062229156,
          -0.07984300702810287,
          -0.33504629135131836,
          0.3112931251525879,
          -0.29477521777153015,
          -0.10398086905479431
        ],
        [
          -0.24820064008235931,
          -0.05714289844036102,
          -0.07447762787342072,
          -0.00036684496444649994,
          0.15596957504749298,
          0.34282028675079346,
          -0.3362308740615845
        ],
        [
          0.28946202993392944,
          0.15525272488594055,
          -0.22511661052703857,
          0.08557014912366867,
          -0.296755850315094,
          0.33676064014434814,
          0.010867593809962273
        ],
        [
          0.2377173900604248,
          -0.18029864132404327,
          0.035203102976083755,
          -0.01135619543492794,
          -0.36635690927505493,
          -0.15067142248153687,
          0.2928985357284546
        ],
        [
          -0.11007478088140488,
          -0.019076764583587646,
          -0.06298001855611801,
          -0.3108692169189453,
          0.21723982691764832,
          -0.26199960708618164,
          0.3359580636024475
        ],
        [
          -0.15539734065532684,
          -0.1908619999885559,
          -0.13339899480342865,
          -0.3503658175468445,
          -0.28691643476486206,
          0.2369801104068756,
          -0.15365557372570038
        ],
        [
          -0.07743774354457855,
          -0.09967826306819916,
          -0.2200900912284851,
          -0.1268356740474701,
          -0.2435320019721985,
          -0.31360167264938354,
          0.21902650594711304
        ],
        [
          0.22668203711509705,
          -0.19790303707122803,
          0.09017229080200195,
          -0.04807722568511963,
          -0.21875996887683868,
          -0.2117222100496292,
          -0.16795112192630768
        ],
        [
          -0.30767199397087097,
          -0.1999429315328598,
          -0.3747345507144928,
          0.3247109055519104,
          0.04557967931032181,
          -0.2230810970067978,
          -0.07469803839921951
        ],
        [
          0.06078067421913147,
          0.13084736466407776,
          -0.03930523991584778,
          0.23578646779060364,
          -0.07486298680305481,
          -0.2193988710641861,
          -0.35262948274612427
        ],
        [
          -0.05717005953192711,
          0.3097062408924103,
          -0.16419221460819244,
          0.19027388095855713,
          0.10956612974405289,
          -0.10559048503637314,
          0.2830830216407776
        ],
        [
          -0.3322455585002899,
          0.23909808695316315,
          -0.12619033455848694,
          0.32358914613723755,
          0.3213036358356476,
          0.20826271176338196,
          -0.18275123834609985
        ],
        [
          0.19166958332061768,
          -0.12662312388420105,
          0.26620328426361084,
          -0.25371938943862915,
          -0.3679333031177521,
          0.2732664942741394,
          -0.2132832407951355
        ],
        [
          -0.29856014251708984,
          0.07489776611328125,
          0.30097222328186035,
          -0.16714490950107574,
          -0.12933295965194702,
          -0.08864836394786835,
          0.3043883740901947
        ],
        [
          -0.09598778933286667,
          -0.31826353073120117,
          0.22139161825180054,
          0.25584620237350464,
          0.273611456155777,
          -0.24301566183567047,
          0.3457027077674866
        ],
        [
          0.2116899937391281,
          -0.008196507580578327,
          0.21711203455924988,
          0.35231348872184753,
          -0.3297002613544464,
          0.3810424506664276,
          -0.11850228905677795
        ],
        [
          -0.3417775332927704,
          -0.3577117621898651,
          0.14567610621452332,
          -0.04644310474395752,
          -0.12550091743469238,
          -0.31031882762908936,
          -0.025986015796661377
        ],
        [
          0.38665732741355896,
          0.3916667103767395,
          0.15734422206878662,
          0.39410465955734253,
          -0.03756514564156532,
          0.08912257105112076,
          0.2916850447654724
        ]
      ],
      "biases": [
        0.138920396566391,
        -0.18357090651988983,
        0.31041714549064636,
        0.40642285346984863,
        -0.3384348154067993,
        0.320858895778656,
        0.18950194120407104,
        -0.2613395154476166,
        -0.06508489698171616,
        -0.19109728932380676,
        0.1739465743303299,
        -0.14210304617881775,
        -0.048276301473379135,
        -0.2179248332977295,
        0.13982562720775604,
        -0.3369317054748535,
        -0.14916181564331055,
        0.1551435887813568,
        -0.34519004821777344,
        -0.18811970949172974,
        0.0424526147544384,
        0.29340702295303345,
        0.15632924437522888,
        -0.007311985362321138,
        -0.10429126024246216,
        -0.2930452227592468,
        0.04926663637161255,
        0.289423406124115,
        -0.004111462272703648,
        -0.1639171689748764,
        -0.12411922216415405,
        0.13797695934772491,
        -0.35474711656570435,
        -0.10882145166397095,
        0.09426423162221909,
        0.32341307401657104,
        -0.30083948373794556,
        -0.175152987241745,
        -0.010225380770862103,
        0.27975165843963623,
        -0.18465949594974518,
        -0.2883695363998413,
        -0.1157604232430458,
        -0.15107175707817078,
        0.2735210657119751,
        0.2734379470348358,
        0.22916051745414734,
        0.26745229959487915,
        0.15216924250125885,
        0.06603164225816727,
        0.2316293865442276,
        -0.19440288841724396,
        0.22502854466438293,
        -0.09554103016853333,
        0.35237550735473633,
        -0.17226801812648773,
        0.027495330199599266,
        0.03085692971944809,
        0.17601172626018524,
        0.2255377471446991,
        0.023204997181892395,
        -0.11990626156330109,
        0.15509894490242004,
        0.26366105675697327
      ]
    },
    {
      "name": "1",
      "kind": "ReLU"
    },
    {
      "name": "2",
      "kind": "Linear",
      "inputSize": 64,
      "outputSize": 64,
      "hasBiases": true,
      "weights": [
        [
          0.02379189431667328,
          0.015362773090600967,
          0.06447748094797134,
          0.01947489194571972,
          -0.13716016709804535,
          -0.11843554675579071,
          0.1046881452202797,
          -0.005862325429916382,
          -0.13288137316703796,
          -0.034563515335321426,
          -0.12291303277015686,
          0.09108038991689682,
          0.09760970622301102,
          0.011696457862854004,
          0.03278576582670212,
          -0.052710309624671936,
          -0.08149775862693787,
          -0.020541083067655563,
          0.0682559460401535,
          0.026107028126716614,
          0.03000279702246189,
          0.02659023553133011,
          -0.07796428352594376,
          0.08676643669605255,
          -0.011523455381393433,
          -0.030971797183156013,
          -0.05294271558523178,
          -0.09589360654354095,
          0.03692755103111267,
          0.006345236208289862,
          0.058924559503793716,
          0.08831621706485748,
          0.005113884806632996,
          0.005518637597560883,
          0.020812004804611206,
          -0.03079565428197384,
          -0.06184886768460274,
          0.07922855019569397,
          -0.009553278796374798,
          -0.027559950947761536,
          0.005052787717431784,
          0.04731842130422592,
          0.1021902784705162,
          0.04455072060227394,
          0.09591753780841827,
          -0.048918139189481735,
          -0.0004530801670625806,
          0.07659521698951721,
          0.06213267892599106,
          -0.0638805702328682,
          0.04745016247034073,
          -0.04831153154373169,
          0.09188840538263321,
          -0.021049976348876953,
          -0.0013500747736543417,
          -0.0767013281583786,
          0.05598239600658417,
          0.08620349317789078,
          0.0777994692325592,
          -0.05008634924888611,
          0.09233932942152023,
          -0.11450416594743729,
          -0.026910707354545593,
          -0.13429729640483856
        ],
        [
          -0.10811091959476471,
          0.10817427188158035,
          -0.06171052157878876,
          -0.0038138022646307945,
          -0.14011068642139435,
          -0.05374424532055855,
          0.08130611479282379,
          0.10392257571220398,
          0.08495868742465973,
          0.06434851884841919,
          -0.08722204715013504,
          0.018165258690714836,
          -0.013015836477279663,
          -0.00681188702583313,
          -0.026953045278787613,
          0.027913019061088562,
          -0.05277824401855469,
          0.04874705895781517,
          0.05575757101178169,
          0.0339791476726532,
          0.03364011272788048,
          0.045585911720991135,
          0.0380670465528965,
          -0.06831121444702148,
          0.023010194301605225,
          0.08527237921953201,
          0.02552935853600502,
          -0.08755707740783691,
          0.06033233553171158,
          0.008711408823728561,
          -0.11862696707248688,
          -0.02728167548775673,
          -0.03731334209442139,
          0.08317961543798447,
          0.018643928691744804,
          -0.09231936186552048,
          -0.02727421000599861,
          0.13933557271957397,
          -0.07754316180944443,
          -0.07115086913108826,
          0.050285931676626205,
          -0.1706603616476059,
          -0.03828936815261841,
          0.05724882706999779,
          0.15904246270656586,
          -0.06165282428264618,
          0.03774164617061615,
          0.07572224736213684,
          0.1465131640434265,
          -0.14220714569091797,
          -0.05563738942146301,
          -0.05112968385219574,
          -0.06927908957004547,
          0.10027581453323364,
          0.0024422660935670137,
          -0.06609070301055908,
          0.09711689502000809,
          0.15601854026317596,
          0.03452405706048012,
          0.10166247934103012,
          -0.07549705356359482,
          0.14187438786029816,
          -0.0044480860233306885,
          0.049166928976774216
        ],
        [
          -0.0928955078125,
          -0.057400308549404144,
          -0.01533151138573885,
          0.12601906061172485,
          0.12324677407741547,
          0.05526220053434372,
          -0.04340159147977829,
          0.04769335687160492,
          0.06471884995698929,
          0.08196281641721725,
          -0.08785909414291382,
          -0.019265612587332726,
          0.04142802208662033,
          -0.07836134731769562,
          0.0016218082746490836,
          0.04288718104362488,
          -0.029327526688575745,
          0.12758557498455048,
          -0.017461581155657768,
          0.08989925682544708,
          0.04020809754729271,
          -0.08407344669103622,
          -0.059687674045562744,
          0.13255684077739716,
          0.0725892186164856,
          0.08056547492742538,
          -0.030139392241835594,
          -0.09893017262220383,
          -0.04188959673047066,
          -0.027900248765945435,
          -0.10076955705881119,
          0.042718853801488876,
          -0.047125428915023804,
          -0.11242015659809113,
          -0.020055126398801804,
          0.07294820249080658,
          0.07659970968961716,
          0.031041748821735382,
          -0.045384619385004044,
          -0.0417749248445034,
          0.07809441536664963,
          -0.04569418355822563,
          0.0036087699700146914,
          -0.04145105183124542,
          -0.05807065963745117,
          -0.01540329772979021,
          -0.023469410836696625,
          -0.07209565490484238,
          0.006033351179212332,
          0.009859156794846058,
          -0.06867638230323792,
          -0.04488961398601532,
          0.048865821212530136,
          -0.011442527174949646,
          0.08177579939365387,
          -0.02044859528541565,
          0.07339463382959366,
          0.11784934997558594,
          0.11613854765892029,
          -0.02749400958418846,
          0.11605271697044373,
          0.08253020793199539,
          0.009779602289199829,
          0.14722906053066254
        ],
        [
          0.060881003737449646,
          0.01611262746155262,
          0.1062452644109726,
          0.05408401042222977,
          0.010288700461387634,
          -0.02587697096168995,
          0.02506672963500023,
          0.09674005210399628,
          0.08333399891853333,
          0.05050119757652283,
          -0.11399213969707489,
          0.024264078587293625,
          -0.029725655913352966,
          -0.019255131483078003,
          -0.03570083901286125,
          -0.06923851370811462,
          -0.0886496752500534,
          -0.11752855777740479,
          0.0855291560292244,
          0.12481144070625305,
          0.10834011435508728,
          0.037641458213329315,
          -0.03215034306049347,
          -0.06673967838287354,
          0.04926520586013794,
          -0.11581221222877502,
          0.08257195353507996,
          -0.03348353132605553,
          -0.0956556648015976,
          -0.11068113148212433,
          -0.07537417113780975,
          -0.002842237474396825,
          -0.10601426661014557,
          -0.08626669645309448,
          -0.006692614872008562,
          -0.061797067523002625,
          -0.08362503349781036,
          -0.0536191388964653,
          -0.10136637091636658,
          0.0723135769367218,
          0.04851560294628143,
          -0.04213063046336174,
          0.0880572572350502,
          -0.0875696986913681,
          0.04575490951538086,
          0.045353446155786514,
          0.03387350216507912,
          0.06402115523815155,
          0.060526493936777115,
          -0.04006250202655792,
          0.11048711836338043,
          -0.08983880281448364,
          0.02528984844684601,
          0.011989682912826538,
          0.015481690876185894,
          0.019831731915473938,
          -0.03754094988107681,
          0.0932556539773941,
          0.045147936791181564,
          0.026439853012561798,
          -0.03556063398718834,
          0.05525651201605797,
          0.09549619257450104,
          -0.10017826408147812
        ],
        [
          -0.07146590948104858,
          -0.05699993669986725,
          -0.06873331218957901,
          0.03506267070770264,
          -0.1554901897907257,
          0.029984911903738976,
          0.07475174218416214,
          0.10981318354606628,
          0.03466181829571724,
          -0.047195374965667725,
          0.1678592413663864,
          -0.09983989596366882,
          0.016004975885152817,
          0.021100357174873352,
          -0.07449968159198761,
          0.007711172103881836,
          -0.044873207807540894,
          -0.08146829158067703,
          -0.0917409211397171,
          -0.06831449270248413,
          -0.018763434141874313,
          -0.1263490915298462,
          0.0784054845571518,
          0.12545523047447205,
          0.07395291328430176,
          -0.0924505963921547,
          0.06593947112560272,
          0.004809025675058365,
          -0.07739852368831635,
          0.031752269715070724,
          0.03152361884713173,
          0.13586841523647308,
          0.02078072726726532,
          0.10502451658248901,
          -0.10739704966545105,
          -0.10852745920419693,
          -0.029612313956022263,
          0.07005464285612106,
          0.1144457757472992,
          0.08478451520204544,
          -0.02620997093617916,
          0.07517094910144806,
          -0.06562647223472595,
          -0.007976356893777847,
          0.10579247772693634,
          0.043154824525117874,
          0.07050605863332748,
          0.10639970749616623,
          0.12032106518745422,
          -0.10063895583152771,
          -0.11242107301950455,
          -0.08687128126621246,
          0.028400758281350136,
          -0.08240610361099243,
          0.10079948604106903,
          -0.08334878087043762,
          -0.06389828771352768,
          0.07745783030986786,
          -0.06478570401668549,
          0.07839938253164291,
          0.007428898010402918,
          0.12721790373325348,
          0.04180064797401428,
          -0.0018766900757327676
        ],
        [
          0.10298490524291992,
          -0.08257190138101578,
          0.019073709845542908,
          -0.027407102286815643,
          -0.0723203495144844,
          -0.018120616674423218,
          0.08156397938728333,
          -0.06908933818340302,
          0.014115378260612488,
          0.07970492541790009,
          -0.05236763507127762,
          -0.09875708818435669,
          -0.04932562634348869,
          0.059075772762298584,
          -0.02920425310730934,
          -0.08958148956298828,
          0.049525633454322815,
          -0.04291769862174988,
          0.11340516060590744,
          -0.020363837480545044,
          -0.05225570499897003,
          0.12828457355499268,
          -0.008520673029124737,
          0.05442659184336662,
          -0.003989666700363159,
          -0.10711518675088882,
          0.10433921217918396,
          0.06359270215034485,
          0.10033763200044632,
          -0.029767615720629692,
          0.1202206090092659,
          0.06557868421077728,
          0.1037108302116394,
          0.15251094102859497,
          0.08737801760435104,
          0.06959240883588791,
          -0.010781995952129364,
          -0.02082926593720913,
          -0.12608569860458374,
          0.05309991165995598,
          -0.012906531803309917,
          0.052431412041187286,
          0.15685808658599854,
          -0.025977211073040962,
          0.10539199411869049,
          0.13764405250549316,
          0.040027085691690445,
          0.04851969704031944,
          -0.07093556970357895,
          -0.008440492674708366,
          0.008241324685513973,
          0.03504118323326111,
          -0.05677318945527077,
          -0.07126684486865997,
          0.1644752025604248,
          -0.08423392474651337,
          -0.06012309342622757,
          0.1468411237001419,
          0.02994348295032978,
          -0.07980205118656158,
          0.04340801760554314,
          0.12356818467378616,
          0.11235709488391876,
          0.12372567504644394
        ],
        [
          -0.020803198218345642,
          0.11657492071390152,
          -0.021913176402449608,
          0.08353784680366516,
          0.0723826140165329,
          -0.08449668437242508,
          0.06782499700784683,
          -0.0389663428068161,
          -0.02004854381084442,
          -0.04294313117861748,
          0.04792213812470436,
          -0.028325462713837624,
          0.05355476960539818,
          -0.11357955634593964,
          0.010330181568861008,
          -0.04042191803455353,
          -0.038420215249061584,
          0.012992329895496368,
          -0.024376969784498215,
          -0.03508502244949341,
          -0.05178546905517578,
          0.10081977397203445,
          0.0022970058489590883,
          0.031231649219989777,
          -0.05059593915939331,
          0.1035103052854538,
          -0.12302262336015701,
          -0.13022029399871826,
          0.00147310143802315,
          -0.02696666307747364,
          0.04941584914922714,
          -0.06409730762243271,
          0.008372202515602112,
          -0.1347912698984146,
          -0.0003924766497220844,
          0.15064093470573425,
          0.020943420007824898,
          -0.09983383864164352,
          0.0042550512589514256,
          0.035383667796850204,
          0.004971302580088377,
          -0.13054446876049042,
          -0.054683197289705276,
          -0.06510314345359802,
          0.10906882584095001,
          -0.02406853251159191,
          0.09356936067342758,
          0.06504909694194794,
          0.09350920468568802,
          -0.0015209532575681806,
          0.01424071192741394,
          -0.020773202180862427,
          -0.10973484069108963,
          -0.019146636128425598,
          -0.0023742029443383217,
          0.058335572481155396,
          0.044059619307518005,
          0.025648150593042374,
          0.03445667028427124,
          0.014029097743332386,
          -0.02252589911222458,
          -0.06882330030202866,
          0.025941818952560425,
          -0.004913297016173601
        ],
        [
          0.003089427947998047,
          0.1725417524576187,
          -0.021255934610962868,
          -0.02742360346019268,
          -0.09837311506271362,
          0.09116414189338684,
          0.03239529952406883,
          -0.0715634673833847,
          -0.030937228351831436,
          0.0957985371351242,
          -0.010159206576645374,
          0.07168886065483093,
          0.09613139182329178,
          -0.03015868365764618,
          0.05984004586935043,
          0.1167735904455185,
          0.0658293217420578,
          -0.03339166194200516,
          -0.11434544622898102,
          -0.0578375905752182,
          -0.09024687856435776,
          -0.04556122049689293,
          -0.08165620267391205,
          0.11987344920635223,
          -0.05494549870491028,
          0.0015388299943879247,
          0.011537766084074974,
          0.03125249221920967,
          -0.07959914207458496,
          -0.11169815808534622,
          -0.07607724517583847,
          0.06027374416589737,
          -0.006533563137054443,
          0.01836279220879078,
          0.0034162672236561775,
          -0.06011666730046272,
          -0.016134759411215782,
          -0.04323580488562584,
          0.1286877691745758,
          0.10664847493171692,
          -0.1499251127243042,
          -0.14843079447746277,
          0.01805717870593071,
          0.05008724704384804,
          0.050772130489349365,
          0.06078561767935753,
          0.021665994077920914,
          -0.015600595623254776,
          0.09712047874927521,
          -0.0606716088950634,
          -0.11450459063053131,
          -0.0030911266803741455,
          -0.05655934661626816,
          0.06908291578292847,
          0.07533565908670425,
          0.0774327963590622,
          -0.04266001656651497,
          -0.039211343973875046,
          0.00249222363345325,
          -0.1143324226140976,
          -0.08235137909650803,
          0.1452205926179886,
          0.12378568947315216,
          -0.02303837053477764
        ],
        [
          0.040839433670043945,
          -0.04443848505616188,
          0.04917294532060623,
          -0.20643676817417145,
          -0.05126767233014107,
          -0.046696729958057404,
          -0.05673019587993622,
          -0.026922911405563354,
          0.004236675798892975,
          0.01033875159919262,
          -0.061367493122816086,
          -0.005672978237271309,
          0.02986895851790905,
          0.09041421115398407,
          -0.055309753865003586,
          -0.07074888050556183,
          0.08806242048740387,
          -0.03539842739701271,
          0.10133975744247437,
          0.10198917984962463,
          -0.05324496701359749,
          0.021466169506311417,
          -0.07843387871980667,
          0.08899152278900146,
          0.06429815292358398,
          -0.10196831822395325,
          0.017698217183351517,
          0.14736047387123108,
          0.09781952947378159,
          0.1326427459716797,
          0.16135992109775543,
          -0.02901369519531727,
          -0.063968226313591,
          -0.11727780103683472,
          -0.10463450103998184,
          0.03657350316643715,
          0.015780197456479073,
          -0.08104348927736282,
          -0.028692249208688736,
          -0.03186175599694252,
          0.10941928625106812,
          -0.0736415833234787,
          0.0241232942789793,
          -0.005216688849031925,
          -0.13410909473896027,
          -0.03049265407025814,
          0.13806939125061035,
          -0.0026905217673629522,
          -0.06971766799688339,
          0.12295161187648773,
          -0.08024139702320099,
          0.0996347963809967,
          -0.1031564250588417,
          -0.040671929717063904,
          -0.1283121258020401,
          -0.043144553899765015,
          0.12080773711204529,
          0.049836646765470505,
          -0.014231727458536625,
          -0.04900876805186272,
          0.11204708367586136,
          -0.0006034069810993969,
          -0.017328187823295593,
          0.08071994036436081
        ],
        [
          0.06406594812870026,
          -0.033883851021528244,
          0.003059632610529661,
          -0.004621459636837244,
          -0.1361682415008545,
          0.033922672271728516,
          0.037677083164453506,
          0.03203025460243225,
          -0.09334871172904968,
          0.05312079191207886,
          -0.06066697835922241,
          0.010056324303150177,
          0.10262175649404526,
          0.0018377751111984253,
          -0.11157285422086716,
          -0.05559675395488739,
          0.037886843085289,
          -0.052029263228178024,
          -0.14071637392044067,
          0.11503866314888,
          0.11423986405134201,
          0.09662673622369766,
          0.06232061982154846,
          0.034413766115903854,
          -0.11233627796173096,
          0.036851607263088226,
          0.11563634127378464,
          0.1059332937002182,
          -0.060649000108242035,
          -0.1217082217335701,
          -0.030860453844070435,
          0.1136593148112297,
          -0.04705891013145447,
          -0.06330355256795883,
          -0.08512431383132935,
          0.022716008126735687,
          0.07412032783031464,
          0.05445193871855736,
          -0.02338697761297226,
          0.12180058658123016,
          0.030756499618291855,
          0.01274119969457388,
          0.14417487382888794,
          -0.09134319424629211,
          0.10635844618082047,
          -0.0497138574719429,
          0.13831649720668793,
          0.13683269917964935,
          0.10573888570070267,
          0.05966944992542267,
          -0.048717908561229706,
          -0.024304166436195374,
          -0.05043918639421463,
          0.018652260303497314,
          -0.007959132082760334,
          -0.10390821099281311,
          0.026284104213118553,
          -0.055287595838308334,
          -0.014272460713982582,
          -0.017126066610217094,
          -0.08085349202156067,
          0.08187022060155869,
          -0.08348718285560608,
          0.12412990629673004
        ],
        [
          -0.05863809585571289,
          -0.07055918872356415,
          -0.08004327118396759,
          0.0802513062953949,
          0.11494743824005127,
          0.060985639691352844,
          -0.04776572436094284,
          0.08135895431041718,
          -0.08193640410900116,
          0.05502345412969589,
          0.06627403199672699,
          -0.09048555791378021,
          -0.015718266367912292,
          -0.06328548491001129,
          0.021357135847210884,
          0.06303617358207703,
          -0.06348282098770142,
          -0.05563994124531746,
          0.05478055775165558,
          0.04570339620113373,
          -0.05656041204929352,
          -0.038666147738695145,
          0.08860209584236145,
          -0.09224830567836761,
          -0.009602680802345276,
          -0.05749577656388283,
          0.07200223207473755,
          0.03647841513156891,
          -0.09323452413082123,
          0.050531212240457535,
          0.055404871702194214,
          0.05105293169617653,
          0.07102495431900024,
          -0.04032892361283302,
          0.08380945026874542,
          -0.10043290257453918,
          0.01930055022239685,
          0.10229884088039398,
          -0.09833748638629913,
          -0.09093578904867172,
          0.12283092737197876,
          0.024513140320777893,
          0.10355237126350403,
          -0.038620635867118835,
          0.10693539679050446,
          -0.019429480656981468,
          0.05023360252380371,
          -0.09340603649616241,
          0.040776193141937256,
          -0.11349116265773773,
          -0.10605652630329132,
          -0.06821005046367645,
          0.11183616518974304,
          -0.026442527770996094,
          -0.13087019324302673,
          0.07228660583496094,
          -0.12057433277368546,
          0.05329437553882599,
          0.05719568580389023,
          -0.10325155407190323,
          -0.05569292604923248,
          0.052092090249061584,
          -0.03182056546211243,
          -0.06309056282043457
        ],
        [
          -0.03205251693725586,
          0.11111953109502792,
          -0.12493754923343658,
          0.02526768669486046,
          -0.10899163037538528,
          -0.043177682906389236,
          0.016422325745224953,
          -0.12201744318008423,
          0.03964885696768761,
          0.0830346867442131,
          -0.015875928103923798,
          0.08102778345346451,
          -0.10871183127164841,
          0.028506577014923096,
          0.04108186438679695,
          0.027365192770957947,
          0.07686465978622437,
          0.11616697162389755,
          0.07155752182006836,
          0.0513472855091095,
          -0.04536425322294235,
          -0.12573997676372528,
          0.10977589339017868,
          -0.06758543103933334,
          -0.009235411882400513,
          -0.10123280435800552,
          -0.09261622279882431,
          0.10143287479877472,
          0.07281757146120071,
          -0.059119440615177155,
          0.010734347626566887,
          -0.10230008512735367,
          -0.07438164949417114,
          -0.007725815754383802,
          -0.0840633288025856,
          0.09154632687568665,
          0.08626653254032135,
          0.0188936535269022,
          0.10698743164539337,
          0.0662616565823555,
          -0.06820066273212433,
          -0.09579220414161682,
          0.06671851873397827,
          0.01920860819518566,
          -0.006360490340739489,
          -0.07973822206258774,
          0.030927063897252083,
          0.06840598583221436,
          0.027356304228305817,
          0.04734872654080391,
          -0.017297206446528435,
          0.04003883898258209,
          -0.037395015358924866,
          -0.07408067584037781,
          0.10305896401405334,
          -0.10224318504333496,
          -0.0416979156434536,
          0.09765050560235977,
          0.07523685693740845,
          0.08456689119338989,
          -0.1247154101729393,
          -0.10311096906661987,
          -0.0798008143901825,
          -0.0021687669213861227
        ],
        [
          0.03094138205051422,
          -0.045715246349573135,
          0.03846095874905586,
          0.15780793130397797,
          -0.069347083568573,
          0.10198123008012772,
          0.036814432591199875,
          -0.07605226337909698,
          0.07200517505407333,
          -0.08300811797380447,
          -0.049681082367897034,
          0.01105340477079153,
          0.10183988511562347,
          0.12448911368846893,
          -0.05603156238794327,
          0.0398688018321991,
          0.12401144206523895,
          0.08676964789628983,
          -0.08654361218214035,
          -0.09794002771377563,
          0.003679492510855198,
          -0.0152505524456501,
          -0.03031984344124794,
          0.10184323787689209,
          0.07922488451004028,
          0.06143418699502945,
          -0.06646651029586792,
          0.07106153666973114,
          0.06514568626880646,
          -0.07017672061920166,
          -0.006437558680772781,
          0.16941624879837036,
          0.09752488136291504,
          -0.10116089880466461,
          0.034984588623046875,
          -0.0013443253701552749,
          0.06934348493814468,
          0.12207970768213272,
          0.052546244114637375,
          0.11966510117053986,
          0.006033809389919043,
          0.0001098960274248384,
          -0.0012514343252405524,
          -0.0721844732761383,
          -0.043732453137636185,
          -0.059026721864938736,
          0.019207455217838287,
          -0.03777296468615532,
          0.1378609538078308,
          -0.1243043765425682,
          0.013877344317734241,
          0.1202080100774765,
          0.012394169345498085,
          0.040746867656707764,
          0.09253814071416855,
          -0.05379253625869751,
          0.06285487115383148,
          0.12486480176448822,
          0.1366150975227356,
          0.05271485447883606,
          -0.05618945509195328,
          -0.017485443502664566,
          -0.047995686531066895,
          0.14188116788864136
        ],
        [
          0.05164968967437744,
          -0.1851477175951004,
          0.02694772556424141,
          -0.1276215761899948,
          -0.024046914651989937,
          0.04499093070626259,
          -0.06533100455999374,
          -0.11060695350170135,
          0.12658308446407318,
          0.10936935245990753,
          -0.029306918382644653,
          0.06922342628240585,
          -0.012454998679459095,
          -0.02392292022705078,
          0.05894313380122185,
          -0.035133764147758484,
          0.0023176968097686768,
          -0.11424383521080017,
          -0.0016338314162567258,
          0.06620888411998749,
          -0.038646433502435684,
          -0.05461309105157852,
          -0.0721951425075531,
          0.04132353141903877,
          -0.11636386811733246,
          0.12549664080142975,
          -0.023393679410219193,
          -0.08227389305830002,
          -0.0858817994594574,
          0.09776562452316284,
          0.07621143013238907,
          0.12302623689174652,
          -0.023366451263427734,
          -0.07393433898687363,
          0.015817008912563324,
          0.08237667381763458,
          -0.01658148691058159,
          -0.04429056495428085,
          -0.0742143839597702,
          -0.04385265335440636,
          -0.012912288308143616,
          0.0020254722330719233,
          0.08477973192930222,
          -0.10836660861968994,
          0.08697252720594406,
          0.06264077872037888,
          0.02871287241578102,
          -0.0832032710313797,
          -0.006916494574397802,
          0.03717285394668579,
          0.00031999818747863173,
          0.006111085414886475,
          -0.021503038704395294,
          -0.05718405544757843,
          -0.11962106078863144,
          0.06654396653175354,
          0.034613046795129776,
          -0.07305974513292313,
          0.09270691871643066,
          0.013489712961018085,
          0.07541607320308685,
          -0.1251208782196045,
          -0.016482681035995483,
          0.11801601201295853
        ],
        [
          -0.05984868109226227,
          0.1159377247095108,
          0.0059754629619419575,
          0.1129969134926796,
          -0.0724618136882782,
          -0.09962035715579987,
          0.02950996160507202,
          -0.06674498319625854,
          0.04517095908522606,
          -0.06661248952150345,
          -0.028229087591171265,
          -0.09285710006952286,
          -0.03546522557735443,
          0.09944561123847961,
          0.009359218180179596,
          -0.05052414536476135,
          -0.11700902879238129,
          0.09078744798898697,
          0.08819606900215149,
          0.06938457489013672,
          -0.007661192677915096,
          -0.06887087225914001,
          -0.08320382982492447,
          0.11142173409461975,
          0.1157049685716629,
          0.082457035779953,
          0.04825980216264725,
          0.07230712473392487,
          -0.13998650014400482,
          -0.10821963846683502,
          -0.1279568374156952,
          0.0864214152097702,
          0.10563309490680695,
          0.11216382682323456,
          0.015473616309463978,
          -0.10585939139127731,
          0.12893156707286835,
          -0.11143948137760162,
          -0.028208130970597267,
          -0.02279032953083515,
          -0.14051783084869385,
          0.08151659369468689,
          0.08737363666296005,
          0.13632327318191528,
          -0.0016992336604744196,
          -0.02524758316576481,
          -0.08760814368724823,
          -0.03727148845791817,
          0.13075701892375946,
          0.05211413651704788,
          -0.020185595378279686,
          -0.09264054894447327,
          -0.035260941833257675,
          0.11492772400379181,
          0.13353216648101807,
          -0.007243409752845764,
          0.012733141891658306,
          0.06413102895021439,
          -0.02056453749537468,
          0.03583443537354469,
          -0.08844596892595291,
          -0.03290943056344986,
          -0.011166200041770935,
          0.06765899807214737
        ],
        [
          0.10186630487442017,
          -0.0754193365573883,
          -0.11638420820236206,
          0.0241245087236166,
          -0.10003982484340668,
          0.05965881794691086,
          -0.13494788110256195,
          -0.010312601923942566,
          0.059969767928123474,
          0.08592475950717926,
          0.051529090851545334,
          -0.018944576382637024,
          0.11357136070728302,
          0.002303183078765869,
          -0.09392843395471573,
          -0.11677257716655731,
          -0.09681746363639832,
          0.11703307926654816,
          -0.009259621612727642,
          -0.10782884061336517,
          0.08867937326431274,
          0.12839065492153168,
          -0.1315557062625885,
          -0.11384929716587067,
          0.031149491667747498,
          0.019566483795642853,
          -0.0665600448846817,
          -0.07720199972391129,
          0.04524673521518707,
          0.02864571288228035,
          0.010158026590943336,
          -0.17736707627773285,
          -0.09988230466842651,
          -0.033361781388521194,
          0.059014756232500076,
          -0.16094531118869781,
          -0.032695040106773376,
          0.05426192283630371,
          -0.03810930252075195,
          -0.102632075548172,
          0.0037841591984033585,
          -0.03775515407323837,
          0.0487607941031456,
          0.015196023508906364,
          -0.0011496893130242825,
          -0.12052880227565765,
          0.06413473933935165,
          -0.027414724230766296,
          0.06572521477937698,
          -0.03266403451561928,
          -0.04970182105898857,
          0.002677604556083679,
          -0.0795549526810646,
          -0.10482582449913025,
          0.10453559458255768,
          0.09501765668392181,
          0.11432868987321854,
          -0.034563176333904266,
          0.09393501281738281,
          0.054182663559913635,
          0.09092828631401062,
          -0.06961818039417267,
          0.12179766595363617,
          0.11233018338680267
        ],
        [
          0.11418987810611725,
          0.10941679030656815,
          0.0162661112844944,
          -0.006514031905680895,
          0.04597807675600052,
          -0.03232143446803093,
          -0.012398862279951572,
          0.09489230811595917,
          -0.08966266363859177,
          -0.06295983493328094,
          0.1308642029762268,
          -0.1903117597103119,
          -0.10650300979614258,
          -0.04563015699386597,
          0.05813298001885414,
          -0.12337696552276611,
          0.07981278002262115,
          -0.08334890007972717,
          0.06106003373861313,
          -0.09548379480838776,
          0.022496748715639114,
          0.023884816095232964,
          -0.13786214590072632,
          0.04685577377676964,
          -0.017798125743865967,
          0.00629460671916604,
          -0.18031220138072968,
          -0.0544406957924366,
          -0.09999042004346848,
          0.134957954287529,
          0.035671837627887726,
          -0.10187342762947083,
          -0.04017585515975952,
          0.029204590246081352,
          0.12340356409549713,
          -0.017531707882881165,
          -0.03314733877778053,
          -0.03660798817873001,
          0.05142631381750107,
          0.00587327778339386,
          0.16223925352096558,
          -0.04586492478847504,
          -0.08335809409618378,
          -0.060243792831897736,
          -0.1294727623462677,
          0.11684874445199966,
          -0.1222715824842453,
          -0.012628147378563881,
          -0.02126491069793701,
          0.14017276465892792,
          -0.030789712443947792,
          -0.06344261765480042,
          -0.016878966242074966,
          -0.09053559601306915,
          -0.024726686999201775,
          -0.07597671449184418,
          0.08387358486652374,
          0.011727086268365383,
          0.10648668557405472,
          0.10726400464773178,
          -0.04042616859078407,
          -0.029561595991253853,
          -0.11523354053497314,
          -0.004943321458995342
        ],
        [
          0.08039429783821106,
          -0.11329293251037598,
          -0.10679703950881958,
          0.10569868981838226,
          -0.12244896590709686,
          0.008384689688682556,
          -0.03819265216588974,
          -0.07247577607631683,
          0.027231886982917786,
          -0.09344078600406647,
          0.033372312784194946,
          -0.10478027909994125,
          -0.09361982345581055,
          -0.04073372483253479,
          0.1019982397556305,
          -0.02867835760116577,
          0.10876339673995972,
          0.027878982946276665,
          0.03874192759394646,
          -0.01966729760169983,
          0.09189747273921967,
          0.046932633966207504,
          0.03215240314602852,
          0.01203733030706644,
          0.06345027685165405,
          -0.07412279397249222,
          -0.12487505376338959,
          -0.013521685265004635,
          0.035941556096076965,
          0.09467166662216187,
          -0.02902940660715103,
          0.049749165773391724,
          -0.060327962040901184,
          0.11356686800718307,
          -0.011198756285011768,
          0.09446079283952713,
          0.02558441460132599,
          0.009875482879579067,
          -0.029977157711982727,
          -0.004245605785399675,
          0.04873602092266083,
          0.015476571395993233,
          -0.05857846885919571,
          -0.10603637993335724,
          -0.0845702737569809,
          -0.014311998151242733,
          -0.03671299293637276,
          0.10867767035961151,
          -0.11486726999282837,
          -0.017193660140037537,
          0.07998121529817581,
          0.04819582402706146,
          -0.005211934447288513,
          0.0024739205837249756,
          -0.08542553335428238,
          0.08334974944591522,
          0.11031291633844376,
          0.030879558995366096,
          0.020339304581284523,
          -0.014497990719974041,
          -0.11508093029260635,
          0.012021864764392376,
          0.06220690906047821,
          0.027301210910081863
        ],
        [
          -0.03750024735927582,
          0.11240209639072418,
          -0.11322018504142761,
          0.05212324857711792,
          0.045815423130989075,
          -0.020325765013694763,
          0.07151201367378235,
          -0.12070685625076294,
          -0.05120289325714111,
          0.061477914452552795,
          -0.041448310017585754,
          0.01613512635231018,
          0.025716930627822876,
          -0.07440237700939178,
          -0.07233478128910065,
          0.08151988685131073,
          -0.030076265335083008,
          -0.033869728446006775,
          -0.050888195633888245,
          -0.10317260026931763,
          -0.10877573490142822,
          0.015219807624816895,
          -0.0519217848777771,
          0.09651307761669159,
          0.09820282459259033,
          0.09600988030433655,
          0.009795337915420532,
          -0.07256776094436646,
          0.016283303499221802,
          -0.11454761028289795,
          -0.03258354961872101,
          0.07134857773780823,
          0.03851307928562164,
          -0.0024285465478897095,
          0.029278188943862915,
          -0.05909526348114014,
          0.04442903399467468,
          -0.11135250329971313,
          0.09361563622951508,
          -0.02181468904018402,
          0.08345164358615875,
          -0.00021445751190185547,
          0.06272971630096436,
          -0.11546392738819122,
          0.08938117325305939,
          -0.10411177575588226,
          -0.08199398219585419,
          0.02599450945854187,
          0.08678063750267029,
          -0.07988715171813965,
          0.058777257800102234,
          -0.0031580328941345215,
          0.1041591465473175,
          0.04448746144771576,
          0.011241048574447632,
          0.10551649332046509,
          -0.11661098897457123,
          0.09932486712932587,
          -0.09092994034290314,
          -0.08962531387805939,
          0.05750654637813568,
          -0.08163630962371826,
          0.055339470505714417,
          -0.12064862251281738
        ],
        [
          -0.03907787799835205,
          0.016412388533353806,
          -0.08101363480091095,
          -0.046394992619752884,
          -0.07528097927570343,
          0.0036667566746473312,
          -0.04082263633608818,
          0.06130582094192505,
          -0.02454577386379242,
          0.02847922593355179,
          -0.013416126370429993,
          -0.09516291320323944,
          -0.09017869830131531,
          0.027765288949012756,
          -0.021457744762301445,
          0.011750847101211548,
          -0.03346423804759979,
          0.07755187153816223,
          -0.06286628544330597,
          -0.10132358968257904,
          -0.03446491062641144,
          0.031198902055621147,
          -0.10735531151294708,
          -0.03013097308576107,
          -0.10450108349323273,
          0.09180711954832077,
          0.11266129463911057,
          -0.024686738848686218,
          0.07553613185882568,
          -0.09871913492679596,
          -0.04497024789452553,
          0.12375146150588989,
          0.05637761950492859,
          0.09970250725746155,
          0.004948022775352001,
          -0.05838261544704437,
          -0.08015806972980499,
          0.05436016619205475,
          0.05439309403300285,
          0.003670537145808339,
          0.0688614696264267,
          0.02334706485271454,
          0.0827338919043541,
          0.058459747582674026,
          0.024487121030688286,
          -0.09615551680326462,
          -0.10389789938926697,
          0.049370910972356796,
          0.09802630543708801,
          -0.09249092638492584,
          -0.016818108037114143,
          0.04298907518386841,
          -0.10700428485870361,
          0.11558100581169128,
          0.013768407516181469,
          0.03146907687187195,
          -0.12160543352365494,
          0.03477666527032852,
          -0.08657413721084595,
          -0.08034265041351318,
          -0.003362252376973629,
          -0.10663685947656631,
          -0.08793267607688904,
          -0.04683136194944382
        ],
        [
          -0.04224146902561188,
          0.15706762671470642,
          -0.10948453098535538,
          0.1073358803987503,
          -0.08169245719909668,
          -0.02979310415685177,
          0.1440810114145279,
          -0.006471037864685059,
          -0.09445265680551529,
          0.10549329221248627,
          -0.10566110908985138,
          0.10059619694948196,
          -0.026671139523386955,
          -0.03343254327774048,
          -0.04977438226342201,
          0.06472828984260559,
          0.024066105484962463,
          -0.05544976517558098,
          0.06732480227947235,
          -0.03219318389892578,
          0.05857513099908829,
          -0.04810159280896187,
          -0.07751578837633133,
          -0.033157359808683395,
          -0.09439882636070251,
          0.050927676260471344,
          0.08910756558179855,
          -0.02931075729429722,
          0.03148430958390236,
          0.011470586061477661,
          0.02920134924352169,
          -0.15748408436775208,
          -0.08609522879123688,
          0.0979442298412323,
          -0.09263654798269272,
          0.0017119621625170112,
          0.05009448528289795,
          0.053387172520160675,
          -0.003389140125364065,
          0.11359512805938721,
          -0.12078945338726044,
          0.09090851247310638,
          -0.06111361086368561,
          0.10626168549060822,
          -0.15804576873779297,
          0.06751035153865814,
          0.0940932184457779,
          0.037418559193611145,
          0.09887804836034775,
          -0.16892413794994354,
          0.07140345126390457,
          -0.026912063360214233,
          -0.08373944461345673,
          0.0006910413503646851,
          0.12012393027544022,
          -0.05143873393535614,
          -0.09085187315940857,
          0.11971902847290039,
          -0.042810894548892975,
          -0.06625445932149887,
          0.016427764669060707,
          -0.01171986386179924,
          0.0587739497423172,
          -0.06028924882411957
        ],
        [
          -0.09968195855617523,
          0.012755051255226135,
          0.032533835619688034,
          -0.07053820788860321,
          0.14972130954265594,
          -0.13681551814079285,
          0.013593182899057865,
          -0.03780728578567505,
          0.0016275441739708185,
          -0.099533811211586,
          -0.06160745397210121,
          0.0335511676967144,
          -0.0072897206991910934,
          0.11211995780467987,
          0.11750274896621704,
          -0.09651832282543182,
          0.08128446340560913,
          0.04924757406115532,
          0.10929305851459503,
          0.04573366045951843,
          0.02276160754263401,
          0.0180341973900795,
          -0.026974186301231384,
          -0.0740717351436615,
          0.021401062607765198,
          0.08651995658874512,
          0.11040345579385757,
          0.014501899480819702,
          0.009795889258384705,
          -0.11109562963247299,
          -0.03719942271709442,
          0.08250870555639267,
          0.03896474838256836,
          -0.07062987238168716,
          0.012721225619316101,
          -0.055435433983802795,
          0.06577207893133163,
          -0.06841245293617249,
          -0.11335502564907074,
          -0.10854268074035645,
          0.06559043377637863,
          -0.0373854860663414,
          -0.09291169792413712,
          0.02561279945075512,
          0.017401156947016716,
          -0.06041630357503891,
          -0.008875212632119656,
          -0.1393333524465561,
          -0.020146477967500687,
          0.14425167441368103,
          0.09250352531671524,
          -0.051046937704086304,
          -0.1043025553226471,
          -0.07139094173908234,
          -0.00031822919845581055,
          0.11728876829147339,
          -0.048909272998571396,
          -0.07089346647262573,
          -0.036701325327157974,
          0.09862243384122849,
          0.04538571462035179,
          0.0018283576937392354,
          0.10048535466194153,
          -0.029061248525977135
        ],
        [
          -0.04866434633731842,
          -0.10344990342855453,
          0.00786625687032938,
          -0.09842504560947418,
          0.056912168860435486,
          0.040045421570539474,
          -0.07076038420200348,
          -0.02332201600074768,
          0.01330094039440155,
          0.06266544759273529,
          0.07621347904205322,
          -0.017430275678634644,
          -0.1174350380897522,
          0.012297660112380981,
          -0.06062614545226097,
          0.00574861466884613,
          -0.11541053652763367,
          0.10887792706489563,
          0.04567138850688934,
          0.036992982029914856,
          0.03487648069858551,
          -0.11544904857873917,
          -0.060151662677526474,
          0.017501629889011383,
          -0.10358710587024689,
          -0.12911918759346008,
          0.10372039675712585,
          0.040849387645721436,
          0.055964529514312744,
          0.08547347784042358,
          0.08199146389961243,
          0.10170085728168488,
          0.1026347428560257,
          -0.029204249382019043,
          0.06407010555267334,
          -0.0932353287935257,
          0.012765854597091675,
          -0.10164454579353333,
          -0.12336459755897522,
          0.018504556268453598,
          -0.04107063263654709,
          -0.08782262355089188,
          -0.06263743340969086,
          -0.09980714321136475,
          0.02431274950504303,
          -0.08403026312589645,
          -0.10269947350025177,
          0.09096542000770569,
          -0.01795949973165989,
          0.04490898177027702,
          0.0771106407046318,
          -0.06362453103065491,
          0.08489210903644562,
          0.0561109334230423,
          -0.05853913724422455,
          0.00597381591796875,
          -0.09035990387201309,
          -0.0015738169895485044,
          0.015758775174617767,
          -0.06121997535228729,
          -0.05532638728618622,
          -0.028273150324821472,
          0.0387386828660965,
          -0.02577248588204384
        ],
        [
          0.021668776869773865,
          0.05505315959453583,
          -0.019072728231549263,
          0.03505982458591461,
          -0.037322819232940674,
          0.06885726749897003,
          -0.01795382611453533,
          0.09197060763835907,
          0.010663524270057678,
          -0.046034954488277435,
          -0.04751257598400116,
          -0.054110050201416016,
          -0.10194696485996246,
          0.05705283582210541,
          0.035286884754896164,
          0.11873996257781982,
          0.11901165544986725,
          -0.09265056997537613,
          -0.03388761729001999,
          0.03589487075805664,
          0.005851047113537788,
          0.07462945580482483,
          0.010620979592204094,
          -0.11527088284492493,
          -0.00790075957775116,
          0.03794410079717636,
          0.0013599246740341187,
          -0.021049344912171364,
          -0.09912164509296417,
          0.062005653977394104,
          0.10727274417877197,
          -0.11511939764022827,
          0.04723738133907318,
          -0.0012151558184996247,
          -0.08541344106197357,
          0.0933154746890068,
          -0.08394752442836761,
          -0.00036471421481110156,
          0.02838851511478424,
          0.003463303903117776,
          0.08593491464853287,
          -0.012586712837219238,
          -0.08295471221208572,
          0.026108533143997192,
          -0.060261085629463196,
          -0.06395474076271057,
          -0.017552493140101433,
          -0.11495666205883026,
          0.018147706985473633,
          -0.12375472486019135,
          0.10592702776193619,
          0.014081791043281555,
          0.116238534450531,
          -0.08979737758636475,
          -0.07953403890132904,
          0.08923883736133575,
          -0.13518458604812622,
          0.0337381549179554,
          -0.10791005194187164,
          0.0552673377096653,
          -0.10682135075330734,
          0.10634444653987885,
          0.11302006244659424,
          -0.037558820098638535
        ],
        [
          -0.041000887751579285,
          0.06690862029790878,
          0.04738524556159973,
          0.08344429731369019,
          0.08568989485502243,
          0.07737398892641068,
          0.09405042976140976,
          -0.02242569625377655,
          -0.09813728928565979,
          0.034030262380838394,
          0.06316538155078888,
          -0.07849802821874619,
          -0.06428799778223038,
          0.046157389879226685,
          -0.0329723097383976,
          0.04585424065589905,
          -0.11947748064994812,
          -0.09241198748350143,
          0.02485586702823639,
          0.04252743721008301,
          -0.03581538423895836,
          0.014202027581632137,
          0.03168286010622978,
          -0.08826974034309387,
          0.09495750069618225,
          0.03502510488033295,
          0.1171455830335617,
          -0.02049422264099121,
          0.08193753659725189,
          -0.032225701957941055,
          -0.059380412101745605,
          -0.09613477438688278,
          0.0873556137084961,
          0.029706092551350594,
          0.10775009542703629,
          0.1039869412779808,
          -0.04111887514591217,
          0.030220577493309975,
          0.08733993023633957,
          -0.09600291401147842,
          0.09483914077281952,
          -0.009323644451797009,
          -0.15218408405780792,
          -0.1203533336520195,
          0.03700306639075279,
          -0.07636429369449615,
          0.051514882594347,
          0.07646538317203522,
          0.026581160724163055,
          -0.011247195303440094,
          0.0015197343891486526,
          0.0437048077583313,
          0.09172418713569641,
          0.05528527498245239,
          -0.11515387892723083,
          0.0691942423582077,
          -0.029906626790761948,
          -0.007113434839993715,
          -0.08938177675008774,
          0.10051750391721725,
          0.0015099341981112957,
          0.017210079357028008,
          0.12270300090312958,
          -0.12043680250644684
        ],
        [
          0.08902664482593536,
          0.036196812987327576,
          -0.11577188968658447,
          -0.08507931232452393,
          0.011474549770355225,
          -0.06450076401233673,
          -0.11886054277420044,
          -0.01731550693511963,
          0.035081252455711365,
          -0.07660210132598877,
          -0.07646328210830688,
          0.053503721952438354,
          -0.023217305541038513,
          -0.10601374506950378,
          -0.11200135946273804,
          -0.06644211709499359,
          -0.1074410229921341,
          0.07099482417106628,
          0.04317109286785126,
          -0.05001366138458252,
          -0.06863605976104736,
          0.07510563731193542,
          0.03136621415615082,
          -0.09528537094593048,
          0.03129541873931885,
          0.07071109116077423,
          0.009087324142456055,
          0.04982207715511322,
          -0.011221662163734436,
          0.007185101509094238,
          -0.05980643630027771,
          0.033144399523735046,
          -0.09335760772228241,
          -0.05657127499580383,
          -0.06208908557891846,
          -0.0659652054309845,
          0.10617145895957947,
          -0.10547685623168945,
          0.02011798322200775,
          0.04086895287036896,
          -0.04074843227863312,
          0.08643899857997894,
          0.01472744345664978,
          -0.047004953026771545,
          -0.12451186776161194,
          -0.08937957882881165,
          -0.007963791489601135,
          0.1141262948513031,
          0.06250697374343872,
          0.03934234380722046,
          -0.03870813548564911,
          -0.03084452450275421,
          0.0329568088054657,
          -0.10463103652000427,
          0.024082154035568237,
          0.004549667239189148,
          0.03160865604877472,
          -0.04392486810684204,
          -0.12098109722137451,
          0.046973004937171936,
          0.019511952996253967,
          -0.08806273341178894,
          0.041712552309036255,
          0.08103746175765991
        ],
        [
          -0.023838311433792114,
          -0.11979138851165771,
          -0.06632578372955322,
          -0.02788493037223816,
          0.021359926089644432,
          -0.09774155914783478,
          -0.1192297637462616,
          -0.002758324146270752,
          -0.014233690686523914,
          -0.1288979947566986,
          -0.07495631277561188,
          0.09426040202379227,
          0.08998815715312958,
          -0.05870822072029114,
          -0.09525980800390244,
          -0.10196956992149353,
          -0.037969738245010376,
          0.05263996496796608,
          -0.04011641442775726,
          0.07329019904136658,
          0.027284463867545128,
          -0.11713850498199463,
          0.059216633439064026,
          -0.08835352212190628,
          -0.11079363524913788,
          -0.06797835975885391,
          0.015666993334889412,
          -0.004072664771229029,
          -0.006426796317100525,
          0.05841885879635811,
          0.07154248654842377,
          0.06417082995176315,
          -0.09855771064758301,
          0.1120171919465065,
          -0.03866696357727051,
          0.13353928923606873,
          0.06917712092399597,
          0.07548119872808456,
          -0.08415018022060394,
          0.051453594118356705,
          0.061103347688913345,
          -0.09290038049221039,
          0.00785541720688343,
          -0.0008995189564302564,
          0.014744683168828487,
          -0.10199201852083206,
          0.09263326227664948,
          -0.0925062969326973,
          0.039212070405483246,
          -0.031003877520561218,
          -0.055805400013923645,
          0.06994247436523438,
          -0.022098887711763382,
          -0.019905254244804382,
          0.012038194574415684,
          0.03840005397796631,
          -0.09508419781923294,
          -0.10136079788208008,
          -0.10092468559741974,
          -0.041418563574552536,
          0.09075263887643814,
          0.08338561654090881,
          0.07041968405246735,
          0.04278752952814102
        ],
        [
          -0.11704693734645844,
          0.061359062790870667,
          0.045639269053936005,
          0.09825263172388077,
          -0.01638956367969513,
          0.0019469766411930323,
          0.0008342535584233701,
          0.07364045083522797,
          0.08262583613395691,
          0.07985344529151917,
          0.13409584760665894,
          -0.037458743900060654,
          -0.10412577539682388,
          -0.08083504438400269,
          -0.11969158798456192,
          -0.11223839223384857,
          0.09607788920402527,
          0.032791558653116226,
          -0.04307973012328148,
          -0.10114887356758118,
          -0.038065969944000244,
          -0.06225154921412468,
          0.023925116285681725,
          0.03594787418842316,
          -0.004062294960021973,
          0.08249466866254807,
          0.08487604558467865,
          0.06416163593530655,
          -0.08854485303163528,
          -0.04087277874350548,
          -0.0015993849374353886,
          0.09255252033472061,
          -0.09643986821174622,
          -0.023876043036580086,
          0.04380166158080101,
          -0.1307755708694458,
          0.06965897232294083,
          0.1089143306016922,
          -0.1344750076532364,
          -0.011346730403602123,
          0.05241156741976738,
          0.004837329499423504,
          -0.12241096794605255,
          0.09948891401290894,
          -0.04481160640716553,
          0.004499617964029312,
          -0.03450877591967583,
          -0.1353878527879715,
          -0.05289124324917793,
          -0.04164356738328934,
          0.06941177695989609,
          0.05695722997188568,
          0.09627063572406769,
          -0.06112886965274811,
          -0.12015072256326675,
          0.05878420174121857,
          0.018066374585032463,
          0.04998544231057167,
          0.002741804113611579,
          -0.08007922768592834,
          0.052765969187021255,
          -0.14269207417964935,
          0.06868876516819,
          -0.04812075197696686
        ],
        [
          -0.06250537931919098,
          0.13984595239162445,
          0.03524438291788101,
          0.15318261086940765,
          -0.05286028981208801,
          0.08606734871864319,
          0.0077726333402097225,
          0.006021171808242798,
          0.03715236857533455,
          -0.024423426017165184,
          -0.15679903328418732,
          0.07004348933696747,
          -0.01751868985593319,
          -0.11472326517105103,
          0.07824680954217911,
          0.08462268114089966,
          -0.01937587559223175,
          -0.09236741811037064,
          0.05038147419691086,
          -0.011599943041801453,
          -0.012979657389223576,
          0.07018598914146423,
          -0.020143749192357063,
          0.010752017609775066,
          -0.021290138363838196,
          0.10355532914400101,
          -0.00030280224746093154,
          -0.031151218339800835,
          -0.12492337077856064,
          -0.09090371429920197,
          -0.020958732813596725,
          0.12033187597990036,
          0.09456780552864075,
          -0.0701795220375061,
          0.08111494034528732,
          -0.011935340240597725,
          -0.04350033774971962,
          0.0048230839893221855,
          -0.06712579727172852,
          0.06942794471979141,
          0.019293950870633125,
          0.008196430280804634,
          0.02053380385041237,
          -0.057127486914396286,
          0.1485249400138855,
          -0.0015748601872473955,
          -0.11422982066869736,
          -0.0282024834305048,
          0.05784490704536438,
          0.05041319876909256,
          -0.02538696490228176,
          0.07427749037742615,
          0.07805923372507095,
          0.021819427609443665,
          -0.04302506893873215,
          -0.0774138867855072,
          -0.026942811906337738,
          -0.0546550527215004,
          -0.005069342907518148,
          0.019396748393774033,
          0.08020658791065216,
          0.05669736489653587,
          -0.0053632259368896484,
          0.002565779024735093
        ],
        [
          0.07489186525344849,
          -0.045664913952350616,
          0.0716080293059349,
          -0.021450789645314217,
          -0.009336172603070736,
          -0.029547931626439095,
          0.07057470083236694,
          -0.07804633677005768,
          0.09029686450958252,
          0.05983173847198486,
          0.05522983893752098,
          0.08045712113380432,
          -0.005530888680368662,
          -0.11036652326583862,
          0.06855492293834686,
          0.10291416943073273,
          -0.03753231465816498,
          -0.001090616569854319,
          0.1023850068449974,
          -0.024800822138786316,
          -0.056477051228284836,
          0.025768054649233818,
          -0.04897572100162506,
          -0.0941479280591011,
          -0.08367696404457092,
          -0.050588756799697876,
          0.022718263790011406,
          -0.02553935907781124,
          -0.0337001197040081,
          0.08690886944532394,
          0.1390477865934372,
          0.018643127754330635,
          -0.019772127270698547,
          0.09998615086078644,
          -0.06824777275323868,
          -0.09909266233444214,
          -0.04888523370027542,
          0.07462617754936218,
          -0.1211831271648407,
          -0.09527137130498886,
          -0.013865229673683643,
          0.11235328763723373,
          -0.044306714087724686,
          -0.10523764044046402,
          -0.007939913310110569,
          0.04906401410698891,
          0.050301603972911835,
          0.02496936172246933,
          0.10028700530529022,
          -0.036210011690855026,
          0.03176182135939598,
          0.09242908656597137,
          0.02504885196685791,
          -0.09967392683029175,
          0.06281735002994537,
          0.06830848753452301,
          -0.09426663815975189,
          -0.04847196862101555,
          0.07277916371822357,
          0.12547606229782104,
          -0.12222568690776825,
          0.033292125910520554,
          0.009189799427986145,
          0.07435530424118042
        ],
        [
          0.007115423679351807,
          -0.031708091497421265,
          -0.021718671545386314,
          -0.10635578632354736,
          0.10279203951358795,
          0.06625629961490631,
          0.0180886872112751,
          -0.005004867911338806,
          -0.0533098429441452,
          0.012257768772542477,
          0.09037573635578156,
          -0.045138075947761536,
          0.008071795105934143,
          0.10406321287155151,
          -0.07892714440822601,
          -0.04184259474277496,
          0.09691739082336426,
          0.10700169950723648,
          0.09284229576587677,
          -0.033406198024749756,
          0.08711624145507812,
          0.01947668194770813,
          -0.023978985846042633,
          -0.03288256749510765,
          0.0908677875995636,
          0.09272167831659317,
          0.0792756974697113,
          -0.058082450181245804,
          -0.12497816979885101,
          -0.06428588926792145,
          0.04172550141811371,
          -0.11949056386947632,
          0.07038615643978119,
          -0.05918923020362854,
          0.06986731290817261,
          -0.07791543751955032,
          -0.04911601543426514,
          -0.11815571784973145,
          -0.09994210302829742,
          -0.034304406493902206,
          -0.0487961545586586,
          0.00821385532617569,
          0.0861436128616333,
          -0.05388741195201874,
          0.07897555828094482,
          -0.02953619509935379,
          -0.047725897282361984,
          -0.018306449055671692,
          0.04164537787437439,
          -0.07363880425691605,
          -0.09107141941785812,
          -0.1014072597026825,
          -0.024580759927630424,
          0.05262625217437744,
          0.14994284510612488,
          0.007583305239677429,
          -0.03152208402752876,
          -0.031420908868312836,
          -0.13340947031974792,
          -0.10125504434108734,
          -0.03644997626543045,
          -0.03380325809121132,
          0.04547135531902313,
          0.07886983454227448
        ],
        [
          -0.06451137363910675,
          -0.10161258280277252,
          -0.14496517181396484,
          0.03269496187567711,
          0.10539890825748444,
          0.06381542235612869,
          0.09489696472883224,
          0.02858114242553711,
          -0.06386912614107132,
          0.09979476779699326,
          0.03169870004057884,
          0.05807012319564819,
          -0.08225464820861816,
          -0.046303361654281616,
          -0.07469085603952408,
          -0.10364826023578644,
          0.08722418546676636,
          -0.1004803404211998,
          -0.09762898832559586,
          -0.010262742638587952,
          -0.09873005747795105,
          -0.0033950412180274725,
          -0.04760666936635971,
          0.0721966028213501,
          0.03654159605503082,
          -0.00464240089058876,
          0.05925093963742256,
          -0.03985088691115379,
          -0.12945513427257538,
          0.12536025047302246,
          -0.027341101318597794,
          -0.016679925844073296,
          -0.05748850107192993,
          0.09055990725755692,
          -0.044881612062454224,
          -0.05408022180199623,
          0.009620650671422482,
          -0.027779899537563324,
          -0.061077043414115906,
          0.007733414880931377,
          0.057133834809064865,
          -0.07668367028236389,
          0.1094067320227623,
          0.05931558459997177,
          0.06252690404653549,
          1.3553370081353933e-05,
          -0.020884739235043526,
          -0.017408091574907303,
          -0.02391115017235279,
          -0.10970097035169601,
          -0.03411683440208435,
          0.02826663851737976,
          -0.07168503105640411,
          0.0875733494758606,
          0.08061866462230682,
          -0.048146963119506836,
          -0.03942756727337837,
          -0.010904381982982159,
          -0.01361948624253273,
          0.10849980264902115,
          0.036973003298044205,
          0.06466470658779144,
          -0.007912397384643555,
          -0.01643167994916439
        ],
        [
          -0.10232026875019073,
          0.04642096534371376,
          0.04148537665605545,
          -0.019687717780470848,
          0.011881929822266102,
          0.11074752360582352,
          0.015713782981038094,
          -0.0693824291229248,
          0.10747852176427841,
          0.09835255891084671,
          -0.27024972438812256,
          -0.0956450030207634,
          0.06627631932497025,
          -0.1022217720746994,
          -0.045457690954208374,
          0.11932176351547241,
          -0.07414580881595612,
          0.07675297558307648,
          0.026118729263544083,
          0.07621681690216064,
          -0.07942530512809753,
          -0.06289444118738174,
          0.09708095341920853,
          -0.043484535068273544,
          0.11746621131896973,
          -0.06708669662475586,
          -0.023473866283893585,
          0.0006323616835288703,
          -0.10104737430810928,
          -0.07452335953712463,
          0.00648920051753521,
          -0.12560944259166718,
          -0.1246974915266037,
          -0.03566644713282585,
          -0.09679432213306427,
          0.08486785739660263,
          -0.04305562004446983,
          0.061221834272146225,
          0.11637342721223831,
          0.02310369163751602,
          -0.04461928829550743,
          -0.06965426355600357,
          0.1235203817486763,
          0.07247231900691986,
          -0.17103570699691772,
          -0.03340056911110878,
          0.02711194008588791,
          0.09754297137260437,
          0.14046785235404968,
          0.0039353882893919945,
          -0.006923778913915157,
          0.0033101141452789307,
          0.09954879432916641,
          0.08974809944629669,
          -0.057730674743652344,
          -0.05368034541606903,
          -0.0658126100897789,
          -0.06295079737901688,
          -7.954454486025497e-05,
          0.07198736071586609,
          -0.12107406556606293,
          -0.13364394009113312,
          0.04052239656448364,
          -0.013921588659286499
        ],
        [
          0.026663213968276978,
          -0.060617171227931976,
          0.07137584686279297,
          -0.10660067945718765,
          -0.041987884789705276,
          -0.06803813576698303,
          0.0036507300101220608,
          0.01580841839313507,
          0.02271910570561886,
          0.05695828050374985,
          -0.017872711643576622,
          0.10289191454648972,
          0.07718483358621597,
          0.05719393491744995,
          -0.025401435792446136,
          0.040341779589653015,
          -0.03956283628940582,
          -0.0732865110039711,
          0.011293287388980389,
          0.055582210421562195,
          0.041997279971838,
          -0.10896050930023193,
          -0.04410360008478165,
          -0.00821064691990614,
          -0.11232122778892517,
          -0.0003169496194459498,
          0.0575593039393425,
          0.11369432508945465,
          -0.12212848663330078,
          0.033337779343128204,
          0.1531408280134201,
          -0.06902864575386047,
          -0.028438374400138855,
          0.12100044637918472,
          0.0783323347568512,
          -0.0501696802675724,
          0.002239140449091792,
          -0.04506510868668556,
          -0.09480862319469452,
          -0.03838327154517174,
          0.08642977476119995,
          -0.020958546549081802,
          -0.009773303754627705,
          0.0822826474905014,
          -0.13385967910289764,
          0.0984046682715416,
          -0.020577596500515938,
          -0.058639053255319595,
          0.011343978345394135,
          0.16075454652309418,
          -0.0710388720035553,
          0.00932362675666809,
          0.11325761675834656,
          -0.10339133441448212,
          0.0988905057311058,
          0.08401598036289215,
          0.06683853268623352,
          0.038947924971580505,
          -0.06597062200307846,
          0.1531761884689331,
          -0.09897083789110184,
          -0.012473939917981625,
          -0.07651364803314209,
          0.10416204482316971
        ],
        [
          0.05035465955734253,
          0.10013933479785919,
          0.02272121235728264,
          0.1491481512784958,
          -0.003925439435988665,
          -0.09296408295631409,
          0.00647994689643383,
          0.12012523412704468,
          0.03680118918418884,
          0.08503136038780212,
          -0.08147652447223663,
          0.06266738474369049,
          -0.04796094074845314,
          -0.013575166463851929,
          -0.1028536707162857,
          0.11720725893974304,
          -0.06470027565956116,
          -0.0061248610727488995,
          -0.14391784369945526,
          0.11664572358131409,
          0.05427341163158417,
          0.06515414267778397,
          -0.03950401023030281,
          -0.026023784652352333,
          0.1247672587633133,
          0.006276097148656845,
          -0.010361609980463982,
          -0.09322120249271393,
          -0.09441737830638885,
          -0.12483072280883789,
          -0.12847670912742615,
          0.011750862933695316,
          0.06996609270572662,
          0.08300643414258957,
          -0.04972795397043228,
          0.06431829184293747,
          0.0063420506194233894,
          -0.06719712913036346,
          0.05257663130760193,
          -0.07446511089801788,
          -0.16477887332439423,
          -0.08253592252731323,
          0.10706072300672531,
          -0.10999433696269989,
          0.09499464929103851,
          0.08786621689796448,
          0.03736867383122444,
          0.12474370002746582,
          0.12148058414459229,
          -0.14807818830013275,
          -0.08286114782094955,
          0.08422340452671051,
          0.009246348403394222,
          -0.10323554277420044,
          -0.027228685095906258,
          0.056258589029312134,
          0.02457626350224018,
          0.12322025746107101,
          0.11796793341636658,
          0.06886482238769531,
          0.09654500335454941,
          0.1491210013628006,
          -0.1016976535320282,
          0.08713697642087936
        ],
        [
          -0.06423763930797577,
          0.1008145734667778,
          0.0024922448210418224,
          0.10233261436223984,
          0.021345045417547226,
          0.013906172476708889,
          0.015787692740559578,
          -0.017483949661254883,
          0.0709742084145546,
          -0.045775674283504486,
          -0.15700316429138184,
          -0.07963711768388748,
          -0.05029192939400673,
          -0.08831369876861572,
          0.04104426130652428,
          -0.009904995560646057,
          -0.024235278367996216,
          0.1504441499710083,
          -0.15346252918243408,
          0.06114833056926727,
          -0.07489807903766632,
          0.08971608430147171,
          0.06774071604013443,
          0.09546356648206711,
          0.023624613881111145,
          0.07767928391695023,
          0.06070713698863983,
          0.03509630262851715,
          -0.11994978040456772,
          -0.13322925567626953,
          -0.132130429148674,
          -0.061120547354221344,
          -0.0333353728055954,
          -0.10223682224750519,
          -0.04475873336195946,
          0.05885697901248932,
          -0.05151556059718132,
          -0.05216682702302933,
          -0.054942212998867035,
          0.08694244921207428,
          -0.12947924435138702,
          -0.042663682252168655,
          0.007081585004925728,
          -0.08279991894960403,
          -0.11335164308547974,
          -0.02150791697204113,
          0.1015598475933075,
          0.06200474500656128,
          0.0696529820561409,
          -0.16735586524009705,
          -0.11375446617603302,
          0.08979691565036774,
          0.060972344130277634,
          0.009283885359764099,
          -0.117117740213871,
          0.08657969534397125,
          -0.03200891241431236,
          0.008275128901004791,
          -0.0011692455736920238,
          -0.20421376824378967,
          -0.07265450805425644,
          -0.012198739685118198,
          -0.05011144280433655,
          0.032468032091856
        ],
        [
          -0.03401005268096924,
          0.12660297751426697,
          -0.04483923316001892,
          -0.09474857151508331,
          0.024067196995019913,
          -0.11406058073043823,
          0.09989792108535767,
          0.042333975434303284,
          -0.06526211649179459,
          0.06259205937385559,
          0.0299440398812294,
          0.06712982803583145,
          -0.037066999822854996,
          0.08413001894950867,
          0.09983308613300323,
          0.1088676005601883,
          0.0634707361459732,
          0.12511566281318665,
          -0.03915604203939438,
          -0.08551539480686188,
          0.12197079509496689,
          0.013646501116454601,
          0.12459688633680344,
          0.007680777460336685,
          -0.0075280070304870605,
          0.006977421697229147,
          -0.09657835960388184,
          0.0843484178185463,
          -0.02239178493618965,
          0.10822150856256485,
          0.13965864479541779,
          0.05298498645424843,
          -0.045160844922065735,
          -0.03172534704208374,
          -0.0705459862947464,
          0.09025153517723083,
          0.010662536136806011,
          -0.04847371578216553,
          0.09446841478347778,
          0.08832373470067978,
          0.004281314089894295,
          -0.018195543438196182,
          -0.04657237231731415,
          -0.03827807679772377,
          -0.15099674463272095,
          -0.09740054607391357,
          0.14891231060028076,
          -0.05291067808866501,
          -0.011970280669629574,
          -0.07334810495376587,
          0.08453458547592163,
          0.06560121476650238,
          0.10573285818099976,
          -0.10850650072097778,
          -0.010793116874992847,
          0.05740310251712799,
          -0.00647747004404664,
          -0.07117950171232224,
          -0.12671810388565063,
          0.032756514847278595,
          0.08364363014698029,
          0.034383296966552734,
          0.0025357604026794434,
          -0.06177620589733124
        ],
        [
          -0.11166611313819885,
          -0.09700556844472885,
          0.07766000181436539,
          -0.01961013674736023,
          0.06804579496383667,
          0.005146969575434923,
          0.11938869953155518,
          -0.073039710521698,
          0.001977291190996766,
          -0.016062384471297264,
          -0.06684869527816772,
          0.0014859159709885716,
          -0.12705568969249725,
          0.0249498188495636,
          0.11994452029466629,
          0.07165868580341339,
          0.08199676871299744,
          -0.10502643883228302,
          -0.05196452885866165,
          0.027250900864601135,
          0.10127072781324387,
          -0.01028946042060852,
          -0.12266821414232254,
          0.010703865438699722,
          -0.08633072674274445,
          0.04898395389318466,
          -0.11369646340608597,
          -0.01130310632288456,
          -0.07397572696208954,
          -0.01665455661714077,
          -0.08336487412452698,
          0.11857757717370987,
          -0.0005381107330322266,
          0.107859306037426,
          0.03732387349009514,
          0.01387753151357174,
          0.08045990765094757,
          -0.10465794801712036,
          -0.09520244598388672,
          0.01497148722410202,
          -0.11742451041936874,
          0.016804693266749382,
          -0.005518076941370964,
          0.03542008623480797,
          0.12689897418022156,
          -0.016398917883634567,
          0.029371820390224457,
          -0.059179916977882385,
          0.041163116693496704,
          -0.03729228675365448,
          0.043971385806798935,
          -0.03952151536941528,
          -0.1207047551870346,
          -0.11266018450260162,
          0.09015734493732452,
          0.06677822768688202,
          -0.12878172099590302,
          -0.0002876739308703691,
          0.06183408200740814,
          -0.04364684969186783,
          -0.13224941492080688,
          -0.05323032662272453,
          0.10343849658966064,
          -0.05353984236717224
        ],
        [
          -0.07364505529403687,
          -0.012242928147315979,
          -0.0610823817551136,
          0.1569269448518753,
          -0.11767860502004623,
          0.05213275924324989,
          0.0210910364985466,
          0.06184150278568268,
          0.07215029746294022,
          0.025413714349269867,
          -0.007108455058187246,
          0.059602413326501846,
          0.05580441653728485,
          -0.11537858843803406,
          0.06628328561782837,
          0.11017394065856934,
          -0.1138172447681427,
          0.03431905061006546,
          -0.02555049955844879,
          0.12432266771793365,
          0.08449200540781021,
          0.1324079930782318,
          0.09137969464063644,
          0.09391967952251434,
          0.07427631318569183,
          -0.1002621278166771,
          0.04207620769739151,
          0.07307352125644684,
          -0.037998657673597336,
          0.024495409801602364,
          0.056897956877946854,
          -0.03139369562268257,
          -0.12294206023216248,
          -0.023051122203469276,
          -0.16622595489025116,
          -0.08127980679273605,
          -0.09550841897726059,
          0.040596283972263336,
          0.01918894797563553,
          0.08688406646251678,
          0.011109434999525547,
          -0.0010685039451345801,
          0.048183780163526535,
          -0.007619877345860004,
          -0.08777216076850891,
          0.11801742017269135,
          0.07360196858644485,
          0.17054125666618347,
          0.0568104088306427,
          -0.007250288501381874,
          -0.0198726374655962,
          0.03743539750576019,
          0.023746035993099213,
          0.04122211039066315,
          -0.029304586350917816,
          -0.015417829155921936,
          -0.03806452080607414,
          0.13838224112987518,
          -0.05237359181046486,
          -0.14664871990680695,
          -0.057021040469408035,
          -0.08789173513650894,
          0.050368472933769226,
          0.11672092229127884
        ],
        [
          -0.12424416840076447,
          0.11482800543308258,
          -0.02028663456439972,
          -0.019370242953300476,
          -0.07895395159721375,
          -0.04620747268199921,
          0.043872982263565063,
          -0.0017878860235214233,
          -0.021261066198349,
          -0.018823981285095215,
          0.042274028062820435,
          0.02974472939968109,
          -0.0594373494386673,
          -0.036717489361763,
          -0.050942301750183105,
          0.03798858821392059,
          -0.1213834285736084,
          -0.11440454423427582,
          0.0518883615732193,
          -0.08545783162117004,
          0.05647987127304077,
          -0.05506059527397156,
          -0.08837413787841797,
          0.08944135904312134,
          0.025573670864105225,
          -0.12155748903751373,
          0.09393900632858276,
          0.08309008181095123,
          -0.08264268934726715,
          0.028033047914505005,
          0.10758978128433228,
          0.028362855315208435,
          -0.09411381185054779,
          0.09587827324867249,
          -0.019199728965759277,
          0.10048635303974152,
          0.013696685433387756,
          -0.11501145362854004,
          -0.1006600558757782,
          -0.06958049535751343,
          -0.08491480350494385,
          -0.08538724482059479,
          -0.011319056153297424,
          -0.03086426854133606,
          0.07301604747772217,
          -0.12466150522232056,
          0.03586892783641815,
          -0.0792231410741806,
          0.030285313725471497,
          -0.034497201442718506,
          -0.07481980323791504,
          -0.03520531952381134,
          0.009785592555999756,
          0.12016290426254272,
          -0.05246233940124512,
          -0.11884599924087524,
          -0.024538710713386536,
          -0.021476104855537415,
          -0.028575867414474487,
          -0.054666683077812195,
          0.10435967147350311,
          0.0703185647726059,
          -0.10950484871864319,
          -0.0706649124622345
        ],
        [
          -0.12395766377449036,
          0.0020346553064882755,
          -0.11687298864126205,
          0.041334331035614014,
          -0.05345319211483002,
          0.025852883234620094,
          0.11574652045965195,
          -0.04286184906959534,
          0.02828185260295868,
          0.10465025156736374,
          -0.13038741052150726,
          -0.13038285076618195,
          -0.0536537766456604,
          0.06759783625602722,
